svm_type c_svc
kernel_type rbf
gamma 0.0078125
nr_class 4
total_sv 14147
rho -0.295118 -0.29623 -0.894671 -0.0150323 -0.608315 -0.539001
label 0 1 3 2
nr_sv 5997 4344 3073 733
SV
0 3.739875436280865 2.026932101996574 1:1 2:1 3:2 4:1 15:1 22:1 23:1 44:1 74:1 106:1 138:1 216:1 358:1 543:1 600:1 1079:1 2012:1 
0 0.7308253994037478 0 1:4 2:4 13:1 81:4 107:1 138:1 185:1 1453:1 2012:1 
0 3.229401708856691 0 1:3 2:3 3:1 30:3 68:1 88:1 93:3 126:1 298:1 593:1 826:1 1291:1 1386:1 2012:1 
25.01589744358545 32 0 1:2 2:2 3:1 66:1 67:1 84:1 120:1 128:1 174:1 178:1 215:1 225:1 361:1 379:1 536:1 549:1 751:1 1973:1 2012:1 2014:1 
32 32 0 1:1 2:1 7:2 9:1 11:1 26:1 27:1 45:1 520:1 2012:1 2031:1 
2.616143739768945 2.101759623831398 0 1:1 2:1 3:3 5:1 18:1 24:1 37:1 41:1 65:1 82:1 128:1 194:1 211:1 256:1 325:1 353:1 414:1 602:1 1032:1 1040:1 1078:1 2012:1 2014:1 
3.040132898910846 3.294792681498237 0.09065693625676642 1:1 2:1 3:4 4:3 5:1 23:2 25:1 59:1 63:1 127:3 197:1 209:1 243:1 246:1 335:1 388:1 456:1 515:1 1079:1 1307:1 1429:1 1615:1 1705:1 2012:1 2031:1 2033:1 
0.158357126898347 0 0 1:1 2:1 9:1 42:1 102:1 110:2 111:1 113:1 133:1 236:1 446:1 860:1 1005:1 2012:1 2014:3 
1.052943697791278 0.9575537416132093 0.1172561724352649 1:1 2:1 3:9 4:4 5:4 6:6 7:4 9:7 11:1 17:2 18:1 19:1 21:1 23:2 27:2 29:2 33:7 36:1 44:1 51:1 56:1 65:1 67:2 80:1 95:1 96:1 164:1 171:1 185:1 187:1 197:1 247:4 257:1 373:1 400:2 414:1 473:3 564:1 593:1 612:1 867:1 1207:1 1322:2 1479:1 1488:1 2012:1 2014:3 2016:1 
0 5.174965055011564 0 1:1 2:1 3:6 6:1 8:1 9:1 10:3 15:1 16:1 19:2 22:1 43:1 334:1 414:1 629:1 755:1 1337:1 2012:1 2014:4 2015:1 
0 1.436883873138737 0 1:1 2:1 9:1 24:1 26:1 49:3 65:1 68:1 80:1 86:1 87:1 142:1 231:1 256:1 288:1 296:1 325:1 373:1 1195:1 2012:1 2014:1 
0 0.05174929817148309 0 1:2 2:2 17:2 21:1 28:1 79:1 80:2 110:1 142:1 233:1 260:1 296:2 395:1 466:1 681:1 701:1 1347:1 1418:1 1737:1 1929:1 2012:1 2014:2 
10.30925141810079 0 0 1:1 2:1 4:1 11:1 16:1 18:1 47:1 495:1 541:1 870:1 1521:1 2012:1 
0 0 2.777319394853287 1:1 2:1 5:3 7:1 22:1 26:1 47:1 66:1 102:1 143:1 290:1 316:1 334:1 360:1 1545:1 2012:1 
5.929040733905044 11.70021412578786 0 1:1 2:1 3:3 4:2 6:2 7:2 10:2 18:1 77:1 85:2 105:1 146:3 206:1 216:1 447:1 455:1 463:1 496:1 748:1 762:1 1257:1 1278:1 1314:2 1339:1 2012:1 2014:2 2031:1 2033:1 
31.97102066523196 26.79713779319643 0 1:1 2:1 3:3 10:1 15:1 17:1 23:1 24:1 39:1 45:1 140:1 227:1 632:1 638:1 757:1 1001:1 1293:1 1407:1 2012:1 2014:1 2031:2 
19.13295176934003 0 0 1:1 2:1 3:1 5:2 6:1 11:2 19:1 21:1 22:1 105:1 108:1 152:1 221:1 1658:1 1955:1 2012:1 
0.6401048911663509 0 0 1:1 2:1 3:1 4:2 5:1 6:1 9:1 11:2 24:1 157:2 2012:1 
7.533312625830881 14.77891365539539 0 1:1 2:1 4:2 10:1 20:2 25:3 34:1 39:2 149:2 372:1 418:1 430:1 686:2 780:1 2011:1 2012:1 2014:1 2031:1 
0.986084422971621 1.389407424966655 0.2010474725395097 1:2 2:2 3:6 4:5 7:1 8:5 9:1 10:5 12:1 17:2 18:1 19:1 21:1 23:1 26:2 31:1 44:1 46:1 56:1 57:3 66:1 91:2 101:1 114:1 120:1 136:1 141:1 161:1 236:1 349:1 399:1 419:1 597:1 633:1 635:1 729:1 734:1 754:2 772:2 864:1 922:2 1011:1 1068:1 1091:1 1098:1 1146:1 1198:1 1471:1 1609:1 1818:1 1849:1 2012:1 2014:6 2015:5 
32 0 0 1:1 2:1 7:1 47:1 61:1 62:1 124:1 261:1 310:1 457:1 876:1 1037:1 1213:1 1225:1 2012:1 
1.953417953768743 0.9802337014250917 0.3126071346257881 1:12 2:12 3:1 4:1 13:1 17:2 18:1 30:12 65:1 86:1 87:1 93:12 99:1 104:1 109:1 125:1 128:1 137:1 159:1 160:1 211:1 226:1 309:1 396:1 490:1 647:1 680:1 899:1 1044:1 1276:1 1281:1 1736:1 1737:1 2012:1 2014:1 
2.944422645300749 0.1131168344814199 0.124084876232544 1:1 2:1 3:8 4:3 5:3 6:7 7:2 8:1 9:2 10:3 11:1 15:1 22:1 26:2 30:2 36:1 42:4 60:1 62:4 74:1 80:1 82:1 86:3 87:5 93:1 95:1 112:1 118:1 130:1 168:1 214:1 229:1 249:1 306:1 324:1 404:1 425:1 502:1 551:1 770:2 787:1 874:1 877:1 948:1 975:1 1119:1 1165:1 1544:1 1873:2 1992:1 2012:1 2014:4 2015:1 2016:1 2031:2 2032:1 2033:1 
25.22704288961878 0 0 1:1 2:1 3:2 4:3 5:2 6:2 9:1 19:1 37:1 41:1 154:1 157:1 337:1 773:1 1108:1 1125:1 2012:1 2014:1 
16.25537583877358 0 0 1:3 2:3 4:1 8:1 72:1 1271:1 2012:1 2015:1 2017:1 
0 17.38497625979187 0 1:1 2:1 6:1 18:1 372:1 418:1 2012:1 
0 4.284363455489473 1.505414615550251 1:1 2:1 3:4 4:2 7:2 11:1 13:1 15:1 18:1 33:1 39:1 44:1 48:1 51:1 52:1 59:1 92:2 103:1 111:1 112:2 113:1 114:1 118:1 119:1 133:1 136:1 171:1 203:1 228:1 290:1 467:1 546:1 704:1 711:1 730:1 766:1 870:1 1227:1 1815:1 2012:1 2014:1 
0 32 0 1:1 2:1 4:1 6:1 16:1 26:1 510:1 1490:1 2012:1 
6.508425433498281 0 0 1:2 2:2 3:1 13:2 21:2 24:1 37:1 41:1 66:1 92:1 103:1 221:2 2012:1 
4.36471751029648 0 0 1:3 2:3 4:1 5:1 34:1 70:4 96:1 195:1 416:1 763:1 870:1 2012:1 
13.87294884649315 0 0 1:7 2:7 12:3 37:1 41:1 205:4 489:1 2012:1 
2.365512068567792 0 0 1:1 2:1 3:4 4:3 9:2 10:1 22:1 26:1 31:1 33:2 36:2 62:1 66:1 92:1 269:1 274:1 318:1 345:1 581:1 587:1 605:1 639:1 710:2 750:1 809:3 830:1 866:1 881:1 889:1 912:1 928:1 1252:1 1500:1 1597:1 1781:1 1906:2 2012:1 2014:2 2016:3 
1.963830878169483 0 0.3491100944410958 1:1 2:1 3:4 4:2 9:1 26:2 44:2 59:2 62:1 65:1 66:2 74:1 83:3 84:1 95:1 123:2 131:2 137:1 173:1 225:1 244:1 261:1 335:1 368:2 384:1 386:2 423:2 456:1 491:2 530:1 678:1 718:1 774:1 942:1 971:1 989:1 1046:2 1153:1 1808:1 2012:1 
11.61834070411997 1.87814767708096 0 1:1 2:1 3:4 4:3 5:1 6:2 7:3 8:1 22:1 23:1 29:2 36:1 39:1 42:1 45:1 48:1 62:2 66:1 67:1 83:2 89:1 103:1 104:1 107:1 110:1 111:1 122:1 141:1 185:1 211:1 252:1 255:1 311:1 329:1 352:1 432:1 537:1 558:1 577:1 651:1 738:1 798:1 954:1 1105:1 1106:1 1122:1 1194:1 1319:1 1364:1 1401:1 1459:1 1517:1 1684:1 1888:1 2012:1 2014:3 2015:1 2016:1 
0.3288878451394212 0 0 1:3 2:3 13:3 14:3 20:2 162:3 169:3 771:1 832:1 1102:1 2011:1 2012:1 2015:3 
9.352945288395533 0 0 1:1 2:1 3:3 10:1 11:1 14:2 33:1 67:1 110:1 305:1 325:1 331:1 353:1 534:1 630:1 838:1 1951:1 2012:1 2014:3 2035:1 
32 32 19.73964539619909 1:1 2:1 4:1 5:1 7:1 9:1 22:1 89:1 102:1 340:1 560:1 1998:1 2012:1 2031:1 2032:1 
10.7734544582982 2.625602414065784 0 1:6 2:6 3:2 6:1 9:1 13:2 23:1 26:1 48:1 88:1 94:1 132:3 134:1 159:1 161:1 196:6 375:3 489:1 664:1 677:1 803:1 890:1 1410:1 1438:1 2012:1 2031:1 2035:1 
32 0 0 1:1 2:1 4:1 5:1 59:1 70:1 80:1 99:1 127:1 197:1 316:1 360:1 425:1 557:1 1196:1 2012:1 2014:1 2031:2 
0 0 1.816295914976966 1:1 2:1 7:1 16:1 25:4 59:1 77:1 96:1 106:1 136:1 303:1 377:1 474:1 668:1 955:1 1522:1 2012:1 
0.5776743100154412 1.956865884202815 0.5269406613540921 1:1 2:1 3:2 4:3 5:15 6:1 7:2 10:1 11:1 13:1 16:1 18:1 23:1 43:1 47:2 48:1 50:1 55:1 56:1 60:1 74:1 85:1 89:1 92:1 107:1 135:1 159:1 188:1 213:1 231:1 234:1 270:1 287:1 303:1 306:1 328:1 331:1 379:1 385:1 415:1 417:1 513:1 534:1 565:1 658:1 693:1 713:1 735:1 797:1 802:1 929:1 1005:1 1177:1 1210:1 1227:1 1265:1 1408:2 1429:3 1640:1 2012:1 2014:2 2033:2 2035:2 
3.220037364542957 26.33502564355734 0 1:1 2:1 3:1 10:1 88:1 186:1 297:1 319:1 419:1 593:1 2012:1 2014:2 
0 0 32 1:1 2:1 16:1 100:1 898:1 2012:1 
4.537021089561052 1.390100427766728 0 1:4 2:4 3:4 6:1 7:1 8:1 20:2 21:3 28:2 37:1 40:1 41:1 52:1 122:1 140:1 195:1 211:1 219:1 230:1 389:1 396:1 440:1 485:1 550:1 652:1 680:1 751:1 794:1 1217:1 1230:2 2011:1 2012:1 2014:2 2015:1 2031:3 2035:2 
27.58581775113205 3.511237057932385 0 1:1 2:1 5:2 6:1 15:2 17:1 25:1 26:1 30:1 33:1 39:2 65:2 73:3 106:1 127:3 179:1 198:1 241:1 527:1 531:1 643:1 686:1 873:2 1035:1 1394:1 1457:1 1617:1 1653:1 2012:1 2014:1 2031:2 
0 5.126871976298653 0 1:1 2:1 3:2 6:1 9:1 39:1 59:1 78:1 85:1 195:1 322:1 733:1 1689:1 1897:1 2012:1 
2.348647669131102 1.452700299373318 0 1:1 2:1 3:7 4:5 5:1 7:1 8:1 10:1 11:1 18:1 23:1 26:1 36:1 38:2 48:1 72:1 84:1 125:1 203:2 228:2 237:1 256:1 319:1 386:2 431:1 575:2 593:1 610:2 689:1 785:1 832:1 1055:1 1169:1 1362:1 1531:1 1674:1 2012:1 2014:1 2015:1 2016:1 2017:1 
0 0 5.002596617575311 1:2 2:2 3:1 4:3 6:1 7:2 11:1 21:2 23:1 29:1 65:1 74:1 79:1 109:1 128:1 146:1 153:1 156:1 181:1 188:1 275:1 430:1 470:1 742:1 1216:1 1557:1 1581:1 2012:1 2032:1 
15.75236934467563 11.18441650951288 0 1:1 2:1 6:1 7:1 8:3 9:1 21:1 34:1 78:1 219:1 293:1 1201:1 2012:1 2015:3 
0 7.468610602779746 0 1:4 2:4 4:1 7:2 8:4 9:1 12:3 14:1 44:1 56:1 61:1 240:1 266:1 295:1 372:1 400:2 418:1 474:1 529:1 561:1 727:1 1142:3 2012:1 2015:4 
0 3.762388856678334 0 1:2 2:2 6:1 16:2 26:1 27:1 36:1 159:1 828:1 1090:1 2012:1 2016:1 
2.309342305992996 0.6213900003494127 0.2251583620173313 1:4 2:4 6:1 8:9 31:1 50:1 72:1 176:1 475:4 2012:1 2015:9 
11.69013227246839 0 0 1:1 2:1 4:1 9:1 22:1 31:1 33:1 645:1 1854:1 2012:1 
0 18.57086740367867 0 1:1 2:1 7:1 8:1 22:1 28:2 49:1 50:1 51:1 53:1 81:1 121:1 193:1 233:2 308:1 321:1 338:1 486:1 549:1 649:1 711:1 1047:1 1330:1 1554:1 1742:1 2012:1 2014:1 2015:1 2033:1 
14.35372129434217 5.862631628109007 0 1:1 2:1 6:1 15:1 21:1 33:1 69:1 154:1 188:1 278:1 291:1 406:1 864:1 950:1 2012:1 
0 16.46963487895501 0 1:3 2:3 3:2 4:1 12:2 21:1 64:1 65:1 71:1 79:1 98:1 153:1 165:1 224:1 512:1 1608:1 1715:1 2012:1 2031:1 
0 11.93707671338431 0 1:3 2:3 3:3 21:1 34:1 40:1 61:1 85:1 94:1 132:1 139:1 170:1 179:1 250:1 257:1 335:1 370:1 376:1 428:1 432:1 456:1 478:1 815:1 1830:1 2012:1 2014:1 2031:4 2033:1 
0 5.93615822854365 1.46859345755675 1:1 2:1 3:1 5:1 6:1 19:1 21:1 61:1 96:1 209:1 772:1 950:1 1074:1 2012:1 
0 0 8.427240331128603 1:1 2:1 3:1 4:3 5:1 6:1 10:1 31:1 33:1 37:1 41:1 48:1 54:1 60:1 202:1 402:1 465:1 527:1 731:1 846:1 1125:1 2012:1 2014:2 2031:1 2032:1 
6.372650275967397 0 0 1:1 2:1 3:4 4:4 5:3 6:1 9:2 11:2 15:1 19:2 36:2 42:1 43:1 47:2 62:1 68:1 82:1 84:1 86:4 87:4 92:1 118:1 123:1 131:1 144:2 148:1 168:1 171:1 178:1 222:1 310:2 412:1 421:1 536:1 563:1 588:1 684:1 778:1 817:2 891:1 892:3 971:1 1014:1 1067:1 1166:1 1732:2 2012:1 2016:2 
2.736436641302425 1.837373943597804 0 1:4 2:4 3:1 4:1 6:1 7:1 10:1 11:1 16:4 17:1 19:1 20:2 26:1 29:1 34:2 43:1 51:2 121:1 141:1 173:1 249:1 301:1 347:1 405:1 445:1 446:1 495:1 502:1 541:1 806:1 816:1 854:1 984:1 1005:1 1279:2 1353:1 1379:1 1503:1 2011:1 2012:1 2014:4 
0.01342485908942013 0 0 1:1 2:1 3:2 4:3 5:3 6:2 7:1 8:3 9:6 10:1 13:2 15:1 18:1 19:1 27:1 31:1 33:4 42:1 45:1 53:2 56:1 72:1 80:1 85:2 91:1 110:1 112:1 114:1 121:1 149:1 166:3 175:2 316:1 317:1 329:1 341:1 344:1 349:1 360:1 373:1 400:1 404:1 453:2 530:1 551:1 867:1 898:1 932:1 1016:2 1018:1 1158:1 1161:1 1388:1 1718:1 2012:1 2014:2 2015:3 2034:1 
0.201875606923152 1.706175659909458 0 1:15 2:15 24:3 30:3 93:3 100:3 163:3 191:1 217:3 658:1 766:1 1337:1 2012:1 2033:3 2035:1 
1.909036636194668 0 0 1:1 2:1 3:2 4:3 5:2 9:5 10:1 11:2 17:2 24:1 44:1 60:1 62:1 65:1 67:2 80:5 121:1 130:1 141:3 274:2 287:1 296:3 486:1 511:1 1039:1 1140:1 1574:1 1669:2 2012:1 2014:4 2033:3 2034:3 
0.5955935460425547 1.167055886130321 0.3718723555998501 1:1 2:1 4:6 5:1 6:3 7:1 9:6 10:2 11:1 13:2 19:2 23:2 27:1 31:5 42:3 55:1 62:1 63:1 65:3 127:6 128:1 130:2 136:4 163:1 164:4 166:1 179:1 194:2 241:1 274:2 292:5 298:2 314:2 323:1 325:1 340:1 390:4 395:1 503:1 816:1 866:2 879:1 917:1 1446:1 1507:1 1630:1 1951:1 2012:1 2014:2 2032:1 2033:2 
29.54479963618174 0 0 1:1 2:1 4:1 9:1 22:1 135:2 285:1 289:1 351:1 381:1 879:1 2012:1 
1.342006716278126 0 0.2125695445460704 1:1 2:1 3:4 27:1 33:2 39:1 57:1 164:1 379:1 482:2 545:1 548:1 743:1 754:4 1348:1 2012:1 
6.790477675297907 0 2.304942567222708 1:2 2:2 3:2 8:1 23:1 59:1 65:1 72:1 95:1 102:1 118:1 435:1 507:1 1177:1 1746:2 1769:1 1926:2 2012:1 2015:1 
0 2.063840727638966 0 1:2 2:2 19:1 318:2 902:1 968:2 1075:1 1604:1 1810:1 2012:1 2016:2 
17.62703112768999 0 0 1:1 2:1 3:1 7:1 8:1 30:1 72:1 93:1 117:1 173:1 218:1 986:1 1248:1 1298:1 1563:1 2012:1 2014:1 2015:1 2017:1 
31.31400619603414 5.839206997639112 0 1:3 2:3 8:1 57:1 59:1 102:1 239:1 284:2 468:3 2012:1 2015:1 
0 16.72219113698639 0 1:1 2:1 7:1 81:1 529:1 2012:1 
0 5.857834661202764 0 1:1 2:1 5:1 7:2 66:1 90:1 105:1 280:1 310:1 390:1 435:1 1086:1 1326:1 1772:1 2012:1 
5.757690941943077 0 0 1:1 2:1 3:2 6:1 11:1 22:1 25:1 67:1 86:1 87:1 110:1 111:1 113:1 127:1 133:1 148:1 210:1 457:1 463:1 496:1 691:1 769:1 855:1 1188:1 1370:1 2012:1 2014:2 
4.705614763476671 5.442343476852893 0 1:5 2:5 9:1 10:1 11:1 16:1 25:7 30:1 36:1 43:1 46:1 61:1 70:1 80:1 92:1 93:1 122:1 142:1 145:1 174:1 200:1 209:1 257:1 287:1 310:1 394:1 512:1 550:1 552:1 757:1 764:1 794:1 1027:1 2012:1 2014:2 2016:1 
0 14.63803574965177 0 1:1 2:1 3:2 4:1 5:1 6:1 9:1 16:1 17:1 19:1 42:1 59:1 67:2 134:1 249:2 258:1 275:1 283:1 314:1 355:1 657:1 1507:1 2012:1 2014:2 2033:1 
0 2.990751774322167 0 1:1 2:1 8:4 416:2 434:1 529:2 1474:1 2012:1 2015:4 
32 0 0 1:1 2:1 14:1 21:1 23:1 122:1 2012:1 
0 0 0.183287571981186 1:2 2:2 6:1 10:1 161:1 193:1 307:1 436:2 599:2 1031:1 2012:1 2014:2 
8.249396165634176 3.634806586514338 0 1:3 2:3 3:5 19:1 27:1 31:1 34:1 37:1 40:1 41:1 45:1 48:1 56:1 65:1 83:1 89:1 92:1 102:1 144:1 147:1 155:1 169:2 173:1 177:1 178:1 187:1 194:1 195:1 250:1 262:1 374:1 376:1 426:1 517:1 578:1 622:1 824:1 945:1 1292:1 1494:1 1589:1 2012:1 2015:2 2031:1 2033:2 2034:1 
0 17.58347127688116 0 1:1 2:1 4:1 13:1 31:1 54:3 307:1 342:1 401:1 501:1 529:1 822:1 907:1 1465:1 1997:1 2012:1 
9.87489239931174 8.282742859299999 0 1:2 2:2 3:3 4:2 5:2 7:1 8:1 24:2 39:1 40:1 48:1 108:1 128:1 197:1 227:1 255:1 289:1 290:1 348:1 530:1 1218:1 1452:1 1459:1 2012:1 2015:1 2017:1 2031:1 2033:1 
0.3435274192411071 3.165592768426419 0 1:3 2:3 3:1 4:2 21:3 27:1 29:1 66:1 85:3 88:1 109:1 165:1 173:3 179:1 263:1 366:1 612:1 621:1 683:2 687:2 692:1 831:1 1129:2 2012:1 
32 0 0 1:1 2:1 14:1 22:1 43:1 168:1 1036:1 1211:1 1239:1 1870:1 2012:1 
7.358549025760021 1.195325583303444 0.3245479349992803 1:2 2:2 3:1 6:1 7:1 8:7 11:2 12:1 13:1 23:1 26:1 30:2 50:1 54:2 72:1 93:2 96:1 123:1 131:1 138:1 158:1 209:1 219:1 224:1 232:3 238:1 271:1 273:1 300:1 674:1 698:1 743:2 842:1 918:1 1048:1 1216:1 1252:1 1305:1 1924:1 2012:1 2015:7 2017:1 
0.7296981267589934 7.147018354769225 0 1:4 2:4 3:3 4:3 6:4 7:1 10:1 18:1 26:1 27:2 45:2 50:1 52:1 59:1 63:2 75:1 99:1 100:1 101:1 116:1 149:1 159:1 165:1 190:1 283:1 322:1 389:1 429:1 517:1 533:1 626:1 703:1 767:1 768:1 1151:1 1167:1 1805:1 2012:1 2014:1 2032:1 2033:2 
30.4011491972889 0 0 1:3 2:3 4:1 9:1 21:2 55:1 134:1 183:1 279:1 484:1 672:1 2012:1 
0.7054140106336612 0.7034634000798471 0.1049668148652945 1:35 2:35 112:1 139:1 157:1 182:1 434:15 885:19 1116:19 2012:1 
0 3.432685473111756 0 1:1 2:1 7:1 19:1 20:2 21:1 22:1 134:1 310:1 2011:1 2012:1 
28.72894587647753 0 0 1:2 2:2 6:2 14:1 153:1 244:2 293:1 304:2 450:1 475:1 2012:1 
0 0 1.714562035335523 1:4 2:4 3:1 4:4 6:2 11:1 13:2 17:1 19:2 21:1 23:1 24:1 28:2 37:1 38:1 45:1 49:1 51:1 61:1 64:1 70:5 71:1 72:2 80:1 85:1 89:1 92:1 96:1 110:1 122:1 138:1 147:1 150:1 177:1 193:2 195:1 198:1 210:1 227:1 233:1 245:1 256:1 274:1 332:1 336:1 344:2 383:1 440:1 484:1 568:1 607:1 650:1 660:3 816:1 831:1 857:1 894:1 979:1 1121:1 1238:1 1339:1 1388:1 1541:1 1607:1 1764:1 1857:1 1947:1 2012:1 2014:3 2031:1 2032:1 
0 5.451593705065309 0 1:1 2:1 22:1 73:1 585:1 660:1 2012:1 
3.485537614654615 14.03749755575055 3.221460149104574 1:1 2:1 3:2 6:1 7:1 8:1 10:1 11:1 17:1 19:1 24:1 29:1 34:1 43:1 55:1 63:1 118:1 130:1 139:1 143:1 181:1 267:1 330:1 353:1 519:1 593:1 609:1 622:1 1166:1 1169:1 1674:1 2012:1 2014:1 2015:1 2017:1 2031:1 
32 0 4.645207890099022 1:1 2:1 50:2 139:1 281:3 1055:1 2012:1 2032:1 
3.627092268172466 4.930000867722859 0.0474145177587251 1:1 2:1 3:1 4:2 5:3 7:1 8:7 10:1 17:1 18:1 23:1 28:1 33:1 49:1 61:1 80:1 123:1 124:1 131:1 253:1 266:1 537:1 548:1 586:1 593:1 633:2 866:1 943:2 1210:1 1375:1 1574:1 1604:1 1640:1 2012:1 2014:3 2015:7 2031:1 2033:2 2034:1 
0 13.44826842733748 0 1:2 2:2 3:1 10:1 16:2 61:1 160:1 334:1 446:1 1196:1 1210:1 1227:1 1267:1 1881:1 2012:1 2014:1 
7.08296711866755 14.35132902373376 9.553096280201915 1:1 2:1 3:2 4:2 7:1 18:1 38:1 48:1 50:1 55:1 56:1 96:1 106:1 199:1 220:1 287:1 295:1 483:1 529:1 676:1 1934:1 2012:1 
1.736957452991235 0.5458232414314131 1.12889311807291 1:1 2:1 4:5 6:2 7:4 11:2 17:1 25:6 38:1 51:1 68:1 84:3 91:3 92:1 95:1 98:1 106:1 127:8 148:1 176:1 186:1 197:1 275:1 293:1 306:1 337:1 343:2 365:1 383:1 431:1 450:1 451:1 490:1 497:1 536:1 727:1 795:1 937:1 982:1 1024:1 1250:1 1357:1 1383:1 1385:1 1619:1 1803:1 1845:1 1900:1 2012:1 2014:3 2031:1 2033:3 
5.140233184701692 0 3.901133555964876 1:1 2:1 3:1 4:3 6:3 13:2 14:2 22:1 23:1 27:1 34:1 38:1 63:1 70:1 91:1 109:1 122:1 134:1 162:1 238:1 322:1 346:1 546:1 682:1 688:1 2012:1 
0 0 0.004131735732708103 1:1 2:1 3:6 5:1 8:1 11:8 316:1 360:1 366:2 382:1 386:1 491:1 542:2 785:2 870:1 2012:1 2015:1 2017:1 
32 0 0 1:3 2:3 13:1 16:3 50:1 124:1 139:1 1316:1 2012:1 
18.17548219896714 0 0 1:1 2:1 3:1 4:2 8:2 9:1 14:1 72:2 179:1 497:1 523:1 825:1 1126:1 1166:1 1511:2 1749:1 2012:1 2015:2 
1.641309141275587 3.524638439107674 0 1:1 2:1 3:6 4:6 5:1 7:3 8:1 10:1 11:2 18:1 23:2 26:2 29:1 47:2 56:2 74:1 77:3 78:2 84:1 88:1 104:1 111:1 113:1 118:1 122:1 133:1 148:1 154:1 267:2 287:1 354:1 367:1 415:1 453:2 515:1 564:1 620:2 684:2 709:1 749:1 788:1 806:1 830:1 834:1 1122:1 1145:1 1208:1 1628:1 1745:1 1949:2 2012:1 2014:1 2015:1 2033:1 2035:1 
0 0.6101739105744249 0 1:2 2:2 3:3 5:3 6:1 7:1 10:1 27:1 52:1 65:1 99:1 111:2 113:2 149:1 177:1 255:1 264:1 435:1 521:1 547:1 626:1 689:1 705:2 962:1 1211:1 1446:1 1583:1 1617:1 2012:1 2014:1 
2.536049156192958 7.906314090024797 0 1:3 2:3 23:3 615:3 724:3 2012:1 
0 1.397494313798628 0 1:2 2:2 3:1 5:3 6:2 7:1 9:1 15:1 23:1 26:3 33:1 45:1 65:1 816:1 1208:1 1234:1 1827:1 2012:1 
14.26503930136966 6.662362788255755 0 1:1 2:1 24:1 25:6 127:3 169:2 477:1 2012:1 2015:2 
0 32 0 1:2 2:2 6:1 7:1 16:2 18:1 28:1 51:1 66:1 123:1 126:1 229:1 568:1 802:1 2012:1 2014:1 2033:1 
17.01565897521478 0 0.4733325085222495 1:1 2:1 4:2 7:3 8:11 9:1 10:2 13:1 22:1 28:2 35:2 47:1 48:1 69:1 74:1 88:1 95:1 175:1 185:1 231:1 259:1 302:1 442:1 537:2 624:1 666:1 718:1 872:2 1123:1 1687:1 1740:1 1759:1 2012:1 2014:2 2015:11 2031:4 2032:1 
0 0 4.164530640466866 1:1 2:1 13:1 828:1 849:1 2012:1 
32 0 0 1:1 2:1 3:3 5:1 6:2 7:1 9:3 10:1 14:1 22:1 24:1 33:1 37:1 41:1 49:1 192:1 1147:1 1372:1 2012:1 2014:1 
0 2.128335007450799 0.08071665084799423 1:2 2:2 3:1 5:1 16:2 19:1 28:1 48:1 77:1 107:1 118:1 186:1 332:1 437:1 925:1 2012:1 2014:1 
2.263967350700747 2.982003278985041 0 1:1 2:1 3:11 5:1 6:4 8:1 9:6 10:2 11:2 17:1 29:1 31:1 33:1 40:2 42:1 54:2 55:2 57:2 59:1 60:2 73:2 85:1 94:2 104:1 136:1 145:1 163:1 186:1 192:1 222:1 246:1 247:1 275:1 324:1 330:1 348:1 441:1 446:1 485:1 613:1 621:1 751:1 1005:1 1124:1 1265:1 1306:1 1479:1 1506:1 1689:1 1768:1 1816:1 2012:1 2014:5 2015:1 2031:4 2033:1 
0 32 0 1:1 2:1 3:1 5:5 9:1 385:1 492:1 539:1 2012:1 2033:1 2035:1 
0 19.66012897675049 7.968262993695615 1:2 2:2 3:2 12:1 42:1 66:1 100:1 185:1 229:1 294:1 376:1 653:1 892:1 2012:1 
0 0 3.950600481842902 1:2 2:2 6:1 16:2 25:1 259:1 307:1 335:2 347:1 456:2 1963:1 2012:1 
2.066917731475597 0.7179994533949881 0.4082698217965855 1:1 2:1 3:4 5:4 6:1 7:3 9:1 10:1 11:1 19:1 30:1 31:1 36:3 42:1 50:2 53:1 67:2 84:2 90:2 93:1 96:1 112:1 115:1 136:1 178:2 218:2 259:1 272:1 412:2 502:1 510:1 594:1 642:1 665:10 805:1 880:1 923:1 956:1 1648:1 1822:1 1968:1 2012:1 2014:3 2016:3 2031:2 2032:1 2033:1 
5.491536954464634 7.017090436619188 0 1:2 2:2 3:2 5:4 7:2 9:1 12:1 14:1 17:2 18:1 26:1 34:1 36:1 49:2 51:1 61:2 67:1 88:1 98:1 140:1 156:1 186:1 197:1 269:1 296:1 297:1 352:1 383:1 413:1 416:1 440:1 481:1 529:1 638:1 1144:1 1162:1 1241:1 1816:1 1817:1 2012:1 2014:3 2016:1 2031:3 2034:1 
0 10.58930200951546 0 1:1 2:1 3:1 4:1 5:2 7:1 10:1 17:3 23:1 24:1 31:1 67:1 86:1 87:1 130:2 173:1 194:1 236:1 341:1 426:1 746:1 751:1 800:1 912:2 998:1 1900:1 2012:1 2014:2 2033:1 
2.403655424210318 6.475249580391118 0.2534703417664069 1:1 2:1 3:1 7:1 15:1 18:1 38:1 55:1 66:1 72:1 90:1 108:1 125:1 207:1 224:1 237:3 635:1 750:2 909:1 1429:1 1999:1 2012:1 
0.7846288143820382 32 0 1:1 2:1 21:1 62:1 398:1 648:2 727:1 749:1 2012:1 
3.526539707046267 0 0 1:2 2:2 3:2 4:1 9:1 33:1 34:1 37:1 41:1 90:1 112:1 139:1 248:1 288:2 1371:1 2012:1 2014:1 
0 8.289157779010651 0 1:1 2:1 3:2 4:2 6:1 21:1 37:1 41:1 47:1 48:1 51:1 66:1 79:1 89:1 91:1 157:1 244:1 327:1 423:1 527:1 549:1 1555:1 1727:1 2012:1 2014:1 
7.45809155107839 0 25.74880428204361 1:1 2:1 3:2 4:2 5:2 6:3 9:1 10:2 11:2 14:1 23:2 31:1 37:1 41:1 45:2 70:2 325:2 2012:1 2014:2 
32 0 0 1:1 2:1 22:1 25:1 72:1 243:1 351:1 1491:1 2012:1 
0 20.03604456036554 0 1:1 2:1 3:1 4:1 7:1 15:1 34:1 46:1 47:1 73:1 74:1 106:1 183:1 279:1 643:1 721:1 882:1 2012:1 2033:1 
1.441502172435181 0 0 1:1 2:1 16:1 20:4 22:1 52:1 285:1 328:1 343:2 396:1 445:1 743:1 1137:1 1299:1 2011:2 2012:1 
6.562320769311948 4.653229660989197 0 1:1 2:1 3:1 4:1 6:1 7:1 11:1 48:1 66:1 83:1 107:1 115:4 120:1 259:1 381:1 597:1 1230:1 2012:1 
0 17.27237396447387 0 1:1 2:1 3:1 17:1 18:1 23:1 27:1 28:1 46:1 80:1 176:1 221:1 227:1 275:1 471:1 613:1 1248:1 1272:1 2012:1 2014:2 
0 1.020061481101666 0.6367523578291547 1:1 2:1 3:12 4:1 5:2 6:3 7:2 10:2 11:2 18:2 19:1 23:2 29:1 31:1 34:1 36:2 39:2 48:1 51:1 52:1 60:1 85:1 92:1 105:1 118:2 121:1 149:1 168:1 175:2 176:1 184:1 211:1 213:1 219:1 238:1 252:3 268:1 277:1 290:1 344:2 370:1 376:2 388:1 413:1 419:1 426:1 453:1 462:1 493:1 562:1 596:1 658:1 901:1 949:1 1013:1 1031:1 1135:1 1293:1 1369:1 1642:1 2012:1 2014:6 2016:2 2033:1 2035:1 
0.7978409916769766 0 0 1:1 2:1 4:2 5:6 6:1 7:1 13:1 15:2 19:1 43:1 59:1 92:1 216:1 276:1 295:1 448:1 500:1 608:1 687:1 782:2 1072:2 1086:1 1096:1 1111:2 1144:1 1326:1 1525:1 2012:1 
0 15.05887683509735 0 1:2 2:2 3:1 4:1 7:1 11:1 14:1 16:2 20:2 29:1 44:1 66:1 73:2 78:1 130:1 155:1 227:1 266:1 1444:2 1482:1 2011:1 2012:1 2033:1 
0.4564125699814794 0 0 1:6 2:6 3:5 6:1 8:1 13:1 27:5 34:1 43:2 45:5 50:1 58:1 63:1 75:1 77:1 85:1 108:1 137:2 140:2 160:2 176:1 286:1 670:1 941:1 1279:1 1311:1 1629:1 2012:1 2015:1 2031:3 2033:2 
1.505525710036194 1.02238285706503 1.408522628768492 1:4 2:4 3:4 4:3 5:2 8:2 10:2 17:1 18:2 19:1 21:3 55:1 67:1 86:1 87:1 89:1 91:1 103:1 112:1 130:1 137:3 160:2 313:1 317:1 355:1 407:1 554:1 659:1 688:1 886:1 949:1 1366:1 1409:1 1704:1 1905:1 2012:1 2014:3 2015:2 
2.154022556566455 0 0 1:4 2:4 4:1 16:4 36:1 125:1 136:1 154:1 314:1 2012:1 2016:1 
29.63227500929164 0 0 1:1 2:1 13:1 34:1 57:1 239:1 284:1 356:1 369:1 1982:1 2012:1 
0 32 0 1:1 2:1 7:1 22:1 37:1 41:1 90:2 497:1 1376:1 2012:1 
23.32852987608917 4.056684307575166 0 1:1 2:1 4:1 6:1 15:1 26:1 34:1 607:1 621:1 1346:1 1667:1 2012:1 
0 0.2876357796215891 0 1:1 2:1 6:1 15:1 44:1 166:1 188:1 278:1 291:1 420:1 451:1 1785:1 2012:1 
13.73701379213188 0 0 1:2 2:2 3:3 4:1 5:1 8:2 14:2 39:1 55:1 57:1 94:1 105:1 134:1 170:2 180:1 223:1 263:1 271:2 273:2 289:1 429:1 466:1 505:1 519:1 544:1 664:1 758:1 933:1 1098:2 1136:1 1154:1 1192:1 2012:1 2014:2 2015:2 2031:3 
0 0 2.73813955354803 1:6 2:6 3:1 10:1 16:5 102:1 123:4 131:4 199:1 202:1 274:1 1026:1 1369:1 2012:1 2014:2 2032:1 
3.175954420485295 0 2.190557225433796 1:1 2:1 3:2 4:4 5:1 13:1 15:2 18:1 29:1 31:1 44:1 53:1 62:1 72:1 114:1 183:2 198:1 244:1 279:1 320:2 454:1 527:1 662:1 675:1 950:2 1153:1 1432:1 1445:1 1512:1 1536:1 1705:1 1886:1 2012:1 
0 26.36962515010602 0 1:1 2:1 5:1 9:1 10:1 21:1 95:1 626:1 1076:1 1566:1 2012:1 2014:1 2033:1 
7.749122957346755 9.772526967903719 0 1:1 2:1 3:9 4:5 7:3 8:2 13:1 15:1 18:1 19:1 22:1 23:1 26:1 50:1 62:1 78:1 91:1 95:1 118:1 126:1 128:1 139:1 171:1 185:1 213:1 252:1 258:1 302:2 342:1 387:1 391:1 501:1 533:1 610:1 718:2 767:1 790:2 967:1 976:2 1024:1 1082:1 1090:1 1220:1 1242:2 1244:1 1253:1 1310:1 1350:1 1416:1 1419:2 1466:1 1606:2 1732:1 1862:1 1889:1 1896:1 2012:1 2015:2 2032:1 
4.705916205396642 12.56377417278084 0 1:3 2:3 21:1 25:1 37:1 41:1 44:1 61:1 127:1 130:1 243:1 259:1 958:1 2012:1 
0 2.42185197960827 0 1:8 2:8 16:4 90:4 2012:1 
14.17008972816079 2.659714176832897 0 1:1 2:1 3:1 4:1 10:2 17:1 22:1 33:1 53:1 62:2 72:2 123:1 131:1 183:2 272:1 309:1 341:1 381:1 391:1 422:1 424:1 912:1 944:1 972:1 1042:1 1378:2 1398:1 1435:1 1666:1 1915:1 1925:1 2012:1 2014:2 
0 16.45744642840593 0 1:1 2:1 22:1 1236:1 1375:1 2012:1 
0.6535561455250175 3.584174597064547 0 1:6 2:6 7:1 10:1 30:3 45:1 56:1 61:1 81:3 93:3 137:1 209:1 309:1 384:1 424:1 523:2 1151:1 1463:2 1763:1 2012:1 2014:1 
13.54187360231303 2.008209450451117 0 1:1 2:1 50:1 742:1 1216:1 1897:1 2012:1 
0.3715546313790071 0.4596731122553643 0.1397186577756947 1:1 2:1 3:6 4:4 5:5 6:1 9:1 10:4 11:3 15:1 16:1 17:1 18:3 27:1 31:1 44:1 45:1 51:1 53:2 60:3 68:2 80:1 92:2 114:2 119:3 136:1 141:2 166:1 177:2 216:1 252:1 253:1 274:1 323:1 337:1 349:1 355:1 383:1 420:2 691:1 866:1 973:1 1331:1 1412:1 1497:1 1501:1 1557:1 1929:1 2012:1 2014:6 2031:2 2032:2 2033:2 
0 0 0.9026469495672745 1:1 2:1 3:3 4:1 7:2 9:1 13:1 15:1 17:2 28:2 30:1 48:1 49:2 51:1 60:1 66:1 68:1 93:1 103:1 118:1 149:1 150:1 154:1 324:1 422:1 465:1 485:1 568:1 889:1 919:1 1157:1 1222:1 1415:1 1717:1 1942:1 2012:1 2014:4 
2.253750450748893 0 0 1:4 2:4 6:4 30:2 33:4 75:1 77:4 93:2 100:1 140:1 190:1 489:1 2012:1 2031:1 2033:1 
3.372994374738778 9.158858538864376 0 1:1 2:1 4:3 5:2 6:1 7:2 10:1 11:1 19:1 20:2 27:1 29:1 30:1 33:1 36:1 43:4 45:1 49:1 56:1 68:1 77:1 85:1 91:1 104:1 140:1 154:1 161:1 330:1 388:1 454:1 489:1 532:1 649:1 656:1 1283:1 1302:1 1688:1 1792:1 2011:1 2012:1 2014:1 2016:1 2031:2 2033:2 
1.605589596956508 0.5592499061467348 0 1:7 2:7 4:3 6:1 7:1 9:3 13:1 14:1 21:3 23:2 25:6 31:1 46:1 69:1 70:10 135:2 138:1 162:1 179:2 180:1 283:1 285:1 315:3 410:1 441:1 494:1 527:1 745:1 950:2 970:1 1011:1 1202:1 1358:2 1414:1 1557:1 1589:2 1674:1 2012:1 2031:2 2032:1 
0 10.80440934640955 0 1:1 2:1 3:3 4:1 5:1 6:3 26:1 88:2 138:1 156:1 161:1 165:1 191:1 448:1 455:1 564:1 593:1 850:1 909:1 1986:1 2012:1 
0 0.6109999007646185 0 1:2 2:2 6:1 10:1 13:1 28:1 43:1 52:1 53:2 59:2 77:2 99:1 129:1 148:1 175:1 204:1 246:1 271:1 273:1 316:2 358:1 360:2 447:1 721:1 777:1 886:1 1713:1 1765:1 2012:1 2014:1 2033:1 
12.03464292385259 2.46071010488161 0 1:1 2:1 3:2 4:1 6:1 9:1 20:2 85:3 119:1 126:1 136:1 145:1 179:1 185:1 194:1 216:1 366:2 367:1 595:1 687:1 1278:1 1307:1 2011:1 2012:1 2031:1 
1.105587256907778 26.17868333912662 0 1:1 2:1 3:2 4:1 6:1 10:1 17:1 26:1 54:1 60:1 80:1 88:1 110:1 142:1 269:1 403:1 772:1 891:1 2012:1 2014:3 2033:1 
0 0 1.157893665965792 1:2 2:2 5:2 10:1 30:1 93:1 115:1 193:1 492:1 580:1 599:2 1031:1 1173:1 2012:1 2014:2 
0.4350837966849128 0.9179512195656515 0 1:1 2:1 3:4 4:4 5:6 7:2 9:5 10:1 11:1 13:1 15:3 21:1 25:6 26:2 28:1 39:1 53:1 55:1 65:1 80:1 95:2 112:1 139:1 142:1 145:1 150:2 155:1 168:1 175:1 181:1 182:1 184:6 211:1 216:1 264:1 267:1 427:1 505:1 621:1 629:1 706:3 966:1 982:2 992:1 1024:1 1184:1 1327:1 1519:1 1583:1 2012:1 2014:3 2031:1 2033:5 
11.70265017441789 0 0 1:1 2:1 3:1 9:1 13:1 41:1 1137:1 1487:1 1945:1 2012:1 
0.3994588976235201 0 0 1:1 2:1 6:1 30:1 33:1 36:1 42:1 77:2 86:2 87:2 93:1 119:1 137:1 160:1 351:1 539:1 888:1 2012:1 2016:1 
5.745718675798209 0 0 1:1 2:1 4:2 14:1 20:4 21:1 37:1 41:1 53:1 91:1 122:1 124:1 130:1 182:1 203:6 228:1 379:1 390:1 1829:1 2011:2 2012:1 
15.61599776828782 17.01889560576333 0 1:2 2:2 4:2 26:2 28:1 29:1 39:1 98:1 193:1 232:1 244:1 252:1 304:3 378:1 538:1 676:1 695:1 957:1 1068:1 1456:1 2012:1 2014:1 2031:1 2033:2 
2.339377861819793 2.6562175940279 0 1:2 2:2 3:3 5:6 7:2 13:1 15:3 33:1 53:1 63:1 108:1 158:2 234:1 255:2 272:1 287:2 391:3 393:2 410:1 559:1 779:1 991:1 1184:2 1387:1 1472:1 2012:1 
4.85711817130985 0.7505189373221024 0.2643947431393822 1:1 2:1 3:3 4:3 6:3 7:1 9:6 11:3 19:1 20:2 36:1 46:1 55:2 72:1 101:1 150:1 161:1 188:1 209:1 210:1 222:1 224:1 226:1 248:1 264:1 338:1 345:1 431:1 649:1 662:1 717:1 734:1 820:1 922:2 936:1 1180:1 1237:1 1470:1 1622:1 1675:1 2011:1 2012:1 2014:1 2016:1 2031:1 
0.5549550373221412 5.4766426572303 0 1:2 2:2 17:3 24:1 49:1 51:1 60:1 353:1 407:1 465:1 486:1 490:1 524:1 605:1 657:1 725:1 852:1 928:1 1918:1 2012:1 2014:2 
5.891106531856737 0 0 1:2 2:2 3:3 4:1 7:1 13:1 24:2 52:1 72:1 157:1 175:2 634:1 721:1 1056:1 1174:1 1883:1 2012:1 
17.21581713155409 0.3011608343021587 0 1:1 2:1 4:1 6:1 9:2 11:1 13:1 15:1 33:1 38:1 54:2 55:2 72:1 123:1 131:1 134:1 177:1 206:1 210:1 253:1 259:1 323:1 491:1 541:1 620:1 848:1 858:1 958:1 1931:1 2012:1 2031:2 
1.30024868002535 0 0.3822777763035397 1:3 2:3 3:5 4:1 6:2 7:3 8:1 9:3 11:1 23:1 26:3 27:1 29:1 42:2 43:1 44:1 50:3 51:3 53:1 54:2 55:1 81:3 83:6 84:1 106:2 118:1 159:2 178:1 181:2 198:1 264:1 270:1 287:2 299:1 327:1 390:1 397:1 448:1 467:1 493:1 582:1 658:1 729:1 882:1 898:1 914:1 915:3 951:1 955:1 1030:1 1060:1 1103:1 1183:1 1189:1 1296:1 1350:1 1382:1 1613:1 1849:1 1901:1 2012:1 2014:3 2015:1 2033:1 2035:1 
18.55112118656026 0 0 1:2 2:2 57:2 59:2 137:2 160:2 239:2 369:2 743:1 2012:1 
0.3972982404476055 0.3733665480241705 0 1:1 2:1 9:1 23:7 67:7 141:1 269:1 308:1 318:7 353:1 432:1 480:1 500:1 511:1 701:1 780:1 925:1 1018:7 1219:1 1347:1 1509:1 1712:1 1736:1 1856:1 2012:1 2014:8 2016:7 2017:1 2031:1 2033:1 
0 6.904798510344696 0 1:1 2:1 6:1 7:1 11:1 16:1 22:1 29:1 56:1 103:1 301:1 783:1 1795:2 2012:1 
32 32 0 1:1 2:1 4:1 39:1 98:1 136:1 252:1 281:1 323:1 634:1 1030:1 1501:1 2012:1 2031:1 2033:1 
0 0 20.24632328606184 1:3 2:3 3:1 13:1 36:1 50:1 64:2 70:1 71:2 115:1 155:1 161:1 207:1 298:1 689:1 2012:1 2016:1 2033:2 
0 0.03993460194368295 0 1:2 2:2 3:3 5:1 6:2 7:1 8:14 10:1 16:1 17:2 31:1 42:1 47:1 48:1 51:1 56:1 57:1 65:2 68:1 105:1 107:1 118:1 136:1 187:3 191:1 216:1 234:1 268:1 270:1 292:1 317:1 513:1 558:1 576:1 609:1 625:1 778:1 1217:1 1262:1 1761:1 2012:1 2014:2 2015:14 2031:1 
4.328984353208775 0 0 1:1 2:1 3:1 5:1 10:1 68:1 221:1 1149:1 2012:1 2014:1 
0 7.930578202323938 0 1:3 2:3 6:1 10:1 18:1 42:1 107:1 321:1 355:1 492:3 641:1 785:1 813:1 2012:1 2014:1 
2.628818629435094 11.69239163767474 0 1:2 2:2 3:3 4:2 6:2 7:1 9:1 16:2 17:1 67:1 86:1 87:1 121:1 146:1 168:1 179:1 201:1 212:1 237:1 311:1 331:1 515:1 796:1 827:1 915:1 981:1 1039:1 1349:1 1392:1 2012:1 2014:1 2033:1 
0 11.16628041662983 0 1:2 2:2 3:1 4:2 7:1 15:1 36:1 51:1 77:1 78:1 83:2 103:1 114:1 138:1 140:1 158:1 159:1 198:1 207:1 217:1 225:1 290:1 430:1 433:1 540:1 661:1 1068:1 1099:2 1111:1 1271:1 1573:1 1914:1 2012:1 2014:1 2016:1 2031:1 2035:1 
1.135746647181272 0.6871757924462297 0 1:1 2:1 3:17 6:3 7:6 9:1 11:1 15:1 22:1 24:1 26:1 29:1 31:1 34:1 37:1 41:1 63:2 67:1 69:1 77:1 90:1 135:2 140:1 241:1 264:1 317:1 344:1 416:1 1103:1 2012:1 2014:1 2031:1 
32 0 0 1:1 2:1 3:1 14:1 63:1 89:1 194:1 466:1 1063:1 2012:1 
0 1.478772942374968 0 1:3 2:3 3:1 5:6 7:1 10:1 18:1 30:3 93:3 102:1 150:1 179:1 210:1 290:1 301:1 482:1 1120:1 2012:1 2014:1 
0.7109284866614127 0 0 1:5 2:5 4:1 6:5 7:1 11:1 16:5 18:1 23:1 28:1 29:1 38:1 39:1 45:1 50:1 51:1 65:2 68:2 77:2 103:1 141:1 147:1 150:1 153:1 176:1 229:1 230:1 249:1 250:2 264:1 297:1 311:2 330:2 422:1 453:1 467:1 563:1 1135:2 1712:1 1975:1 2012:1 2014:1 
0 0.5788558120193862 0 1:1 2:1 4:1 83:1 122:1 280:2 310:1 417:1 625:1 832:1 2012:1 
0 32 0 1:1 2:1 3:2 21:1 22:1 30:1 61:1 85:1 93:1 214:1 220:1 314:1 347:1 903:1 1013:1 2012:1 2014:1 2033:1 
0.5057572946020722 0.3702123061106674 0.05647835462258081 1:29 2:29 8:2 9:1 81:29 161:1 394:1 1681:1 2012:1 2015:2 
0 0.6361590853031528 0.9994792418433024 1:1 2:1 7:2 8:5 16:1 28:1 66:1 128:1 337:1 668:2 1073:1 1170:1 2012:1 2014:1 2015:5 2017:1 
0 16.45773950226594 0 1:3 2:3 5:1 6:1 26:1 27:1 29:1 45:1 206:3 237:1 510:1 1537:1 2012:1 
9.320265732482913 0 0 1:1 2:1 3:1 5:1 13:1 24:1 38:1 48:1 50:1 59:1 72:1 258:1 333:1 726:1 1104:1 1186:1 1556:1 2012:1 
1.572174545176776 2.090519043728241 0 1:1 2:1 3:4 6:1 7:3 8:3 15:1 26:1 38:1 43:1 54:1 66:1 68:1 72:1 78:1 86:1 87:1 92:1 118:1 122:1 137:1 152:1 183:1 221:1 248:2 288:1 316:1 338:1 360:1 384:1 485:1 523:1 608:3 635:2 677:1 826:1 835:1 935:1 1102:1 1126:1 1889:1 2012:1 2014:1 2015:3 2031:1 2035:1 
0.1454370254248394 0 0 1:2 2:2 3:2 4:2 6:1 7:1 8:1 9:1 10:1 15:1 30:3 36:1 48:1 50:2 52:1 54:1 59:1 80:1 88:1 93:2 135:1 146:1 188:1 204:1 229:2 328:1 421:1 733:2 752:1 1034:1 2012:1 2014:1 2015:1 2016:1 
0 0 0.8823672520875825 1:1 2:1 21:1 34:1 158:1 514:1 582:1 2012:1 
32 2.194844328907778 0 1:1 2:1 3:1 5:1 6:1 7:1 9:2 33:1 56:1 69:1 373:1 2012:1 
0 1.480238296630338 0 1:1 2:1 3:1 5:1 10:1 28:1 44:1 63:1 142:1 145:1 211:1 236:2 260:1 321:1 403:1 1741:2 2012:1 2014:3 2033:2 
0 8.768218945300239 0.7009262279945422 1:2 2:2 3:2 6:1 7:3 8:3 11:1 18:1 28:1 45:1 64:1 71:1 75:1 126:1 186:1 275:1 283:1 648:1 661:1 778:1 1171:1 1257:1 1416:1 1524:1 1738:1 1755:1 2012:1 2014:1 2015:3 2033:1 
0 0.1326547368211122 0 1:1 2:1 6:1 54:2 178:1 216:1 307:1 318:2 464:1 506:1 604:1 904:1 1346:1 2012:1 2016:2 
0 1.571817718568054 0 1:1 2:1 4:1 6:1 20:6 46:1 69:1 185:1 314:1 318:1 328:1 335:1 396:1 456:1 671:1 675:1 849:1 950:1 1059:1 1113:1 1122:1 1180:1 1252:1 1438:1 1445:1 2011:3 2012:1 2016:1 
3.347539584360239 0.5856218924182018 0 1:8 2:8 3:2 4:2 9:2 11:1 21:9 33:2 43:2 56:1 88:3 104:1 119:1 194:1 224:1 323:1 639:1 792:1 1088:1 1912:1 2012:1 
0 19.40599991093711 0 1:1 2:1 6:1 16:1 19:1 31:1 48:1 57:1 102:1 245:1 392:1 400:1 595:1 2012:1 
0.4859658392692154 0.07806609276181638 0.06316008539829786 1:7 2:7 8:15 9:1 11:1 16:7 38:1 50:1 69:1 207:1 262:1 752:1 1852:1 2012:1 2015:15 
0 5.766482136645716 0 1:1 2:1 7:1 22:1 129:1 143:1 181:1 258:1 433:1 595:1 2012:1 
0.3828006637077396 0.9607924828838722 0.3761124378739858 1:1 2:1 6:1 8:9 10:1 16:1 42:3 85:7 162:1 193:1 213:2 231:4 379:8 599:2 1031:1 1620:2 1724:1 2012:1 2014:2 2015:9 
22.16571214235778 0 0 1:1 2:1 4:1 6:1 9:1 15:1 21:1 438:1 769:1 1596:1 1701:1 2012:1 
3.548567529107292 1.373701437910638 0 1:1 2:1 3:8 5:1 9:1 10:1 13:2 17:1 29:1 30:1 31:1 33:1 36:1 38:1 42:1 44:1 48:1 60:1 62:2 70:2 72:1 78:1 85:1 86:1 87:1 130:1 140:1 154:1 170:1 182:1 197:2 225:2 236:1 293:2 306:1 364:1 391:1 401:1 873:1 944:1 987:1 1058:1 1425:2 1617:1 1753:1 1817:1 1994:1 2012:1 2014:1 2016:1 2031:1 2033:2 
0 16.47901382310497 0 1:1 2:1 3:2 5:4 10:1 60:1 89:1 538:1 670:1 2012:1 2014:1 
0 5.884538056860351 1.169236063581361 1:2 2:2 3:5 4:2 7:2 8:1 11:1 19:1 33:1 44:1 53:1 55:1 66:1 90:2 92:1 98:1 340:1 570:1 807:1 1294:1 1569:1 1829:1 2012:1 2015:1 2031:1 2032:2 2033:1 
0 7.481668562110671 0 1:1 2:1 4:1 5:1 11:1 25:1 45:1 72:1 91:1 282:1 477:1 1870:1 1948:1 2012:1 
2.52970928130686 0 0 1:1 2:1 3:3 4:2 5:3 19:1 27:2 70:2 86:2 87:2 96:1 225:1 244:1 248:1 271:1 273:1 359:3 368:1 373:1 381:1 488:1 495:1 728:1 1021:1 1451:1 1704:1 1748:1 2012:1 
0 32 0 1:1 2:1 10:1 33:1 36:1 81:1 455:1 2012:1 2014:1 2016:1 
32 0 0 1:1 2:1 9:1 14:1 21:1 177:1 2012:1 
14.38237624138271 7.784552213209486 0 1:1 2:1 3:2 10:1 17:1 18:1 28:1 51:1 66:1 165:1 180:1 243:1 294:1 331:1 395:1 583:1 780:2 1035:1 1159:1 2012:1 2014:2 2031:3 
0 32 0 1:3 2:3 13:3 342:3 2012:1 
2.006724282196724 1.044422116174508 0.4396389932499913 1:5 2:5 3:10 4:3 5:7 7:1 11:1 21:4 25:9 29:1 48:1 57:1 106:1 115:1 126:1 147:1 191:1 203:2 228:2 245:1 246:1 253:1 302:1 332:1 376:2 380:3 493:1 530:1 595:1 619:1 620:1 719:3 826:1 1028:1 1263:2 1308:1 1556:2 2012:1 2031:1 
0.3581494392277476 9.945953936372854 0 1:1 2:1 5:1 17:1 142:1 581:1 1584:1 2012:1 2014:2 
6.572696896302648 0.8682609961240901 0 1:1 2:1 3:1 4:2 9:3 15:1 18:1 36:1 39:1 52:1 53:1 54:1 56:1 67:1 98:1 165:1 171:1 197:1 224:1 330:1 354:1 416:1 576:1 626:1 1496:1 1593:1 1669:1 1716:1 2012:1 2014:1 2016:1 2017:1 2031:1 2033:1 2034:1 
2.941830287565117 0 0 1:1 2:1 3:1 5:1 15:1 18:2 27:2 45:1 380:1 406:1 495:2 541:2 612:1 1138:1 1596:1 2012:1 
0 0 3.186767674117504 1:1 2:1 3:1 6:2 7:1 10:1 16:1 18:1 28:1 45:1 51:1 152:1 580:1 703:1 753:1 2012:1 2014:2 
0 8.539325079489897 0 1:1 2:1 3:2 4:2 5:2 6:1 17:1 23:1 27:2 33:1 45:1 51:1 57:1 63:1 67:1 136:1 149:1 230:1 300:1 311:1 390:1 414:1 844:1 1202:1 2012:1 2014:2 
12.22790622578206 0 0.8650557657986071 1:1 2:1 3:2 5:2 9:1 10:1 14:1 84:2 199:1 296:1 1137:2 1218:1 1565:2 2012:1 2014:3 
0 0 22.67538435805848 1:2 2:2 4:1 10:1 18:1 28:1 54:1 64:1 71:1 313:1 391:1 1874:1 1914:1 2012:1 2014:1 2035:1 
0 21.5792852850631 0 1:1 2:1 3:2 7:1 8:1 11:1 19:1 24:2 37:1 38:1 41:1 43:1 73:1 186:1 250:1 297:1 330:1 352:1 546:1 638:1 655:1 842:1 1292:1 1556:1 2012:1 2014:1 2015:1 2031:1 
0 32 0 1:1 2:1 6:1 22:1 24:1 49:1 269:1 308:1 804:1 1168:1 2012:1 2014:2 2033:1 
0 0 3.71449082250021 1:2 2:2 4:3 6:4 7:1 14:1 15:1 16:2 18:1 23:1 33:1 38:1 43:1 48:1 56:1 61:1 72:1 85:2 147:1 176:1 184:1 271:1 273:1 301:1 307:1 373:1 377:1 408:1 483:1 607:1 703:1 727:1 1093:1 1196:1 1408:1 1429:1 2012:1 2032:1 2034:1 
6.430966142074155 0 0 1:2 2:2 37:1 38:1 41:1 46:2 90:2 176:1 1480:2 2012:1 
0.3073989974984713 0 6.10015942803763 1:1 2:1 3:4 4:4 6:3 9:3 10:1 11:1 18:1 19:1 27:1 47:1 48:1 54:3 61:2 125:1 149:1 181:1 202:1 225:1 255:1 259:1 386:1 404:1 414:1 559:1 602:1 910:1 958:1 1344:1 1692:1 2012:1 2014:1 2031:1 2032:2 
0 9.844842054678287 0 1:1 2:1 3:1 5:1 7:3 10:1 17:1 22:1 26:1 30:1 91:1 93:1 330:1 630:1 766:3 2012:1 2014:1 
4.197049779461933 0 0 1:1 2:1 3:4 4:1 10:1 11:1 17:1 18:1 29:1 33:1 54:1 57:1 60:1 65:1 114:1 153:1 222:1 256:1 311:1 323:1 337:2 348:1 773:2 838:2 1146:1 1361:1 1418:1 2012:1 2014:3 
32 11.12691828345562 0 1:3 2:3 4:1 28:1 63:1 111:3 113:3 133:3 138:1 140:1 337:1 389:1 2012:1 2014:1 2031:1 
0 32 0 1:1 2:1 17:1 20:2 25:1 48:1 51:1 193:1 538:1 2011:1 2012:1 2014:1 2033:1 
0 16.32505619721339 0 1:1 2:1 7:1 22:1 38:1 219:2 408:1 720:1 1017:1 2012:1 
5.852306531160065 0 0 1:3 2:3 77:1 290:1 532:3 2012:1 
25.25372476519717 0 0 1:1 2:1 3:1 4:1 8:1 34:1 37:1 41:1 54:1 63:1 208:1 266:1 334:1 2012:1 2015:1 
0 32 0 1:1 2:1 6:1 263:1 404:1 637:1 2012:1 
14.65052296536665 0 3.009120375701719 1:1 2:1 3:2 5:1 7:1 13:1 15:1 22:1 26:1 27:1 57:1 59:1 72:1 96:1 137:1 157:1 160:1 239:1 288:1 369:1 682:1 935:1 1174:1 1751:1 2012:1 
3.606475763828242 1.627069730877725 0 1:1 2:1 4:3 6:3 7:1 9:4 11:1 18:1 23:1 29:1 31:1 33:1 39:2 44:1 47:1 55:1 72:1 91:1 119:1 127:6 145:1 153:1 165:1 180:1 181:1 331:2 745:1 870:1 1078:1 1154:1 1283:1 1343:1 1358:1 1980:1 2012:1 2031:2 2033:1 
0 0.8471731094615764 0.02437338445753478 1:1 2:1 4:1 6:1 7:1 8:2 10:1 11:1 16:1 17:1 19:1 26:1 31:2 33:1 43:1 50:1 51:1 57:1 59:1 60:1 66:1 83:1 104:1 109:1 137:1 156:1 160:1 170:1 181:1 247:1 280:2 289:1 292:1 309:1 321:1 390:1 409:1 419:1 625:2 680:1 737:1 763:10 797:1 826:2 899:1 1018:1 1399:1 1568:2 1686:1 1973:1 2012:1 2014:3 2015:2 
3.011445346523841 1.089722831542833 2.110620829102824 1:1 2:1 3:1 4:1 7:1 10:1 11:2 15:2 17:1 66:1 69:2 91:2 121:1 157:2 267:1 298:1 372:1 418:1 435:1 545:1 590:1 1287:1 1727:1 2012:1 2014:1 
14.60506321272179 0 0 1:1 2:1 3:1 5:1 14:1 23:1 51:1 67:1 250:1 978:2 1219:1 1347:1 1638:1 2012:1 2014:2 
1.568829394267183 0 0 1:4 2:4 3:6 4:3 5:1 6:1 7:2 11:2 13:1 26:1 29:1 35:1 40:1 46:2 51:1 53:1 98:1 105:1 117:2 166:1 169:1 195:1 222:1 311:1 355:1 381:2 411:1 494:1 556:3 560:2 651:1 716:1 911:1 1130:1 1405:1 1423:1 2012:1 2014:1 2015:1 2031:4 2035:1 
0.08974770364220858 1.428266872944001 0 1:1 2:1 3:4 4:3 5:2 6:2 7:1 10:2 11:1 19:2 24:1 27:1 36:1 44:1 48:2 57:1 79:1 91:1 125:1 179:1 192:1 202:1 222:1 260:1 287:1 299:1 334:1 358:3 430:1 437:1 498:1 513:1 527:1 621:1 630:1 687:1 696:2 848:1 871:1 1056:1 1076:1 1262:1 1754:1 2012:1 2014:2 2016:1 
26.76877064036958 0 0 1:4 2:4 4:2 5:1 8:1 14:1 15:1 21:2 23:1 39:1 46:1 76:1 310:1 339:1 436:2 2012:1 2015:1 
32 0 0 1:1 2:1 76:1 267:1 734:1 2012:1 
0.9074154800170537 0 0 1:1 2:1 3:5 4:5 8:4 9:1 11:1 22:1 29:1 31:1 33:1 45:1 62:1 63:1 70:5 72:2 82:1 91:1 120:1 152:1 209:1 219:1 237:1 246:1 265:1 338:1 491:1 531:1 595:1 690:1 704:1 755:1 813:1 850:1 858:1 883:1 1021:1 1219:1 1315:1 1362:2 1531:1 1597:1 1694:1 1834:1 1887:1 1938:1 1957:2 2012:1 2014:1 2015:4 2031:2 2032:1 2033:1 
1.285954951799464 2.591094476831707 0.5312685755783211 1:1 2:1 3:6 7:2 8:4 10:3 13:2 14:1 17:1 19:1 25:2 39:1 42:1 44:2 48:1 55:1 60:1 67:1 82:1 89:1 104:1 136:1 141:1 147:1 162:1 168:1 198:1 256:1 338:1 414:1 424:1 462:2 467:1 469:1 477:1 524:1 534:1 547:1 649:1 709:1 1035:1 1399:1 1426:1 1585:1 2012:1 2014:4 2015:4 2017:1 2031:1 2033:1 2035:1 
0 5.601706517851483 0 1:1 2:1 3:4 6:1 13:1 18:1 21:1 29:1 33:1 39:1 84:1 154:1 186:3 192:1 197:1 202:2 313:1 341:2 398:1 490:1 884:1 925:1 994:1 1179:1 1422:1 2012:1 2014:3 
0 5.483059132144702 7.814367315122209 1:1 2:1 4:2 6:1 19:2 22:1 24:1 25:1 36:1 107:1 148:1 1243:1 1536:1 1542:1 2012:1 2016:1 
6.301097245113003 0 0 1:2 2:2 3:2 4:1 8:1 50:1 74:1 118:1 244:1 399:1 731:3 2012:1 2015:1 
0.5528074950000523 0 0 1:1 2:1 4:1 7:2 11:1 16:1 22:1 29:1 33:1 77:1 148:1 149:1 188:1 207:1 299:1 301:1 849:1 921:1 1029:1 1111:1 2012:1 
0.3487160332501549 0 0.2199198737938269 1:3 2:3 3:3 4:1 6:1 10:1 13:1 17:1 33:3 34:1 39:2 54:1 57:3 59:3 104:1 109:2 137:3 160:3 192:1 201:1 202:1 239:3 249:1 252:1 344:1 346:1 369:3 555:1 736:1 831:1 1898:1 2012:1 2014:2 
0 4.540197708978748 0 1:2 2:2 4:1 16:2 26:1 51:1 137:1 160:1 177:1 236:1 252:1 287:1 299:1 410:1 506:1 571:1 2012:1 2014:1 
14.75931004190577 0 0 1:1 2:1 3:1 6:2 7:1 15:2 22:1 52:1 82:1 90:1 109:1 177:1 293:1 689:1 1462:1 1883:1 2012:1 
0 8.675300350381246 13.23663160020809 1:1 2:1 4:1 7:1 11:1 15:1 56:1 77:1 111:1 113:1 133:1 149:1 153:1 255:1 305:1 533:1 1959:1 2012:1 2032:1 2033:1 
0 7.589085727668067 0 1:1 2:1 49:1 80:1 186:1 192:1 247:1 257:1 260:1 393:1 655:1 1496:1 2012:1 2014:1 
0.1324194537862411 0 0 1:2 2:2 10:1 17:2 60:2 312:2 378:2 486:2 605:1 1509:1 1746:1 1926:1 2012:1 2014:1 
16.85693521186659 3.717464419855625 0 1:4 2:4 4:1 5:2 6:2 7:2 9:4 13:2 14:3 29:1 49:1 58:1 66:1 67:1 73:1 88:1 235:1 289:1 355:1 383:1 398:1 496:1 524:1 707:1 714:1 1128:1 1469:1 1630:1 1653:1 2012:1 2014:1 2031:3 2032:1 2033:2 
0.8512740236096322 3.245512438301141 0 1:1 2:1 3:6 4:7 5:2 7:1 8:1 11:2 13:1 15:1 23:1 36:1 38:2 43:3 45:1 47:1 55:1 62:2 65:1 73:1 78:3 86:1 91:1 92:1 122:1 123:1 131:1 134:1 168:1 176:1 184:3 187:1 229:1 299:1 306:1 359:2 412:1 420:1 475:1 525:2 556:2 569:1 611:1 623:1 868:1 1572:3 1668:1 1669:1 1711:1 1713:2 1765:1 1848:1 1865:1 2012:1 2015:1 2016:1 2033:2 2034:1 
16.77909073089495 0 7.474264023831311 1:3 2:3 3:1 10:1 16:3 43:1 64:1 77:1 97:1 103:1 220:1 785:1 1010:1 1122:1 1150:1 1238:1 1659:1 2012:1 2014:1 
5.590201641820256 3.041399221990443 0 1:1 2:1 4:1 5:6 7:1 15:1 16:1 18:1 19:1 42:1 50:1 91:1 105:1 119:1 135:1 188:1 389:1 942:2 1943:1 2012:1 
32 0 8.326281303925642 1:1 2:1 3:1 16:1 106:1 118:1 232:1 240:1 1024:1 2012:1 
0 0 1.194239325295207 1:1 2:1 3:3 5:2 6:2 10:1 49:1 86:2 87:2 222:2 264:1 543:1 1327:1 2012:1 2014:1 
14.68474642249937 0 0 1:3 2:3 7:1 14:1 18:1 23:1 30:1 125:1 147:1 171:1 282:3 767:1 2012:1 
4.099657905556238 1.546122389395767 0 1:1 2:1 3:2 6:1 7:1 25:6 26:1 30:1 38:1 43:1 47:1 57:1 59:1 148:1 164:3 207:2 237:1 267:1 408:1 468:1 548:1 551:1 652:1 720:1 865:1 935:1 1549:1 1595:1 1690:1 2012:1 
0.7642068055955064 0.834174867795673 0.7785959605793471 1:1 2:1 3:9 4:2 5:4 6:2 7:2 10:1 13:1 15:1 17:1 18:1 19:1 31:1 39:1 42:3 56:1 67:2 82:1 84:2 157:1 158:1 236:1 238:2 249:1 254:1 264:1 271:1 273:1 276:1 292:1 331:1 429:1 438:1 672:1 901:1 1412:1 1559:1 1694:1 2012:1 2014:3 
7.540427706629881 10.58616591504658 0 1:4 2:4 10:1 16:1 17:1 28:1 54:1 60:1 61:1 77:1 110:1 121:1 199:3 297:2 467:1 485:1 496:1 502:1 998:1 1276:1 1733:1 1787:1 2012:1 2014:3 2031:1 
0 0 3.592033967068251 1:3 2:3 3:4 5:2 7:1 10:1 15:2 28:1 47:1 52:1 64:2 71:2 77:1 99:1 122:3 140:1 146:2 154:7 175:1 176:1 217:1 401:3 514:2 539:3 639:3 819:2 890:1 1212:2 1288:1 2012:1 2014:1 2031:1 2032:2 
0 6.445917652119247 0 1:1 2:1 3:1 11:1 16:1 102:1 105:1 162:1 389:1 942:1 1166:1 2012:1 
26.59433087049076 0 0 1:4 2:4 3:2 6:1 32:4 33:1 39:1 58:1 89:2 94:1 115:1 168:1 181:1 237:1 252:1 280:1 436:2 732:1 1316:1 1447:1 1607:1 2012:1 2031:3 
1.36019774761582 0 0 1:1 2:1 3:2 4:1 29:1 31:1 133:1 142:1 178:1 193:1 201:1 395:1 422:1 502:1 555:1 667:1 689:1 972:1 1185:1 1354:1 1516:1 2012:1 2014:1 
0 4.597920065293242 0 1:1 2:1 4:1 6:1 11:1 16:1 19:1 156:1 194:1 252:1 340:1 2012:1 
5.289281708434491 0 0 1:2 2:2 73:1 355:1 393:2 2012:1 
2.062343484113767 0 0 1:1 2:1 20:2 72:2 127:2 135:2 169:2 258:1 271:1 273:1 372:1 1040:1 1335:1 1466:1 1505:1 1672:1 2011:1 2012:1 2015:2 2017:1 
0 0.942381353006399 0 1:1 2:1 3:1 5:3 8:3 186:1 357:1 442:1 1030:1 1033:1 1513:1 2012:1 2014:1 2015:3 2034:1 2035:1 
0 32 0 1:1 2:1 4:1 6:1 10:1 33:1 54:1 121:1 197:1 337:1 773:1 2012:1 2014:2 2033:1 
4.673950247093284 0 0 1:1 2:1 3:1 4:1 6:1 7:4 9:1 26:2 44:1 52:1 69:1 78:1 102:1 126:1 179:1 266:1 338:1 466:1 609:1 662:1 698:1 720:1 895:1 1011:1 1086:1 1237:1 1448:1 2012:1 
1.06206075341566 3.081361764603393 0 1:1 2:1 3:6 4:4 5:1 8:1 10:1 13:1 15:1 18:1 23:1 29:1 86:1 87:1 120:1 148:1 156:1 223:2 237:1 337:1 384:1 404:1 420:1 481:1 532:1 546:1 551:1 586:1 625:1 846:1 975:1 995:1 1750:1 2012:1 2014:3 2015:1 2017:1 
0 11.27334960967996 0 1:1 2:1 4:1 56:1 81:1 88:1 209:1 339:1 627:1 2012:1 
5.218476313155396 2.93950029083655 0 1:1 2:1 4:2 5:2 11:1 13:1 42:1 50:1 62:1 72:1 91:1 119:1 123:1 131:1 143:1 148:1 412:1 434:1 644:1 1129:2 1514:1 1573:1 1713:1 2012:1 
0 0.739733701364873 1.19001139050136 1:3 2:3 3:2 5:8 6:1 7:1 18:1 26:1 28:1 50:1 52:1 88:1 107:1 129:3 142:1 195:1 214:1 230:1 294:1 403:1 405:1 500:1 647:1 760:1 988:1 1758:1 2012:1 2014:2 
3.907335301529838 3.857258946289939 0 1:6 2:6 3:1 6:2 7:1 10:1 11:1 16:6 19:2 21:1 31:1 48:1 51:1 56:1 57:1 69:1 72:1 74:1 77:1 88:1 102:1 103:1 122:1 143:1 165:1 202:1 219:1 230:1 239:1 392:1 394:1 395:1 396:1 413:1 447:1 510:1 553:1 666:1 693:1 723:1 924:1 1473:1 2012:1 2014:2 
0 9.570910058961379 6.599514683309759 1:2 2:2 3:2 4:1 6:1 7:1 11:1 16:2 29:1 31:1 43:1 59:2 68:1 191:1 213:1 329:1 385:1 521:1 859:1 1075:1 2012:1 
0.546250752538308 26.20749168941591 0 1:2 2:2 5:1 13:1 31:1 63:1 342:1 389:1 566:1 934:1 1056:1 1105:1 1194:1 2012:1 
0 32 0 1:1 2:1 10:1 33:1 49:1 171:1 216:1 233:1 1055:1 1455:1 2012:1 2014:1 
0.01313540195438698 3.962526666604082 0 1:1 2:1 3:1 9:1 36:1 91:1 95:1 248:1 293:1 314:1 318:1 420:1 589:2 611:1 623:1 664:1 1390:1 2012:1 2016:2 2017:1 
12.13109009158577 0 0 1:3 2:3 475:3 2012:1 
1.094192704569383 4.098670968671864 0 1:1 2:1 4:1 6:2 7:1 10:1 17:2 18:1 19:1 26:1 27:2 28:1 33:1 38:1 42:2 45:2 47:1 49:3 60:2 63:1 66:1 77:1 78:1 107:1 110:1 121:2 136:1 140:1 141:1 192:1 202:1 260:1 269:1 308:1 311:2 432:1 437:1 446:1 455:1 511:1 524:1 546:1 628:1 645:1 649:1 679:1 804:1 815:1 887:1 993:1 1018:1 1138:1 1164:1 1168:1 1240:1 1347:1 1418:1 1497:1 1580:1 1598:1 1717:1 2012:1 2014:4 2031:5 
0 2.053380125935285 0.8951579588971187 1:2 2:2 3:4 4:2 5:2 6:1 10:1 11:2 16:2 18:1 27:2 33:1 38:1 42:1 43:1 46:1 65:1 67:1 92:2 147:1 154:1 157:1 166:1 178:2 197:2 198:1 222:2 246:1 294:1 340:1 361:1 575:1 741:1 754:1 920:1 1147:1 1615:1 1903:1 2012:1 2014:2 2031:1 
2.142446228672409 0 0 1:1 2:1 3:4 5:2 8:1 11:1 17:1 18:1 19:1 29:1 38:1 39:1 42:1 45:1 50:1 62:1 73:1 86:2 87:2 120:2 122:1 123:1 131:1 186:1 190:3 194:1 229:2 260:1 452:1 1016:1 1658:1 2012:1 2014:1 2015:1 
0 3.563016841534278 0 1:1 2:1 7:1 9:1 13:1 25:2 255:1 318:1 455:1 480:1 500:1 1905:1 2012:1 2016:1 
2.231347750874838 1.013985653402524 0 1:1 2:1 3:7 4:4 5:2 6:1 7:6 8:1 11:1 15:2 19:3 26:1 29:1 33:1 34:1 39:1 45:2 56:1 63:1 65:1 82:1 92:1 105:1 148:2 168:1 184:1 209:1 219:1 253:1 254:1 328:1 393:1 408:1 421:1 454:1 498:1 515:1 547:1 649:1 768:1 875:1 877:1 1208:1 1275:1 1585:1 1704:1 1986:1 2012:1 2015:1 2031:2 2033:2 2035:1 
0 3.694942524786487 0 1:1 2:1 3:1 5:1 6:2 10:1 16:1 22:1 28:1 82:1 121:1 322:1 1027:1 1295:1 2012:1 2014:1 
32 0 0 1:1 2:1 4:1 13:1 21:1 22:1 104:3 124:1 2012:1 
0 18.11050221029774 0 1:1 2:1 3:2 5:1 6:2 7:1 11:2 22:1 26:1 29:1 33:1 68:1 104:1 122:1 206:1 208:1 212:1 301:1 373:1 390:1 607:1 987:1 1809:1 2012:1 2033:1 2034:1 
0.7286642484101634 3.797166420962131 0.7319099265141875 1:1 2:1 3:2 4:2 5:3 6:1 10:2 11:1 17:1 19:2 20:2 24:1 29:1 38:1 55:1 57:1 65:1 73:1 84:1 96:2 103:1 122:1 134:1 136:1 152:1 211:1 216:1 339:1 349:1 354:1 355:1 392:1 407:1 591:1 619:1 737:1 875:1 1018:1 1230:1 1462:1 1528:1 1533:1 1624:2 1922:1 2011:1 2012:1 2014:3 2033:1 
0.7816457190733858 1.509815683985095 0 1:4 2:4 4:2 7:1 10:2 14:1 17:2 20:2 23:1 28:3 52:1 60:1 91:1 99:1 106:1 121:2 139:1 147:1 201:3 203:3 218:1 233:1 259:1 268:1 274:1 276:4 281:1 296:1 309:1 353:1 399:1 419:1 443:1 469:1 476:2 496:1 526:1 646:1 815:1 841:1 1099:1 1162:1 1267:2 1561:1 1577:1 1980:1 2011:1 2012:1 2014:2 2031:2 2032:1 
13.47417929649063 0 0 1:1 2:1 3:4 4:2 10:1 14:2 21:1 22:1 27:1 44:3 57:1 60:1 74:1 180:1 185:1 244:1 354:1 470:1 598:1 701:1 949:1 985:1 1321:1 2012:1 2014:1 2031:2 
0 11.0069983956446 0 1:1 2:1 3:5 4:2 5:1 7:1 9:6 14:1 18:1 19:2 21:1 27:2 44:1 56:1 65:2 84:1 98:1 116:2 164:1 272:1 298:2 789:1 828:1 1412:1 1428:1 1939:1 2012:1 2031:1 2033:3 2034:1 
0 1.841209018998921 0.4648295465800827 1:1 2:1 3:8 4:1 5:3 6:1 10:1 14:1 15:1 23:1 26:1 38:1 42:2 48:1 51:1 53:2 56:1 66:1 70:2 82:1 96:1 137:2 160:1 204:3 257:1 272:1 305:1 307:2 314:1 384:1 417:1 426:1 444:3 475:1 898:4 901:1 1371:1 1473:1 1699:1 2012:1 2014:4 
10.41239823972956 13.23990693840305 0 1:1 2:1 3:4 4:1 6:1 7:1 9:1 11:1 18:1 21:1 26:1 59:1 107:1 149:1 152:1 187:1 247:1 933:1 1298:1 1359:1 1460:1 1802:1 2012:1 2014:1 
32 32 0 1:2 2:2 5:2 6:1 7:1 8:1 9:1 11:2 14:1 29:1 36:1 40:1 47:1 78:1 117:1 265:1 285:1 516:1 614:1 2012:1 2015:1 2016:1 2031:1 2034:1 
0 4.13989565939548 0 1:3 2:3 3:1 6:1 13:1 129:1 142:1 265:1 307:1 330:1 450:1 576:2 744:2 781:2 1026:1 1563:1 2012:1 2014:2 
2.242977992843602 0 0 1:1 2:1 3:2 4:1 13:1 31:1 96:1 145:1 185:1 199:1 275:1 589:1 1059:1 1237:1 1341:1 1841:1 1886:1 2012:1 
0.616558786514704 5.267528495214803 0.5803303706818062 1:1 2:1 3:3 4:1 6:1 7:2 9:2 10:1 11:3 13:1 17:1 26:1 51:1 54:2 57:2 80:1 181:1 202:1 216:2 238:1 247:1 397:1 467:1 531:1 617:1 682:1 850:1 2012:1 2014:2 
0.560108617426435 0 0 1:6 2:6 3:2 5:1 16:3 30:3 86:1 87:1 93:3 158:1 176:1 191:1 720:1 1137:1 1325:1 1549:1 1933:1 2012:1 
0 0 1.687686149658013 1:1 2:1 6:2 7:1 10:1 28:1 31:1 106:1 151:2 507:1 573:1 1027:1 1340:1 2012:1 2014:1 
1.217049489499816 0 0 1:1 2:1 4:2 6:1 19:1 20:12 21:1 33:1 91:1 145:1 198:1 560:1 674:1 1011:1 1176:1 1180:1 2011:6 2012:1 
1.744623512658811 0 0 1:4 2:4 9:1 15:1 29:1 31:1 125:1 336:1 1001:1 2012:1 
0.275888351874356 0 0 1:11 2:11 3:1 4:1 6:2 9:1 14:1 243:11 2012:1 
32 0 0 1:1 2:1 3:1 13:1 14:1 37:1 41:1 135:2 162:1 285:1 2012:1 
32 0 0 1:1 2:1 3:2 4:1 5:1 24:1 27:1 37:1 41:1 42:1 103:1 128:1 168:1 180:1 184:1 323:1 423:1 653:1 760:1 862:1 2012:1 2031:2 
32 32 0 1:1 2:1 3:1 26:1 59:1 65:1 73:1 106:1 229:2 818:1 1390:1 1668:1 2012:1 2031:1 2033:1 
0 0 5.973455198155443 1:1 2:1 4:1 6:1 16:1 26:1 49:1 67:1 80:1 218:1 249:2 417:1 465:1 899:1 1469:1 1666:1 1860:1 2012:1 2014:3 2032:1 
1.433664180404548 0.3556345419846502 1.259297618002751 1:2 2:2 3:4 4:3 6:2 7:1 8:4 10:3 14:1 21:2 28:1 29:1 33:1 50:1 65:1 66:1 67:1 89:1 91:1 109:2 122:2 159:1 168:1 178:2 179:1 285:1 311:1 322:1 343:1 376:1 527:1 556:1 569:2 691:1 736:1 782:2 830:1 868:1 873:2 882:1 1028:1 1084:1 1265:1 1271:1 1444:2 1560:1 1700:1 1724:2 2012:1 2014:4 2015:4 2033:1 
0 0 7.991414672764733 1:1 2:1 4:2 6:1 18:2 23:1 29:2 38:1 44:1 53:2 55:1 258:1 372:1 702:1 1138:1 1352:1 1486:1 1557:1 1769:1 2012:1 2031:1 2032:1 
1.473496936401271 3.200979097472292 0 1:3 2:3 6:1 13:1 33:1 46:1 176:1 409:1 468:3 1823:1 1930:1 2012:1 2014:1 
0 0 2.962435432913848 1:1 2:1 3:1 21:1 22:1 338:1 509:1 545:1 2012:1 
20.95528837032379 9.911651250118775 0 1:1 2:1 3:9 4:5 7:3 8:2 15:1 18:1 19:1 22:1 23:1 26:1 50:1 62:1 78:1 91:1 95:1 118:1 126:1 128:1 139:1 171:1 185:1 213:1 252:1 258:1 302:2 387:1 391:1 452:1 501:1 533:1 610:1 718:2 767:1 790:2 967:1 976:2 1024:1 1082:1 1090:1 1220:1 1242:2 1244:1 1253:1 1310:1 1350:1 1416:1 1419:2 1466:1 1606:2 1732:1 1862:1 1889:1 1896:1 2012:1 2015:2 2032:1 
8.0982452934769 0 0 1:1 2:1 3:1 4:1 6:1 7:2 10:1 15:1 17:1 18:1 19:1 28:1 31:1 42:1 55:1 65:1 105:1 110:1 114:1 187:1 236:1 345:1 354:1 362:1 427:1 595:1 805:1 845:1 1462:1 1637:1 1922:1 2012:1 2014:2 
0 23.84864015619025 0 1:4 2:4 3:1 4:1 5:1 8:1 36:1 55:1 112:1 169:1 217:1 276:4 366:1 518:1 712:1 1385:1 1629:1 1685:1 2012:1 2015:2 2016:1 2031:1 2033:1 
5.829824506260425 5.603868953048574 0 1:6 2:6 7:1 8:2 9:2 14:2 20:2 21:2 33:1 135:2 174:2 285:1 819:1 1142:1 1444:1 2011:1 2012:1 2015:2 
0 17.52948565781059 0 1:1 2:1 4:2 6:2 8:1 11:1 15:1 24:1 34:1 39:2 40:1 41:1 42:1 86:2 87:2 91:1 123:1 131:1 148:1 158:1 197:1 209:1 237:1 288:1 298:1 457:1 827:1 855:1 1228:1 1296:1 2012:1 2015:1 2031:1 2033:2 
3.597820070507907 1.565803706727928 0 1:1 2:1 3:8 5:1 9:1 10:4 11:3 15:1 27:2 45:2 61:1 68:1 84:1 90:1 121:3 130:1 136:3 153:3 179:1 247:2 390:1 1540:1 2012:1 2014:4 
0.1676716374867559 0 0 1:2 2:2 3:6 4:1 5:2 9:1 11:1 23:1 26:1 27:1 33:1 42:1 56:1 57:1 62:1 73:2 88:2 89:1 114:3 119:2 152:1 158:1 164:4 176:1 185:1 244:1 452:2 474:1 615:1 699:2 1068:2 1136:1 1320:1 1588:2 1812:3 1966:2 2012:1 
16.32485960844366 1.855358063886129 0 1:1 2:1 4:1 23:1 43:1 74:1 83:1 91:1 96:1 105:1 203:1 226:1 228:1 567:1 656:1 775:1 942:1 1780:1 2012:1 
0 1.250665426989194 0 1:9 2:9 4:1 5:2 6:1 13:1 15:1 17:1 18:1 30:3 33:1 35:3 45:1 49:1 50:1 70:1 75:3 76:3 119:1 126:1 140:1 142:1 421:1 612:1 642:1 1001:1 1289:1 1395:1 1427:1 1671:1 1831:1 2012:1 2014:1 2031:4 2033:3 
11.35772597018808 0 0 1:2 2:2 13:2 14:2 20:4 162:2 1477:1 1642:1 1747:1 2011:2 2012:1 
32 0 0 1:1 2:1 8:1 11:1 14:1 18:1 21:1 1843:1 2012:1 2015:1 
7.861622580078647 0 9.433757661915086 1:1 2:1 4:1 7:1 19:1 79:2 84:1 128:1 129:1 143:1 173:1 176:1 399:1 903:1 971:1 2012:1 
3.432175573721423 0.9628311240514772 0 1:1 2:1 3:8 4:5 5:1 6:1 10:4 14:3 21:1 29:3 60:2 62:1 164:1 173:1 180:1 184:2 213:1 303:1 312:1 327:1 496:1 598:2 649:1 846:1 1008:1 1099:1 1309:1 1383:1 1829:2 2012:1 2014:4 2031:1 2033:1 
1.296690109209236 0 0 1:2 2:2 3:4 4:2 5:2 6:1 11:2 24:2 29:1 34:2 37:1 41:1 45:1 51:1 55:1 57:1 74:1 140:2 149:1 152:1 244:1 297:1 430:1 559:1 578:1 827:1 895:1 1061:1 1148:1 1955:1 2012:1 2014:1 2031:3 2033:1 
22.73816592006854 27.29788087236536 0 1:1 2:1 4:1 10:1 26:1 33:1 38:1 77:1 79:2 121:1 140:1 149:1 178:1 299:2 324:1 376:1 447:1 715:1 748:1 789:1 1537:1 2012:1 2014:1 2031:1 2033:1 
0 10.16933666841093 0 1:1 2:1 3:3 4:2 6:3 9:2 11:1 24:1 37:1 41:1 56:1 59:1 68:1 95:1 104:1 198:1 227:1 289:2 340:1 694:1 770:1 792:1 1200:1 2012:1 
2.692562018243159 0 2.737781855312134 1:2 2:2 3:1 7:1 13:1 15:1 26:1 31:1 57:1 64:1 71:1 105:1 136:1 172:1 310:2 417:1 720:1 746:1 1802:1 2012:1 2033:1 
0 4.767004208129367 0 1:2 2:2 4:1 7:1 13:1 78:1 81:1 119:1 171:1 204:1 234:1 282:1 302:1 527:1 1006:2 1070:1 1390:1 1987:1 2012:1 
2.49211355739865 0 3.248251216348052 1:1 2:1 3:5 4:5 5:3 7:2 10:1 15:1 23:1 26:1 31:1 33:1 47:1 56:1 60:1 83:1 126:2 157:1 168:1 184:1 198:1 245:1 261:1 288:2 293:2 338:1 368:1 399:1 450:1 568:1 598:1 619:1 699:1 837:1 980:1 1719:1 2012:1 2014:1 2031:1 2032:1 
0.9292332638289631 7.31657101745876 0 1:4 2:4 6:1 10:2 16:1 19:1 28:1 29:1 42:1 49:1 53:1 63:1 96:1 109:1 110:1 111:2 113:2 133:2 135:1 146:1 151:2 192:1 214:1 256:1 297:1 317:1 332:1 428:1 532:1 605:1 948:1 986:1 1185:1 1408:1 1482:1 2012:1 2014:4 2031:2 2034:1 
0 3.302088910611816 0 1:1 2:1 7:1 8:1 16:1 17:1 23:1 38:1 46:1 48:1 49:2 51:2 54:2 63:1 67:1 177:1 207:1 218:1 233:1 236:2 349:1 392:1 408:1 440:1 479:1 486:1 925:1 969:1 1143:1 1274:1 1399:1 2012:1 2014:3 2015:1 
0 9.842409821262592 0 1:5 2:5 4:1 8:5 9:1 10:2 11:1 12:3 16:1 28:2 58:1 60:1 90:1 102:1 104:1 121:1 123:1 203:1 228:1 292:1 528:1 647:1 678:1 919:1 2012:1 2014:2 2015:5 2031:1 
4.032348453969951 0 0 1:6 2:6 8:3 17:1 81:6 186:1 233:1 309:1 403:1 732:1 919:1 1634:1 1845:1 2012:1 2014:1 2015:3 
2.866410261023756 1.508391440108461 0 1:4 2:4 3:4 4:1 5:1 7:2 14:1 16:4 20:2 21:1 28:1 29:1 30:1 36:1 39:1 65:1 67:2 72:1 98:1 192:1 211:1 230:1 257:1 376:1 535:1 655:1 932:1 1270:1 1291:1 1490:1 1560:1 1766:1 2011:1 2012:1 2014:3 2016:1 2031:1 2033:1 2034:1 
0 0 13.22126855487186 1:1 2:1 4:1 6:1 7:1 11:1 16:1 29:1 106:1 301:1 377:1 565:1 2012:1 
0 0 14.0323090212724 1:3 2:3 3:1 4:2 65:1 106:1 181:1 426:1 455:1 492:3 561:1 607:1 610:1 747:1 826:1 2012:1 2032:1 
1.840511702092033 0.2953296139074938 0 1:1 2:1 3:10 4:5 5:5 7:1 9:4 10:1 11:1 14:1 18:1 23:1 26:1 27:2 38:1 39:1 44:3 47:2 55:1 80:1 84:1 85:1 88:1 94:2 95:3 104:1 136:1 145:1 153:1 186:1 214:1 234:1 244:1 246:2 324:1 340:1 402:1 479:1 483:1 527:1 612:1 625:1 676:1 701:1 865:1 866:1 868:3 982:1 1147:1 1454:1 1503:1 1617:1 1635:1 1642:1 1721:1 2012:1 2014:3 2031:3 2033:2 2034:1 
0 0 1.038894498325825 1:1 2:1 5:2 24:1 34:1 65:1 70:1 161:1 489:1 666:1 689:1 734:1 1073:1 1438:1 1546:1 1830:1 1996:1 2012:1 
0 11.87879991794489 0 1:4 2:4 16:3 24:1 37:1 41:1 102:1 602:1 698:1 907:1 960:1 2012:1 
1.233734149078368 1.293662140663196 0 1:1 2:1 3:14 4:6 5:1 7:2 8:1 12:1 15:1 19:3 21:1 23:4 30:1 43:1 59:1 63:1 136:1 149:2 240:1 287:1 298:1 327:1 402:2 450:1 513:1 792:1 829:1 920:1 1061:1 1099:1 1115:1 1358:2 1995:1 2012:1 2015:1 2031:4 2033:1 2034:1 
0 7.860570803861766 0 1:1 2:1 7:1 20:2 22:1 57:1 59:1 83:1 104:1 137:1 148:1 151:2 160:1 239:1 369:1 457:1 855:1 1188:1 2011:1 2012:1 
3.42302813704845 1.494725937993733 0.2274106880061697 1:5 2:5 3:2 8:3 13:1 52:1 102:1 112:5 129:1 139:5 182:5 458:1 482:1 988:1 1563:1 2012:1 2015:3 
9.313985992998234 1.58356733805119 0 1:1 2:1 3:2 9:1 10:2 13:1 14:1 17:1 49:2 54:2 60:2 67:1 68:1 73:2 80:1 110:1 149:1 201:2 247:4 255:1 325:3 344:1 358:1 426:1 630:2 661:1 867:1 1076:2 2012:1 2014:4 
0 2.911362322613033 2.894820420867473 1:1 2:1 6:1 8:5 10:2 11:1 49:1 52:1 60:1 99:1 110:1 121:1 268:1 372:1 418:1 806:1 2012:1 2014:3 2015:5 
1.234134382789863 0 0 1:3 2:3 3:2 6:1 7:1 69:1 119:1 287:1 436:3 463:1 489:1 1563:1 2012:1 
0 1.496289583880319 13.04744221782592 1:5 2:5 57:5 369:5 2012:1 
0 0 0.2767357237920058 1:1 2:1 3:1 4:2 9:1 11:1 23:1 36:4 63:1 78:1 111:1 113:1 125:1 133:1 156:1 178:1 792:1 1153:1 1405:1 2012:1 2016:4 2017:1 
7.63436965873177 11.45344227882446 0 1:1 2:1 3:3 4:1 10:2 14:3 67:1 148:1 193:1 293:1 296:2 331:1 402:1 479:1 555:1 1149:1 1878:2 2012:1 2014:3 2031:3 
0.4684617151350723 0.7112703432813797 0 1:2 2:2 3:1 4:3 5:4 6:3 7:4 8:2 9:4 10:1 14:1 15:1 18:1 21:1 28:2 31:3 40:1 46:1 48:2 55:1 56:1 75:1 80:2 89:1 96:1 103:1 117:1 137:2 160:2 180:1 193:1 194:1 203:1 228:1 236:1 254:1 292:1 312:1 315:1 319:1 351:1 368:1 406:1 453:1 474:1 506:1 510:1 539:1 553:1 649:1 680:1 701:1 742:1 795:1 808:1 899:1 916:1 919:1 1216:1 1277:1 1510:1 1545:1 1843:1 1973:1 2012:1 2014:1 2015:2 2031:3 2033:2 
1.740989085520867 0 0.2976335319622229 1:3 2:3 3:1 5:3 6:1 8:1 10:2 15:1 29:1 56:1 69:1 78:1 121:2 154:2 183:3 191:1 208:1 225:1 257:1 279:3 301:1 344:1 398:1 431:1 517:1 634:1 831:1 1557:1 1677:1 2012:1 2014:2 2015:1 2031:1 2032:1 
10.56351726192382 0 0 1:1 2:1 3:2 5:6 22:1 24:1 37:1 562:1 787:1 937:1 1369:1 2012:1 
2.790837855977953 0 0 1:2 2:2 4:2 11:1 17:2 26:1 27:1 45:1 60:1 99:1 157:1 186:1 258:1 304:2 355:1 356:1 378:2 381:1 1320:1 1347:1 1485:1 1497:1 1502:1 1550:1 1665:1 2012:1 2014:1 
1.257207067449624 0.4257534036221555 0.04887710888922819 1:2 2:2 3:3 4:3 6:1 7:1 8:4 19:1 20:2 25:1 44:1 62:1 78:1 82:1 83:1 86:1 87:1 109:1 118:2 124:1 128:1 165:1 179:1 203:1 209:1 228:1 295:1 318:18 339:2 348:1 365:1 381:1 415:1 525:1 593:1 692:1 712:2 807:1 859:1 1327:1 1409:1 1604:1 1757:1 1949:1 2011:1 2012:1 2015:4 2016:18 
17.86914478587644 0 0 1:7 2:7 16:7 2012:1 
0 32 0 1:1 2:1 7:1 12:1 23:1 29:1 31:1 106:1 109:1 153:1 294:1 323:1 345:1 565:1 635:1 882:1 2012:1 
0.7668600723673782 0.7656287025740202 0.1003213353547681 1:20 2:20 361:20 2012:1 
26.74158265850092 0 0 1:2 2:2 5:1 13:1 21:2 78:2 123:1 131:1 215:1 223:1 293:1 382:2 2012:1 
0 17.02249944582915 0 1:3 2:3 3:3 4:2 5:1 7:1 11:1 12:3 15:1 21:2 27:1 50:1 55:1 85:1 88:1 106:1 130:1 146:2 159:2 178:1 257:1 553:2 641:1 650:1 651:1 658:1 700:1 952:1 1189:1 1437:1 1526:1 1549:1 1575:1 2012:1 2031:1 2035:1 
7.350359021575333 0 0 1:1 2:1 4:1 5:3 13:1 18:1 19:1 30:1 66:2 82:1 148:1 188:1 278:1 291:1 313:1 338:1 348:1 494:1 515:1 641:1 856:1 1333:1 2012:1 
1.337014681334145 6.958261012403216 0 1:1 2:1 4:2 6:1 7:2 11:1 16:1 115:1 136:1 154:1 330:1 494:1 580:1 585:1 798:1 921:1 922:1 1007:1 1059:1 1334:2 1434:1 2012:1 
0 0 0.1091991841740491 1:1 2:1 21:1 37:1 41:1 732:1 1681:1 2012:1 
1.927446476966802 0 0 1:1 2:1 22:1 45:1 56:1 60:1 152:1 254:1 755:1 1985:1 2012:1 2014:1 
0.9490041574147702 0 0 1:1 2:1 3:5 4:4 9:2 10:3 54:1 57:1 59:1 102:1 110:1 121:1 153:2 236:1 314:1 317:2 424:2 630:2 1454:1 1488:1 1503:1 1507:1 1948:1 2012:1 2014:4 2033:1 
0 32 1.15332651731251 1:1 2:1 4:1 6:1 10:1 33:1 54:1 121:1 197:1 337:1 773:1 989:1 2012:1 2014:2 2033:1 
0 5.33167030285246 0.8785143788402047 1:4 2:4 6:1 7:2 24:1 37:1 41:1 54:2 90:3 129:1 143:1 146:1 160:1 220:1 238:1 241:1 394:1 541:1 1671:1 2012:1 
3.242465071059296 0 0.3385538953295384 1:2 2:2 3:1 7:2 44:1 129:2 143:2 147:1 157:1 226:2 285:1 1174:1 1527:1 1776:1 2012:1 
0 0 19.61354369793328 1:1 2:1 3:1 6:2 7:1 8:1 9:1 100:1 156:1 177:1 203:1 206:1 213:1 228:1 261:2 479:1 1040:1 1481:1 1499:1 2012:1 2015:1 
6.307543973673434 0 1.92206714057057 1:1 2:1 5:1 6:2 48:1 92:1 181:1 183:1 279:1 2012:1 
0.5672507222964428 0.4386329852999732 0.498414322221546 1:11 2:11 6:1 7:1 9:1 11:1 15:2 28:3 50:1 67:1 86:1 87:1 201:1 209:1 225:1 274:1 330:1 420:1 423:1 440:1 583:1 744:11 781:11 1458:1 1811:1 2012:1 2014:1 
0 0 1.000751683534526 1:2 2:2 3:5 4:1 6:3 7:2 8:1 9:1 16:2 19:1 29:1 42:1 48:1 56:1 78:1 96:1 112:1 147:1 207:1 245:1 262:1 270:1 306:1 388:1 394:1 400:1 448:1 653:1 875:1 877:1 1157:1 1329:1 1422:2 1458:1 1524:1 1594:1 1804:1 1823:1 1928:1 2012:1 2015:1 
3.244841595630702 0 0 1:2 2:2 3:1 4:2 21:2 24:1 34:1 37:1 39:1 41:1 45:1 92:1 115:1 257:1 795:1 1963:1 2012:1 
3.925916792422601 0 0 1:2 2:2 13:2 14:2 25:2 162:2 2012:1 
2.566001643432964 0 0 1:2 2:2 114:2 1236:2 2012:1 
3.448590593059256 0 0 1:1 2:1 3:9 4:1 5:1 9:2 11:1 18:1 24:1 28:1 39:1 44:1 59:2 67:1 74:1 148:2 149:1 152:1 180:1 198:1 249:1 252:1 254:1 290:1 294:1 326:1 336:2 373:1 437:1 476:1 517:1 530:1 540:2 582:1 676:1 697:1 753:1 839:1 964:1 1148:1 1359:2 1384:1 1458:1 1495:1 1662:1 2012:1 2014:1 2031:1 2033:3 2034:2 
0 6.948449254906756 0 1:2 2:2 6:1 10:1 17:1 29:1 60:1 201:1 252:1 282:2 524:1 2012:1 2014:1 
0 5.581872271581941 0 1:3 2:3 4:1 7:1 38:1 146:1 188:3 278:3 291:3 510:1 2012:1 
32 32 0 1:1 2:1 5:1 24:1 34:1 40:1 177:1 244:1 269:1 274:1 370:1 873:1 1047:1 2012:1 2014:1 2031:1 2033:1 
0 15.42760356540711 0 1:1 2:1 8:2 10:1 468:1 806:1 1089:1 1440:1 2012:1 2014:1 2015:2 
0 16.10462259158609 0 1:3 2:3 4:2 39:1 53:1 55:1 81:3 91:1 105:1 106:1 108:1 137:1 160:1 238:1 343:1 606:1 624:1 877:1 908:1 1214:1 2012:1 
5.962396070340057 0.703661472850305 0 1:1 2:1 3:2 4:6 5:4 6:3 7:2 10:1 11:4 16:1 17:1 18:2 27:1 29:2 33:1 42:1 47:2 55:2 59:1 63:1 73:1 86:1 87:1 92:1 125:1 130:1 134:1 148:1 166:1 203:1 223:2 225:1 228:1 250:1 258:1 259:1 260:1 264:1 267:1 287:1 364:1 399:1 446:1 454:1 554:1 697:1 699:1 709:1 761:1 788:1 935:1 1452:1 1665:1 1795:1 2012:1 2014:1 
32 0 0 1:1 2:1 13:2 14:1 22:1 50:1 162:1 379:1 2012:1 
0 0 1.81929920707447 1:4 2:4 5:3 7:1 16:4 230:1 345:1 385:1 488:1 2012:1 
2.095695578025348 0.9858714114812612 0.3209888184175486 1:1 2:1 4:1 5:16 6:3 7:4 13:1 15:1 16:1 18:1 19:2 26:1 38:2 43:1 47:1 51:1 53:1 56:1 57:1 66:1 68:1 69:1 74:1 76:1 77:3 92:1 103:1 105:1 106:1 140:1 143:1 148:1 168:1 176:1 187:1 191:1 204:1 207:1 223:1 239:1 290:1 300:1 315:1 326:1 330:1 394:1 421:2 439:1 447:2 448:1 512:1 515:1 523:1 553:1 565:1 654:1 729:1 740:1 783:1 836:1 907:1 1013:1 1193:1 1289:1 1303:1 1459:1 1463:1 1938:1 2012:1 2014:1 2031:3 2035:1 
0 0.4728464251563355 3.595784764913229 1:1 2:1 3:3 4:1 5:1 6:1 7:2 10:1 17:2 22:1 49:1 62:1 72:1 80:1 107:1 111:1 113:1 133:1 211:1 254:1 295:1 446:1 672:1 768:1 797:1 924:1 1114:1 1396:1 1673:1 1814:1 1960:1 1992:1 2012:1 2014:2 2032:1 
0 8.827016173776176 0 1:2 2:2 3:4 4:2 5:3 9:2 10:1 17:1 21:2 31:1 33:1 37:2 41:2 60:1 224:1 294:1 303:1 495:1 659:1 818:1 866:1 888:1 984:1 1607:1 2012:1 2014:1 
7.776554170421867 8.247132780038291 0 1:1 2:1 3:1 11:1 19:1 22:1 48:1 59:1 152:1 175:1 221:1 248:1 275:1 288:1 363:1 721:1 2012:1 
2.185578854324579 5.223032005171491 0 1:1 2:1 3:1 4:1 7:1 15:1 24:1 26:1 37:1 41:1 69:1 156:1 562:1 579:1 618:1 2012:1 
6.984594740059259 3.080319929961675 0.6041464138936609 1:1 2:1 3:1 5:2 6:3 7:3 13:1 15:1 17:1 18:1 24:1 29:1 43:2 51:1 65:1 74:1 82:1 84:4 103:1 141:1 145:1 187:1 211:1 219:2 253:1 259:1 274:1 309:1 439:1 478:1 485:1 490:1 519:1 540:1 549:1 727:1 947:1 1195:1 1258:1 1451:1 1465:1 1582:1 2012:1 2014:3 2031:2 
11.00351289893123 0 0 1:1 2:1 24:1 221:1 726:1 911:1 2012:1 
2.73838990648962 0 0 1:1 2:1 3:1 4:1 5:2 18:1 19:1 26:1 157:1 248:1 354:2 427:1 531:1 586:1 621:1 660:1 1918:1 2012:1 2014:1 
19.15621111920336 0 0 1:2 2:2 8:2 13:2 14:2 37:2 41:2 162:2 495:1 984:1 2012:1 2015:2 
7.960698528903309 0 0 1:1 2:1 3:3 5:1 20:2 111:1 113:1 705:1 1224:1 2011:1 2012:1 
10.09551985808081 0 0 1:1 2:1 3:4 4:1 5:4 7:4 21:1 26:3 37:1 41:1 60:1 67:1 80:1 96:1 103:1 104:1 175:1 303:1 311:1 402:1 534:1 706:1 755:1 776:1 818:1 839:1 1132:2 1254:1 2012:1 2014:2 2031:2 2035:1 
0 0 12.69484945637853 1:1 2:1 24:1 36:1 37:1 41:1 53:1 88:1 103:1 106:1 119:1 270:1 664:1 691:1 2012:1 2016:1 
0 2.638787222363836 0 1:2 2:2 4:1 6:2 18:1 43:1 104:1 453:1 675:1 1119:1 1165:1 1448:1 1544:1 1548:1 1886:1 2012:1 
0 1.010933492747598 0 1:1 2:1 3:3 4:2 15:1 19:1 44:1 54:2 65:1 95:1 122:1 390:1 408:1 420:1 470:1 564:1 917:1 1035:1 1078:1 1387:1 1409:1 1578:1 1669:1 1720:1 1953:1 2012:1 2031:2 2033:3 2034:1 
1.180779363380648 0 0 1:6 2:6 3:2 4:1 7:2 8:1 11:2 26:1 44:1 53:1 94:1 181:1 231:1 234:1 306:1 345:1 356:1 379:1 411:1 573:3 744:3 768:1 781:3 996:1 1185:1 1373:1 1457:1 2012:1 2015:1 2031:2 
0.3553355342990344 1.623615822888998 0.07664740934175995 1:1 2:1 3:9 4:10 5:2 6:1 7:4 11:1 14:3 19:1 26:1 42:1 45:1 47:1 52:1 56:1 62:1 77:1 88:2 91:1 114:4 129:1 177:1 229:2 234:3 270:1 290:2 295:1 323:2 324:1 338:1 447:1 476:1 541:1 592:1 637:1 654:1 723:1 759:1 775:1 832:1 859:1 910:1 1035:1 1350:1 1354:1 1428:1 1673:1 1932:1 1937:1 1999:1 2012:1 2033:1 
7.305016589709598 0.4212592673771586 0 1:1 2:1 3:4 4:3 9:2 10:1 22:1 26:1 31:1 33:2 36:2 62:1 66:1 92:1 269:1 274:1 315:1 318:1 345:1 581:1 587:1 605:1 639:1 710:2 750:1 809:3 830:1 866:1 881:1 889:1 912:1 1252:1 1334:1 1500:1 1597:1 1781:1 1906:2 2012:1 2014:2 2016:3 
14.08719985106307 0 0 1:1 2:1 23:1 477:2 615:1 724:1 2012:1 
0.9628474476472618 2.531866642391767 0.5169979150275263 1:6 2:6 3:11 4:1 6:1 10:3 11:2 17:1 24:3 26:1 29:1 31:1 33:1 34:1 37:1 41:1 43:1 60:1 111:3 113:3 118:1 119:1 133:3 137:1 138:1 141:1 159:1 204:1 247:1 294:1 308:1 309:1 384:1 419:1 445:1 461:1 511:1 524:1 620:1 647:1 712:1 737:1 779:2 1142:1 1184:1 1543:1 1583:1 1689:1 1772:1 2012:1 2014:4 2033:1 
0 3.121697402900012 0 1:1 2:1 7:1 10:1 16:1 400:1 561:1 2012:1 2014:1 
32 0 0 1:1 2:1 11:1 14:1 145:1 483:1 2012:1 
3.93758849597126 0 0 1:1 2:1 3:3 4:2 5:1 9:1 11:1 26:1 27:1 45:1 59:1 377:1 1245:1 1266:1 1806:1 2012:1 
4.858288982187217 14.27508328236099 0 1:1 2:1 3:1 4:1 7:1 9:1 10:1 50:1 52:1 53:1 99:1 102:1 129:1 179:1 328:1 909:1 1029:1 1450:1 2012:1 2014:1 
32 30.88623833720605 0 1:1 2:1 3:4 4:2 5:1 6:4 10:2 19:2 23:2 42:1 60:2 88:2 149:2 164:1 165:1 222:2 294:1 390:2 478:1 815:2 1124:1 1396:1 2012:1 2014:2 2031:2 
14.01216948276439 0 0 1:1 2:1 4:2 7:3 8:11 9:1 10:2 13:1 22:1 28:2 35:2 47:1 48:1 69:1 88:1 95:1 175:1 183:1 185:1 231:1 259:1 279:1 302:1 442:1 537:2 624:1 666:1 718:1 872:2 1687:1 1740:1 1759:1 2012:1 2014:2 2015:11 2031:4 2032:1 
0 5.537171004617425 0 1:3 2:3 4:1 6:1 9:2 13:1 16:3 31:1 33:1 42:1 55:1 65:1 66:1 120:1 130:1 145:1 219:1 503:1 571:1 668:1 1539:1 2012:1 
0 4.572006557501157 0 1:7 2:7 7:1 17:1 51:1 60:1 122:1 218:1 251:3 274:1 372:4 408:1 418:4 587:1 657:1 805:1 1706:1 1756:1 2012:1 2014:1 2033:4 
32 0 0 1:1 2:1 3:2 4:1 7:1 14:1 23:1 54:1 59:1 95:1 153:1 173:1 180:1 246:1 270:1 920:1 1035:2 1494:1 1703:1 2012:1 2031:1 2034:1 
5.940818776565868 0 0 1:2 2:2 3:4 4:1 5:1 7:1 10:2 11:1 15:1 16:2 17:1 23:1 28:1 29:1 39:1 58:1 61:1 68:1 77:1 109:2 120:1 135:1 181:1 234:1 410:1 452:2 481:1 568:1 629:1 859:1 890:1 1217:1 1224:1 1316:1 1605:1 2012:1 2014:2 2031:1 
0.4200432722898696 1.517066850827413 0 1:2 2:2 3:7 4:4 5:3 6:1 7:1 9:2 11:6 14:1 15:3 18:1 27:1 43:1 45:1 60:2 80:1 92:2 150:1 180:1 229:1 230:1 234:1 249:1 272:1 274:1 305:2 334:1 345:1 406:2 486:1 620:1 690:1 702:2 818:1 936:1 985:1 1047:1 1184:2 1262:1 1296:2 1311:1 1523:1 1548:1 1604:1 2012:1 2014:1 2031:2 2033:4 
2.641534832492537 0 0 1:1 2:1 3:2 4:1 8:2 22:1 36:1 44:2 59:1 62:1 66:1 86:1 87:1 89:1 115:1 177:1 275:1 314:2 354:1 397:1 451:1 453:1 543:1 660:1 750:1 801:2 807:1 809:3 881:1 987:1 1252:1 1346:1 1403:1 2012:1 2015:2 2016:1 
0 11.85383448180041 0 1:1 2:1 3:1 4:1 16:1 56:1 89:1 107:1 118:1 406:1 2012:1 
32 21.50190333291835 0 1:3 2:3 3:1 12:1 135:2 205:2 285:1 668:1 1268:1 2012:1 
1.088943663889405 0 0 1:1 2:1 4:2 19:1 59:1 63:1 362:1 546:1 672:1 1849:1 2012:1 
0.704827135619603 0.7037157429968177 0.2448175162139324 1:38 2:38 5:11 6:1 7:1 18:1 51:1 64:30 71:30 75:8 90:1 141:1 166:1 2012:1 2014:1 2033:8 
0 32 0 1:1 2:1 5:3 276:1 2012:1 2033:1 
2.790177282144291 0 0 1:1 2:1 4:1 11:1 36:1 135:1 156:1 238:1 337:1 682:1 773:1 2012:1 2014:1 2016:1 2017:1 
0 27.55957790270991 0 1:1 2:1 3:4 10:1 21:1 27:1 33:1 39:1 57:1 164:1 322:1 344:1 482:2 754:4 867:1 1005:1 1424:1 2012:1 2014:2 
0 4.872368395103286 0 1:1 2:1 3:2 5:3 6:1 7:1 15:1 22:1 23:1 42:1 82:1 179:1 199:1 211:1 214:1 218:1 237:1 256:1 308:1 350:1 611:1 624:1 1001:1 1496:1 1552:1 1587:1 2012:1 2014:2 
0 5.85650599258738 0 1:1 2:1 11:1 21:1 138:2 145:1 2012:1 
32 0 0 1:1 2:1 13:1 14:1 162:1 2012:1 
8.103581295375115 2.397768767567601 0 1:1 2:1 4:2 5:1 6:4 7:1 9:1 11:2 18:2 19:2 21:1 22:1 23:1 45:1 56:2 68:1 78:1 92:1 159:1 197:1 216:1 225:1 254:2 369:1 406:1 467:1 626:1 776:1 803:1 835:1 1148:1 1735:1 1884:1 2012:1 2031:2 2033:1 
2.166859924973137 1.753413873140011 0 1:3 2:3 3:5 4:3 5:5 7:2 15:2 18:2 21:3 31:1 34:1 38:3 42:2 55:1 56:1 59:2 66:1 69:2 74:1 105:1 106:1 108:2 112:2 134:1 150:1 181:1 186:1 187:1 204:1 210:1 257:1 270:1 299:1 408:1 441:1 449:2 463:1 548:1 602:1 653:1 679:1 686:1 720:1 759:1 770:2 792:1 810:1 907:1 952:1 1295:1 1555:1 1683:1 2012:1 2014:1 2031:1 2033:1 
0 5.45826062099385 0 1:1 2:1 3:4 6:3 9:2 10:1 17:1 18:1 22:1 49:2 85:1 154:1 233:1 307:2 543:1 586:1 641:1 818:1 854:1 1205:1 1305:1 1450:1 1627:1 1699:1 2012:1 2014:2 
32 0 0 1:1 2:1 3:1 4:1 6:1 10:1 20:2 23:1 32:2 48:1 107:1 138:1 140:2 154:1 223:1 323:1 534:1 1041:1 1486:1 1681:1 2011:1 2012:1 2014:1 2031:2 2035:1 
0 3.743428184565771 0 1:4 2:4 6:1 7:1 23:1 33:1 199:4 299:1 349:1 789:1 2012:1 
3.002832860199437 0.3236274796292407 0 1:1 2:1 3:9 4:3 5:2 6:4 7:4 11:2 19:1 26:1 36:1 38:1 42:1 47:1 56:2 65:1 82:1 84:3 91:1 95:1 96:1 98:1 119:1 159:1 179:1 181:1 184:2 270:2 271:1 273:1 282:1 323:1 324:1 358:1 373:1 418:1 476:1 516:1 608:1 740:1 1012:1 1024:1 1116:1 1662:1 1704:1 2012:1 2016:1 2017:1 2031:2 2033:1 
5.307306833238071 5.286495502967646 0 1:1 2:1 3:1 4:1 5:4 7:1 15:1 23:2 225:1 271:1 273:1 421:1 495:1 656:1 684:2 1559:3 1640:1 1875:1 1964:1 2012:1 
8.853652862115485 0 0 1:1 2:1 4:1 8:4 22:1 34:1 248:1 288:1 516:1 1050:1 1581:1 2012:1 2015:4 
0 32 0 1:1 2:1 5:2 8:1 13:1 33:1 67:1 193:1 296:1 362:1 511:1 1524:1 2012:1 2014:2 2015:1 2033:1 
0 32 0 1:2 2:2 47:1 54:1 137:1 160:1 492:2 674:1 2012:1 2033:1 
3.499428720171796 0 0 1:1 2:1 3:1 4:1 5:1 11:1 14:1 23:1 36:1 39:1 47:2 50:2 56:1 62:1 123:1 125:2 131:1 146:2 147:1 170:1 209:1 229:1 280:2 310:1 639:1 663:1 694:1 726:1 1376:2 1411:1 1698:1 1961:1 2012:1 2016:1 
0 4.368897850478086 0 1:2 2:2 7:1 8:1 15:1 44:1 45:1 74:1 89:1 129:2 327:1 591:1 643:1 1930:1 2012:1 2015:1 
5.085490967929535 13.15207598429958 0 1:1 2:1 3:2 4:2 7:1 10:1 16:1 17:1 20:2 23:1 28:1 34:1 49:1 60:1 65:1 73:1 80:1 152:1 182:1 211:1 221:1 267:1 297:1 312:1 353:1 537:1 598:1 638:1 1369:1 1401:1 1939:1 2011:1 2012:1 2014:2 2031:2 
0 18.76836695691987 0 1:3 2:3 16:3 17:1 28:1 49:1 69:1 176:1 428:1 479:1 485:1 2012:1 2014:1 
31.65343767444542 0 0 1:2 2:2 82:2 2012:1 
4.667433663088087 9.227940563142383 0 1:1 2:1 6:1 9:3 17:2 28:1 33:1 49:1 59:1 80:5 121:1 154:1 186:1 260:1 274:2 297:1 308:1 395:1 422:1 432:1 437:1 475:1 511:1 601:1 751:1 852:1 933:1 983:1 1031:1 1162:1 1330:1 1418:1 1516:1 2012:1 2014:3 2031:3 2033:1 
11.5293285928709 9.105520103210786 0 1:1 2:1 3:2 5:3 15:1 20:2 21:1 46:1 157:1 288:1 686:1 721:1 827:1 992:1 1011:1 2011:1 2012:1 2014:1 
32 0 0 1:1 2:1 4:2 8:1 9:1 40:1 45:1 72:1 88:1 91:1 95:1 180:1 315:1 386:1 468:1 491:1 722:1 1385:1 2012:1 2015:1 2017:1 2031:2 
0 5.0138514819082 1.412724674849312 1:5 2:5 4:1 9:5 86:1 87:1 96:1 146:1 480:5 500:5 902:1 1289:1 1772:1 2012:1 
20.04635302257985 0 0 1:1 2:1 46:1 52:1 57:1 161:1 189:1 2012:1 
32 0 0 1:1 2:1 40:1 108:1 115:1 140:1 170:1 771:1 900:1 980:1 2012:1 2031:3 2033:1 
24.52057518425757 0 0 1:1 2:1 14:1 21:1 26:1 74:1 109:2 126:1 1652:1 2012:1 
0 3.027531637165068 0 1:1 2:1 10:1 16:1 49:1 1940:1 2012:1 2014:1 
2.54342020120022 1.849239136292211 0 1:1 2:1 3:3 4:2 5:1 7:1 8:1 10:1 21:1 28:1 34:1 40:1 49:1 66:1 115:1 134:1 142:1 170:1 495:1 843:1 945:1 963:1 984:1 1702:1 1744:4 2012:1 2014:2 2015:1 2031:1 2033:1 
0 11.40528182221213 0 1:1 2:1 4:1 6:1 17:1 23:1 28:1 49:1 81:1 186:1 224:1 247:1 537:1 1230:1 2012:1 2014:1 
0 14.06109331616497 0 1:1 2:1 10:1 16:1 49:1 68:1 137:1 160:1 739:1 2012:1 2014:1 
11.24754856399976 2.169599049574255 0 1:1 2:1 5:2 7:1 9:1 13:1 14:1 21:1 63:1 73:1 95:1 179:1 194:1 322:1 409:1 527:1 641:1 865:1 1063:1 1083:1 1156:1 1945:1 2012:1 2014:1 
22.450098256879 32 0 1:1 2:1 3:1 4:1 37:1 41:1 44:1 134:1 225:1 316:1 360:1 405:1 749:1 1668:1 2012:1 2031:1 2033:1 
0.420573329362223 0 0 1:1 2:1 4:2 55:1 158:1 226:1 372:1 627:2 876:1 895:1 1329:1 1352:1 1910:1 2012:1 
0 8.04929431098301 0 1:1 2:1 3:2 5:1 10:1 16:1 29:1 33:1 42:1 44:1 60:1 80:1 118:1 119:1 247:1 257:1 287:1 308:1 340:1 485:1 883:1 1399:1 2012:1 2014:2 
0 0 0.2364047963556003 1:1 2:1 3:2 4:2 5:1 6:1 17:1 18:1 22:1 24:1 26:1 43:1 44:1 47:1 67:2 82:1 108:1 111:1 113:1 133:1 158:1 173:1 191:1 207:1 287:1 346:1 481:1 613:1 2012:1 2014:2 
0 32 0 1:1 2:1 3:4 4:1 8:1 17:1 27:2 95:2 271:1 273:1 387:1 990:1 2012:1 2014:1 2015:1 2017:1 2031:1 2033:2 
9.154966052660907 23.48538007310332 0 1:1 2:1 16:1 18:1 28:1 142:1 157:1 201:1 341:1 353:1 681:2 868:1 1031:1 1281:1 1819:1 2012:1 2014:3 2031:1 2033:1 
0 1.702480691667589 0 1:4 2:4 3:2 4:1 6:2 9:2 13:1 16:3 30:1 42:1 60:1 62:1 93:1 95:1 99:1 114:1 119:1 120:1 171:1 220:1 224:1 227:1 299:1 311:1 312:1 358:1 411:1 414:1 586:1 588:1 674:1 854:1 1005:1 1277:1 1733:1 1757:1 2012:1 2014:2 2033:1 
6.073142274105866 0 0 1:1 2:1 3:1 4:1 5:1 9:1 10:1 14:1 17:1 19:1 23:1 25:4 26:1 33:1 45:1 55:1 62:2 70:2 134:1 225:1 241:1 246:1 255:1 296:1 331:1 686:1 1038:1 1730:1 2012:1 2014:1 
4.057157468522437 0 0 1:2 2:2 3:1 4:1 6:1 7:1 23:1 30:1 65:1 143:1 277:2 295:1 331:1 382:2 592:2 717:2 2012:1 
32 8.462153038618215 0 1:3 2:3 6:1 9:1 11:1 12:1 19:1 26:1 28:1 46:1 80:1 91:1 102:1 167:2 186:1 209:1 413:1 605:1 680:1 681:1 854:1 1047:1 1976:1 2012:1 2014:1 
0 2.573801220257302 0 1:1 2:1 7:1 11:1 16:1 20:2 22:1 66:1 170:1 178:1 283:1 292:1 301:1 1321:1 2011:1 2012:1 
3.768501858354503 3.535596902117024 0 1:2 2:2 3:10 4:7 5:1 7:1 9:1 19:1 59:1 84:1 91:1 148:1 185:1 209:1 271:1 273:1 293:1 356:1 619:1 732:1 1134:1 1234:1 1244:1 1892:1 2012:1 2031:2 2033:1 
22.41743874215254 0 5.317374838350815 1:3 2:3 3:1 8:1 15:2 30:1 173:1 589:1 704:1 775:1 1329:1 1385:1 2012:1 2015:1 
0 12.25785298069773 0 1:3 2:3 4:4 7:2 24:3 33:2 39:1 40:1 46:1 48:1 66:1 75:1 96:1 106:1 185:1 191:1 360:1 405:1 639:1 966:1 1085:1 1202:1 1310:1 1348:1 2012:1 2031:1 2033:1 
8.895094753320159 0 0 1:1 2:1 4:2 7:2 11:1 13:1 14:1 149:1 162:1 169:2 173:1 210:1 238:1 264:1 272:1 379:1 1357:2 1451:1 2012:1 2015:2 
0 8.256497772159314 0 1:2 2:2 3:3 15:2 27:1 30:1 45:2 93:1 102:1 183:1 279:1 463:1 586:1 632:1 643:1 824:1 1353:1 1402:1 2012:1 2014:1 
5.220143049644637 0 0 1:1 2:1 7:1 20:2 22:1 90:1 92:1 96:2 240:1 457:1 809:1 896:1 965:1 1037:1 1154:1 1696:2 2011:1 2012:1 
23.77730818501894 0 0 1:1 2:1 7:1 43:1 57:1 79:1 369:1 472:1 830:1 1370:1 2012:1 
1.467406601816767 0.6363254398359737 0 1:1 2:1 3:7 4:4 5:5 6:2 9:3 10:3 11:1 15:1 18:1 19:1 29:1 31:1 36:1 47:1 65:1 80:1 84:1 86:4 87:4 103:1 115:1 123:1 131:1 158:1 168:1 178:1 187:1 192:2 222:1 230:1 246:1 262:1 412:1 425:1 490:1 630:1 849:1 870:1 879:1 886:1 904:1 952:1 962:1 982:2 1218:1 1230:1 1281:1 1326:1 1354:1 1514:1 1900:2 2012:1 2014:3 2016:1 2031:2 2033:3 2034:2 
0 11.11076643976807 0 1:3 2:3 3:2 5:3 7:1 9:1 12:1 13:1 14:1 17:1 19:1 21:1 23:1 26:1 82:1 118:1 123:1 131:1 138:1 174:1 184:1 194:1 211:1 222:1 260:1 446:1 569:1 791:1 808:3 883:1 962:1 1450:1 1458:1 2012:1 2014:1 
0 2.733325505265292 0 1:2 2:2 4:1 7:2 8:1 13:1 15:1 16:2 42:1 53:1 84:1 88:1 148:1 166:1 186:1 238:1 259:1 431:1 631:1 644:1 677:1 765:1 1082:2 1221:1 1608:1 2012:1 2014:1 2015:1 2033:1 2035:1 
1.656910659204694 2.437347758925408 0 1:2 2:2 4:1 6:1 7:2 15:2 16:1 23:1 27:1 34:1 51:1 54:1 73:1 77:1 140:1 153:1 223:1 230:1 257:1 297:1 310:1 417:1 435:1 466:1 470:1 477:6 612:1 638:1 668:1 695:1 1032:1 1040:1 1292:1 1552:1 2012:1 2014:1 2031:3 2033:1 
32 6.347551035618291 0 1:1 2:1 3:5 4:3 5:1 10:2 21:1 26:1 27:1 40:1 55:1 57:1 65:1 68:1 73:1 86:1 87:1 156:1 180:1 185:2 234:1 244:1 329:2 331:1 626:1 878:1 1048:1 1321:1 1523:1 2012:1 2014:2 2031:2 2032:1 
0 32 0 1:1 2:1 3:1 5:1 24:1 212:1 2012:1 2033:1 
0 0 3.36847840312508 1:2 2:2 3:4 4:1 6:1 7:3 9:1 16:2 19:1 48:1 52:1 84:1 85:1 90:1 112:1 128:1 160:2 171:1 257:1 388:1 430:1 493:1 498:1 503:1 559:1 644:1 970:1 1135:1 1789:2 2012:1 
0 32 0 1:1 2:1 4:1 6:1 9:1 42:1 65:2 68:1 92:1 116:1 125:2 143:2 147:1 207:1 324:1 330:1 420:1 611:1 2012:1 2033:1 
7.051694714780114 0 2.594127683963132 1:1 2:1 7:1 9:2 13:1 33:1 37:1 39:1 41:1 44:1 46:1 127:3 138:1 161:1 179:1 191:1 259:1 473:1 479:1 958:1 1578:1 2012:1 
0 7.5985467818621 0 1:1 2:1 6:1 7:1 206:1 211:1 610:1 1140:1 1411:1 2012:1 2014:1 
0 7.504395840615039 0 1:1 2:1 6:1 10:1 16:1 49:1 80:1 193:1 249:1 344:1 440:1 524:1 710:1 738:1 775:1 787:1 947:1 1171:2 1415:1 1628:1 2012:1 2014:1 
0 6.143571658554332 0 1:1 2:1 3:1 7:2 8:5 17:2 24:1 29:1 37:1 41:1 43:1 52:2 67:2 115:1 135:2 146:1 204:1 285:1 904:1 1561:2 2012:1 2014:2 2015:5 2034:1 
2.086452624661355 0 0 1:1 2:1 4:1 24:1 288:1 293:1 423:1 544:1 2012:1 
0.7831132227075509 0.1487458629525413 0 1:6 2:6 4:2 6:1 10:1 11:2 15:1 16:6 26:1 29:1 31:1 44:1 56:1 102:1 104:1 118:1 208:1 458:1 461:1 536:1 709:1 1243:1 2012:1 2014:1 
0 0 8.044236872964614 1:1 2:1 7:1 16:1 37:1 41:1 90:1 107:1 178:1 303:1 2012:1 
0 19.18520959178095 0 1:2 2:2 3:3 13:1 16:1 21:1 24:1 39:1 43:1 44:3 59:1 104:3 173:1 194:1 241:1 699:1 793:1 1383:1 2012:1 2014:1 2033:2 
0 9.560516217776881 0 1:6 2:6 3:1 7:2 16:6 50:1 631:1 2012:1 
0.3280000287723106 6.772582889660527 0 1:3 2:3 4:1 17:1 28:1 49:1 92:1 141:1 197:1 393:3 471:1 672:1 2012:1 2014:1 
0.9334555758787281 2.126251201523355 0 1:1 2:1 3:6 4:4 5:3 7:2 8:1 11:4 13:1 19:1 29:1 33:1 34:1 44:1 53:1 72:1 89:1 102:1 146:1 158:1 234:1 266:1 282:1 438:1 616:1 675:1 716:1 864:1 991:1 1011:1 1059:2 1103:1 1126:2 1593:1 2012:1 2015:1 2017:1 
0 5.696232240778115 0 1:1 2:1 22:1 34:1 57:1 59:1 63:1 137:1 160:1 239:1 369:1 566:1 2012:1 
0 0 5.040202640139508 1:3 2:3 157:1 176:1 393:3 1174:1 1933:1 2012:1 
1.40882090492028 1.190866101733123 0 1:1 2:1 3:11 4:4 5:6 6:4 9:3 11:2 19:3 21:1 29:1 36:1 39:1 57:2 59:1 65:1 69:1 72:1 82:1 92:1 107:1 125:1 153:1 157:2 164:1 198:1 238:1 298:1 303:1 313:2 317:1 334:1 344:1 387:1 402:1 498:1 534:1 584:2 702:1 990:1 992:1 1147:1 1207:1 1320:1 1385:1 1417:1 2012:1 2016:1 2031:1 2033:1 2035:1 
0 3.481502677108792 0 1:3 2:3 5:2 39:1 65:1 66:1 77:1 187:1 277:3 382:3 785:1 1337:1 2012:1 
2.871878000198318 0 0 1:1 2:1 3:2 6:3 8:1 74:1 295:5 1123:1 2012:1 2015:1 
20.24443369359817 2.464056709066998 0 1:1 2:1 3:1 5:1 10:1 14:1 81:1 175:1 204:1 394:1 733:1 867:1 898:1 2012:1 2014:1 
11.26849025612003 0 0 1:2 2:2 7:1 11:1 14:1 21:2 76:1 178:1 237:1 238:1 318:2 397:1 430:1 975:1 1323:1 1550:1 1582:1 1980:1 2012:1 2016:2 
0 0 6.561832689033323 1:1 2:1 4:2 16:1 18:1 27:1 37:1 52:1 143:1 493:1 1135:1 1199:1 2012:1 
5.133842632243536 0 0 1:1 2:1 3:1 4:1 5:1 6:2 11:1 17:1 20:2 21:1 96:1 107:1 141:1 211:1 259:1 303:1 355:2 435:1 439:1 1343:1 2011:1 2012:1 2014:1 
2.360205683418249 1.661473409615692 0 1:3 2:3 3:4 4:3 5:1 6:1 9:3 10:1 11:1 15:1 18:3 21:1 27:2 28:1 31:1 37:1 39:1 41:1 44:1 50:1 52:1 53:1 66:1 81:2 88:1 102:1 130:1 147:1 161:1 176:1 177:1 203:1 222:1 226:2 228:1 234:1 248:1 285:1 292:1 293:1 300:1 320:2 349:1 482:1 483:1 549:1 565:1 626:1 652:1 774:1 806:1 936:1 961:1 1182:1 1293:1 1705:1 1788:1 1861:1 2012:1 2014:2 
0 0.9812549116773587 0 1:3 2:3 3:2 5:3 6:1 7:1 11:1 50:2 61:1 68:1 92:1 96:1 175:1 878:1 991:1 1055:3 1163:1 1718:2 2012:1 
0 0 1.683138059309438 1:1 2:1 22:1 51:1 189:1 446:1 583:1 2012:1 2014:1 
5.200644241144513 5.306800112396235 0 1:1 2:1 4:2 15:1 17:1 18:1 19:1 39:1 47:1 67:1 90:1 127:2 157:1 158:1 207:1 310:1 338:1 340:1 545:1 840:1 965:1 1695:1 2012:1 2014:1 
32 32 0 1:1 2:1 4:1 7:1 21:1 29:1 42:1 53:1 94:1 105:1 488:1 802:1 877:1 2012:1 2031:1 2033:1 
0 19.51056857155775 2.067389232371434 1:4 2:4 10:1 17:1 53:2 268:1 363:1 440:1 2012:1 2014:1 2032:2 2033:2 
19.63831387517542 0 2.796521193677664 1:3 2:3 5:7 6:1 30:3 45:1 89:1 93:3 135:1 188:1 1855:1 2012:1 
0 8.630324235042096 0 1:1 2:1 3:1 4:1 6:2 7:1 26:1 27:1 45:1 54:1 159:1 220:1 671:1 849:1 1024:1 1113:1 2012:1 
0 7.944060478205174 7.824462586453491 1:1 2:1 3:3 4:2 5:1 9:1 10:1 18:1 19:1 24:1 63:1 84:1 136:1 195:1 390:1 414:1 429:1 451:1 511:1 575:1 746:1 1202:1 1366:1 2012:1 2014:2 2032:1 2033:2 
22.96091736108408 0 0 1:2 2:2 8:1 20:2 25:2 55:1 79:1 83:2 200:1 203:1 336:1 365:1 556:1 660:1 789:1 1241:1 1537:1 1571:1 1626:1 2011:1 2012:1 2015:1 
0 2.15783514052438 0 1:5 2:5 3:4 4:4 6:2 7:1 8:6 12:4 13:1 15:1 19:1 23:3 27:1 30:1 31:1 36:1 41:1 45:1 47:1 48:1 50:1 55:1 68:1 76:1 86:1 87:1 92:1 102:1 105:1 106:1 107:1 109:1 113:1 118:1 147:1 152:1 159:2 178:2 195:1 204:1 224:1 230:1 241:1 305:1 332:2 726:1 824:1 827:1 861:1 1074:1 1411:1 1505:1 2012:1 2015:6 2016:1 
0.6013104924523163 0 0 1:8 2:8 10:1 16:8 17:1 28:2 51:1 96:1 233:1 260:1 308:1 309:1 587:1 680:2 738:1 824:1 841:1 899:2 1402:1 1702:1 2012:1 2014:2 
0 0 1.29696540088231 1:1 2:1 3:3 4:3 5:1 9:1 11:2 15:1 29:1 36:1 65:1 91:2 149:2 229:1 390:1 475:1 732:2 895:2 1193:2 1980:1 2012:1 2016:1 2017:1 
0 0.7771056966269408 0 1:3 2:3 7:2 24:3 37:1 38:1 41:1 83:1 138:1 233:1 352:1 535:1 603:1 1121:1 1130:1 1439:1 2012:1 2014:1 
0 5.961015459558505 0 1:1 2:1 4:4 6:3 7:1 11:1 21:1 37:1 41:1 88:2 92:1 105:1 106:1 168:1 197:1 209:1 250:1 264:1 293:2 303:1 355:3 388:1 398:2 584:1 722:1 835:1 1674:1 2012:1 2033:2 
0 0.01260120009084603 0 1:1 2:1 4:1 6:1 7:2 13:1 15:1 17:3 18:1 31:1 44:1 45:2 51:1 57:1 65:1 92:1 102:1 104:1 107:1 121:1 141:1 181:2 227:1 240:1 252:1 256:1 260:2 269:1 274:1 308:1 325:2 353:2 359:1 383:1 392:1 393:1 403:1 437:1 530:1 564:1 623:1 646:1 657:1 701:1 924:1 1026:3 1128:1 1348:1 1399:1 1479:1 1515:1 1558:1 1561:1 1722:1 1856:1 1864:1 2012:1 2014:4 2034:1 
0 14.02479519040361 0 1:1 2:1 38:1 683:1 918:1 1715:1 2012:1 
0 32 0 1:3 2:3 3:2 7:2 16:3 18:1 68:1 212:1 430:1 1965:1 2012:1 2033:2 
1.041011130869716 1.131120152034381 0.1793365242705539 1:36 2:36 9:2 12:1 14:1 30:1 61:1 64:1 71:1 76:1 90:1 94:1 100:2 101:1 111:1 112:1 113:1 114:1 116:1 124:1 133:1 139:1 155:1 167:1 172:1 174:1 182:1 189:1 190:1 199:1 205:1 206:1 215:1 217:1 235:1 265:1 282:1 286:1 316:1 360:1 436:1 452:1 460:1 480:1 500:1 550:2 794:1 847:1 1236:1 1914:1 2012:1 2031:1 2032:1 2033:3 2035:1 
7.358696709779389 0 0 1:2 2:2 3:1 5:1 24:1 34:1 43:1 47:1 248:1 288:1 303:1 645:1 875:1 1186:1 1294:1 2012:1 
1.494784710939678 0 0 1:2 2:2 3:12 4:3 9:1 10:1 13:1 15:2 17:1 19:1 26:1 27:3 28:1 29:1 31:1 38:1 42:1 44:1 45:1 57:1 59:2 60:2 62:1 66:1 70:2 89:1 105:1 130:1 202:1 224:1 252:1 260:1 427:1 454:1 513:1 526:1 575:2 609:1 616:1 657:1 820:1 874:1 951:1 978:1 980:1 1045:1 1157:1 1162:1 1277:1 1449:1 1694:1 1837:2 1895:1 1897:1 1907:1 2012:1 2014:1 2031:1 2033:1 2034:1 
1.14458313701246 0 0.0672885644564765 1:1 2:1 95:1 393:1 441:1 2012:1 
0.3546067739268365 1.779765483785622 0 1:9 2:9 5:13 7:3 12:6 27:1 37:1 41:1 52:2 72:1 101:1 172:2 189:1 267:1 331:1 485:1 760:1 862:1 1001:1 1314:1 1958:1 2012:1 2014:1 
11.47287667253105 0 0.09818217922621993 1:1 2:1 3:1 4:1 5:1 9:1 405:1 550:1 593:1 611:2 640:1 847:1 850:1 1084:1 1757:1 2012:1 
0 2.100313860741247 2.574573654624935 1:1 2:1 4:2 5:2 7:2 8:2 10:2 11:3 16:1 18:1 23:1 26:1 27:1 28:2 29:1 42:3 48:1 57:1 62:1 89:1 188:1 194:1 201:1 206:1 223:1 227:1 294:1 445:1 635:1 736:2 764:2 846:1 1027:2 1260:1 1607:1 1631:1 1668:1 1745:1 2012:1 2014:2 2015:2 2032:1 2033:1 
0 24.13127987268959 0 1:2 2:2 3:1 4:1 5:2 11:1 13:1 17:1 31:1 34:1 78:1 104:1 188:2 256:1 274:1 278:2 291:2 308:1 311:1 361:1 370:1 628:1 701:1 1047:1 1432:1 1985:1 2012:1 2014:1 2033:2 
0 3.578306740951011 0 1:3 2:3 3:1 4:1 8:1 9:1 26:1 33:1 142:1 233:1 393:3 835:1 844:1 919:1 1330:1 1680:1 2012:1 2014:1 2015:1 2033:1 
1.312038818902474 0 0 1:1 2:1 3:2 4:2 6:1 9:1 23:1 37:1 41:1 54:1 117:1 505:1 1125:1 2012:1 
0 1.773970600901912 3.262054194974165 1:2 2:2 7:2 8:2 16:2 26:1 48:1 51:1 68:1 105:1 108:1 161:1 233:1 352:1 549:1 637:1 732:1 2012:1 2014:1 2015:2 
0 0.4279235436336418 0 1:2 2:2 3:5 4:5 5:4 6:1 9:1 13:1 18:1 27:2 28:1 29:1 39:2 43:1 44:2 65:1 82:1 86:1 87:1 130:1 159:1 214:1 275:1 475:1 654:1 918:1 952:1 959:1 1003:1 1098:2 1227:1 1456:1 1624:1 1980:1 2012:1 2014:3 2034:2 
0.3112504974362477 0 0 1:1 2:1 5:1 57:1 78:1 207:1 336:1 379:1 396:1 642:1 942:1 1391:1 1492:1 1534:1 2012:1 
4.591878217763355 1.690839003434797 0 1:1 2:1 4:1 6:1 10:1 11:2 20:2 22:1 26:1 36:1 47:1 66:1 137:2 309:1 435:1 440:1 468:1 597:1 606:1 736:1 785:2 1362:2 1600:1 2011:1 2012:1 2014:1 2016:1 
0 7.129217740027656 0 1:3 2:3 4:1 5:3 6:3 10:1 19:2 26:2 33:1 43:1 247:1 271:1 273:1 282:3 1330:1 1366:1 1473:1 2012:1 2014:1 
32 0 0 1:1 2:1 4:1 53:1 56:1 81:1 124:1 166:1 521:1 556:1 910:1 1016:1 2012:1 
2.927312403771701 0 0 1:4 2:4 4:2 24:4 28:1 59:1 79:1 96:1 99:1 102:1 110:1 193:1 195:1 268:1 323:1 541:1 586:1 654:1 715:1 759:1 1186:1 1765:1 2012:1 2014:2 
5.256118483636699 6.479364135953386 0 1:3 2:3 3:4 4:1 7:1 9:2 15:1 18:1 28:1 50:1 106:1 158:1 193:1 199:3 231:1 283:1 485:1 657:1 759:1 1328:2 1481:1 1594:1 2012:1 2014:1 
0.7369546702957711 3.431874749127435 0.5414131167671874 1:7 2:7 3:5 4:2 5:3 7:1 31:1 33:2 53:1 57:1 82:1 147:1 148:1 177:1 259:3 435:1 462:1 485:1 503:1 839:1 958:3 1009:4 1533:1 2012:1 2014:1 
0 23.93068560254914 0 1:1 2:1 22:1 1355:1 2012:1 
0 1.711066108882558 0 1:1 2:1 3:7 4:4 5:4 7:2 11:1 21:1 23:1 26:1 27:2 31:1 38:1 43:1 51:1 53:1 56:1 59:2 66:1 68:1 149:1 168:1 184:1 244:1 254:1 255:1 330:1 531:1 559:1 595:1 600:1 654:1 695:1 702:1 723:1 741:1 795:1 818:1 896:1 962:1 1008:1 1081:1 1220:1 1283:1 1358:1 1387:1 1390:1 1536:1 1709:1 1779:1 1829:1 2012:1 2014:1 2031:2 2033:2 2034:1 
13.0224230798147 0 0 1:2 2:2 3:3 6:1 11:1 15:1 32:2 38:1 39:1 53:1 96:1 115:1 120:1 130:1 194:1 250:1 413:1 538:1 579:1 587:1 660:1 977:1 1112:1 1404:1 1412:1 1577:1 1785:1 1980:1 2012:1 2014:2 
21.32376572053314 0.3245855416903816 0 1:1 2:1 3:8 4:4 5:1 6:1 9:8 11:2 14:2 18:1 19:2 27:3 38:1 45:1 84:2 88:2 89:2 92:2 94:1 107:1 114:1 224:1 271:1 273:1 313:1 406:1 427:1 479:1 567:1 597:1 722:1 865:1 874:2 896:1 897:1 1128:1 1157:1 1163:1 1360:1 1487:1 1968:1 2012:1 2031:2 2032:1 2033:1 
0 13.33052481713271 0 1:1 2:1 3:1 8:1 11:1 19:1 30:1 61:2 67:1 92:1 93:1 96:1 183:1 269:1 325:1 366:1 486:1 524:1 594:1 805:1 1557:1 1845:1 2012:1 2014:1 2015:1 2032:1 2033:2 
0 8.900680618454407 0 1:6 2:6 4:1 6:1 7:4 15:1 16:2 26:1 34:1 58:1 75:1 102:1 116:2 118:1 122:1 145:1 152:1 168:1 198:1 219:2 221:1 310:1 408:1 544:1 565:1 590:1 667:1 720:1 1166:1 1341:1 2012:1 2031:2 2033:3 
1.365473290766188 0 0 1:3 2:3 3:4 4:1 5:9 7:1 11:1 13:1 18:1 19:1 21:3 29:2 31:2 34:1 37:1 38:1 40:1 41:1 43:1 46:3 50:1 53:1 59:1 77:1 102:1 128:1 134:2 140:1 160:1 162:1 171:1 176:1 186:1 204:1 227:1 232:1 301:1 350:1 379:1 392:1 403:1 442:1 457:1 478:1 482:1 588:2 633:2 652:1 791:1 876:1 908:4 934:1 1022:1 1037:1 1225:1 1353:1 1410:1 1620:1 1789:1 1790:1 2012:1 2014:1 2031:4 
0 6.303537362571094 0 1:4 2:4 3:1 11:1 17:1 29:1 67:1 78:1 175:1 243:1 244:1 466:3 483:1 622:1 792:1 1000:1 1674:1 2012:1 2014:1 2033:1 
0.8451029912746567 6.712785678881364 0 1:1 2:1 3:3 4:4 5:1 11:3 13:1 15:4 18:2 22:1 24:1 37:1 41:1 56:1 70:2 73:1 123:1 131:1 164:1 298:1 300:1 327:1 338:1 373:1 406:4 842:1 850:1 897:1 1082:1 1245:1 1343:1 2012:1 2031:1 2033:2 
0 0 0.02904873395015119 1:1 2:1 3:3 5:3 10:2 13:1 17:2 18:1 39:1 42:1 65:1 96:2 141:2 145:1 316:3 317:1 387:1 414:1 611:1 990:1 1242:1 1869:1 2012:1 2014:2 
0 2.89999468880149 0 1:3 2:3 3:4 4:1 6:1 7:2 12:1 15:1 17:1 31:1 50:1 64:1 71:1 75:1 142:1 178:1 201:1 218:1 229:1 248:1 274:1 314:1 353:1 371:4 416:1 529:1 539:1 652:1 701:1 1371:1 1435:1 1465:1 2012:1 2014:3 2033:1 2034:1 
0 2.377051144670382 0 1:1 2:1 8:1 206:1 694:1 711:1 2012:1 2015:1 2017:1 
11.58453265672601 0 0 1:6 2:6 81:2 188:2 278:2 291:2 1069:2 2012:1 
0 0.1322539950836663 0.5105243991305806 1:2 2:2 3:8 4:2 7:4 11:1 24:2 26:1 52:1 53:1 56:1 61:1 82:1 103:1 119:1 147:1 181:1 224:1 264:1 337:1 435:1 493:3 498:1 526:1 534:1 602:1 877:1 1265:1 1454:1 2012:1 2014:1 2035:1 
0 0 1.416103230830096 1:2 2:2 4:1 31:1 53:1 111:2 113:2 133:2 747:1 1340:1 1373:1 2012:1 
5.137416601350691 3.736705002393012 0 1:2 2:2 3:2 5:5 7:1 10:1 15:1 19:1 26:2 28:1 30:1 45:1 175:1 177:1 193:1 211:1 236:1 253:1 268:1 363:1 393:1 395:1 406:1 502:1 547:1 629:1 686:1 732:1 1084:1 1118:1 1440:1 1566:1 1884:1 2012:1 2014:2 2031:1 2033:2 
28.67563063141282 0 0 1:1 2:1 3:2 4:1 8:2 22:1 36:1 44:2 59:1 62:1 66:1 86:1 87:1 89:1 115:1 157:1 177:1 275:1 314:2 354:1 397:1 451:1 453:1 543:1 750:1 801:2 807:1 809:3 881:1 987:1 1252:1 1346:1 1403:1 2012:1 2015:2 2016:1 
0 1.425207039153337 0 1:2 2:2 4:2 5:4 7:1 10:1 18:1 23:1 27:1 29:1 56:1 130:1 149:1 177:1 179:2 257:1 358:1 466:2 597:1 1060:1 1147:1 1975:1 2012:1 2014:1 
8.834387169772889 0 0 1:3 2:3 24:3 27:1 37:1 41:1 148:1 457:1 760:1 855:1 862:1 1188:1 2012:1 
21.25069864925034 0 0 1:3 2:3 4:1 6:2 8:2 9:2 14:1 21:3 46:1 65:1 198:1 2012:1 2015:2 
0 7.138607398104935 0 1:1 2:1 4:1 8:3 23:1 38:1 330:1 386:1 396:1 487:1 539:1 967:1 2012:1 2015:3 2017:1 
0 1.17400723177398 0 1:1 2:1 6:1 8:1 11:1 15:1 16:1 22:1 43:1 47:1 50:2 547:1 868:1 2012:1 2015:1 
0 8.414868526188744 0 1:1 2:1 10:1 28:1 111:1 113:1 133:1 202:1 2012:1 2014:1 
32 0 0 1:2 2:2 6:1 9:1 11:1 14:1 21:1 39:1 104:2 574:1 1009:1 2012:1 
0 2.396504912334559 0 1:1 2:1 3:5 4:3 5:1 6:4 7:2 9:1 15:1 17:2 19:1 29:1 43:3 51:1 59:1 69:1 74:1 99:1 105:1 106:1 126:1 133:1 151:2 179:1 270:1 308:1 314:1 315:1 407:1 417:1 443:1 445:1 503:1 511:1 632:1 782:1 786:1 854:1 858:1 869:1 913:1 963:1 1047:1 1253:1 1365:1 1407:1 1458:1 1779:1 1890:1 1901:1 1936:1 2012:1 2014:2 2033:1 
0 7.594825164759815 0 1:1 2:1 22:1 1487:1 2012:1 
0 19.47878055566957 0 1:1 2:1 4:1 6:1 25:1 29:1 30:1 93:1 450:1 510:1 2012:1 
0 0.6718256936563256 0 1:4 2:4 3:4 4:2 6:3 7:1 8:1 11:1 16:3 21:1 33:1 45:1 46:1 51:1 55:1 57:1 58:1 74:1 78:2 107:1 119:1 137:1 160:1 161:1 188:2 224:1 270:1 317:1 336:1 553:1 633:1 810:1 813:1 1222:1 1305:1 1394:1 2012:1 2014:1 2015:1 2031:1 
15.04752304498751 0 0 1:1 2:1 3:1 5:1 15:1 19:1 24:1 34:1 37:1 41:1 257:1 652:1 907:1 2012:1 
0 4.030178843492605 0 1:1 2:1 23:1 36:1 63:1 125:1 157:1 282:1 1174:1 2012:1 2016:1 
0 4.869149341494933 0 1:3 2:3 3:3 4:1 6:2 7:3 8:3 10:1 11:1 16:3 17:1 24:1 28:1 29:1 45:1 47:1 51:1 52:2 53:1 60:1 68:1 99:1 106:1 110:1 146:2 201:1 224:1 294:1 346:1 408:1 463:1 476:1 526:2 607:1 647:1 725:1 813:1 869:1 1396:1 1613:1 1739:1 2012:1 2014:4 2015:3 2031:1 2033:1 
0 7.805142993347736 0 1:3 2:3 4:1 6:2 16:3 19:1 27:1 42:1 45:1 88:1 510:1 1228:1 2012:1 
0 4.955190984039642 2.063919887132025 1:1 2:1 21:1 23:1 46:1 56:1 169:3 219:1 497:1 589:2 720:2 730:1 1000:1 1176:2 1205:1 1288:1 1376:1 1841:1 2012:1 2015:3 
9.535842393127558 2.13246046357469 0 1:1 2:1 3:3 4:1 7:1 22:1 26:1 57:1 63:1 67:1 108:1 156:1 233:1 369:1 1331:1 2012:1 2014:1 
0 0 0.6776329569635109 1:3 2:3 3:3 16:3 27:1 72:1 92:1 106:1 173:1 377:2 405:1 461:1 462:2 474:1 651:1 779:1 1079:1 1271:1 1956:1 2012:1 
32 0 0 1:1 2:1 7:1 49:1 214:1 685:1 1204:1 2012:1 2014:1 
26.37331654699311 0 0 1:4 2:4 468:4 2012:1 
0 3.054408750356131 0 1:1 2:1 4:1 5:1 8:1 13:1 22:1 66:1 89:1 159:1 226:1 421:1 656:1 944:1 1050:1 1074:1 1095:1 2012:1 2015:1 
0 0 0.4534248885132021 1:1 2:1 5:3 6:2 11:1 16:1 20:2 28:1 29:1 51:1 61:1 156:1 158:1 231:1 483:1 484:1 2011:1 2012:1 2014:1 
0 0 2.267552554373038 1:1 2:1 3:1 4:1 6:1 15:1 22:1 23:1 47:1 89:1 305:1 426:1 434:1 844:1 1020:1 1721:2 2012:1 
0 8.991707536839444 0 1:1 2:1 3:1 16:1 102:1 482:1 819:1 960:1 2012:1 
0 0 0.3933508687860008 1:1 2:1 3:3 6:1 22:1 24:1 26:1 37:1 41:1 42:1 44:2 51:1 80:1 130:1 136:1 256:1 764:1 804:1 1168:1 2012:1 2014:1 
22.10336284350139 0 0 1:1 2:1 3:3 4:1 5:1 6:2 7:1 11:1 13:1 16:1 27:1 29:1 31:1 112:1 125:1 128:1 253:1 301:1 322:1 330:1 521:1 958:1 960:1 1163:1 2012:1 2031:1 
0 0.6157764967799254 0.2292476343890708 1:2 2:2 3:1 4:1 5:1 6:1 7:3 38:1 118:1 129:3 143:2 187:1 416:1 1458:1 1815:1 1956:1 2012:1 
0 0 3.273021508458214 1:1 2:1 3:3 4:2 6:2 7:1 17:1 50:1 51:1 72:1 104:1 141:1 156:1 249:1 282:1 442:1 661:1 1026:1 1159:1 1328:1 1600:1 2012:1 2014:2 
0 0 0.2565464398968045 1:1 2:1 4:2 6:1 11:1 16:1 29:1 103:1 145:1 709:1 788:1 1299:1 1341:1 1438:1 1603:1 2012:1 
4.034895222102888 0.6912203031970011 0 1:1 2:1 3:7 5:1 11:2 13:2 15:1 18:2 27:1 59:1 63:1 85:1 183:1 282:1 305:1 313:2 356:2 531:1 575:1 1331:4 2012:1 
0 5.822565667688631 0 1:3 2:3 3:1 6:1 7:1 11:1 104:1 436:3 447:1 510:1 1927:1 2012:1 
4.336617487933793 0 0 1:1 2:1 22:1 1482:1 2012:1 
1.182283861395126 2.442768953007012 0 1:1 2:1 3:3 4:3 5:2 6:7 7:3 10:1 11:1 14:1 17:1 23:1 24:1 28:1 29:1 52:1 59:1 61:1 78:3 95:1 126:1 153:1 174:1 184:1 192:1 240:1 317:1 383:1 385:3 408:1 430:1 485:1 508:1 1251:2 1554:1 1578:1 2012:1 2014:2 
0 0 7.378364651153235 1:6 2:6 24:6 2012:1 
1.432668700818061 3.2991641361218 0 1:1 2:1 3:15 4:7 5:3 7:3 9:1 10:4 11:3 13:1 14:1 23:1 27:2 28:2 29:1 68:1 72:1 77:1 105:1 142:1 164:2 177:1 214:1 233:1 248:2 257:1 298:1 315:1 332:1 336:1 426:1 644:1 728:1 992:1 1068:1 1175:1 1366:1 1565:1 1588:1 1612:1 2012:1 2014:8 2031:2 2033:3 
0 1.09153717230282 0 1:1 2:1 3:10 4:1 5:4 7:1 13:1 36:1 51:1 61:1 68:1 178:2 226:1 246:1 254:2 318:2 319:1 365:6 461:1 486:1 557:1 563:1 589:3 641:1 684:1 729:1 848:1 849:1 934:1 1061:3 1141:1 1177:1 1196:1 1496:1 1659:1 1777:1 2012:1 2014:2 2016:3 
0 14.17631181923418 0 1:6 2:6 7:1 31:1 47:1 89:1 155:2 212:1 251:1 265:2 487:1 1139:2 2012:1 2032:2 2033:4 
0 2.358468381499968 0 1:1 2:1 3:3 10:1 11:2 36:1 43:1 84:1 85:1 145:1 259:1 282:1 589:1 1011:1 1091:1 1324:1 1445:1 1886:1 2012:1 2014:1 2016:1 2017:1 
3.160190635535999 0.5169124548350316 0.2075792084656194 1:4 2:4 3:5 4:5 5:3 6:7 8:5 9:4 10:2 11:1 13:2 18:1 23:2 27:1 30:1 31:1 33:2 42:1 45:1 46:1 50:1 58:1 59:1 67:1 73:2 91:1 93:1 98:1 111:1 113:1 133:1 141:1 156:2 166:1 179:1 198:1 218:1 219:2 226:2 253:1 270:1 303:2 330:1 331:1 351:1 384:1 397:1 399:1 410:1 441:1 454:1 468:1 528:1 605:1 611:1 774:1 793:1 803:1 837:1 1056:1 1431:1 1563:1 2012:1 2014:3 2015:5 2031:4 
1.399912803900155 3.488199451250467 0 1:1 2:1 4:3 5:3 6:1 7:2 11:3 18:1 29:1 43:1 69:1 92:1 137:3 160:3 191:1 207:1 328:1 338:2 372:1 400:1 418:1 429:1 495:1 786:2 813:2 984:1 2012:1 
6.025674423360488 0 0 1:3 2:3 3:2 4:1 10:1 20:2 25:1 30:1 43:1 46:2 86:1 87:1 206:3 327:1 334:1 448:1 1685:1 2011:1 2012:1 2014:1 
0 0 3.85311750678899 1:1 2:1 5:3 6:2 7:1 11:1 31:1 84:2 466:1 516:1 2012:1 
0.5718130331351861 0 0 1:1 2:1 3:2 4:4 6:3 7:1 10:1 26:1 30:1 38:1 42:1 43:3 48:1 49:1 54:6 60:1 93:1 107:1 137:1 146:1 160:1 193:1 208:1 269:1 317:1 526:3 564:1 633:1 827:1 866:1 1222:1 1269:1 1401:1 1402:1 1483:1 1527:1 1891:2 2012:1 2014:1 
0.7142650433353936 1.087318594081538 0.5247900749917237 1:1 2:1 3:1 4:2 5:1 6:1 7:1 8:13 9:4 13:1 16:1 25:3 26:2 36:4 47:1 50:1 72:1 74:1 86:5 87:5 89:1 110:1 119:2 125:1 136:1 146:2 159:1 231:1 307:3 353:1 404:1 526:2 567:1 670:1 793:1 1221:3 1230:1 1404:1 1470:1 1503:1 1872:1 2012:1 2014:2 2015:13 2016:4 
0 0 0.1283020603983812 1:1 2:1 6:1 8:5 9:1 16:1 28:1 31:1 38:1 43:1 46:1 51:1 68:1 102:1 166:1 208:1 213:1 283:1 307:1 343:1 349:1 354:1 392:1 501:1 592:1 648:1 923:1 1104:1 1570:1 1817:1 1880:1 2012:1 2014:1 2015:5 2017:1 2032:1 
1.720305681195052 0.4977732464072094 0 1:1 2:1 3:11 4:8 5:1 11:2 17:2 18:1 19:1 23:1 27:4 29:1 31:4 38:1 40:1 45:1 59:2 65:1 67:2 73:2 82:1 92:1 95:1 165:1 168:1 172:1 180:1 188:1 191:1 225:1 278:1 291:1 303:1 317:1 402:1 426:1 429:1 450:1 575:2 612:1 973:1 1107:1 1383:1 1921:1 2012:1 2014:2 2031:4 2033:3 
0 0 5.481061276778993 1:1 2:1 4:1 6:1 46:1 106:1 282:1 334:1 385:1 840:1 1015:1 2012:1 
0 0.7313883801399668 0 1:3 2:3 4:1 10:1 78:1 106:1 188:3 201:1 278:3 291:3 476:1 512:1 521:1 973:1 1314:1 2012:1 2014:1 
12.22203793211775 7.830671852632262 0 1:2 2:2 4:2 5:3 6:2 7:1 8:1 10:2 13:1 15:1 17:1 18:1 19:1 23:1 26:1 33:1 34:1 40:1 48:1 60:1 66:1 77:2 78:1 119:1 136:1 150:1 170:1 247:1 263:1 342:1 532:1 552:1 714:1 821:1 835:1 1042:1 1409:1 1643:1 1838:1 2012:1 2014:2 2015:1 2031:2 
1.613165418301596 1.514434292344099 0.6778040835316835 1:1 2:1 3:5 4:2 5:1 10:3 15:1 17:2 26:2 28:2 29:1 42:1 51:1 55:1 65:1 153:1 164:1 181:1 185:1 199:1 246:1 287:2 296:1 321:1 331:1 353:1 386:3 491:3 676:1 951:1 1162:1 1519:1 1521:1 2012:1 2014:4 2032:1 
0 0 1.627287488763491 1:1 2:1 4:3 5:6 6:3 7:2 27:2 49:1 154:1 179:1 222:1 243:1 325:1 348:1 353:1 361:1 407:1 437:1 572:2 621:1 922:2 981:2 1098:1 1335:1 1751:2 2012:1 2014:1 
0 3.258154430933621 0 1:1 2:1 3:4 4:1 5:2 9:2 10:1 11:1 15:2 23:2 28:1 84:2 149:1 157:2 197:1 244:2 252:1 305:1 311:1 402:1 452:1 669:3 776:1 957:2 1018:1 1899:1 2012:1 2014:3 2031:1 2033:2 
1.5790266651402 0.6016198806591535 0 1:1 2:1 3:9 4:9 5:1 8:2 9:1 11:5 15:1 20:2 23:3 26:1 27:2 38:1 44:3 45:1 59:1 65:2 94:1 95:3 114:1 123:1 131:1 153:1 173:1 225:1 239:1 246:2 327:1 348:1 527:1 531:1 575:1 619:1 749:2 821:1 892:1 897:1 1017:1 1129:5 1141:1 1327:1 1361:1 1383:1 1599:1 1635:1 1731:1 1807:1 2011:1 2012:1 2015:2 2031:1 2035:1 
0.3874826580639321 0 0 1:1 2:1 15:1 25:1 33:2 127:2 2012:1 
1.749408237254814 0.4651399738915108 0 1:1 2:1 3:5 4:5 5:6 6:1 7:3 8:4 10:1 13:1 15:3 18:1 24:1 34:1 37:2 38:1 40:1 41:1 47:1 51:1 52:1 53:1 56:1 61:1 63:1 65:1 66:2 69:3 103:1 104:2 108:1 113:2 121:1 153:1 170:1 175:1 176:1 179:1 241:2 246:1 249:1 250:1 254:1 266:1 297:1 334:1 350:1 355:1 361:1 394:1 413:1 494:1 621:1 638:1 661:1 1092:1 1379:1 1498:1 1628:1 1657:1 1908:1 1911:1 2012:1 2014:2 2015:4 2031:2 2034:1 
0 0.04773478720539088 0 1:1 2:1 3:2 4:1 13:1 15:1 20:2 39:1 78:2 93:1 123:1 131:1 136:1 169:1 226:1 280:1 365:1 1084:1 1453:1 1765:1 2011:1 2012:1 2015:1 
0 23.599262838241 7.451060025502646 1:1 2:1 17:2 39:1 81:1 121:1 223:1 437:1 443:1 471:1 1330:1 2012:1 2014:1 2032:1 2033:1 
16.27353399120419 32 0 1:1 2:1 4:1 7:1 8:1 26:1 56:1 73:1 123:1 131:1 156:1 179:1 1438:1 1935:1 2012:1 2015:1 2031:1 2033:1 
32 0 0 1:3 2:3 4:1 8:1 111:3 113:3 133:3 215:2 2012:1 2015:1 
0.3253704483854208 0 0 1:1 2:1 3:1 4:2 6:1 8:4 9:1 16:1 22:1 27:1 45:1 74:1 126:1 154:1 179:1 239:1 302:1 391:1 398:1 485:1 516:1 585:1 619:1 868:1 925:1 964:1 1024:1 1511:1 1660:1 2012:1 2014:1 2015:4 
0 9.86209361297634 0 1:3 2:3 3:5 4:1 6:1 7:1 10:1 13:1 17:1 21:3 27:1 28:1 31:1 96:1 186:1 204:1 216:1 240:1 247:1 356:1 403:1 549:1 594:1 686:1 805:1 871:1 995:1 1136:1 1420:1 1560:1 1940:1 2012:1 2014:2 2033:2 
0 1.883753884182039 0 1:1 2:1 7:1 10:1 15:1 28:1 30:1 46:1 69:1 93:1 103:1 240:1 892:1 1312:1 2012:1 2014:1 
14.16510733048387 2.012621090585471 0.009447941784788092 1:1 2:1 523:1 772:1 855:1 2012:1 
0 0 0.4432398791293848 1:1 2:1 3:3 4:2 6:1 7:2 11:1 16:1 29:1 56:1 66:1 69:1 103:1 107:1 114:1 120:1 126:1 145:1 149:1 171:1 176:1 204:1 220:1 301:1 579:1 607:1 1406:1 1621:1 2012:1 
3.418531433119736 0.2280630482324298 0 1:1 2:1 3:11 4:4 5:1 6:5 7:1 8:1 9:6 10:2 13:2 14:2 18:1 19:1 33:2 45:1 53:1 60:1 67:1 73:1 74:1 80:1 82:2 98:1 104:1 121:2 126:1 147:1 166:1 185:1 197:1 211:1 216:1 229:1 233:1 241:1 249:1 308:1 402:1 414:2 473:1 483:1 498:1 738:1 741:1 777:1 865:1 874:1 1022:1 1046:1 1136:1 1207:1 1313:2 1443:1 1469:1 1766:1 1897:1 2012:1 2014:4 2015:1 2031:3 2033:1 
