svm_type c_svc
kernel_type rbf
gamma 0.0078125
nr_class 6
total_sv 14652
rho 0.014637 0.0141711 -0.569008 -1.32996 -0.887315 -0.060659 -0.583047 -1.86506 -0.888508 -0.701715 -1.91977 -1.07121 -1.08641 -0.607244 0.670872
label 1 3 0 2 4 5
nr_sv 4489 3756 5340 720 117 230
SV
6.572350362530129 16.27817834525754 1.342646986067764 0 0 1:1 2:1 3:2 4:1 15:1 22:1 23:1 44:1 72:1 105:1 138:1 216:1 357:1 550:1 583:1 1087:1 2012:1 2031:1 
0 15.63083012875199 0 0 0 1:1 2:1 4:1 44:1 65:1 116:1 124:1 162:1 178:1 236:1 280:1 1742:1 1876:1 2012:1 
0 26.61557304962157 0 0 0 1:1 2:1 3:8 4:5 7:3 8:2 15:1 18:1 19:1 22:1 23:1 26:1 50:1 61:1 79:2 91:1 95:1 116:1 125:1 129:1 139:1 158:1 170:1 188:1 212:1 218:1 250:1 256:1 298:2 386:1 388:1 505:1 546:1 658:1 725:2 758:1 811:1 958:1 986:1 1099:1 1235:1 1242:2 1273:1 1319:1 1353:1 1426:1 1449:2 1488:1 1630:2 1750:1 1902:1 1932:1 2012:1 2015:2 2032:1 
0.002536039777317465 0.08079161604012057 0.2567886240332037 0 0 1:14 2:14 4:1 6:2 8:1 9:1 11:1 13:1 17:2 31:8 32:1 34:1 36:1 40:1 45:2 46:1 47:1 49:1 50:1 60:1 61:1 72:1 81:3 84:1 88:1 94:8 102:1 145:1 151:6 236:1 294:1 348:1 528:1 824:1 963:1 1285:1 1883:1 2012:1 2014:1 2015:1 2016:1 2031:1 
0 3.947421431605438 0 0 0 1:1 2:1 4:2 6:1 8:3 11:1 82:1 218:1 261:1 369:1 399:1 531:1 1109:1 1132:1 2012:1 2015:3 
0 0 0.5860673079973104 0 0 1:1 2:1 3:2 4:2 7:1 22:1 37:1 67:1 77:1 92:1 115:1 186:1 246:1 406:3 471:1 505:1 724:1 901:1 1452:3 1531:1 2012:1 2031:1 
1.035770953912745 3.360186764502745 0 0 0 1:1 2:1 3:9 4:1 5:1 7:3 9:1 10:2 17:1 19:1 23:1 27:1 28:1 32:1 44:2 55:1 58:1 68:1 69:1 80:1 95:1 98:2 107:1 141:2 175:1 202:1 221:1 236:1 250:1 257:1 274:1 293:1 303:1 311:1 312:1 319:2 333:1 340:1 342:1 419:1 538:1 582:1 649:1 683:1 690:1 801:1 803:1 867:1 903:1 931:1 1050:1 1108:1 1164:1 1173:1 1277:1 1678:1 1938:1 2012:1 2014:5 2031:1 2033:1 
0.7621260481315841 1.81807728970243 0 0 0 1:6 2:6 4:3 6:5 7:3 9:1 10:2 11:2 13:1 16:1 17:2 19:1 21:1 23:1 28:1 35:1 45:1 48:1 51:1 53:1 78:1 113:1 116:1 126:1 134:1 139:1 141:1 160:1 182:1 189:1 205:1 216:1 274:1 280:1 292:1 331:1 420:2 533:1 540:1 571:3 638:1 715:2 789:2 824:1 874:1 927:1 937:1 1084:1 1215:1 1405:1 1618:1 1790:1 1814:1 2012:1 2014:3 2031:2 2033:1 
1.125510994804209 0.9486800138684305 0.2035243430376709 0 0 1:1 2:1 3:9 4:4 5:4 6:6 7:4 9:7 11:1 17:2 18:1 19:1 21:1 23:2 27:2 29:2 32:7 36:1 44:1 51:1 56:1 65:1 68:2 80:1 93:1 95:1 163:1 170:1 186:1 188:1 198:1 245:4 257:1 369:1 397:2 416:1 472:3 568:1 602:1 620:1 856:1 1211:1 1317:2 1440:1 1507:1 2012:1 2014:3 2016:1 
0 3.11189072804336 0 0 0 1:1 2:1 5:5 6:1 7:1 10:3 17:1 34:2 35:1 64:1 174:1 236:1 249:1 256:1 291:2 449:1 475:1 640:1 2012:1 2014:3 2031:4 
11.96963918640223 0 1.65008479806998 0 0 1:1 2:1 3:3 4:2 7:2 8:1 18:1 22:1 23:1 29:1 36:1 37:1 61:1 93:1 98:1 109:1 136:1 196:1 213:1 230:1 235:1 275:1 363:2 658:1 670:1 874:1 904:1 990:1 993:1 1084:1 1216:1 1830:1 1895:1 1933:1 1953:1 2012:1 2014:1 2015:1 2016:1 2031:1 
2.554417885380482 0 0 0 0 1:1 2:1 3:3 4:2 7:2 8:1 18:1 22:1 23:1 29:1 36:1 37:1 61:1 93:1 98:1 109:1 136:1 196:1 213:1 230:1 235:1 275:1 319:1 363:2 658:1 874:1 904:1 990:1 993:1 1084:1 1216:1 1358:1 1830:1 1895:1 1933:1 1953:1 2012:1 2014:1 2015:1 2016:1 2031:1 
0 1.454782103932936 0 0 0 1:2 2:2 4:1 6:1 9:1 27:1 30:1 45:1 61:1 80:1 83:1 87:1 97:1 107:1 144:1 229:1 234:1 245:1 254:1 306:2 382:2 409:1 965:1 1001:1 1018:1 1899:1 2012:1 2014:1 2034:1 
4.81344608979548 0 0 0 0 1:1 2:1 3:1 6:1 22:1 26:2 27:1 34:1 72:1 123:1 152:1 365:1 688:1 826:1 1316:1 2012:1 2031:1 2033:2 
0.1851792687042413 0 0 0 0 1:12 2:12 3:1 4:1 13:1 17:2 18:1 31:12 65:1 83:1 87:1 94:12 97:1 102:1 109:1 126:1 129:1 134:1 157:1 160:1 211:1 228:1 312:1 392:1 495:1 654:1 683:1 903:1 1028:1 1265:1 1298:1 1735:1 1759:1 2012:1 2014:1 
32 16.31091826711378 0 0 0 1:2 2:2 8:1 10:1 18:1 147:1 191:1 278:1 290:1 998:1 2012:1 2014:1 2015:1 2033:1 
0.4097195472034474 0 0.09613456338995456 0 0 1:1 2:1 3:8 4:3 5:3 6:7 7:2 8:1 9:2 10:3 11:1 15:1 22:1 26:2 31:2 36:1 42:4 60:1 61:4 72:1 80:1 82:1 83:3 87:5 94:1 95:1 113:1 116:1 131:1 168:1 213:1 225:1 249:1 305:1 327:1 401:1 432:1 503:1 534:1 762:2 780:1 886:1 892:1 961:1 985:1 1109:1 1132:1 1532:1 1913:2 1954:1 2012:1 2014:4 2015:1 2016:1 2031:2 2032:1 2033:1 
2.142035049804494 1.015687284437959 12.43135760209071 0 0 1:1 2:1 3:8 4:3 5:4 6:5 9:2 10:4 11:1 12:1 17:1 18:1 19:2 23:3 30:1 36:2 42:1 60:1 72:2 111:3 141:1 144:2 148:2 174:1 180:1 202:1 215:1 221:1 225:3 245:1 249:1 258:1 277:1 333:1 350:1 355:1 365:1 400:1 416:1 426:1 514:2 532:1 586:1 725:1 776:1 809:1 835:1 867:1 964:1 969:1 1128:1 1268:2 1322:1 1759:1 2012:1 2014:12 2016:2 2031:1 
0 25.03207575956347 0 0 0 1:1 2:1 113:1 139:1 182:1 362:1 786:1 2012:1 2031:1 
0 0.1773215174340152 0 0 0 1:8 2:8 3:3 113:2 127:1 139:2 152:1 167:1 182:2 184:2 191:2 261:1 281:2 305:1 319:1 338:1 339:1 624:2 647:2 887:1 939:1 1035:1 1067:1 1092:2 1166:1 1682:1 2012:1 2015:1 
0 3.090520594016033 0 0 0 1:4 2:4 3:2 6:2 23:3 33:2 73:1 326:1 392:1 446:1 544:1 584:3 615:3 738:3 1049:1 1162:1 1243:1 1467:1 1695:1 2012:1 
1.931350954881323 0.2409817612382266 0 0 0 1:1 2:1 3:6 4:4 5:4 6:7 7:2 8:1 15:1 17:1 27:1 32:1 53:1 57:1 62:1 72:1 77:1 96:1 101:1 182:1 185:1 190:1 211:1 237:1 251:1 367:1 387:1 405:1 420:1 426:1 484:1 512:2 589:2 855:1 1413:1 1545:1 1771:1 2012:1 2014:2 2015:1 2031:2 
2.915589181932802 0 3.505290533799204 0 0 1:1 2:1 3:2 9:1 13:1 21:1 23:1 32:2 37:1 50:1 138:1 212:1 589:1 1459:1 1811:1 2012:1 
13.12914327444444 3.581408498488197 5.195493489613907 0 0 1:3 2:3 3:1 5:4 6:1 16:1 19:1 31:1 34:1 93:1 94:1 100:1 152:1 190:1 223:1 321:1 418:1 531:1 688:1 1625:1 2012:1 2031:1 
0 32 0 0 0.4510708254850319 1:1 2:1 3:4 4:3 9:2 10:1 22:1 26:1 30:1 32:2 36:2 61:1 67:1 92:1 274:1 277:1 308:1 345:1 582:1 601:1 610:1 641:1 709:2 745:1 825:1 829:3 864:1 882:1 900:1 928:1 943:1 1272:1 1482:1 1623:1 1753:1 1840:2 2012:1 2014:2 2016:3 
0 0 0.2908484733790644 0 0 1:1 2:1 6:1 8:1 9:2 10:2 17:1 28:1 36:3 37:1 42:3 47:1 61:5 89:1 93:1 121:1 123:1 126:1 128:1 171:2 176:1 217:1 221:2 230:5 268:1 272:1 367:1 408:1 426:1 616:1 741:1 939:1 1005:1 1112:1 1203:1 1429:1 1524:2 1534:1 1584:1 1608:1 1759:1 1765:1 1787:1 2012:1 2014:2 2015:1 2016:3 2033:1 
6.036338102820502 5.909655673548035 0 0 0 1:1 2:1 3:4 4:1 5:1 10:1 18:1 22:1 64:1 117:1 141:1 158:1 171:1 174:1 206:1 243:1 260:1 311:1 344:1 438:1 944:1 1134:1 1365:1 2012:1 2014:2 2031:2 
0 0 0 0.2882725494690471 0 1:5 2:5 29:1 37:1 61:2 66:1 117:1 123:1 191:2 203:1 208:1 226:1 275:1 302:1 316:1 585:1 675:1 755:4 808:1 1008:1 1042:1 1100:1 1103:1 1223:4 1429:2 1490:1 1537:1 1578:1 2012:1 
0.5338004321350909 0 0 0 0 1:2 2:2 4:2 9:2 11:2 13:1 27:2 45:2 75:1 208:1 221:1 288:1 303:2 306:2 404:2 417:1 716:1 945:1 1537:1 1978:1 2012:1 2033:1 
1.498013941642729 4.443177879603612 0 0 0 1:2 2:2 3:3 4:1 5:3 6:3 7:2 8:2 10:1 18:1 19:1 25:1 36:1 38:1 39:1 41:1 43:1 44:2 52:1 57:1 58:1 65:1 69:1 85:1 96:1 97:1 102:1 107:1 110:1 136:2 146:1 175:1 181:1 244:1 248:2 258:3 263:1 287:1 318:1 322:2 342:1 343:2 400:1 403:1 433:1 434:2 475:1 480:1 488:1 599:1 687:1 784:1 792:2 897:1 1080:1 1133:1 1226:1 1303:1 1786:1 1978:1 2012:1 2014:2 2015:2 2016:1 2017:1 2031:3 2033:1 
3.253813296288524 1.929804774853585 0 0 0 1:10 2:10 31:3 35:3 147:4 264:4 543:3 2012:1 2031:3 
0.7716864106927649 0.769665145699598 0.1414328420745015 0 0 1:2 2:2 3:4 4:4 6:11 8:2 9:8 10:1 21:1 30:1 32:1 42:3 43:2 45:3 46:1 48:1 54:1 55:1 57:2 59:3 65:1 74:1 88:1 95:2 117:1 137:1 148:1 163:2 165:1 188:1 218:1 245:1 292:3 302:1 324:2 330:1 413:3 506:1 679:1 695:1 696:1 1184:1 1236:1 1454:1 1718:1 1749:1 1803:1 1948:1 2012:1 2014:1 2015:2 2031:1 
0.3986767581075769 0 0 0 0 1:1 2:1 3:1 4:1 7:1 8:2 9:2 35:1 48:1 49:1 59:1 61:1 79:1 83:1 84:1 87:1 121:1 128:1 145:1 185:1 275:1 326:1 554:1 613:1 828:1 1303:1 1336:1 1360:2 1500:2 1665:1 2012:1 2014:3 2015:2 2031:1 
0 14.23359137273569 0 0 0 1:1 2:1 21:1 22:1 69:1 242:1 618:1 1958:1 2012:1 
32 0 1.774285018950026 0 0 1:2 2:2 5:1 51:1 106:1 130:2 140:1 291:1 394:1 414:1 640:1 2012:1 2014:1 2031:2 
0 2.28883422238969 0.3728811790840936 0 0 1:10 2:10 3:3 4:1 7:2 8:2 10:1 18:1 39:1 50:1 51:1 72:2 79:1 123:1 142:1 149:1 161:1 208:3 210:1 217:1 236:2 240:1 268:1 374:1 430:1 435:2 541:3 556:1 644:1 676:1 705:1 721:1 755:1 878:1 1009:1 1223:1 1260:1 1304:1 1494:1 2012:1 2014:2 2015:2 2033:1 
5.319683636674513 6.792439724180722 0 0 0 1:1 2:1 3:2 4:1 5:4 6:1 17:1 28:2 29:1 30:2 32:1 77:1 103:1 140:1 211:1 217:1 301:1 310:1 376:1 420:1 440:1 489:1 986:1 1373:1 1849:1 2012:1 2014:2 2031:1 
0 0 0 0 0.3266290152582449 1:1 2:1 3:8 4:5 6:1 7:3 11:1 19:1 29:2 37:1 39:2 47:1 53:1 57:1 64:2 73:1 79:1 82:1 88:1 105:1 109:1 117:1 129:1 131:1 138:1 148:1 161:1 166:1 185:1 189:1 200:1 212:1 231:2 297:1 313:1 316:2 347:1 353:2 377:1 430:3 525:2 578:2 609:2 611:1 632:2 637:1 668:1 707:1 732:1 784:1 870:1 948:1 950:1 1141:1 1166:1 1368:1 1515:1 1551:1 1673:1 2012:1 2014:1 2031:2 2033:1 2034:1 2035:1 
0 0.965492669021203 0 0 0 1:2 2:2 3:1 4:3 6:1 7:2 11:1 21:2 23:1 29:1 65:1 72:1 78:1 109:1 129:1 143:1 154:1 156:1 181:1 191:1 275:1 428:1 470:1 749:1 1233:1 1580:1 1609:1 2012:1 2032:1 
7.667467918426603 0 0 0 0 1:1 2:1 23:1 25:1 38:1 41:1 78:1 103:1 115:1 139:1 255:1 807:1 2012:1 2031:1 
0 1.317299521002288 0 0 0 1:3 2:3 4:1 5:1 7:2 25:2 28:1 31:1 35:1 38:1 41:1 51:1 102:1 153:1 160:1 161:1 179:1 240:1 397:1 447:1 1404:1 2012:1 2014:1 2031:1 
0 0 0 0 1.900445775627336 1:1 2:1 3:1 4:1 5:3 6:1 10:1 38:1 41:1 111:1 184:1 281:1 401:1 890:1 1048:1 1116:1 1279:2 1688:1 1735:1 2012:1 2014:2 
0.7281591309145562 0.2926133006316137 0 0 0 1:1 2:1 3:4 4:2 5:1 7:1 8:2 9:1 10:3 15:2 17:1 24:13 42:2 48:1 60:1 61:3 83:3 84:1 87:3 92:1 98:1 106:1 121:1 127:2 128:1 170:2 176:1 249:1 254:1 268:1 289:2 298:4 307:1 323:1 336:1 423:1 503:1 505:3 585:1 589:3 604:1 609:1 639:1 934:1 1023:1 1719:1 1883:1 1928:1 2012:1 2014:4 2015:2 2031:1 
3.458651206163931 12.55996216001114 0 0 0 1:1 2:1 5:1 17:1 21:1 22:1 144:1 188:1 279:1 356:1 438:1 494:1 702:1 807:1 1173:1 2012:1 2014:1 
0 16.35112080233776 0 0 0 1:2 2:2 3:1 6:1 19:1 48:1 86:1 105:1 113:1 139:1 147:1 322:1 351:1 1264:1 1302:1 1360:1 2012:1 2014:1 
0 0.562736081459498 0 0 0 1:4 2:4 6:1 8:9 30:1 50:1 73:1 179:1 479:4 2012:1 2015:9 2031:4 
32 22.72794924620589 0 0 0 1:1 2:1 3:1 4:1 5:1 21:1 59:1 114:1 125:1 239:1 386:1 781:1 975:1 2012:1 2014:1 2033:2 
4.259508156615687 2.870999166907644 0 0 0 1:1 2:1 3:8 4:3 5:5 6:1 7:1 9:1 14:1 15:1 18:1 19:1 21:1 27:1 29:2 34:1 39:1 42:2 48:1 53:1 56:2 64:1 68:1 84:2 93:1 106:1 149:1 164:1 166:1 186:1 210:1 212:2 215:1 237:1 251:1 263:1 320:1 326:3 348:1 353:2 363:1 390:2 409:1 453:1 481:1 525:1 594:1 605:1 693:1 893:1 921:1 1353:1 1410:1 1491:1 1519:1 1878:2 2012:1 2014:1 2031:1 2033:3 
2.764780427525563 0 0 0 0 1:1 2:1 4:1 8:6 11:1 14:1 27:1 32:1 45:1 47:1 48:1 59:1 88:1 169:1 217:1 275:1 324:1 510:1 713:1 781:1 1027:1 1627:1 2012:1 2014:1 2015:6 2031:1 2035:1 
0 14.40838504031943 0 0 0 1:2 2:2 4:1 5:3 11:1 77:1 205:1 436:1 669:1 2012:1 
10.36308903807192 14.26915919153112 0 0 0 1:1 2:1 3:1 17:1 24:1 26:1 28:1 72:1 127:1 131:1 260:1 343:1 365:1 651:1 796:1 881:1 975:1 1586:1 1997:1 2012:1 2014:1 2031:1 2032:1 2033:2 
0.6403563470701452 0.5409582746530178 0.2725918031876572 0 0.06939959755232798 1:20 2:20 8:7 20:2 40:1 78:1 91:1 99:20 101:1 107:1 119:2 161:1 645:1 1054:1 1351:1 2011:1 2012:1 2015:7 2031:2 
3.814789011477095 8.274232420746007 0 0 0 1:3 2:3 3:3 21:1 34:1 40:1 62:1 85:1 96:1 133:1 139:1 173:1 178:1 251:1 257:1 336:1 372:1 374:1 425:1 433:1 455:1 485:1 809:1 1854:1 2012:1 2014:1 2031:4 2033:1 
0.4678926989098059 0 0 0 0 1:1 2:1 3:4 4:1 5:2 6:4 7:2 8:1 10:2 15:1 17:1 31:1 32:1 47:1 56:1 59:1 60:1 61:1 75:1 82:2 83:2 84:1 87:1 121:1 125:1 128:1 165:1 229:1 240:1 305:1 350:3 671:2 760:1 832:3 949:1 1039:1 1071:1 1183:1 1218:1 1290:2 1861:1 2012:1 2014:2 2015:1 2033:2 
14.99364698572574 30.77960622222169 0 0 0 1:1 2:1 3:1 5:1 11:2 22:1 104:1 206:1 828:1 2012:1 2033:1 
8.474575282994739 0 0 0 0 1:1 2:1 4:2 9:1 10:1 11:1 19:1 47:1 60:1 80:1 127:1 232:1 233:1 245:1 260:1 389:1 427:1 572:1 635:1 649:1 800:1 1300:1 1551:2 1757:1 2012:1 2014:1 2031:1 
6.695420636742187 6.918292857372623 0 0 0 1:6 2:6 3:2 4:3 6:1 7:2 10:1 11:1 13:3 15:1 18:1 21:1 23:1 30:1 31:1 32:1 39:1 47:1 63:1 66:1 92:1 94:1 123:1 145:1 148:2 177:1 188:1 214:1 217:1 315:1 341:3 447:1 536:1 675:1 1324:1 2012:1 2014:1 2031:1 2033:1 
1.341690916852643 2.406785579686426 0 0 0 1:1 2:1 3:1 8:2 9:1 14:1 18:1 22:1 24:2 50:1 51:1 77:1 88:1 92:1 106:1 146:1 181:1 241:1 409:1 428:1 450:1 497:1 626:1 1005:1 1335:1 1832:1 1864:1 2012:1 2014:2 2015:2 
32 32 0 0 0 1:1 2:1 3:1 4:1 6:1 38:1 41:1 113:1 139:1 182:1 2012:1 2031:1 
0.4263014808957551 1.236089138969752 0 0 0 1:1 2:1 3:7 4:1 5:2 6:1 7:1 9:1 11:1 14:1 17:1 19:1 26:2 32:1 34:1 42:1 53:1 74:1 80:1 88:1 91:1 93:1 96:1 109:1 138:1 141:1 165:1 166:1 185:1 199:1 203:1 226:1 237:1 255:1 358:1 372:1 386:1 430:1 536:1 583:1 659:1 751:1 797:1 863:1 880:1 1055:1 1080:1 1091:1 1177:1 1254:1 1469:1 2012:1 2014:2 2031:3 2033:2 
0 2.404442588802122 0 0 0 1:1 2:1 22:1 25:1 33:2 38:1 41:1 85:1 103:1 175:1 223:1 2012:1 
16.47759143542039 0 0 0 3.384136029850281 1:1 2:1 5:1 20:2 23:1 165:1 286:1 489:1 1752:1 1756:1 2011:1 2012:1 2014:1 2031:1 2035:1 
3.002288789343988 0 0 0 0 1:1 2:1 7:1 23:1 26:1 36:1 156:1 218:1 354:1 458:1 1090:1 2012:1 2016:1 
0.307741683148032 0 0 0 0 1:14 2:14 3:1 5:2 10:1 17:1 31:3 34:1 60:1 94:3 140:1 162:1 169:6 176:5 414:1 492:1 625:1 1078:1 2012:1 2014:1 2031:1 
2.444611679734157 2.086044184026219 0 0 0 1:3 2:3 3:9 4:4 5:1 6:2 7:2 11:1 16:1 21:2 23:3 29:1 64:3 69:1 70:1 85:1 92:1 98:1 113:1 134:1 154:2 160:1 221:1 233:1 254:1 277:1 368:1 372:1 389:1 509:1 565:2 571:1 650:1 697:1 724:1 756:1 785:1 888:1 946:2 1039:1 1150:1 1197:1 1230:1 1267:1 1289:1 1396:3 1550:3 1664:1 2012:1 2014:1 2033:3 
0 0 0 0 0.1767026924643622 1:1 2:1 3:6 4:3 5:3 7:1 8:1 15:2 19:2 23:2 33:2 36:1 45:1 47:1 50:1 61:2 72:1 82:1 83:2 84:2 87:2 115:1 121:1 128:1 131:1 149:1 155:1 168:1 170:1 178:1 188:2 297:1 339:1 347:1 367:1 403:1 559:1 671:1 832:1 871:1 901:1 916:1 1071:1 1290:1 1452:2 1546:2 1583:4 1963:2 1999:1 2012:1 2014:1 2015:1 2016:1 2033:1 2035:2 
0.6322614626446597 1.667017310293815 0 0 0 1:5 2:5 3:3 4:2 5:4 7:3 8:1 10:2 15:1 20:2 26:1 29:1 31:1 35:2 41:2 55:1 92:1 130:2 145:1 173:2 202:1 215:1 217:1 263:1 314:1 360:1 372:1 392:2 396:1 404:1 465:1 530:1 580:1 851:1 875:1 1013:2 1275:2 1393:1 1679:2 1780:1 1797:1 2011:1 2012:1 2014:4 2015:1 2031:5 2033:1 
3.724570552763913 0 5.070188631951599 0 0 1:1 2:1 5:3 6:1 7:1 31:1 38:1 41:1 46:1 94:1 145:1 157:1 896:1 912:2 1320:1 2012:1 
0 25.89964369859313 0 0 0 1:1 2:1 38:1 41:1 104:1 162:1 2012:1 
0.07370906767082926 0 0 0 0 1:1 2:1 3:1 4:1 5:3 6:1 15:1 20:4 21:1 27:1 40:1 42:1 119:1 153:1 179:1 548:1 696:1 855:1 1038:1 1054:5 1351:1 1550:1 2011:2 2012:1 2031:1 
0 2.673277039528413 0 0 0 1:1 2:1 3:2 4:3 79:2 101:3 107:1 248:1 469:1 548:1 902:1 1200:1 1655:1 1724:1 1956:1 2012:1 2031:3 
0 0.009950218824559754 0 0 0 1:4 2:4 3:3 4:2 6:3 8:8 9:1 11:2 19:1 23:1 26:1 37:1 39:1 45:1 46:1 47:1 50:1 55:1 64:1 79:1 81:1 88:1 104:3 107:2 109:1 137:1 152:1 165:2 180:1 188:1 228:1 251:1 263:1 317:1 322:1 388:1 504:1 507:1 536:1 538:1 549:1 552:1 592:2 631:1 753:1 763:1 1252:1 2012:1 2015:8 2017:1 2031:1 
0 8.929615602738297 0 0 0 1:1 2:1 3:2 4:1 9:1 13:1 14:1 15:1 44:1 64:1 70:1 232:1 413:1 820:1 938:1 1533:1 2012:1 
0.2717865178351307 0.7522805777046676 0 0 0 1:9 2:9 126:1 201:18 379:9 1657:1 2012:1 2031:1 
22.07403543688198 0 0 0 0 1:1 2:1 3:1 6:1 9:1 10:1 26:1 29:1 176:1 245:1 248:1 485:1 2012:1 2014:1 2031:1 
4.748375951485887 8.037157768086811 0 0 0 1:1 2:1 3:5 4:1 8:2 10:2 18:2 25:1 28:1 34:1 54:1 55:1 57:1 59:1 78:2 123:1 134:1 135:1 137:1 140:1 154:1 160:1 192:1 196:1 237:1 239:1 273:1 348:1 356:1 370:1 389:1 483:1 545:1 688:1 713:1 784:1 892:1 899:1 1091:1 1144:1 1422:1 1496:1 1588:1 1699:1 2012:1 2014:2 2015:2 2031:2 2033:1 
12.57311130416579 0 0 0 0 1:1 2:1 7:1 19:1 20:2 21:1 22:1 137:1 315:1 2011:1 2012:1 
0 2.367681631087609 0 0 0 1:1 2:1 3:1 7:2 22:1 75:1 106:1 172:1 288:1 397:1 717:2 953:1 1847:1 2012:1 
11.15390001395219 4.3793846129944 0 0 0 1:2 2:2 7:1 8:3 15:1 20:4 28:1 46:1 51:2 80:1 149:1 155:1 177:1 208:1 257:1 300:1 359:1 705:1 1178:1 1865:1 2011:2 2012:1 2014:2 2015:3 2031:1 
0 15.72099206895185 0 0 0 1:1 2:1 3:1 9:1 14:1 117:1 786:1 2012:1 
0 0 0 0 0.8700913403633019 1:2 2:2 3:2 6:2 10:1 13:1 32:1 48:1 56:1 57:1 77:1 122:1 201:4 351:1 379:2 579:1 728:1 802:1 2012:1 2014:1 
0.3150159327516657 0 0 2.256835214530718 0 1:1 2:1 5:1 8:1 17:1 18:1 31:1 62:1 89:1 94:1 138:1 145:1 167:1 211:1 330:1 393:1 613:1 1148:1 1195:1 1631:1 1767:1 2012:1 2014:1 2015:2 2034:1 
16.65910758544564 31.3662124452528 0 0 0 1:2 2:2 30:1 39:1 76:1 194:1 208:1 320:1 763:1 968:1 1776:1 1863:1 2012:1 2033:1 
0 32 0 0 0 1:1 2:1 21:1 308:2 2012:1 2016:2 
32 32 19.2193976286487 0 0 1:1 2:1 647:1 2012:1 
12.23987552513175 0 2.396273321085738 0 0 1:3 2:3 4:1 7:1 25:4 77:1 90:1 140:1 611:1 1849:1 2012:1 2031:1 
1.193905537080866 0 0 0 0 1:1 2:1 3:4 6:3 11:2 29:1 30:1 42:1 195:1 255:1 301:3 841:1 1043:1 1344:1 2012:1 2031:1 
0.8155347982422664 1.001757689499923 0 0 0 1:2 2:2 3:12 4:2 5:1 6:5 7:3 9:1 10:1 11:1 14:1 18:1 19:4 27:1 34:1 39:1 43:2 53:1 55:2 57:2 62:1 72:1 73:1 74:1 88:1 93:1 96:2 111:1 114:1 115:1 116:1 123:1 137:1 157:1 183:1 186:1 194:2 224:1 239:1 324:1 337:1 356:1 372:1 401:1 402:1 449:1 470:1 538:1 539:1 696:1 721:1 757:1 780:1 872:1 892:2 947:1 1060:1 1071:1 1208:1 1255:1 1267:1 1557:1 1710:1 1756:1 1789:1 1974:1 1995:1 2012:1 2014:4 2031:8 2033:2 2035:1 
0 0.2970290649651023 0 0 0 1:11 2:11 3:3 4:1 8:5 9:6 14:6 20:2 21:1 34:2 40:1 46:1 72:1 152:2 172:1 183:1 222:1 229:1 246:1 265:1 342:1 365:1 380:1 429:1 557:1 630:4 666:1 676:1 734:1 743:2 802:1 828:1 870:1 872:1 1324:1 1590:1 2011:1 2012:1 2015:5 2031:6 
0.9372122716822655 11.42739034451375 0 0 0 1:2 2:2 3:3 5:1 7:1 10:1 15:1 28:1 30:1 39:2 47:1 68:1 70:1 73:1 78:1 82:1 98:1 162:1 174:1 184:1 199:1 293:1 347:1 668:1 835:1 1086:1 1101:1 1249:1 1253:2 1357:1 1508:1 1600:1 2012:1 2014:2 2031:1 
0 2.501437257016403 0 0 0 1:1 2:1 4:1 6:1 9:3 21:1 48:1 65:1 98:1 106:1 114:1 156:1 221:1 229:1 256:1 280:1 332:1 629:1 668:1 1024:1 1211:1 2012:1 
0 0 0 0 0.08173837002941897 1:1 2:1 64:1 99:1 109:1 137:1 179:1 389:1 572:2 763:1 1377:1 2012:1 
0 32 0 0 0 1:1 2:1 3:1 14:1 22:1 25:1 38:1 41:1 984:1 2012:1 
4.776572834474538 7.112874903464079 0.4780286762138619 0 0 1:5 2:5 3:7 4:3 5:1 6:1 7:1 8:1 10:1 13:1 21:1 23:1 32:1 34:2 37:1 39:2 51:1 58:1 86:2 92:1 98:1 107:1 109:1 118:1 133:1 138:1 153:1 155:1 227:1 230:2 242:1 361:1 372:1 376:1 414:1 421:1 424:1 511:1 762:1 836:1 909:1 917:1 1080:1 1305:1 2012:1 2014:3 2015:1 2033:3 
16.78637476928494 18.00757007061548 0 0 0 1:1 2:1 7:1 39:1 40:1 46:1 119:1 136:2 162:1 279:1 287:1 462:1 467:1 785:1 2012:1 2031:1 
0 10.45476086292537 0 0 0 1:1 2:1 4:1 5:1 20:2 21:1 137:1 261:1 284:1 505:1 620:1 831:1 1699:1 2011:1 2012:1 
1.004049985609505 1.011602372927966 0.4258408386654598 0 0.1112110763469731 1:38 2:38 9:1 13:1 14:1 62:7 81:10 96:8 104:6 136:2 151:16 208:6 218:1 287:1 981:1 2012:1 2031:8 
6.372321404463571 22.20430609188221 0 0 0 1:1 2:1 11:1 54:1 184:1 189:1 281:1 492:1 650:1 746:1 882:1 1127:2 2012:1 2014:2 
0.4731945967035903 0.6636759152580743 0.1170046416742479 0 0 1:8 2:8 3:4 4:1 5:1 6:1 9:2 10:1 13:1 19:1 23:1 26:1 27:1 29:2 30:1 39:4 46:1 65:1 68:1 73:1 86:1 96:1 99:5 127:1 137:1 167:9 181:1 203:1 208:3 226:1 251:1 253:1 280:1 287:1 350:1 401:1 542:1 544:1 571:1 706:1 767:1 785:1 796:1 833:1 885:1 894:1 904:1 934:1 981:3 1154:1 1495:1 1806:1 1967:1 2012:1 2014:2 2015:9 2031:2 
2.113523052112763 0 0 0 0 1:2 2:2 4:2 10:1 13:1 17:2 27:1 44:1 45:1 60:2 73:1 80:1 92:1 93:1 111:2 115:1 141:1 186:1 196:1 246:2 311:1 420:1 503:1 554:1 610:1 654:1 775:1 971:1 2012:1 2014:3 2031:2 2033:1 
0 3.210892842312941 0 0 4.772165040484404 1:1 2:1 3:2 5:2 6:1 7:1 13:1 23:1 27:1 35:1 53:1 64:2 67:1 83:1 87:1 107:1 119:3 227:1 324:1 452:1 883:1 2012:1 2031:1 2035:1 
5.593497504231751 1.241510121381238 0 0 0 1:1 2:1 3:2 4:2 6:1 21:1 38:1 41:1 47:1 48:1 51:1 67:1 78:1 89:1 91:1 155:1 242:1 328:1 424:1 539:1 554:1 1576:1 1749:1 2012:1 2014:1 
20.16128324973968 19.74541833310069 0 0 0 1:1 2:1 3:1 4:1 7:1 15:1 34:1 46:1 47:1 72:1 74:1 105:1 184:1 281:1 652:1 731:1 891:1 2012:1 2033:1 
4.563930900718673 6.821822605858113 0.91509072273475 0 0 1:2 2:2 4:1 6:1 17:1 29:1 49:1 51:1 92:1 107:1 116:1 142:1 204:1 310:1 342:1 440:1 442:1 443:1 444:1 514:1 639:1 708:1 756:2 799:2 1060:1 1629:1 2012:1 2014:2 2031:1 
0 0.7782735051887887 0 0 0 1:4 2:4 3:4 4:3 5:2 8:2 10:2 17:1 18:2 19:1 21:3 55:1 68:1 83:1 87:1 89:1 91:1 98:1 113:1 131:1 134:3 160:2 313:1 322:1 356:1 410:1 557:1 649:1 696:1 897:1 946:1 1365:1 1438:1 1676:1 1908:1 2012:1 2014:3 2015:2 
0.2804029462973368 0 0 0 0 1:10 2:10 3:4 4:2 6:1 9:10 14:10 33:2 34:1 53:1 56:1 64:1 68:1 119:1 136:2 196:1 280:1 287:1 432:1 475:1 500:1 902:1 1010:1 1028:1 2012:1 2014:1 2031:1 
2.674318725513764 0 0 0 0 1:1 2:1 3:1 6:1 31:1 35:1 95:1 174:1 180:1 226:1 236:1 252:2 255:1 340:1 408:1 426:1 1329:1 1780:1 2012:1 2031:2 2033:2 
0.9280262926453277 0 0 0 0 1:1 2:1 3:2 5:1 11:2 14:1 15:2 101:1 163:1 304:2 358:1 880:1 2012:1 2031:1 
4.844206916881751 8.768946183013782 0 0 0 1:1 2:1 3:2 4:1 7:1 10:1 11:1 18:1 28:1 37:2 47:1 51:1 54:1 77:1 81:1 122:1 123:1 140:1 146:1 158:1 196:1 206:1 291:2 960:1 2012:1 2014:2 2031:1 
0 2.257233003126053 0 0 0 1:2 2:2 3:4 4:3 5:3 7:1 8:2 10:1 11:2 13:1 19:1 20:2 28:1 29:1 37:1 40:1 55:1 57:1 72:1 74:4 93:1 95:1 106:1 110:2 125:1 129:1 137:1 139:1 173:1 180:1 196:1 202:1 212:1 228:4 237:1 265:1 287:1 289:1 324:1 333:1 491:1 501:2 555:1 595:1 622:1 632:2 688:1 760:1 816:1 1217:1 1451:1 2011:1 2012:1 2014:1 2015:2 2031:2 
0 17.31300858219761 16.45691076234287 1.126106074476693 0 1:1 2:1 46:1 755:1 1223:1 2012:1 
13.61123507805242 14.88940436728115 0.2424577649917929 0.5669861495985394 2.946461291398894 1:1 2:1 3:1 6:1 20:2 32:1 36:2 40:1 109:1 119:1 126:1 129:1 145:1 197:1 447:1 743:1 1054:1 1351:1 2011:1 2012:1 2016:2 2031:1 
0 0.3500242108652815 0 0 0 1:1 2:1 3:2 4:4 5:1 13:1 15:2 18:1 29:1 30:1 44:1 53:1 61:1 73:1 114:1 184:2 199:1 242:1 281:1 321:2 450:1 539:1 662:1 664:1 925:2 1158:1 1435:1 1455:1 1541:1 1556:1 1703:1 1855:1 2012:1 2031:1 
1.972561446290573 0 0 0 0 1:3 2:3 3:1 6:3 7:2 9:1 12:1 13:2 18:1 28:1 30:1 38:1 41:1 46:1 48:1 55:1 59:1 80:1 82:1 101:1 103:1 114:1 124:1 152:1 161:1 171:1 184:1 211:1 369:1 443:1 488:1 490:1 532:1 547:1 553:1 608:1 711:1 739:1 746:1 867:1 1059:1 1239:1 1698:1 1916:1 2012:1 2014:1 2031:1 
11.6283595414634 0 0 0 0 1:1 2:1 5:1 9:1 10:1 21:1 95:1 634:1 1051:1 1593:1 2012:1 2014:1 2033:1 
0 9.064583541353166 0 0 0 1:1 2:1 4:2 7:3 8:11 9:1 10:2 13:1 22:1 28:2 31:1 35:2 47:1 48:1 70:1 75:1 88:1 95:1 172:1 188:1 230:1 259:1 298:1 441:1 540:2 633:1 669:1 725:1 878:2 1714:1 1763:1 1788:1 2012:1 2014:2 2015:11 2031:5 2032:1 
8.15001536572878 3.032029429211776 0 0 0 1:1 2:1 3:2 4:1 8:1 20:2 28:1 34:1 38:1 40:1 41:1 110:1 197:1 220:1 222:1 489:1 683:1 691:1 2011:1 2012:1 2014:1 2015:1 2031:1 
6.046439874156419 0 0 0 0 1:1 2:1 3:3 7:2 22:1 38:1 41:1 50:1 73:1 90:1 92:1 93:1 240:1 244:1 390:1 595:1 794:1 1657:1 2012:1 2031:1 
0 6.248365661049683 0 0 0 1:1 2:1 5:1 7:1 9:1 14:1 22:1 38:1 41:1 64:1 168:1 577:1 2012:1 
0 16.8401179958629 13.27122301482268 0 0 1:1 2:1 3:1 6:1 7:1 10:1 56:1 75:1 269:1 288:1 537:1 801:1 1707:1 2012:1 2014:1 2032:1 
4.514181432952992 19.86804962179852 0 0 2.672096666438209 1:1 2:1 3:2 10:1 18:1 28:1 43:1 86:1 108:1 112:1 132:1 139:1 285:1 1039:2 1585:1 2012:1 2014:1 
0 32 0 0 0 1:1 2:1 3:1 4:1 10:2 17:1 22:1 32:1 53:1 61:2 73:2 121:1 128:1 184:2 272:1 312:1 344:1 385:1 386:1 422:1 423:1 928:1 935:1 979:1 1059:1 1408:1 1409:2 1423:1 1668:1 1924:1 1951:1 2012:1 2014:2 
3.260128672768108 0 0 0 0 1:6 2:6 7:1 10:1 31:3 45:1 56:1 62:1 81:3 94:3 134:1 209:1 312:1 384:1 422:1 523:2 1157:1 1400:2 1791:1 2012:1 2014:1 
0 6.801295839871967 0 0 0 1:3 2:3 3:1 4:2 5:3 7:1 13:1 15:1 35:3 67:2 70:1 96:1 633:2 847:1 2012:1 2031:5 2033:1 
0 8.035327360676034 0 0 0 1:1 2:1 6:1 218:1 375:1 693:1 2012:1 
4.095264698899356 0 1.571931678648727 0 0 1:1 2:1 22:1 26:1 28:1 67:1 122:1 156:1 208:1 213:1 2012:1 2014:1 
0 6.003649025244664 0 0 0 1:3 2:3 20:2 23:1 61:1 70:1 147:1 334:1 527:2 658:1 985:1 1297:1 1623:1 2011:1 2012:1 
0 1.326884577436625 1.073841877521627 2.392325477866747 0 1:1 2:1 4:2 6:1 7:1 9:1 11:1 14:1 15:1 19:1 26:1 30:1 32:1 43:1 54:1 65:2 66:1 82:2 84:1 121:1 128:1 145:1 148:1 167:2 172:1 245:1 270:1 364:1 701:1 733:3 819:2 968:2 1100:1 2012:1 2015:2 
0 13.04031016339427 0 0 0 1:3 2:3 65:1 105:1 243:4 851:1 2012:1 2031:1 
0 1.338601203812015 0 0 0 1:1 2:1 4:1 7:1 8:1 22:1 47:1 62:1 234:1 2012:1 2015:1 
32 21.99978446569154 4.199971591518124 0 0 1:1 2:1 3:1 6:1 10:1 11:1 28:1 90:1 255:1 271:1 453:1 2012:1 2014:1 2031:1 
0 2.505196730031602 0 0 0 1:7 2:7 3:1 4:1 6:1 8:3 9:1 11:1 31:2 35:2 54:1 70:1 117:1 143:2 147:2 264:2 265:1 362:3 543:2 593:1 832:1 997:1 1245:1 1660:1 2012:1 2015:3 2031:7 2033:1 
0.3712463286547071 1.688426333176444 0 0 0 1:7 2:7 4:3 6:1 7:1 9:3 13:1 14:1 21:3 23:2 24:6 30:1 46:1 70:1 71:10 136:2 138:1 162:1 178:2 183:1 280:1 287:1 319:3 412:1 445:1 501:1 539:1 757:1 925:2 978:1 992:1 1221:1 1379:2 1406:1 1564:2 1580:1 1677:1 2012:1 2031:2 2032:1 
0 12.89696922778271 0 0 0 1:2 2:2 3:5 7:1 8:3 14:1 15:1 18:1 23:3 33:2 62:1 131:1 163:1 228:1 283:1 435:1 518:1 631:1 693:1 875:1 1000:1 1095:1 1172:1 1260:1 1617:1 2012:1 2015:3 
0 3.917096166336244 0 0 0 1:6 2:6 3:3 4:5 6:1 7:2 11:2 19:2 20:2 21:1 56:1 62:1 73:1 79:1 95:1 96:1 102:1 114:1 123:1 142:1 158:1 253:1 282:1 340:1 652:1 681:1 855:1 1251:1 1258:1 1300:1 1307:1 1609:1 2011:1 2012:1 2031:1 
1.089264902543803 10.36648280111029 0 0 0 1:2 2:2 5:2 10:1 31:1 94:1 118:1 193:1 471:1 578:1 613:2 1050:1 1167:1 2012:1 2014:2 
0 0 0 0.2824467976494152 0 1:5 2:5 7:1 8:5 11:1 32:1 36:2 84:2 102:2 118:1 126:1 176:3 469:2 2012:1 2015:5 2016:2 
10.29555353256569 2.492083732075287 2.35984103773251 0 0 1:1 2:1 10:1 36:1 38:1 40:1 46:1 48:1 113:1 119:1 139:1 157:1 182:1 217:1 271:1 2012:1 2014:1 2016:1 2031:1 
5.311701597347125 32 0 0 0 1:1 2:1 38:1 41:1 46:1 243:1 259:1 446:1 2012:1 
0 0.5684676779131042 0 0 0 1:3 2:3 3:4 4:3 5:1 7:3 8:2 9:1 14:1 19:2 26:1 33:2 34:1 40:1 48:1 53:1 64:1 69:2 82:1 93:2 106:1 110:1 161:1 189:1 197:1 200:1 203:1 226:1 301:1 372:1 391:1 423:1 481:1 510:1 513:1 718:1 868:1 1006:1 1355:1 1379:1 1602:1 1625:2 1647:1 2012:1 2014:1 2015:2 2031:1 2033:1 2035:1 
0.02594336066795471 0 0 0 0 1:1 2:1 6:1 31:1 32:1 36:1 42:1 77:2 83:2 87:2 94:1 115:1 134:1 160:1 351:1 536:1 901:1 1975:1 2012:1 2016:1 
28.81570438835933 32 0 0 0 1:2 2:2 7:1 8:1 16:1 60:1 62:1 96:1 188:1 429:1 563:1 761:1 1331:1 1708:1 2012:1 2014:1 2015:1 2031:1 
0 6.116177394791635 2.364523145588081 0.01250226766972111 0 1:2 2:2 17:3 25:1 49:1 51:1 60:1 355:1 410:1 465:1 493:1 495:1 524:1 610:1 660:1 739:1 852:1 943:1 1953:1 2012:1 2014:2 
1.367237078339294 16.75301224105852 0 0 0 1:1 2:1 5:1 65:1 147:1 261:4 303:1 336:1 455:1 547:1 777:1 1132:1 2012:1 
0 8.633459193030399 0 0 0 1:7 2:7 6:1 14:1 25:1 27:1 32:1 45:1 47:1 102:1 153:1 216:1 243:1 246:1 361:1 395:1 533:1 1250:1 1343:1 2012:1 2031:1 
2.970253825158347 0 0 0 0 1:1 2:1 6:1 11:1 92:1 146:1 170:1 440:1 779:1 1038:1 1332:2 2012:1 2031:2 
0 19.67900050663729 0 0 0 1:1 2:1 3:1 4:1 5:1 37:1 176:1 186:1 206:1 871:1 2012:1 
3.186800264463037 0 0 0 0 1:1 2:1 3:2 4:2 5:1 6:1 7:1 10:1 11:1 27:1 36:1 42:1 43:2 45:1 53:1 54:1 60:1 64:1 67:1 75:1 85:1 110:1 140:1 142:1 288:1 364:2 389:1 476:1 762:1 1100:1 1278:1 1510:1 1531:1 1967:1 1975:1 1993:1 2012:1 2014:1 2016:1 2031:1 2033:1 
1.202855572569896 15.18206662366643 0.3008656041117445 0 0.01871515878793227 1:1 2:1 3:7 4:2 5:1 9:14 10:4 17:1 28:3 44:1 98:1 106:1 117:7 121:1 128:1 163:6 185:3 194:7 328:1 377:1 598:1 610:1 837:1 917:1 944:5 995:1 1323:1 1706:1 1797:1 2012:1 2014:7 2031:1 
0 1.244686750826391 0 0 0 1:1 2:1 5:1 7:2 9:1 18:1 23:1 26:1 27:1 41:1 83:3 87:3 88:1 121:1 128:1 234:1 247:1 876:1 1062:1 1083:1 1158:1 1768:1 2012:1 
2.333839735371876 0 0 0 0 1:1 2:1 6:1 28:2 106:1 131:1 135:1 158:1 234:1 307:1 372:1 374:1 442:2 528:2 726:1 967:1 1195:1 1298:2 1582:1 1610:1 2012:1 2014:2 2031:1 2033:2 
0.3527882118727859 0 0 0 0 1:3 2:3 9:1 14:1 17:1 18:1 24:4 28:1 34:1 35:1 40:1 46:1 48:1 51:1 80:1 81:1 83:1 87:1 103:1 213:1 221:1 254:1 436:1 741:1 751:1 1155:1 1350:1 1732:1 2012:1 2014:2 2031:2 
9.125361981173651 6.252360492645027 0 0 0 1:1 2:1 3:1 4:1 13:2 54:1 119:1 395:1 644:1 1074:1 1244:1 2012:1 2031:1 
0.9366266199575342 2.443893645496748 0 0 0 1:2 2:2 3:6 4:5 5:1 7:2 8:2 9:3 11:1 19:2 24:1 25:5 26:3 29:2 31:2 34:1 36:1 38:1 40:1 41:1 43:3 54:1 59:1 91:2 106:1 107:1 126:1 150:1 171:1 198:1 223:1 224:1 303:1 326:2 343:1 679:1 688:1 719:1 831:1 874:1 899:1 946:1 1420:1 1429:2 1452:1 1934:1 2012:1 2015:2 2016:1 2031:2 
0 0.3150861279598668 0 0 0 1:1 2:1 3:3 4:1 5:2 6:1 9:1 14:1 19:1 23:1 36:1 61:2 62:1 69:1 83:3 87:3 89:1 109:1 121:1 123:1 125:1 128:1 150:1 161:1 338:1 381:1 625:1 671:1 893:1 1056:1 1071:1 1328:1 2012:1 2016:1 
0 0 0 1.67673499050728 0 1:1 2:1 3:2 5:1 6:1 9:2 18:1 23:1 32:1 56:1 154:1 184:1 281:1 386:1 902:1 1823:1 2012:1 
0 0.1133283613280337 0 0 0 1:1 2:1 3:11 4:3 5:1 7:2 8:1 10:2 13:1 19:1 26:2 28:1 31:1 39:2 42:1 47:1 51:1 56:2 65:4 75:1 83:1 84:1 85:1 87:1 101:4 127:1 175:1 194:1 230:1 244:1 250:1 280:1 331:2 375:1 381:1 393:2 435:4 478:1 480:1 494:1 516:5 538:1 642:1 817:1 990:2 999:2 1303:1 1591:1 1599:1 2012:1 2014:4 2015:1 2031:5 
0 18.78260243317742 0 0 0 1:1 2:1 4:1 9:1 14:1 19:1 22:1 109:1 324:1 448:1 454:1 470:1 704:1 2012:1 
0.8761449919457839 4.621361465459209 0 0 0.07509815814772866 1:1 2:1 4:3 9:4 22:1 25:1 29:1 42:1 56:1 57:2 72:1 88:1 149:1 168:1 210:1 448:1 461:1 472:1 560:1 572:2 597:1 667:1 766:1 899:1 1278:1 1363:1 1376:1 1446:1 2012:1 2031:1 
11.84295287248805 32 4.688157585137733 0 0 1:3 2:3 4:1 34:1 108:3 112:3 132:3 140:1 1531:1 2012:1 2031:1 
2.915977193148267 0.8937236556811872 0 0 0 1:1 2:1 4:4 5:1 9:1 17:3 28:1 37:2 57:1 60:2 65:1 67:1 74:3 80:1 123:1 143:1 148:1 158:2 193:1 206:2 211:1 234:1 277:1 280:1 310:1 322:1 400:1 405:1 414:1 442:1 560:1 596:1 610:1 617:1 650:1 751:1 771:1 796:1 864:1 944:1 1189:1 1504:1 1571:1 1617:1 1868:1 1908:1 2012:1 2014:2 2031:1 2033:1 2034:1 
6.610764901829884 7.55407551505777 0 0 0 1:3 2:3 6:1 9:1 14:1 21:1 48:1 58:1 625:1 879:1 1220:1 2012:1 2033:1 
3.60981167839822 32 0 0 0 1:1 2:1 6:1 40:1 45:1 46:1 119:1 151:2 1456:1 2012:1 2031:1 
0 0.04436376601815895 0 0 0 1:5 2:5 3:4 4:2 5:3 6:3 7:1 11:1 13:3 15:1 17:1 23:1 26:2 28:1 29:1 31:2 39:1 40:1 42:1 43:1 56:1 59:2 65:1 77:1 83:1 84:1 87:1 88:1 95:1 116:1 142:1 165:1 168:2 181:1 231:1 241:1 251:1 256:1 263:1 304:1 324:1 329:1 367:4 400:1 402:1 464:2 538:1 541:1 571:1 582:1 670:2 755:1 761:1 784:1 850:1 868:2 934:1 967:1 1106:1 1223:1 1248:1 1258:1 1363:1 1365:1 1819:1 1918:1 2012:1 2014:1 2031:4 
1.305756417890959 3.77441550395052 0 0 0 1:1 2:1 6:3 9:2 15:3 23:1 30:2 70:1 72:1 121:1 127:1 128:1 167:3 169:1 294:2 301:2 304:1 308:1 318:1 364:3 500:1 646:1 677:2 1039:2 1172:1 1290:1 1994:1 2012:1 2015:3 2016:1 
0 0.9976094998855976 0 0 0 1:8 2:8 3:2 4:2 9:2 11:1 21:9 32:2 43:2 56:1 88:3 102:1 115:1 194:1 221:1 320:1 641:1 766:1 1046:1 1912:1 2012:1 
0 2.195514933706968 0 0 0 1:1 2:1 3:1 5:1 20:2 31:1 38:1 41:1 73:1 75:1 86:1 228:2 283:1 287:1 363:1 375:2 884:1 1081:1 1675:2 1798:1 2011:1 2012:1 
0 31.99272530055353 0 0 0 1:1 2:1 4:1 6:1 9:1 15:1 21:1 439:1 782:1 1622:1 1697:1 2012:1 
0.3215393086882029 0.06743754456625235 0 0 0 1:2 2:2 3:1 4:2 5:2 7:1 11:2 17:1 24:15 28:2 29:1 31:1 35:2 37:1 43:1 45:1 64:1 70:2 94:1 105:1 123:2 144:1 157:1 206:1 230:1 270:1 321:1 443:1 447:1 454:1 480:1 495:1 497:1 565:1 813:1 891:1 1145:1 1305:1 1335:1 1397:2 1508:1 1831:1 1889:1 2012:1 2014:2 2031:2 
0.4937794399805736 0 0 0 0 1:16 2:16 9:4 14:4 21:4 35:2 205:4 259:1 977:1 1029:1 2012:1 2031:2 
0 3.438224590248687 0 0.5920196125130766 0 1:1 2:1 3:3 4:2 5:3 19:1 27:2 71:2 83:2 87:2 93:1 229:1 242:1 247:1 266:1 267:1 353:3 368:1 369:1 385:1 486:1 498:1 743:1 1030:1 1442:1 1676:1 1723:1 2012:1 
0 1.182020000613007 0 0 0 1:1 2:1 5:1 9:1 14:1 236:1 515:1 1348:1 1931:1 2012:1 
19.63053112599323 0 0 0 0 1:1 2:1 10:1 28:1 31:1 48:1 94:1 107:1 111:1 116:1 122:1 237:1 271:1 535:1 712:1 995:1 2012:1 2014:2 
0.5714820578967788 0.2383927094542798 0 0 0 1:5 2:5 3:10 4:3 5:7 7:1 11:1 21:4 24:9 29:1 48:1 57:1 105:1 118:1 125:1 146:1 189:1 203:2 226:2 244:1 248:1 255:1 298:1 332:1 374:2 380:3 491:1 532:1 605:1 607:1 629:1 727:3 831:1 1021:1 1248:2 1280:1 1559:2 2012:1 2031:1 
0 2.379748664176523 0 0 0 1:1 2:1 3:2 13:1 23:1 38:1 41:1 67:2 79:1 90:1 96:1 118:2 330:1 354:1 1972:1 2012:1 2031:1 
0 18.43087622641276 0 0 0 1:1 2:1 3:5 4:3 5:1 10:2 21:1 26:1 27:1 40:1 55:1 57:1 65:1 69:1 74:1 83:1 87:1 156:1 183:1 188:2 232:1 242:1 330:2 331:1 634:1 862:1 1068:1 1227:1 1315:1 1493:1 1533:1 2012:1 2014:2 2031:2 
0.977983575778668 4.093943669907765 0 0 0 1:2 2:2 3:10 5:4 6:2 7:1 9:2 13:2 14:2 15:1 17:1 23:1 29:1 31:1 32:1 36:1 37:1 58:1 60:1 65:1 98:1 135:1 142:1 150:1 163:1 171:1 181:1 193:1 216:1 247:1 289:1 316:1 357:1 426:2 460:1 565:1 584:2 610:1 713:1 930:1 1150:1 1235:1 1418:1 1432:2 1674:1 1868:1 1901:1 1980:1 2012:1 2014:1 2016:1 2031:2 2033:1 2035:1 
0 0 0 0.518708457626942 0 1:1 2:1 3:1 4:1 5:1 6:2 11:1 47:1 91:1 131:1 168:1 234:1 819:1 1350:1 1594:1 2012:1 
0.9279393786217518 0.8233350595819181 0 0 0 1:1 2:1 3:4 4:5 5:1 10:2 11:1 19:1 26:1 44:1 47:1 61:1 83:1 87:1 116:2 121:1 128:1 141:1 172:1 176:1 536:1 538:1 630:1 703:1 837:1 864:1 984:2 1036:2 1348:2 1676:2 1764:1 1784:2 1824:2 1938:1 2012:1 2014:2 2033:1 
6.047354396738015 11.3133173984243 0 0 0 1:2 2:2 3:4 4:3 5:1 9:2 11:1 15:1 19:1 21:1 25:1 27:1 30:1 44:2 45:1 72:1 114:1 125:1 150:1 189:1 232:1 279:1 331:1 501:1 635:1 1089:1 1333:1 2012:1 2033:1 
1.492840373854637 3.909805330257079 0 0 0 1:3 2:3 4:1 7:1 11:1 15:4 19:1 23:1 24:2 27:1 30:1 53:1 70:1 85:1 89:1 91:1 135:1 137:2 166:1 205:1 275:1 319:1 436:2 662:3 676:1 777:1 890:1 1092:2 1146:2 1453:1 1493:1 2012:1 
0 19.25630795824456 15.77234983732772 0 0 1:1 2:1 4:1 75:1 203:1 226:1 229:1 257:1 288:1 758:1 1152:1 1454:1 1905:1 2012:1 2032:1 
0 5.259342973599554 0 0 1.361779761220723 1:1 2:1 3:1 10:1 52:1 96:1 97:1 108:1 112:1 132:1 2012:1 2014:1 2031:1 
0 8.741850718156794 0 0 0 1:1 2:1 3:1 5:1 7:3 10:1 17:1 22:1 26:1 31:1 91:1 94:1 333:1 636:1 737:3 2012:1 2014:1 
0 1.632392119317583 0 0 0 1:1 2:1 3:3 4:2 5:2 6:2 7:1 9:2 11:1 17:1 28:2 29:1 42:2 56:1 61:2 62:3 64:1 72:1 80:1 96:1 121:1 125:1 128:1 149:1 180:2 213:2 339:1 617:1 760:1 898:1 918:1 983:2 1109:2 1132:2 1155:2 1283:1 1583:1 1712:1 2012:1 2014:2 2031:1 
0 4.789708623100535 0 0 0 1:1 2:1 34:1 843:1 983:1 1307:1 1384:1 1435:1 1490:1 1538:1 2012:1 2031:1 
0 29.21136426113084 0 0 0 1:1 2:1 9:1 14:1 38:1 41:1 121:1 128:1 2012:1 
2.115842128065052 8.515023171117576 0 0 0 1:1 2:1 4:6 6:3 9:5 24:1 56:1 57:1 59:1 74:1 131:1 188:1 253:1 316:1 329:1 369:1 479:1 545:1 590:2 805:1 883:1 917:1 997:1 1176:1 1292:1 1991:1 2012:1 2031:2 
0 13.72028877583908 0 0 28.50930299703451 1:1 2:1 11:1 104:1 156:1 452:1 1767:1 2012:1 2035:1 
0.007608002360832299 0.2545789829130244 0 0 0 1:12 2:12 3:3 4:2 8:6 9:3 14:3 18:1 19:1 31:5 35:4 75:5 77:1 106:1 140:1 196:1 199:1 235:1 272:1 483:1 484:1 530:1 720:2 816:1 911:2 1720:1 1779:1 2012:1 2015:6 2031:5 2033:1 
0 0.1175479980574273 0 0 0 1:4 2:4 3:6 4:3 5:1 6:1 7:2 11:2 13:1 26:1 29:1 35:1 40:1 46:2 51:1 53:1 101:1 106:1 119:2 166:1 167:1 196:1 215:1 307:1 356:1 385:2 409:1 501:1 553:3 564:2 665:1 723:1 920:1 1141:1 1238:1 1391:1 2012:1 2014:1 2015:1 2031:4 2035:1 
0 0.4446088369389681 0 0 0 1:8 2:8 4:2 6:2 8:1 14:2 21:5 27:2 34:1 40:1 55:1 246:3 265:1 2012:1 2015:1 2031:4 
2.294221792235784 2.243490775056597 0.9270361685761795 0 0 1:1 2:1 5:4 7:4 10:1 17:1 23:1 26:3 46:1 73:1 74:3 102:1 186:1 235:3 246:1 297:1 320:1 642:1 838:1 1197:3 1302:1 2012:1 2014:1 2031:1 
1.508583213871461 32 0.4354503963529955 0 0 1:1 2:1 3:5 4:5 8:4 9:1 11:1 22:1 29:1 30:1 32:1 45:1 61:1 64:1 71:5 73:2 82:1 91:1 117:1 152:1 209:1 222:1 236:1 248:1 262:1 339:1 494:1 538:1 605:1 673:1 698:1 761:1 807:1 855:1 865:1 904:1 1030:1 1218:1 1337:1 1385:2 1540:1 1623:1 1692:1 1857:1 1860:1 1955:2 1966:1 2012:1 2014:1 2015:4 2031:2 2032:1 2033:1 
0.9927214889329108 0.8303915631441732 0.36066303764022 0 0.06477582090879176 1:2 2:2 4:1 11:2 15:2 35:1 74:1 81:2 83:1 87:1 106:1 129:1 285:2 294:1 371:20 392:1 492:1 498:1 547:1 669:1 996:1 1675:1 2012:1 2031:1 
0 4.339907182601782 0 0 0 1:1 2:1 3:4 6:1 13:1 18:1 21:1 29:1 32:1 39:1 84:1 153:1 185:3 192:1 198:1 202:2 313:1 344:2 402:1 495:1 885:1 927:1 964:1 1173:1 1410:1 2012:1 2014:3 
3.517503880578125 10.74232188001342 0.2773230040664353 0 0 1:1 2:1 3:3 5:2 10:1 15:1 18:1 26:1 59:1 65:1 71:3 93:1 395:1 404:1 488:1 536:1 544:1 716:1 1144:1 1703:1 1752:1 1851:1 2012:1 2014:1 2031:1 
14.97629881660431 0 8.714682098297398 0 0 1:1 2:1 4:2 6:1 19:2 22:1 24:1 25:1 36:1 107:1 150:1 1200:1 1556:1 1561:1 2012:1 2016:1 2031:1 
32 4.19763444875863 0 0 0 1:1 2:1 3:3 7:1 8:3 22:1 61:1 67:1 82:1 86:1 88:1 121:1 128:1 184:1 316:1 385:1 577:1 745:2 781:1 810:1 820:1 829:2 865:1 900:2 913:1 970:1 983:1 1260:1 1272:1 1299:1 1359:1 1433:1 1634:1 1655:1 1709:1 1794:1 2012:1 2015:3 2033:1 
0 0.7424442445462703 0 0 0 1:6 2:6 3:7 4:6 6:7 9:1 11:2 14:1 18:4 21:4 23:1 55:1 57:1 69:1 72:4 85:1 109:1 124:1 162:1 181:1 196:1 224:1 272:1 289:1 292:1 332:1 343:1 409:1 424:1 457:2 480:2 629:1 754:1 865:1 897:1 971:1 1008:1 1337:2 1411:1 1500:1 1784:1 2012:1 2014:2 2031:2 
0 17.38405285508883 0 0 0 1:1 2:1 4:1 11:1 13:1 19:1 22:1 25:1 38:1 41:1 70:1 79:1 96:1 102:1 109:1 137:1 166:1 179:1 577:1 2012:1 2031:1 
0 9.40043267716524 0 0 17.43507593611201 1:1 2:1 7:1 33:2 43:1 57:1 103:1 117:1 157:1 467:1 510:1 780:1 2012:1 2035:1 
6.888489470968175 5.267525878360129 0 0 0 1:2 2:2 3:1 6:2 17:1 19:2 20:2 40:1 55:1 62:1 92:1 113:1 116:1 137:1 247:2 259:2 364:1 440:1 462:1 489:1 506:1 558:1 603:1 939:1 977:1 1282:1 1292:1 1295:1 1406:1 1858:1 2011:1 2012:1 2014:1 2031:1 
3.979438788401397 3.651200723682133 0 0 0 1:2 2:2 10:1 17:2 60:2 311:2 382:2 493:2 610:1 1518:1 1745:1 1884:1 2012:1 2014:1 
0 0 4.244816830763123 0 0 1:1 2:1 4:2 9:1 11:1 14:1 79:1 525:1 1152:1 1495:1 2012:1 2031:1 2032:1 
23.15197603285531 25.4835682382377 2.199649374491664 0 0 1:1 2:1 3:2 4:2 6:1 11:1 18:1 53:1 54:1 74:1 171:1 313:1 605:1 607:1 1420:1 1755:1 2012:1 2031:1 
14.4025847144966 19.60529960571592 0 0 0 1:2 2:2 3:3 4:3 5:1 8:1 11:2 21:1 25:1 30:2 38:1 41:1 74:1 95:1 98:1 347:2 695:1 710:1 2012:1 2015:1 2033:1 
2.197879176024465 4.408920602717851 0 0 0.9926128746720994 1:1 2:1 3:6 5:2 6:1 7:1 10:1 19:1 56:1 83:1 87:1 95:1 121:1 122:1 128:1 155:1 159:1 194:1 238:1 297:1 299:1 344:1 609:2 728:1 847:1 939:1 1001:1 1065:4 1095:2 1109:1 1132:1 1142:1 1297:1 1429:2 1631:3 1640:1 1718:1 2012:1 2014:1 2031:1 2033:3 2035:1 
0 13.84852096701076 0 0 0 1:1 2:1 7:1 13:1 26:1 88:1 286:1 1075:1 1238:1 1485:1 2012:1 
0.4234308716970457 0 0 0 0 1:1 2:1 3:1 6:1 8:1 23:2 27:1 34:1 40:1 140:1 143:1 173:1 469:1 476:2 589:1 1531:1 2012:1 2015:1 2031:2 
2.457517098172771 2.478173743934859 0 0 0 1:6 2:6 3:1 4:4 5:1 8:1 13:6 14:6 23:1 39:1 43:1 46:1 124:1 162:6 183:1 196:1 204:1 268:1 328:1 424:1 913:1 1028:1 1066:1 1401:1 1694:1 2012:1 2015:1 2031:2 
0 0.4058252320773321 0 1.819527628356661 0 1:1 2:1 3:1 4:3 5:1 7:2 11:1 19:1 45:2 65:1 84:2 93:1 121:1 124:1 128:1 143:1 148:1 150:1 154:1 203:1 226:1 354:1 437:1 534:1 614:1 745:1 802:2 830:1 1344:1 1369:2 2012:1 
0 12.92119210049377 0 0 0 1:1 2:1 5:2 6:1 72:1 110:1 140:1 279:1 301:1 482:1 1355:1 2012:1 2031:1 
0 0 0 0.7725155082157558 0 1:1 2:1 5:1 8:1 26:1 48:1 53:1 64:1 70:1 93:1 110:1 118:1 157:1 176:1 520:1 566:1 1041:1 1310:1 2012:1 2015:1 
3.008510779494211 32 0 0 0 1:1 2:1 3:3 4:1 10:1 25:1 26:1 40:1 81:1 162:1 173:1 334:1 349:1 1080:1 1419:1 2012:1 2014:1 2031:1 
0 11.9240255913095 2.020065396274523 0 0 1:1 2:1 22:1 36:1 398:1 516:1 1002:1 2012:1 2016:1 2031:1 
1.220218077052543 1.384622788998506 0 0 0 1:2 2:2 3:4 4:3 5:2 7:1 8:1 9:10 11:1 14:1 18:1 19:1 20:2 21:1 23:5 29:1 36:1 50:1 65:3 71:2 74:3 78:2 83:1 86:2 87:1 135:1 144:2 148:1 154:1 170:2 174:1 199:1 221:1 241:2 258:1 263:1 324:1 347:1 362:1 450:1 458:1 1160:1 1268:1 1383:1 1571:1 1610:1 1658:1 1906:1 1953:1 1967:1 2011:1 2012:1 2014:2 2015:1 2016:1 2031:3 2033:3 2034:1 
0 0.04910090567555107 0 0 0 1:8 2:8 3:1 4:9 8:1 9:1 20:2 21:1 23:1 24:1 28:1 30:1 31:1 39:2 55:1 65:2 74:1 82:1 86:3 92:1 104:2 109:1 126:2 142:1 147:1 154:1 155:1 157:1 168:1 292:2 308:1 322:1 333:1 335:3 362:1 429:1 445:1 464:1 476:1 480:1 599:1 614:1 644:1 808:1 981:2 1096:1 1181:1 1260:1 1348:1 1442:1 1660:1 1745:1 1884:1 1897:1 2011:1 2012:1 2014:1 2015:1 2016:1 2031:3 2033:1 
0 0 0 1.225744989938743 0 1:1 2:1 3:2 10:1 13:1 22:1 32:1 36:1 52:1 77:1 97:1 117:1 126:1 286:1 332:1 2012:1 2014:1 2016:1 
0 1.628701936801724 0 0 0 1:1 2:1 3:2 4:5 7:1 8:1 9:1 27:1 29:1 46:1 47:1 59:1 95:1 110:1 124:1 134:1 204:1 295:1 384:1 599:1 629:1 668:1 948:1 1533:1 1653:1 1783:1 2012:1 2015:1 
1.302387108208938 0.6846334100256316 0.08117122043896673 0 0.005884869037595612 1:2 2:2 3:15 5:4 6:7 7:2 9:5 10:1 13:2 17:1 30:1 39:2 42:4 56:2 57:1 84:3 96:1 98:1 106:1 115:1 117:1 125:1 131:1 144:1 148:1 153:1 199:1 200:1 227:1 250:1 259:1 302:1 311:1 328:1 351:4 395:2 499:1 524:1 590:1 608:1 632:2 907:1 997:1 1025:1 1032:1 1033:1 1278:1 1326:1 1336:1 1450:1 1627:1 1757:1 2012:1 2014:2 2031:3 
0 0 0 1.022101626895872 0 1:1 2:1 4:1 5:1 6:3 21:1 35:1 71:1 88:1 95:3 174:1 180:1 225:1 261:1 994:1 2012:1 2031:1 2034:1 
0.8048150516813283 3.786026398274616 0 0 0 1:1 2:1 3:6 4:6 6:4 8:3 9:2 10:2 11:1 14:1 26:1 29:1 30:2 40:1 44:2 47:1 53:1 55:2 56:1 57:2 59:1 79:1 116:1 117:1 154:1 155:1 156:1 167:1 183:1 189:2 198:1 216:1 229:2 248:2 260:1 342:1 356:1 362:1 424:1 459:1 524:1 555:1 607:1 728:1 971:1 1130:1 1171:1 1384:1 1484:1 1599:1 1755:2 2012:1 2014:2 2015:4 2017:1 2031:5 2033:1 
4.695626271352237 5.127499718692707 0 0 0 1:1 2:1 3:4 4:1 5:2 6:1 9:1 17:1 18:1 19:1 25:1 26:1 48:1 59:1 67:2 105:2 198:1 247:2 256:1 268:1 275:1 559:1 677:2 854:1 855:1 1096:1 1207:1 1314:1 1394:1 1572:1 1833:1 2012:1 2014:1 2031:1 2033:1 
0 4.526806104150599 0 0 0 1:1 2:1 3:10 4:1 9:4 15:1 21:1 22:1 27:1 39:1 45:1 74:1 83:1 87:1 101:1 102:1 137:1 146:1 242:1 352:1 362:2 445:1 545:1 630:1 652:1 695:1 700:1 703:1 785:1 1084:1 1156:1 1388:1 1757:1 2012:1 2031:7 
1.337446313258319 0.1772756127354264 0.9027069022673543 0 0 1:1 2:1 4:1 6:2 7:2 10:1 15:1 17:6 23:2 29:1 49:5 60:1 64:1 65:1 74:2 88:1 98:1 102:1 111:2 138:1 141:2 230:1 254:1 260:1 274:1 277:1 310:1 312:1 345:1 377:1 383:2 423:1 438:1 443:1 444:1 562:1 580:2 650:1 695:1 709:1 851:1 861:1 878:1 997:1 1118:1 1151:1 1191:1 1269:1 1618:1 1653:1 1698:1 1706:1 1719:1 1881:1 1888:1 1940:1 2012:1 2014:4 2031:2 2032:1 
0 1.19944146573142 0 0 0 1:1 2:1 4:1 9:1 14:1 20:2 37:1 114:1 170:1 1248:1 2011:1 2012:1 
13.93810054398331 0.9269831677838469 0 0 0 1:1 2:1 3:1 7:1 18:1 27:1 31:1 94:1 204:1 717:2 764:1 905:1 945:1 1012:1 1572:1 2012:1 2033:1 
0 14.66678639932192 0 0 0 1:1 2:1 9:1 14:1 118:1 292:1 553:1 2012:1 
0 20.37640025946616 0 0 0 1:1 2:1 13:1 73:1 286:1 1857:1 1902:1 2012:1 
0 2.388866999327998 0 0 0 1:1 2:1 3:4 5:2 8:1 11:1 17:1 18:1 19:1 29:1 37:1 39:1 42:1 45:1 50:1 61:1 74:1 83:2 87:2 117:2 121:1 123:1 128:1 185:1 190:3 194:1 225:2 260:1 457:1 1033:1 1631:1 2012:1 2014:1 2015:1 
0 0 0 2.5328826401844 0 1:1 2:1 3:1 4:1 5:1 6:1 7:1 11:1 47:1 102:1 236:1 286:1 844:1 2012:1 
0 30.27810322331596 0 0 0 1:1 2:1 3:1 5:1 7:1 11:1 62:1 88:1 96:1 154:1 165:1 367:1 494:1 758:1 807:1 1714:1 1758:1 2012:1 2031:2 2032:1 
0.7593162678928638 0.7865734968483684 0.296085260449145 0 0.05300774955435449 1:10 2:10 3:3 4:1 6:1 7:1 8:6 10:3 13:1 14:2 17:1 21:1 24:12 26:2 28:1 30:1 31:1 44:2 49:1 71:5 75:1 111:1 202:1 221:1 258:1 311:1 312:1 322:1 325:2 358:2 411:1 448:1 457:2 555:1 617:1 713:1 755:7 896:1 1176:1 1223:7 1568:1 1618:1 2012:1 2014:5 2015:6 2031:1 2035:1 
0 1.277182091096032 0 0 0 1:4 2:4 3:13 4:3 5:1 6:2 7:2 10:1 11:3 13:1 17:1 18:2 30:1 31:2 35:1 37:1 47:2 48:1 53:1 55:1 60:1 67:1 74:1 75:2 77:1 101:1 102:2 104:1 109:1 150:1 170:3 172:1 179:1 225:1 311:1 317:1 338:1 343:1 346:1 351:2 386:1 415:1 452:2 505:1 562:1 592:1 625:1 817:1 919:1 1005:2 1010:1 1093:1 1170:1 1483:2 1637:1 1707:1 2012:1 2014:1 2031:2 2032:3 2033:1 2035:3 
1.406768821090803 2.157161327754263 0.7591407944059566 0 0 1:1 2:1 3:8 4:1 5:3 6:1 10:1 14:1 15:1 23:1 26:1 37:1 42:2 48:1 51:1 53:2 56:1 67:1 71:2 82:1 93:1 134:2 160:1 204:3 257:1 272:1 304:1 309:2 316:1 384:1 408:1 426:1 434:3 479:1 887:1 910:4 1360:1 1501:1 1728:1 2012:1 2014:4 2031:1 
32 0 0 0 0 1:2 2:2 5:2 6:1 7:1 8:1 9:1 11:2 14:1 29:1 36:1 40:1 47:1 79:1 119:1 262:1 287:1 517:1 621:1 2012:1 2015:1 2016:1 2031:1 
0 6.465946805354059 0 0 0 1:1 2:1 5:1 67:1 82:1 116:1 124:1 676:1 2012:1 
0 6.821152896924628 0 0 2.243756141076859 1:1 2:1 3:5 4:2 5:1 6:2 9:3 11:1 13:1 15:1 23:2 38:1 41:1 42:1 54:1 95:1 106:1 131:1 138:1 337:1 394:1 432:1 511:2 773:1 846:1 1121:1 1609:1 2012:1 2014:1 2031:1 
0 2.49889987725695 0 0 0 1:4 2:4 3:2 4:2 5:1 6:1 7:3 9:4 31:2 36:2 42:1 65:1 74:1 75:2 126:1 152:2 171:1 196:1 204:1 232:1 353:2 403:1 473:2 496:2 500:1 908:2 933:1 1171:1 1262:1 1487:2 1620:1 1727:2 2012:1 2016:2 
0 7.092280812492329 0 0 0 1:1 2:1 3:2 5:1 7:1 8:1 27:1 34:1 38:2 40:1 41:1 92:1 129:1 251:1 265:1 429:1 533:1 697:1 2012:1 2015:1 2031:1 
0.5457756689710903 7.413011137793867 0 0 0 1:2 2:2 8:1 17:2 144:1 147:1 254:1 300:1 382:1 626:1 856:1 1018:1 2012:1 2014:2 2015:1 
0.2229585160640247 3.897948674922328 0.4304754974919142 0 0 1:1 2:1 4:2 6:1 19:1 20:12 21:1 32:1 91:1 142:1 199:1 564:1 667:1 992:1 1146:1 1169:1 2011:6 2012:1 
0 0.2170331904564929 0 0 0 1:5 2:5 3:10 4:2 5:1 6:3 7:4 13:1 14:1 16:1 21:2 26:1 29:1 55:1 56:1 59:1 62:2 64:1 68:2 69:3 88:1 92:1 96:2 101:1 109:3 123:3 131:1 146:1 156:1 158:2 161:1 198:1 199:1 253:1 275:1 307:1 329:1 402:1 426:1 430:1 501:1 547:1 804:1 1000:1 1524:1 1799:1 2012:1 2014:2 2031:3 
0 1.250286267415249 0 0.03261222364788782 0 1:2 2:2 3:3 5:2 7:1 15:4 25:1 38:1 41:1 70:4 90:1 104:1 689:1 723:1 2012:1 
5.732059163331456 0 0 0 0 1:1 2:1 3:1 12:1 29:1 39:2 54:1 59:1 183:2 705:1 1103:1 2012:1 2031:2 
0 13.83640794310043 0.9695754514828152 0 0 1:3 2:3 3:3 4:2 5:2 7:3 10:1 27:1 29:2 31:1 36:1 53:1 60:1 67:1 81:2 94:1 107:1 116:1 174:1 345:1 402:1 424:1 609:1 771:1 946:1 1056:1 1071:1 1150:1 1287:1 1580:1 1826:1 1885:1 2012:1 2014:1 2016:1 2032:1 
0 0 0 0 2.889917456996108 1:1 2:1 6:1 9:1 18:1 24:3 57:1 91:1 168:1 218:1 239:1 257:1 284:1 448:1 974:1 1572:1 1988:1 2012:1 
0 0.5562728099809027 0 0 0 1:2 2:2 3:4 4:3 6:2 7:1 8:4 10:3 14:1 21:2 28:1 29:1 32:1 50:1 65:1 67:1 68:1 89:1 91:1 109:2 123:2 157:1 168:1 171:2 178:1 287:1 307:1 324:1 352:1 374:1 539:1 553:1 580:2 690:1 732:1 790:2 825:1 874:2 880:1 891:1 1021:1 1102:1 1253:1 1267:1 1467:2 1585:1 1695:2 1729:1 2012:1 2014:4 2015:4 2031:1 2033:1 
18.24235772758993 32 0.3578046828147089 0 0 1:1 2:1 3:9 4:5 7:3 8:2 15:1 18:1 19:1 22:1 23:1 26:1 50:1 61:1 79:1 91:1 95:1 116:1 125:1 129:1 139:1 170:1 188:1 212:1 250:1 256:1 298:2 386:1 388:1 457:1 505:1 546:1 604:1 725:2 758:1 811:2 958:1 986:2 1024:1 1097:1 1099:1 1235:1 1242:2 1257:1 1273:1 1319:1 1353:1 1426:1 1449:2 1488:1 1630:2 1750:1 1861:1 1902:1 1932:1 2012:1 2015:2 2032:1 
1.883807154758247 3.280006193748439 0 0 0 1:1 2:1 3:4 4:9 6:4 7:1 18:1 19:1 21:1 22:1 23:3 27:2 30:1 54:2 56:1 59:1 73:1 79:1 103:3 106:3 107:1 124:1 143:4 150:1 158:1 172:1 196:1 211:1 242:1 259:1 294:1 313:2 327:1 353:1 409:2 412:1 424:1 446:1 460:1 578:1 604:1 848:1 982:1 1120:1 1304:1 2012:1 2014:1 2033:2 
0 7.707060466668283 0 0 0 1:2 2:2 4:2 5:1 6:1 32:1 42:1 62:2 96:2 454:1 1091:1 1603:1 2012:1 2031:3 2033:1 
4.982571295206791 17.70502125196021 1.554256692557441 0 0 1:2 2:2 3:1 5:1 64:1 90:3 103:1 110:1 342:1 346:1 445:1 566:1 599:1 2012:1 2031:1 
0.9252089334602205 1.569840648995129 0.6939224995490018 0 0 1:2 2:2 3:6 4:1 5:2 9:1 11:1 23:1 26:1 27:1 32:1 42:1 56:1 57:1 61:1 74:2 88:2 89:1 114:3 115:2 152:1 158:1 163:4 179:1 188:1 242:1 457:2 476:1 615:1 700:2 1079:2 1138:1 1345:1 1590:2 1815:3 1994:2 2012:1 
2.222822987196089 0 0 0 0 1:1 2:1 9:1 17:2 21:1 28:1 46:1 49:3 80:2 249:1 307:1 311:1 325:1 438:1 444:1 465:1 485:1 563:2 596:1 617:1 626:1 657:1 661:1 739:1 1178:1 1218:1 1341:1 1593:1 2012:1 2014:2 2031:2 2033:1 
0 32 0 0 0 1:1 2:1 9:1 14:1 24:4 2012:1 
0 0 1.582106370278549 0 0 1:1 2:1 21:1 49:1 167:1 213:1 2012:1 2014:1 2015:1 
0.9018129569195069 0.8244948302791545 0.372457306062126 0 0.09731807662572378 1:19 2:19 3:7 4:2 5:7 7:1 13:1 18:2 19:1 21:19 29:2 32:1 74:2 79:1 88:1 102:1 106:1 109:5 114:1 116:1 131:1 152:2 157:1 178:1 223:1 235:1 288:1 326:1 337:1 347:1 356:1 386:1 402:2 435:1 470:1 517:1 606:1 668:1 757:1 877:1 922:1 1091:1 1285:1 1456:1 1609:1 1784:1 1833:1 2012:1 2014:2 2031:1 
0 0.1844621434237425 0 0 0 1:1 2:1 3:2 5:1 7:1 15:1 61:1 149:1 363:1 377:1 651:1 675:1 1082:1 1095:1 1181:1 1266:1 1733:1 2012:1 
0 0.957589977640412 0 0 0 1:8 2:8 34:1 40:1 147:3 264:3 431:5 2012:1 2031:1 
13.15605388230213 18.45555223530572 0 3.286231173302524 0 1:1 2:1 6:1 9:2 14:1 18:1 22:1 38:2 39:1 52:1 62:1 65:1 142:1 250:1 448:1 453:1 454:1 1673:1 2012:1 2033:1 2034:1 
0 32 0 0 3.765426969341589 1:1 2:1 5:1 6:2 22:1 29:1 32:1 34:1 42:1 54:1 104:1 165:1 175:1 250:1 333:1 680:1 1300:1 2012:1 2035:1 
0 0 0 1.537726125121304 0 1:1 2:1 22:1 82:1 174:1 205:1 536:1 2012:1 
0 13.43384845712816 0 0.8468065644525126 0 1:1 2:1 3:3 5:3 6:1 11:1 13:1 147:1 228:1 528:1 1172:1 1556:1 1961:1 2012:1 
0 0.5360878566399959 0 0 0 1:4 2:4 3:1 4:3 5:1 6:1 9:1 11:1 13:4 14:3 34:1 77:2 96:1 109:1 162:3 289:2 298:1 352:1 392:1 822:1 1375:1 1652:1 2012:1 2031:2 
0.05174611659113976 1.431514925537069 0 0 0 1:1 2:1 4:1 8:3 25:1 40:1 86:1 93:1 110:1 151:2 224:1 265:1 439:1 492:1 857:1 2012:1 2015:3 2031:1 
0 7.014303781556507 0 0 0 1:1 2:1 6:1 8:1 10:1 17:2 49:1 89:1 124:1 141:3 202:1 260:1 274:1 338:1 344:1 443:1 497:1 853:1 987:1 1198:1 2012:1 2014:1 2015:1 2017:1 
0.09246675599321737 0 0 0 0 1:7 2:7 3:5 4:3 5:3 7:1 9:7 13:1 14:6 15:1 17:1 18:1 20:2 21:1 23:1 27:1 28:2 30:2 44:1 51:1 55:1 64:1 76:1 80:1 85:1 96:1 134:1 141:1 142:1 160:1 162:1 170:1 172:1 182:1 211:1 213:1 249:1 392:1 404:1 430:1 480:1 530:2 536:1 665:1 711:1 936:1 969:1 1013:1 1275:1 1393:1 1520:1 1864:1 2011:1 2012:1 2014:4 2031:1 2033:2 
32 32 0 0 0 1:1 2:1 7:1 22:1 26:1 69:1 116:1 195:1 295:1 2012:1 2031:1 
1.889777566646627 1.867176129573956 0 0 0 1:1 2:1 3:14 4:6 5:1 7:2 8:1 12:1 15:1 19:3 21:1 23:4 31:1 43:1 59:1 64:1 135:1 148:2 240:1 282:1 297:1 328:1 404:2 454:1 513:1 766:1 835:1 917:1 1044:1 1113:1 1123:1 1379:2 1990:1 2012:1 2015:1 2031:2 2033:1 2034:1 
21.14921890205698 3.58604445397817 0 0 0 1:1 2:1 3:1 4:1 6:1 9:1 10:1 11:3 14:1 17:1 27:1 28:1 30:1 32:1 39:2 44:1 45:1 48:1 54:2 65:1 72:2 73:1 102:1 153:1 180:2 181:1 183:2 215:1 245:1 300:1 342:2 449:1 882:1 964:1 2012:1 2014:2 2031:4 
0 1.925783477866986 0 0 0 1:2 2:2 4:2 11:1 17:2 26:1 27:1 45:1 60:1 97:1 155:1 185:1 256:1 306:2 356:1 358:1 382:2 385:1 1345:1 1370:1 1504:1 1509:1 1514:1 1542:1 1598:1 2012:1 2014:1 
8.806574263112958 0 0 0 0 1:1 2:1 7:2 22:1 32:1 43:1 104:1 631:1 2012:1 2033:1 
0.5822595277218173 1.119724708731109 0.2604319335684168 0 0.1444323700645676 1:2 2:2 3:3 4:3 6:1 7:1 8:4 19:1 20:2 24:1 44:1 61:1 79:1 82:1 83:1 86:1 87:1 109:1 116:2 124:1 129:1 165:1 178:1 203:1 209:1 226:1 301:1 308:18 340:2 342:1 364:1 385:1 417:1 541:1 602:1 695:1 706:2 817:1 858:1 1350:1 1438:1 1480:1 1784:1 1978:1 2011:1 2012:1 2015:4 2016:18 2031:1 
0 3.598422252829259 0.7763754486097656 0 0 1:1 2:1 3:2 4:2 7:1 8:1 10:2 17:1 18:1 44:1 48:1 60:2 62:1 73:1 96:1 115:1 146:1 155:1 193:1 200:1 228:2 287:1 340:1 408:1 426:1 493:1 598:1 915:1 2012:1 2014:2 2015:1 2017:1 2031:1 
0 23.41681759737248 0 0 0 1:1 2:1 3:1 9:1 14:1 20:2 818:1 1878:1 2011:1 2012:1 
0 20.75502116324212 0 0 0 1:1 2:1 9:1 14:1 15:1 46:1 47:1 54:1 70:1 2012:1 
0 0 0 3.477242383997731 0 1:1 2:1 7:1 37:1 46:1 62:1 101:1 113:1 286:1 428:1 430:1 502:1 956:1 1095:1 1565:1 2012:1 2031:1 2034:1 
6.162742245124733 6.375297849916382 2.466968242522597 0 4.897181981133806 1:1 2:1 3:1 5:1 6:2 7:2 8:2 10:1 11:2 22:1 29:1 42:1 50:1 52:1 55:1 77:2 97:1 114:1 229:1 452:1 708:1 791:1 843:1 844:1 1224:1 1902:1 1955:1 1973:1 2012:1 2014:1 2015:2 2035:1 
0.9843785704797633 0.9869582648706958 0.4247324900077525 0 0.1113592181375423 1:20 2:20 362:20 2012:1 2031:20 
32 32 0 0 0 1:1 2:1 4:1 28:1 34:2 40:1 58:1 68:1 249:1 349:1 712:1 2012:1 2014:1 2031:1 2033:1 
1.691200757200956 1.111296698782349 0 0 0 1:2 2:2 3:3 4:2 5:3 15:1 17:1 20:4 28:1 29:1 32:1 44:1 51:2 61:1 65:1 69:1 84:1 86:1 121:1 155:1 174:1 175:1 234:1 350:1 372:1 386:1 387:1 440:1 493:2 495:1 513:1 527:1 542:1 557:1 607:1 707:1 1013:1 1203:1 1257:1 1323:1 1482:1 1814:1 1891:1 1946:1 2011:2 2012:1 2014:3 2031:1 2033:2 
0 9.769279156056456 0 0 11.15757767311046 1:1 2:1 17:1 28:1 31:1 49:1 51:1 94:1 200:1 423:1 452:1 1017:1 1118:1 2012:1 2014:1 2035:1 
0.1256102384803776 0 0 0 0 1:2 2:2 3:6 4:5 7:1 18:1 20:2 29:1 34:2 38:1 41:1 46:3 55:1 62:1 75:1 78:1 89:1 109:1 149:1 226:5 232:1 235:1 242:1 243:1 247:1 258:1 288:1 297:1 328:1 352:1 402:1 403:1 476:1 498:1 511:3 517:1 592:1 667:1 705:1 746:1 804:1 881:1 888:1 1095:1 1208:1 1523:1 1578:1 1601:1 1609:1 1645:1 1710:1 2011:1 2012:1 2031:2 2033:1 
0.07101122111204433 0 0 0 0 1:1 2:1 6:1 9:1 11:1 25:1 38:1 40:1 41:1 46:1 67:1 82:1 90:2 118:1 119:2 134:1 160:1 264:1 270:1 282:1 285:1 491:1 602:1 648:1 1027:1 2012:1 2031:2 
6.08779063459101 25.67302696705873 0.6305273819793596 0 0 1:1 2:1 3:2 7:2 10:1 11:1 39:1 52:1 64:1 97:1 113:1 139:1 155:1 161:1 172:1 182:1 240:1 268:1 346:1 374:1 397:1 467:1 572:1 580:1 780:1 794:1 1193:1 2012:1 2014:1 
0 2.549434144640382 0 0 0 1:2 2:2 3:4 4:4 5:2 6:4 11:3 13:1 19:1 27:1 29:1 35:2 50:1 55:2 74:3 89:1 98:1 101:3 118:1 131:1 137:3 175:1 244:1 250:1 329:1 362:1 381:4 472:1 592:1 599:1 634:1 859:1 907:1 1051:1 1477:1 1603:1 1763:1 1967:1 2012:1 2031:8 
0 2.350412702504591 0 0 0 1:1 2:1 5:1 6:1 9:2 20:2 42:1 158:1 188:1 218:1 549:1 736:1 1138:1 1219:1 1641:1 2011:1 2012:1 
0 7.373649880394547 0 0 0 1:1 2:1 3:5 4:6 5:1 7:1 8:1 11:2 19:1 22:1 27:1 31:1 36:1 55:2 57:2 71:2 72:1 75:1 82:1 116:1 121:1 128:1 129:2 199:1 204:1 258:2 268:1 353:2 504:1 541:1 560:1 727:3 758:1 849:1 887:1 998:1 1024:1 1053:1 1074:1 1083:1 1112:1 1275:3 1293:1 1428:1 1568:1 2012:1 2015:1 2016:1 2031:1 2033:2 
0.1854980785115785 0 0 0 0 1:7 2:7 3:4 6:1 7:2 9:7 10:1 13:2 14:6 18:1 29:1 32:1 36:1 43:1 50:1 102:1 126:1 145:1 171:1 183:2 209:1 256:1 262:2 403:1 513:1 665:1 722:1 774:1 893:1 1031:1 1395:1 1440:1 2012:1 2014:1 2016:1 2031:2 
10.65493937134162 0 0 0 0 1:1 2:1 10:1 60:1 62:1 96:1 2012:1 2014:1 2031:1 
0 0.9069887675614052 0.9249291700012896 0 0 1:1 2:1 3:4 5:5 6:5 7:3 9:2 10:2 15:1 17:1 26:1 36:4 42:2 44:1 45:1 52:1 59:1 83:3 84:1 85:1 87:3 93:1 97:3 121:1 126:1 128:1 135:1 156:1 171:1 175:1 229:1 272:1 297:2 318:1 345:1 383:1 393:1 427:1 457:1 595:1 609:1 633:1 716:1 749:1 769:2 823:1 847:1 901:1 1043:1 1090:1 1418:1 1574:1 2012:1 2014:2 2016:4 2031:1 
1.375253508643026 0.7523267344802251 0.09675214855802651 0 0.09893251230244018 1:1 2:1 4:1 23:1 35:1 36:14 126:1 935:1 1801:1 2012:1 2016:14 2031:1 
0 1.40589149469868 0.2833874374746816 0 0 1:3 2:3 3:8 4:3 5:2 6:2 7:3 9:2 10:1 11:2 17:1 26:2 28:1 30:1 37:1 38:1 41:1 42:1 51:1 53:1 55:1 56:2 57:1 59:1 67:1 69:1 70:2 74:1 75:1 78:2 85:1 92:1 135:1 150:1 152:1 158:1 180:1 189:1 192:1 215:1 253:2 259:1 268:1 288:1 323:1 334:1 335:1 405:1 418:2 461:1 467:1 482:1 520:2 549:1 588:1 661:1 670:2 742:1 804:1 886:1 924:1 1039:1 1082:1 1186:1 1357:1 1852:1 1917:1 1923:1 1963:1 2012:1 2014:3 2031:1 2033:1 
2.697911026779193 10.17745571403274 0 0 0 1:2 2:2 7:1 25:1 62:1 91:1 96:1 106:1 223:1 366:1 396:1 462:1 1096:1 1634:1 2012:1 2031:1 2033:1 
4.23441437483255 4.02532282329121 0 0 0 1:3 2:3 3:2 4:1 8:1 10:1 14:1 24:5 25:1 60:1 175:1 225:2 356:1 393:1 494:1 600:1 739:1 866:1 966:1 1573:1 2012:1 2014:2 2015:1 2031:1 
3.369553001901848 3.958698281980774 0 0.2117791547148397 0 1:1 2:1 3:5 5:1 8:2 15:2 18:1 19:2 23:1 30:1 37:1 48:1 65:1 67:1 147:1 178:2 289:2 313:1 316:1 334:2 350:1 357:1 384:1 428:1 536:1 575:1 628:1 793:1 811:1 820:1 871:3 983:1 1185:2 1292:1 1435:1 1499:2 1645:1 2012:1 2015:2 
1.072566734237946 8.127282972298334 0 0 0 1:1 2:1 3:1 6:2 7:1 9:2 18:1 21:1 22:1 43:2 59:2 74:1 229:1 257:1 270:1 622:1 1055:1 1470:1 1528:1 1568:2 2012:1 2033:1 
32 7.329368720959279 0 0 0 1:2 2:2 4:1 9:1 10:1 14:1 17:1 42:1 89:1 91:1 209:1 273:1 306:2 382:1 516:1 1671:1 1679:1 2012:1 2014:1 2031:1 
2.869665388552026 5.467381741951808 0 0 0 1:3 2:3 4:2 39:1 53:1 55:1 81:3 91:1 105:1 106:1 110:1 134:1 160:1 235:1 352:1 614:1 633:1 886:1 918:1 1216:1 2012:1 2031:1 
2.08333856510548 3.013242154616167 0 0 0 1:1 2:1 4:1 8:1 21:1 25:1 28:1 49:1 54:1 60:1 121:1 146:1 223:1 224:1 274:1 409:2 489:1 676:1 719:1 836:1 1638:1 2012:1 2014:1 2015:1 
0.5557082435378182 0.2071426919158487 0 0 30.73443290581471 1:1 2:1 4:2 6:1 23:1 36:3 57:1 69:1 72:1 222:1 365:1 532:2 664:2 1116:5 1167:1 1644:4 1688:4 2012:1 2016:3 2017:1 
0.10195022053899 4.001840089898078 0.5827828324707534 0 0 1:9 2:9 3:1 11:1 18:1 57:3 59:3 64:2 85:1 96:1 117:1 134:3 160:3 239:3 245:1 250:1 302:1 329:1 354:1 366:3 370:3 501:1 558:1 2012:1 2031:1 
15.16897469028548 32 0 0 0 1:1 2:1 3:1 8:2 11:1 22:1 23:1 50:2 113:1 139:1 152:1 182:1 430:1 698:1 828:1 1981:1 2012:1 2015:2 
10.18135439471153 18.09304124349107 0 0 0 1:1 2:1 4:1 11:1 18:1 20:2 27:1 126:1 183:1 366:1 381:1 924:1 2011:1 2012:1 2031:1 
0 0 0 8.849961529102774 0 1:1 2:1 10:1 28:1 33:2 1017:1 2012:1 2014:1 2034:1 
0 4.849974350171387 0 0 0 1:1 2:1 5:3 9:1 14:1 23:1 138:1 259:1 446:1 511:1 983:1 1016:1 1191:1 1229:1 1720:1 2012:1 
0 6.300886399920897 0 0 0 1:1 2:1 7:1 8:2 34:1 40:1 126:1 173:1 435:2 549:2 1078:1 1112:1 2012:1 2015:2 2031:1 
0.3654931341861128 18.3682498772832 0 0 0 1:1 2:1 5:1 9:1 11:2 14:1 18:2 44:1 71:1 74:1 117:1 194:1 1220:1 1549:1 2012:1 
0.3851419197954827 1.563353519942394 0 0 0 1:1 2:1 3:12 4:3 5:2 9:2 10:2 11:2 15:2 21:1 26:3 65:3 89:1 116:1 155:2 156:1 172:1 178:4 230:1 242:2 256:1 307:1 311:1 321:4 328:1 329:1 404:1 419:1 440:1 457:1 630:2 1040:1 1185:2 1192:1 1365:1 1369:1 1543:2 1587:1 1820:1 1901:1 2012:1 2014:2 2031:1 2033:1 
3.177241118192611 1.456561692392452 0 0 0 1:1 2:1 7:1 17:1 25:1 28:1 34:1 37:1 51:2 60:1 104:1 131:1 138:1 152:1 155:1 192:1 233:1 400:2 402:1 438:1 554:1 588:1 657:1 767:1 770:1 846:1 1050:1 1058:1 1254:1 1301:1 1744:1 2012:1 2014:3 
2.657898774361994 13.05620166747783 0.01901031341404487 0 0 1:1 2:1 3:3 4:1 7:1 9:2 10:1 17:1 23:1 26:1 30:1 45:1 54:2 55:1 64:1 114:1 115:1 144:1 249:1 297:1 307:1 354:1 357:1 438:1 636:1 670:1 859:1 997:1 1678:1 1749:1 2012:1 2014:2 2031:1 
0.9455015741916469 0 0 0 0 1:1 2:1 3:11 7:2 8:4 9:1 10:2 13:1 19:1 28:2 31:1 36:1 44:1 48:1 57:1 67:1 70:1 73:2 79:1 106:1 115:1 117:1 166:1 168:1 179:1 181:1 268:1 301:2 457:2 464:1 549:1 584:1 609:1 639:1 1154:1 1162:1 1280:1 1329:1 1601:1 1684:1 1741:1 1824:1 1849:2 2012:1 2014:2 2015:4 2016:1 2031:1 2033:3 
8.952614579226159 16.76634139347295 0 0 0 1:1 2:1 9:1 11:1 36:1 550:1 678:1 1310:1 2012:1 2016:1 2017:1 2031:1 
0 0 0 0 1.186320719107344 1:1 2:1 3:4 4:1 5:4 7:4 21:1 26:3 38:1 41:1 60:1 68:1 80:1 93:1 98:1 102:1 172:1 303:1 307:1 404:1 452:1 704:1 761:1 781:1 800:1 851:1 1144:2 1227:1 2012:1 2014:2 2031:1 2035:1 
0 0 0.07736192481633848 0 0 1:1 2:1 5:3 6:3 7:3 9:2 11:1 29:2 32:1 36:1 52:2 83:5 87:5 104:1 143:2 786:2 1028:2 2012:1 2016:1 
2.619366991386192 0 0 0 0 1:1 2:1 4:1 11:1 24:1 99:1 397:1 565:1 2012:1 
0.4754468575227725 0 0 0 0 1:5 2:5 3:8 4:2 7:3 9:4 11:3 12:2 13:1 14:1 19:2 23:1 29:2 32:1 35:1 50:1 57:1 62:1 69:1 73:2 91:1 101:1 113:1 123:1 135:1 142:1 145:1 150:1 153:1 169:1 218:1 231:1 242:1 247:1 284:1 348:1 448:1 461:1 507:1 605:1 628:1 667:1 746:1 760:1 762:2 786:1 840:1 947:1 971:1 1213:1 1695:1 2012:1 2031:2 
0 8.569009638805287 0 0 0 1:6 2:6 3:2 4:1 7:2 8:1 11:2 26:1 44:1 53:1 96:1 181:1 230:1 232:1 305:1 345:1 358:1 375:1 409:1 570:3 756:3 778:1 799:3 1014:1 1149:1 1382:1 1465:1 2012:1 2015:1 2031:1 
4.355704164541932 4.181659831052185 0 0 0 1:1 2:1 4:2 7:3 8:3 13:1 26:1 62:1 69:1 98:1 101:1 106:1 272:1 748:1 808:1 1012:1 1203:1 1922:1 2012:1 2015:3 2031:1 
0 0.3003504220763268 0 0 0 1:1 2:1 3:4 4:1 5:1 6:2 7:4 8:3 9:3 10:1 11:1 14:1 19:1 25:1 29:2 34:1 44:1 45:1 46:1 50:1 51:1 59:1 85:1 88:1 141:2 152:1 154:3 172:1 196:1 223:1 284:1 294:1 344:1 400:1 402:1 433:1 555:1 688:1 757:1 910:1 1037:1 1254:1 1649:1 2012:1 2014:2 2015:3 2031:3 2033:1 
0 0 16.67735068269743 0 0 1:2 2:2 3:1 4:1 5:1 10:1 17:1 24:1 60:1 62:1 96:1 100:1 127:1 190:1 404:1 600:1 757:1 2012:1 2014:1 2031:2 
4.427130976983585 12.88453416917594 1.784443015387733 0 0 1:3 2:3 4:1 6:1 8:3 11:2 13:2 18:1 30:1 32:1 88:1 108:3 112:3 116:1 127:2 132:3 175:1 301:1 352:1 547:1 1492:1 2012:1 2015:3 2031:1 
11.32867231111642 12.46524335257233 0 0 0 1:1 2:1 3:1 57:1 370:1 2012:1 2031:1 
0.329770826810782 4.412934886017256 3.288647735451379 0 0 1:1 2:1 3:7 4:3 5:3 6:3 10:1 11:1 19:1 29:1 30:2 36:2 39:1 42:1 43:1 45:2 47:2 60:1 61:2 71:1 97:1 138:2 142:1 156:1 168:1 194:1 210:1 229:1 250:1 254:1 294:1 322:1 427:1 458:1 466:2 600:1 733:1 734:1 735:2 807:1 950:1 1229:1 1544:1 1620:1 1723:1 2012:1 2014:1 2016:2 2031:2 2032:2 
0 32 0 0 0 1:1 2:1 3:1 4:1 9:1 10:2 14:1 17:1 22:1 32:1 53:1 61:2 73:2 121:1 128:1 184:2 272:1 312:1 344:1 386:1 422:1 423:1 928:1 935:1 979:1 1059:1 1408:1 1409:2 1423:1 1668:1 1924:1 1951:1 2012:1 2014:2 
23.28245497090922 21.01450517747196 0 0 1.869146827486968 1:1 2:1 7:1 11:1 34:1 56:1 67:1 124:1 142:1 146:1 247:1 1191:1 1333:1 1995:1 2012:1 2033:2 
0 14.91755425629588 0 0 0 1:1 2:1 4:2 7:3 8:11 9:1 10:2 13:1 22:1 28:2 35:2 47:1 48:1 70:1 88:1 95:1 172:1 184:1 188:1 230:1 259:1 281:1 298:1 441:1 540:2 633:1 669:1 725:1 878:2 1714:1 1763:1 1788:1 2012:1 2014:2 2015:11 2031:5 2032:1 
2.592838971039898 0 0 0 0 1:2 2:2 3:2 4:4 7:1 8:3 10:1 13:3 18:1 28:1 47:1 50:1 88:1 91:1 96:1 134:1 136:1 160:1 305:1 341:2 411:1 412:1 428:1 516:1 544:1 606:1 716:1 816:1 896:1 931:1 982:1 1043:1 1992:1 2012:1 2014:2 2015:3 2017:1 2031:2 
0 1.634781635597739 0 0 0 1:4 2:4 3:9 4:2 5:2 6:1 7:3 11:2 18:2 30:2 35:2 44:1 45:1 57:1 68:1 153:1 188:1 214:1 322:1 436:2 481:1 634:1 679:1 868:1 1154:1 1345:1 1505:1 1578:1 1642:1 2012:1 2014:1 2031:2 2033:1 
3.29800520283592 0 0 0 0 1:2 2:2 3:2 4:1 6:1 7:1 10:1 31:2 32:1 34:1 53:1 55:1 75:2 89:1 120:1 224:1 227:1 646:1 816:1 873:1 992:1 995:1 1056:1 1071:1 1146:1 1198:1 1380:1 1391:1 1402:1 2012:1 2014:1 2033:1 
0 0 1.503024111574607 0 0 1:3 2:3 3:7 4:1 8:2 15:1 19:1 40:1 43:1 44:1 71:1 91:1 143:1 227:1 231:1 235:1 305:1 328:1 397:1 686:1 760:1 888:4 894:1 896:4 1244:1 1281:1 1813:1 2012:1 2015:2 2031:1 
0.5851597375276119 0.7159975508237316 0.1399233145477074 0 0.02814890435279889 1:12 2:12 4:2 8:6 9:12 13:1 14:12 20:2 40:2 102:1 119:2 165:1 178:1 280:1 321:2 375:1 630:1 694:1 1054:1 1351:1 1682:1 2011:1 2012:1 2015:6 2031:2 
0 15.35033128000908 0 0 0 1:1 2:1 3:3 4:1 6:1 22:1 25:2 34:1 38:1 40:1 41:1 68:1 72:1 73:1 106:1 123:1 511:1 515:1 671:1 836:1 2012:1 2014:1 2031:1 
7.699227780268908 0 0 0 0 1:1 2:1 3:2 4:1 8:2 22:1 36:1 44:2 59:1 61:1 67:1 83:1 87:1 89:1 118:1 174:1 275:1 316:2 354:1 398:1 448:1 449:1 550:1 670:1 745:1 810:2 817:1 829:3 900:1 989:1 1272:1 1368:1 1433:1 2012:1 2015:2 2016:1 2031:1 
0.5010842435173091 14.0851569908313 0 3.064943148657184 0 1:5 2:5 3:1 4:1 6:1 7:1 19:1 29:1 63:1 79:1 121:1 128:1 134:1 243:1 261:2 361:1 384:1 515:1 647:1 731:1 943:1 1190:1 1243:1 1250:1 1404:1 1453:1 1719:1 1771:1 1882:2 1934:1 2012:1 
0 7.22223088651223 0 0 0 1:3 2:3 7:4 19:1 29:2 30:1 47:1 52:2 70:1 72:3 77:2 103:1 206:1 222:1 294:1 305:1 424:1 583:2 591:1 818:1 1135:3 2012:1 2031:1 
0 14.37234698688441 0 0 0 1:1 2:1 8:2 13:1 21:1 38:1 41:1 369:1 2012:1 2015:2 
8.191203538669168 0 0 0 0 1:1 2:1 3:4 4:1 7:1 8:2 10:1 15:2 17:1 18:1 19:1 22:1 26:1 28:1 44:1 73:1 79:1 82:1 86:1 93:1 107:1 108:1 116:2 117:1 129:1 138:2 189:1 193:1 204:1 234:1 237:1 240:1 276:3 298:2 408:1 462:1 596:1 717:1 798:1 939:1 1243:1 1331:1 1362:1 1657:1 1761:1 1817:1 1925:1 1952:1 2012:1 2014:2 2015:2 2031:1 2032:1 
0 0 0.01507840658187412 0 0 1:1 2:1 3:3 4:7 8:2 9:1 11:1 18:1 23:1 27:1 33:2 37:1 39:1 43:1 45:1 47:1 50:1 51:1 91:1 95:1 117:1 123:1 125:1 149:1 157:1 200:1 210:1 545:1 716:3 748:1 833:1 894:1 1001:1 1046:1 1397:1 1419:1 1548:2 2012:1 2014:1 2015:2 2031:1 2032:1 
11.15470638278896 32 2.256127274549013 0 0 1:1 2:1 11:1 21:1 138:2 142:1 2012:1 
0 0.5223838873297716 1.584425633081259 0 0 1:1 2:1 3:5 4:2 9:2 10:3 21:1 64:1 67:1 80:1 88:1 95:1 111:2 180:1 216:1 245:1 294:1 300:1 772:1 885:1 1520:1 1627:1 1758:1 2012:1 2014:5 2032:1 
0 2.274124374718185 0 0 0 1:1 2:1 3:1 4:1 8:3 13:1 32:1 73:1 176:1 224:1 374:1 731:2 858:1 2012:1 2015:3 
1.640310843980129 1.701055866254219 0 0 0 1:1 2:1 4:2 5:1 6:4 7:1 9:1 11:2 18:2 19:2 21:1 22:1 23:1 45:1 56:2 69:1 79:1 92:1 157:1 198:1 216:1 229:1 253:2 370:1 413:1 467:1 634:1 781:1 803:1 837:1 1168:1 1757:1 1886:1 2012:1 2031:2 2033:1 
0 32 0 0 0 1:1 2:1 9:1 13:1 14:1 22:1 136:2 287:1 369:1 2012:1 
0.0278742151179648 0 0 0 0 1:3 2:3 3:5 4:3 5:5 7:2 15:2 18:2 21:3 30:1 34:1 37:3 42:2 55:1 56:1 59:2 67:1 70:2 72:1 105:1 106:1 110:2 113:2 137:1 149:1 181:1 185:1 186:1 204:1 210:1 257:1 270:1 299:1 407:1 445:1 453:2 461:1 547:1 597:1 656:1 687:1 688:1 721:1 760:1 762:2 766:1 802:1 894:1 945:1 1278:1 1576:1 1683:1 2012:1 2014:1 2031:1 2033:1 
0 0 1.803555447868024 1.213748632706435 0 1:1 2:1 3:1 6:1 15:1 27:1 47:1 53:1 54:1 135:1 150:1 153:1 205:1 1051:1 1741:1 2012:1 
7.797749040509843 7.955573950544357 0.7806185577490528 0 0 1:1 2:1 3:4 6:3 9:2 10:1 17:1 18:1 22:1 49:2 85:1 153:1 233:1 309:2 550:1 596:1 639:1 800:1 867:1 1225:1 1326:1 1472:1 1656:1 1728:1 2012:1 2014:2 2031:1 
0 9.520388228696547 0 0 0 1:1 2:1 4:1 11:1 17:1 54:1 82:1 104:1 149:1 217:1 374:1 646:1 694:1 838:1 913:1 1637:1 1786:1 2012:1 2014:1 2033:1 
0.1188824343081116 0.7638066926341663 0 0 0 1:5 2:5 3:15 4:4 5:1 7:2 8:2 9:2 14:1 15:1 17:1 19:1 21:3 24:6 31:1 46:1 48:1 59:1 72:1 74:1 89:1 96:1 107:1 158:1 162:1 179:3 183:1 198:1 248:2 316:1 326:1 402:1 432:1 590:1 662:1 663:1 822:1 863:1 882:1 1055:1 1103:1 1234:1 1495:1 1659:1 1716:1 1749:1 1799:1 2012:1 2014:2 2015:2 2031:4 2033:1 
21.38555860565672 32 0 1.044993457467636 4.096168157351805 1:1 2:1 3:2 4:1 5:1 10:1 30:1 38:1 41:1 52:1 56:1 67:1 90:1 122:1 154:1 161:1 241:1 322:1 427:1 687:1 1423:1 1927:1 2012:1 2014:1 
1.611066435416271 1.514862519688479 0 0 0 1:1 2:1 10:1 15:1 17:1 28:2 31:1 49:1 55:1 172:1 231:1 620:1 1077:1 1404:1 1417:1 1826:1 1876:1 1905:1 2012:1 2014:1 2031:1 
13.90914944621406 6.066816508244917 1.975865026447313 0 0 1:2 2:2 3:2 50:1 68:1 77:1 130:2 140:1 461:1 476:1 519:1 760:1 805:1 1417:1 1531:1 2012:1 2014:1 2031:1 
0.01357222608232772 1.370246045055675 0 0 0 1:3 2:3 3:7 4:3 6:1 7:3 11:2 13:3 18:3 26:1 27:1 28:1 29:1 30:2 42:1 47:1 48:1 57:1 59:1 62:2 64:1 72:2 85:1 86:1 98:1 101:3 106:1 114:1 137:1 145:1 166:1 180:1 183:2 188:1 196:1 215:1 222:1 225:1 253:1 327:1 390:1 453:2 489:1 523:1 578:1 665:1 668:1 793:1 816:1 945:2 1078:1 1372:1 1623:2 1994:1 2012:1 2014:1 2031:5 
0.5630187583704781 0.1146668569744698 0 0 0 1:1 2:1 3:8 4:7 5:3 6:3 8:1 9:5 10:3 11:1 15:2 18:1 19:1 27:4 32:1 38:1 39:1 41:1 43:1 49:2 55:1 59:1 60:3 61:1 72:1 80:1 89:1 125:3 154:1 163:2 175:1 227:1 246:1 272:1 289:1 297:1 301:1 302:1 307:1 325:2 428:1 457:2 585:1 600:3 616:1 696:1 739:3 753:1 896:1 917:1 934:1 938:1 972:1 983:1 1144:1 1220:1 1303:2 1538:1 1573:1 1796:1 2012:1 2014:4 2015:1 2031:2 2034:1 
0 3.907077279085661 0 0 0 1:6 2:6 6:3 7:1 9:6 13:1 15:2 21:2 46:1 56:1 117:1 152:1 158:1 168:1 172:1 183:1 305:1 564:3 581:4 612:1 662:2 763:1 925:4 1028:2 1146:1 1234:1 1348:1 1453:1 1599:1 1600:1 1645:1 2012:1 2031:1 
2.004145782918869 2.60755536167057 0 0 0 1:1 2:1 3:5 4:3 5:5 6:1 7:3 10:1 11:1 17:1 25:2 29:2 30:1 34:2 37:1 38:1 41:1 48:1 49:1 51:1 56:1 60:2 77:1 91:1 92:1 93:1 111:1 114:1 126:1 136:1 140:1 156:1 179:1 194:1 211:1 241:1 258:1 263:1 277:1 291:1 312:1 325:1 347:1 405:1 433:1 440:1 485:1 524:1 681:1 778:1 780:1 853:1 967:1 1215:1 1279:1 1350:1 1725:1 2012:1 2014:5 2031:3 
0 15.04334199415175 0 0 0 1:2 2:2 21:1 25:1 38:1 41:1 227:1 387:1 523:1 594:1 2012:1 
0.8796504790278643 0 0 0 0 1:2 2:2 3:5 4:2 8:1 15:1 19:1 43:1 44:1 58:1 106:1 161:1 179:1 180:1 218:2 220:1 227:1 317:1 594:1 662:1 883:1 1210:1 2012:1 2015:1 2033:1 
0 0.4127533206055601 0 0 0 1:2 2:2 3:11 4:4 6:2 7:2 9:4 11:1 12:1 15:1 19:1 21:1 31:1 39:1 47:1 50:1 53:1 59:1 74:1 92:1 94:1 101:2 126:1 133:1 150:1 158:1 198:1 215:1 222:1 231:1 263:1 328:1 329:1 333:1 427:1 432:1 713:1 928:1 1001:1 1098:1 1142:1 1332:1 1998:1 2012:1 2014:1 2031:4 
0 1.126854848927411 0 0 0 1:1 2:1 3:3 4:2 5:1 7:1 8:1 10:1 21:1 28:1 34:1 40:1 49:1 67:1 118:1 137:1 144:1 173:1 498:1 857:1 949:1 981:1 996:1 1700:1 1769:4 2012:1 2014:2 2015:1 2031:1 2033:1 
0 0.01355040039004698 0 0 0 1:2 2:2 3:10 8:3 10:1 11:1 13:1 17:1 21:1 27:1 30:1 33:4 44:1 55:2 60:1 64:1 80:1 83:1 87:1 113:1 155:1 232:1 242:1 313:1 362:2 593:1 620:1 731:1 805:1 1098:3 1177:1 1452:1 1466:1 1744:1 1762:1 1938:1 1999:1 2012:1 2014:4 2015:3 2031:4 
0.8546015202883147 9.051237006227417 0.3433810577234657 0 0 1:1 2:1 3:1 4:1 5:1 10:2 17:3 26:1 35:1 42:2 45:2 71:1 111:4 193:3 254:1 271:2 383:1 410:1 853:2 1305:1 1576:1 2012:1 2014:6 2031:1 
0 28.13178026657891 16.93749791277516 0 0 1:1 2:1 3:2 6:1 7:1 13:1 18:1 21:1 34:1 38:1 41:1 43:1 48:1 50:1 64:1 67:1 72:1 225:1 1093:1 2012:1 2032:1 
0 1.342207441998151 0 0 0 1:1 2:1 3:2 4:1 5:1 6:1 7:2 8:1 9:2 11:2 19:1 27:1 33:2 36:3 42:2 44:1 47:2 53:1 61:1 83:3 87:5 88:1 121:1 126:1 128:1 186:1 225:2 295:3 296:3 297:2 453:1 644:1 733:1 821:1 1099:2 1667:1 2012:1 2015:1 2016:3 2033:1 
0 32 0 0 0 1:1 2:1 6:1 13:1 22:1 82:1 275:1 1103:1 1486:1 2012:1 2031:1 
0 10.6982155513036 0 0 0 1:1 2:1 44:1 124:1 346:3 817:1 934:1 966:1 1399:1 1605:1 2012:1 2014:1 
0 0 0 0 4.087163279510709 1:1 2:1 6:1 7:1 26:1 30:1 37:1 53:1 70:1 72:1 82:1 117:1 184:1 196:1 281:1 381:1 453:2 545:1 1502:1 1756:1 2012:1 2031:1 2035:1 
0 1.244610422525729 0 0 0 1:3 2:3 3:9 4:1 6:5 7:2 9:6 11:3 18:3 19:1 29:1 40:1 50:1 73:1 74:1 98:1 99:1 119:1 131:1 148:1 161:1 179:1 198:1 216:1 222:1 251:1 272:1 275:1 356:2 385:1 391:1 435:1 448:1 553:2 576:1 656:1 689:1 786:1 800:1 804:1 1009:1 1458:1 1805:4 1809:1 2012:1 2031:1 
4.099480005111294 8.555983617953155 2.778883443492832 0 0 1:1 2:1 3:1 4:1 6:2 8:5 32:1 42:1 45:1 56:1 61:1 153:1 169:1 239:1 259:1 302:1 327:1 475:1 821:1 1545:1 2012:1 2015:5 2032:1 2033:1 
0 4.523882707633773 0 0 0 1:2 2:2 3:3 5:1 7:1 9:1 10:1 21:1 27:1 28:1 43:1 47:2 64:1 158:1 188:2 198:1 203:1 204:1 206:1 226:1 263:1 283:1 313:1 315:1 396:1 580:1 1221:1 1349:1 1501:1 1747:1 2012:1 2014:1 
0.8194368774829935 1.998195796979622 0.3149517950892692 0 0.2664865592431166 1:11 2:11 3:5 4:1 10:1 13:1 64:1 65:1 67:1 85:1 92:1 108:4 112:4 132:4 135:1 138:2 141:1 142:1 154:1 155:2 197:3 276:4 350:1 378:4 398:1 445:1 501:1 524:1 539:1 622:1 700:1 743:1 749:1 1259:1 1414:1 1424:2 1533:1 1883:1 2012:1 2014:1 2031:1 
25.66407249487536 2.315285390996068 0 0 0 1:1 2:1 3:1 4:4 5:3 10:1 14:1 15:1 17:1 19:2 24:1 71:2 76:1 93:1 123:1 127:5 178:3 184:1 199:1 260:1 270:2 313:1 408:1 445:1 484:1 508:1 630:1 735:1 943:1 982:1 1107:1 1185:2 2012:1 2014:1 2033:2 
0 17.77283673896028 0 0 0 1:1 2:1 22:1 43:1 168:1 1023:1 1047:1 1214:1 1228:1 1762:1 2012:1 2014:1 2031:1 
0.7195321674545553 0 0 0 0 1:11 2:11 3:2 4:1 31:11 43:1 49:1 61:1 75:5 78:2 94:6 111:1 144:1 254:1 506:1 732:1 930:1 1162:1 1447:1 2012:1 2014:2 2033:1 2034:1 
1.903420201656738 14.48588730275571 1.983587652296381 0 9.878055130929463 1:1 2:1 3:1 4:1 7:1 11:1 15:1 45:1 47:1 143:1 158:1 176:1 188:1 544:1 1583:1 2012:1 2035:1 
1.435293114505994 3.436010678686076 0 0 0 1:3 2:3 3:7 4:3 5:1 6:1 9:4 10:3 11:3 13:2 14:3 15:1 23:1 44:1 60:3 61:1 69:1 70:1 83:1 87:1 89:1 135:1 157:1 215:2 221:1 240:1 500:1 606:1 828:1 1174:1 1763:1 2012:1 2014:3 
1.442567761309064 1.590174219518244 0 0 0 1:1 2:1 3:5 4:3 7:2 8:1 15:2 23:1 26:1 32:1 35:1 39:1 42:1 48:1 61:1 62:1 79:2 105:2 129:1 131:1 137:1 143:1 150:1 161:1 170:1 178:1 189:1 203:1 226:1 266:1 267:1 270:1 353:1 381:1 500:1 840:4 1270:2 1694:1 1892:1 2012:1 2015:1 2031:1 2033:1 2035:1 
0 4.206422280137419 0 0 1.399927970951939 1:1 2:1 3:2 5:1 53:1 55:1 114:1 188:1 294:1 316:1 377:1 384:1 530:1 662:1 664:1 717:1 1453:1 1995:1 2012:1 
1.84507521449692 1.018087729792024 0.4122785879794609 0 0.1058367331828042 1:22 2:22 4:3 6:4 8:3 10:1 11:3 16:18 17:1 27:1 30:1 31:2 33:2 42:2 45:1 47:2 54:2 55:1 56:1 60:1 94:2 105:1 123:1 160:2 195:1 245:1 275:1 389:1 411:1 420:1 649:1 654:1 722:1 750:1 968:1 2012:1 2014:2 2015:3 2031:1 
9.129848907199229 0.1950540974094217 0 0 0 1:1 2:1 7:2 9:1 14:1 22:1 34:1 39:1 64:1 82:1 92:1 194:1 209:1 1035:1 2012:1 2033:1 
0.2980978304304531 23.96701119633087 0 0 0 1:1 2:1 4:1 10:1 13:1 21:1 26:1 28:1 39:1 44:1 64:1 237:1 277:1 501:1 554:1 702:1 709:1 812:1 1182:1 1567:1 2012:1 2014:1 
1.098761797202461 0 0 0 0 1:1 2:1 3:4 4:4 5:1 9:5 11:1 14:1 19:1 27:2 30:1 40:2 42:1 72:2 73:1 84:5 91:2 101:1 137:1 163:1 166:1 195:1 449:1 2012:1 2031:3 
0 14.7200340779248 0 0 0 1:1 2:1 3:4 4:1 11:1 13:1 19:1 25:1 38:1 41:1 79:1 86:1 91:1 137:1 166:1 183:1 263:1 395:1 555:1 1035:1 1091:1 2012:1 2031:1 
1.390276297716133 1.042901497862208 0 0 0 1:10 2:10 4:2 5:3 7:1 8:1 9:2 10:2 11:1 14:1 15:1 17:1 18:2 19:1 32:1 42:1 46:1 49:3 58:3 70:1 72:1 77:1 80:1 89:1 91:1 99:4 108:1 111:1 112:1 114:1 132:1 141:1 144:1 147:3 162:1 200:1 251:1 254:1 263:1 264:3 300:1 383:1 398:1 401:1 435:1 499:1 602:1 629:1 636:1 649:1 691:1 796:1 856:1 871:1 926:1 958:1 1196:1 1198:1 1313:1 1472:1 1806:1 2012:1 2014:4 2015:1 2031:1 2033:4 
32 1.413481988763165 32 0 0 1:1 2:1 3:3 4:1 6:1 7:3 8:9 9:1 22:1 30:1 47:1 50:5 56:1 59:2 61:1 73:2 79:1 102:1 129:1 188:3 209:1 294:1 446:1 457:1 530:2 623:2 673:1 841:1 843:1 1540:1 1945:1 2012:1 2015:9 
0 10.57240609399191 0 0 0 1:1 2:1 3:1 4:1 54:1 108:1 112:1 132:1 183:1 584:1 1151:1 2012:1 2031:1 
0 1.931712349251419 0 0 0 1:4 2:4 3:4 4:4 6:2 7:2 9:3 21:2 28:1 29:1 37:1 39:1 40:1 48:1 50:1 53:1 56:1 68:1 72:1 74:1 91:1 92:1 98:1 106:1 107:1 119:2 165:1 243:2 251:2 263:1 270:1 312:1 480:1 545:1 558:1 825:1 834:1 875:1 911:1 923:1 960:1 1502:1 1647:1 1679:1 2012:1 2014:2 2031:2 
0 1.979233777860196 0 0 0 1:2 2:2 3:1 7:1 11:1 33:2 37:1 108:1 112:1 117:1 132:1 146:1 242:1 299:1 335:1 337:1 1136:1 1237:1 1719:1 2012:1 2014:1 
1.063590901164366 1.024377410684802 0.4391510875210393 0 0.1128240941303503 1:1 2:1 24:40 30:10 33:2 52:10 65:1 145:1 280:10 491:1 1003:10 2012:1 2033:1 
5.229161506419477 20.50689532036372 0 0 0 1:2 2:2 3:2 5:1 7:1 9:3 13:1 14:1 15:1 26:1 28:1 32:1 39:1 46:1 58:1 59:1 70:1 82:1 126:1 138:1 144:1 146:1 165:1 166:1 221:1 475:1 1207:1 1491:1 2012:1 2014:1 2033:1 
0 19.17237173000454 0 0 0 1:3 2:3 7:1 31:1 75:1 81:2 82:1 676:1 1969:1 2012:1 
16.3593076322495 4.015634409781589 0 0 1.7551326178019 1:1 2:1 3:3 5:1 6:1 7:1 13:1 33:2 42:1 79:1 106:1 145:1 280:1 305:1 326:2 417:1 585:1 589:1 701:2 955:2 2012:1 2033:1 
20.395871014699 15.93947086430886 0 0 0 1:2 2:2 212:1 366:2 707:1 1563:1 1650:1 2012:1 2031:1 
0 0 0 0.2224918598347292 0 1:1 2:1 7:1 22:1 77:1 126:1 184:1 281:1 584:1 2012:1 
0 0.8665149555695298 0 0 0 1:9 2:9 5:3 8:1 13:1 21:1 77:2 147:6 152:1 176:3 264:3 338:1 925:1 1727:1 2012:1 2015:1 
0 0 32 0 0 1:1 2:1 3:4 4:3 8:2 22:1 26:1 28:1 43:1 56:1 61:1 71:2 73:1 86:1 91:1 184:1 213:1 230:2 253:1 256:1 281:1 312:1 363:2 605:1 658:1 699:1 764:1 820:1 904:1 990:1 1181:1 1216:1 1446:1 1447:1 1532:1 1705:1 1771:1 1830:1 2012:1 2014:1 2015:2 2032:1 
22.81562417625771 32 18.31067543184585 4.218984599624076 2.445581817677919 1:1 2:1 13:1 20:2 22:1 102:1 108:1 112:1 132:1 136:1 1631:1 2011:1 2012:1 
0.6596919187582161 0.6460190938315248 0 0 0 1:1 2:1 4:5 6:5 7:1 9:1 13:2 14:1 15:1 18:1 19:1 24:1 26:1 34:1 37:1 39:3 42:2 43:1 47:1 48:1 55:3 56:1 57:1 59:1 72:1 77:2 79:1 83:1 84:1 86:1 87:1 95:1 123:1 124:1 127:7 131:1 150:2 166:1 179:1 180:1 199:2 204:1 207:1 268:1 305:1 513:1 571:1 585:1 609:1 730:1 818:2 880:2 901:1 993:1 1010:1 1041:1 1176:1 1267:1 1313:1 1332:1 1359:1 1472:4 1702:1 1825:5 1970:1 2012:1 2031:1 2033:1 2034:1 
0 2.664604087698936 0 0 0.9434041734254437 1:3 2:3 3:4 4:3 5:1 6:1 9:3 10:1 11:1 15:1 18:3 21:1 27:2 28:1 30:1 38:1 39:1 41:1 44:1 50:1 52:1 53:1 67:1 81:2 88:1 103:1 131:1 146:1 161:1 174:1 179:1 203:1 215:1 226:1 228:2 232:1 247:1 287:1 289:1 294:1 302:1 321:2 348:1 475:1 490:1 554:1 571:1 634:1 651:1 776:1 798:1 941:1 944:1 1187:1 1288:1 1703:1 1817:1 1832:1 2012:1 2014:2 
0 31.36675608783001 0 0 0 1:2 2:2 3:1 5:1 7:1 9:1 14:1 25:1 103:1 390:1 425:1 2012:1 
2.816699228308502 0 0 0 0 1:1 2:1 3:4 4:4 5:5 6:2 7:2 8:2 9:1 11:1 13:1 14:1 15:2 29:1 39:1 43:2 46:2 48:2 55:1 59:1 92:1 98:1 101:1 166:1 180:2 204:1 206:1 231:2 235:1 251:1 259:2 293:1 399:1 445:1 446:2 500:1 507:1 821:1 1067:2 1080:1 1157:1 1226:2 1799:1 1880:2 1961:2 2012:1 2015:2 2031:2 2033:1 
12.27802942728612 19.12367003622283 0 0 0 1:3 2:3 6:1 47:1 51:1 138:1 249:1 406:1 469:2 529:1 2012:1 2014:1 2031:1 
2.505852019172273 2.000692109474995 0 0.004622280743633048 0 1:2 2:2 6:2 7:1 11:1 16:1 29:1 33:2 39:1 49:1 56:1 90:1 98:1 109:1 118:1 126:1 127:7 144:1 176:1 199:1 250:1 296:1 405:1 424:1 790:1 2012:1 2014:1 
3.901163969491479 1.983364954566986 1.070520378326887 0 0 1:3 2:3 3:5 4:2 5:1 7:4 8:1 9:2 11:1 13:1 14:1 26:2 37:1 46:1 48:1 49:1 56:1 59:1 74:2 84:1 86:1 95:1 105:1 131:1 143:1 166:1 176:1 177:1 179:1 210:1 221:1 250:1 268:1 372:1 389:1 414:1 447:1 465:1 471:1 561:1 645:1 658:1 685:1 725:1 749:1 777:1 803:1 812:1 1065:1 1185:1 1199:1 1263:1 1348:1 1476:1 1578:1 1752:1 1894:1 2012:1 2014:3 2015:1 2033:1 
0.4846563494205919 0.4873591211228658 0.2064998320766125 0 0.0553468794470546 1:22 2:22 3:1 7:1 19:1 31:22 49:1 93:1 94:22 213:1 247:1 1386:1 1926:1 2012:1 2014:1 2031:1 
1.071450878522745 24.38378714509556 0 0 0 1:1 2:1 3:3 4:3 5:1 9:1 11:2 15:1 29:1 36:1 65:1 91:2 148:2 225:1 389:1 479:1 729:2 899:2 1197:2 2012:1 2016:1 2017:1 2031:1 
0 1.213055115356872 0 0 0 1:1 2:1 4:4 6:3 7:1 11:1 21:1 38:1 41:1 88:2 92:1 105:1 106:1 168:1 198:1 209:1 251:1 263:1 289:2 303:1 356:3 381:1 402:2 593:1 726:1 837:1 1677:1 2012:1 2031:3 2033:2 
32 32 0 0 0 1:1 2:1 8:1 11:1 17:1 35:1 58:1 68:1 70:1 103:1 200:1 838:1 1582:1 2012:1 2014:1 2015:1 2031:1 2033:1 
0.1039998907315862 0 0 0 0 1:1 2:1 4:2 5:1 7:2 10:1 17:1 18:1 27:2 30:1 32:1 37:1 97:1 101:1 114:1 194:1 246:1 313:1 409:1 678:1 781:1 791:1 1208:1 1267:1 1388:1 1549:1 1606:1 2012:1 2014:2 2031:3 
0 4.473915776920404 0 0 0 1:3 2:3 4:1 5:1 6:1 7:1 11:1 26:1 29:1 34:1 44:1 50:1 67:1 75:1 285:1 288:1 296:1 349:1 359:1 368:1 570:1 643:1 664:1 777:1 1092:1 1855:1 2012:1 
0 28.73717755949308 0 0 0 1:1 2:1 3:1 4:1 8:1 9:1 14:1 91:1 209:1 507:1 1011:1 1203:1 1421:1 2012:1 2015:1 
0 3.472045283912684 0 0 0 1:5 2:5 4:1 8:4 9:2 14:1 17:3 30:1 39:1 46:1 56:1 60:1 80:2 92:1 111:1 119:1 173:1 175:3 185:1 222:1 251:1 557:4 597:1 675:1 687:1 806:2 875:1 1286:1 1308:3 1339:1 1926:1 2012:1 2014:2 2015:4 2017:1 
5.092330484315675 3.239206002064776 0 0 0 1:1 2:1 3:3 4:4 5:1 6:2 7:2 8:1 15:2 57:1 93:1 229:1 257:1 266:3 267:3 302:1 315:1 404:3 527:1 652:1 700:1 974:2 1809:1 1937:1 1962:1 2012:1 2015:1 2017:1 2031:1 
9.355721243685874 0 0 0 0 1:1 2:1 3:3 4:2 7:2 8:1 18:1 22:1 23:1 29:1 36:1 37:1 61:1 77:1 93:1 98:1 109:1 136:1 196:1 213:1 230:1 235:1 275:1 363:2 658:1 874:1 904:1 990:1 993:1 1084:1 1216:1 1830:1 1895:1 1933:1 1953:1 2012:1 2014:1 2015:1 2016:1 2031:1 
2.593208623594464 1.823119935959314 0 0 0 1:1 2:1 5:3 7:1 15:1 17:1 21:1 29:1 39:3 44:1 51:1 82:1 114:1 115:1 116:1 260:1 344:1 467:2 513:1 577:1 814:1 999:1 1323:1 1445:1 2012:1 2014:1 
3.405603507103224 0 0.194445048424492 0 0 1:1 2:1 3:3 4:6 5:1 6:5 7:2 9:2 10:1 26:1 37:1 44:2 45:2 59:1 67:1 69:2 72:1 78:1 79:1 80:1 82:1 84:1 88:1 95:1 106:2 131:1 147:1 153:2 159:1 165:1 178:2 210:1 239:1 253:1 275:1 427:1 558:2 605:1 689:2 695:1 917:1 1101:1 1151:1 1594:1 1650:1 1689:1 2012:1 2014:1 2033:1 
0 6.899502540032838 0 0 0 1:1 2:1 104:1 1305:1 1345:1 2012:1 
3.257298188608059 27.48658221701327 0 0.4312444789403212 0 1:1 2:1 3:2 4:1 9:3 19:2 35:1 37:1 39:1 42:1 54:1 64:1 68:1 102:1 123:1 150:1 159:1 250:1 251:1 331:1 813:1 1040:1 1046:1 1052:1 1334:1 2012:1 2014:1 2031:1 2033:1 2034:1 
0 3.873172101959435 0 0 1.895399720170579 1:2 2:2 3:4 4:2 5:3 15:3 19:3 24:1 65:1 74:1 83:1 87:1 121:1 128:1 149:1 154:1 155:1 208:1 229:2 257:1 266:1 267:1 268:1 297:1 334:2 340:1 364:1 407:1 498:2 527:1 607:2 649:1 652:2 700:1 763:1 1012:1 1181:1 1280:1 1427:1 1442:1 1600:1 1768:1 1872:1 2012:1 2035:2 
0 0 0 0.02632488310680888 0 1:7 2:7 4:1 6:1 11:2 43:1 74:1 81:1 176:6 185:1 237:1 335:1 349:2 507:1 511:2 534:1 612:1 1220:1 1637:1 2012:1 2014:1 
0.9374724441622881 0.2061659394731063 0.2201927642699966 0 0 1:2 2:2 3:5 4:5 5:4 6:1 9:1 13:1 18:1 27:2 28:1 29:1 39:2 43:1 44:2 65:1 82:1 83:1 87:1 131:1 157:1 213:1 275:1 479:1 653:1 860:1 942:1 945:1 972:1 1098:2 1230:1 1481:1 1625:1 2012:1 2014:3 2031:1 
0 32 0 0 0 1:1 2:1 3:2 4:1 6:1 7:1 8:11 10:2 11:1 17:1 22:1 28:1 31:1 37:1 43:1 50:4 60:1 61:1 62:2 75:1 86:5 118:1 129:1 157:1 161:2 171:1 188:1 217:1 260:1 422:1 441:2 502:1 623:1 682:1 685:4 722:1 750:1 779:1 904:1 915:3 970:1 1045:1 1126:1 1204:1 1229:1 1299:1 1364:1 1687:2 1765:1 1821:1 1843:1 2012:1 2014:2 2015:11 2033:1 2034:1 
1.97205077896723 5.314465996713913 0 0 1.107365375437767 1:1 2:1 3:3 4:1 5:10 19:2 83:1 87:1 99:1 117:1 121:1 128:1 144:1 188:1 194:1 203:1 226:1 239:1 245:2 247:1 323:1 350:1 646:1 647:2 704:1 734:1 775:1 832:1 1510:1 1619:1 2012:1 2014:1 2033:1 
0 32 0 0 0 1:1 2:1 3:1 8:1 15:1 25:1 34:1 38:1 40:1 41:1 70:1 2012:1 2015:1 2031:1 
2.572920511244393 22.07224489137229 0 0 0 1:2 2:2 4:1 11:1 15:1 21:1 25:2 143:1 304:1 611:1 769:1 1317:1 2012:1 
8.698186336478827 10.29657584564217 0 0 0 1:2 2:2 4:1 5:1 6:3 7:1 8:4 10:2 28:1 35:1 38:1 41:1 45:1 60:1 107:1 117:1 146:1 148:1 188:1 202:1 219:1 224:1 263:1 269:1 301:1 1628:1 2012:1 2014:2 2015:4 2031:1 
1.409551127236369 3.303618306547427 0 0 0 1:1 2:1 3:7 4:4 5:4 7:2 11:1 21:1 23:1 26:1 27:2 30:1 37:1 43:1 51:1 53:1 56:1 59:2 67:1 69:1 148:1 168:1 180:1 242:1 253:1 258:1 333:1 538:1 560:1 583:1 605:1 653:1 678:1 710:1 718:1 754:1 800:1 804:1 907:1 933:1 1027:1 1089:1 1235:1 1262:1 1379:1 1415:1 1418:1 1556:1 1736:1 1809:1 1853:1 2012:1 2014:1 2031:3 2033:2 2034:1 
0 1.87248708681321 0 0 0 1:3 2:3 3:2 4:1 5:2 6:1 9:2 10:1 11:1 30:1 60:1 74:1 91:1 183:1 194:1 251:1 298:1 468:3 696:1 1001:1 2012:1 2014:1 2031:1 
26.77609597914692 32 0.2624000700445321 0 0 1:3 2:3 10:1 28:1 52:1 97:1 130:2 169:1 175:1 214:1 282:1 299:1 2012:1 2014:1 2033:1 
0.09612745730916003 1.354399704774341 0 0 0 1:1 2:1 3:1 8:1 11:1 19:1 31:1 62:2 68:1 92:1 93:1 94:1 184:1 274:1 325:1 363:1 493:1 524:1 595:1 794:1 1580:1 1868:1 1984:1 2012:1 2014:1 2015:1 2032:1 2033:2 
0 2.514796106737458 0 0 0 1:1 2:1 3:10 4:7 7:2 9:2 11:1 14:2 15:1 19:2 21:1 30:1 34:1 43:1 44:1 47:1 55:1 56:1 65:1 89:1 92:1 93:2 117:1 129:2 153:1 157:2 179:1 196:1 199:1 231:1 263:1 294:1 318:1 381:1 513:1 566:1 749:1 768:2 831:1 901:1 918:1 1069:1 1162:1 1233:1 1284:1 1411:1 1814:1 2012:1 
18.16780097714245 0 7.106639940024141 0 0 1:1 2:1 3:1 5:1 9:1 10:1 22:1 29:1 60:1 115:1 122:1 213:1 250:1 260:1 433:1 561:1 582:1 1002:1 2012:1 2014:2 2031:1 
0 32 0 0 0.4550498275183196 1:1 2:1 3:1 6:1 9:1 11:1 13:1 35:1 39:1 58:1 62:2 452:1 463:1 2012:1 2031:2 2033:1 2035:1 
1.747156657179925 25.77117267846684 0 0 0 1:1 2:1 4:1 7:1 22:1 26:1 42:1 53:1 176:1 178:2 207:1 370:1 2012:1 
10.98578688738363 11.80617577141907 0 0 0 1:1 2:1 3:1 6:1 36:1 88:1 95:1 126:1 138:1 247:1 319:1 345:1 446:1 908:1 1757:1 2012:1 2016:1 2031:1 
0 24.9983091001583 0 0 0 1:1 2:1 13:1 81:1 146:1 183:1 351:1 2012:1 2031:1 
0 13.39803983846704 0 0 0 1:1 2:1 4:1 6:1 9:1 14:1 22:1 790:2 1901:1 2012:1 
0.7161177752583413 0.7226556062787037 0.3033592642555535 0 0.07929428582761507 1:35 2:35 46:1 99:35 2012:1 
0.4378084383911995 0.6385616152941948 0.2917092281734588 0 0 1:9 2:9 23:1 30:1 37:1 201:18 280:1 287:1 309:1 379:9 1065:3 1553:1 2012:1 
0 11.42750117364183 0 0 0 1:2 2:2 8:3 40:1 110:1 114:1 1251:1 1358:1 2012:1 2015:3 2031:1 
0 3.321684032237578 0 0 0 1:1 2:1 5:1 8:1 9:1 21:1 36:1 51:1 83:2 87:2 121:1 123:1 128:1 153:2 154:1 210:1 318:2 495:1 1020:1 2012:1 2014:1 2015:1 2016:1 
0 11.54451497609358 0 0 0 1:1 2:1 3:1 124:1 149:1 210:1 349:1 1672:1 2012:1 
0 1.156052081718966 0 0 0 1:3 2:3 3:3 4:4 5:1 8:6 9:3 10:2 11:3 14:3 28:1 47:3 49:1 60:1 82:1 110:1 136:2 154:1 173:1 180:1 191:1 194:1 265:1 287:1 292:1 350:1 444:1 492:1 561:1 866:1 906:1 1020:3 1025:1 1032:1 1083:1 1308:3 1416:1 1497:1 1529:1 1530:1 1554:1 1754:1 2012:1 2014:2 2015:6 2031:1 
1.9979930726889 0 0 0 0.1763409236475035 1:1 2:1 4:1 8:7 43:1 46:1 106:1 147:1 269:1 283:1 572:1 1412:1 1756:1 1963:1 2012:1 2015:7 2031:1 2035:2 
0.08313997845674001 0 0 0 0 1:2 2:2 3:1 4:1 5:1 6:1 7:1 8:1 10:1 17:3 28:1 30:2 31:1 43:1 49:1 50:1 51:1 56:1 58:1 68:1 75:1 78:1 82:1 98:1 102:1 122:1 144:1 174:1 196:2 203:2 210:1 217:1 226:2 229:1 257:1 274:1 283:1 315:1 336:1 338:1 364:1 371:1 405:1 438:1 449:1 455:1 542:2 563:1 607:1 616:1 692:1 942:1 1067:1 1198:1 1217:1 1348:1 1372:1 1395:1 1442:2 1739:1 1876:1 2012:1 2014:4 2015:1 2033:1 
19.942388776187 32 0 0 0 1:1 2:1 3:2 7:1 32:1 34:1 37:1 64:1 85:1 89:1 161:1 172:1 197:1 204:1 256:1 394:1 2012:1 2031:1 
1.012196633785873 1.150409792823957 0.5195393154371684 0 0.01269796160025339 1:1 2:1 3:9 23:2 28:1 30:1 39:1 44:2 88:1 144:7 163:8 183:1 194:9 213:1 294:1 319:1 404:1 535:1 593:9 997:1 1155:1 1218:1 1268:1 1293:1 1370:1 1628:1 1938:1 2012:1 2014:9 2031:2 2032:1 2033:1 
0 9.666326059697523 0 0 0 1:3 2:3 4:1 6:1 9:1 18:1 21:1 23:2 25:1 54:1 152:1 165:1 259:1 280:1 620:1 977:1 1029:1 2012:1 
2.721617607125982 2.149850791973502 0 0 0 1:1 2:1 3:7 4:7 5:4 7:1 11:2 15:2 17:1 18:1 19:1 20:4 23:1 26:1 44:2 57:2 70:2 72:1 93:1 103:2 106:1 117:2 125:1 144:2 148:1 154:1 163:1 174:1 178:1 204:1 331:1 337:1 344:1 357:1 365:1 367:1 429:1 583:1 630:1 743:1 849:1 951:1 995:1 1218:1 1314:1 1441:1 1808:3 2011:2 2012:1 2014:3 2033:3 
0 0.7143548636270106 0 0 0 1:1 2:1 21:1 23:1 46:1 56:1 167:3 222:1 502:1 584:2 721:2 742:1 1007:1 1169:2 1225:1 1283:1 1367:1 1810:1 2012:1 2015:3 
0 0 0 0 10.36220600337223 1:1 2:1 4:1 22:1 56:1 77:1 140:1 256:1 286:1 349:1 569:1 2012:1 2031:1 2035:1 
2.333629316407603 9.001757346728445 0 0 0 1:1 2:1 3:2 4:1 5:3 7:2 15:1 25:3 43:1 52:1 53:2 73:1 106:1 255:1 418:1 719:1 2012:1 2031:1 
0.8559404332774189 6.144590534439351 0 0 0 1:2 2:2 3:8 4:4 5:3 7:4 9:1 11:2 15:2 24:1 26:1 27:1 29:2 30:1 37:1 40:2 44:1 65:2 71:2 74:2 92:1 95:1 127:1 146:1 147:1 154:1 183:1 191:1 248:2 250:1 278:1 290:1 297:1 304:2 328:2 338:1 358:1 364:1 597:1 758:1 790:1 807:1 936:1 1084:1 1120:1 1143:1 1333:1 1533:1 1742:1 2012:1 2031:5 2033:3 
1.356235048964225 2.878194612717729 0 0 0 1:1 2:1 3:9 4:2 7:1 15:1 19:1 29:1 36:1 37:4 43:1 45:1 68:3 70:1 72:2 77:1 78:1 90:1 93:1 113:1 114:1 142:1 189:1 217:1 221:1 295:3 301:1 320:1 397:1 498:1 505:1 537:1 548:1 571:1 595:1 717:1 762:1 793:1 794:1 1016:1 1051:1 1139:1 1208:1 1353:1 1368:1 1466:1 1555:1 1639:1 1729:1 1767:1 1813:1 1841:1 1919:1 2012:1 2014:3 2016:1 2031:1 2033:1 
0 32 0 0 0 1:1 2:1 8:2 99:1 2012:1 2015:2 
0 0.8517731463944229 0 0 0 1:1 2:1 3:5 4:4 5:2 6:3 9:1 10:1 11:1 19:1 20:2 21:1 30:1 69:1 71:2 137:1 142:1 175:2 293:1 859:1 968:1 1087:1 1103:1 1225:1 1295:1 1414:1 1621:1 1644:1 1961:1 2011:1 2012:1 2014:1 2031:1 
6.772840810332977 1.980068004521848 0.4943158746436851 0 0 1:1 2:1 6:2 7:2 8:1 10:1 17:1 18:2 19:1 26:1 28:2 30:2 46:1 49:1 68:1 74:1 90:1 103:1 145:2 156:1 202:1 330:1 355:1 377:1 423:1 617:1 802:1 931:1 1127:1 1304:1 1328:1 1501:1 1700:1 1864:1 2012:1 2014:3 2015:1 2031:2 2033:1 
1.812240140823578 4.875852272633191 3.945665671607528 0 0 1:2 2:2 258:2 395:2 532:3 749:1 1233:1 1258:1 1383:1 2012:1 2031:1 
3.4627053284928 10.73537718336172 1.61955017729181 0 1.821247362752665 1:1 2:1 3:2 6:1 9:2 10:2 11:1 13:1 17:1 49:1 54:2 60:1 68:1 69:1 74:2 111:1 148:1 200:2 218:1 245:4 258:1 325:3 357:1 426:1 636:2 657:1 856:1 1051:2 1416:1 2012:1 2014:4 
0.04940040613915123 12.45202243689447 0 0 0 1:1 2:1 8:1 15:1 18:1 30:1 55:1 121:1 128:1 162:1 234:1 547:2 725:1 1611:1 2012:1 2015:1 
3.265514302406825 7.895220740726419 1.659627964092793 0 0 1:1 2:1 3:2 4:1 5:3 6:1 7:3 18:2 20:2 22:1 36:3 43:1 47:1 50:1 73:1 79:1 101:1 187:1 236:1 283:1 318:1 334:1 428:1 445:1 548:1 549:1 641:1 714:1 727:4 840:1 989:1 1011:1 1159:1 1291:1 1483:1 1519:1 2011:1 2012:1 2016:3 2031:1 
2.490384994830865 0.8996109405230381 0.7197901848445553 0 0 1:1 2:1 3:3 4:4 5:2 6:8 9:5 11:1 14:1 15:1 17:2 19:1 27:1 32:2 36:2 80:2 88:2 91:1 114:1 155:1 185:2 192:1 215:1 229:1 233:2 271:1 313:1 405:1 429:1 453:1 562:1 630:1 782:1 1559:1 1574:1 1697:1 1716:1 2012:1 2014:2 2016:2 2031:1 
0 1.557748738554575 0 0 0 1:3 2:3 4:1 27:1 45:1 81:3 106:1 114:1 183:1 253:1 401:1 2012:1 2031:1 
2.376781726393946 8.489666335561081 0 0 0.276957529984847 1:1 2:1 4:1 5:1 7:2 19:1 24:5 25:1 29:1 34:1 36:1 38:1 41:1 56:1 64:1 78:1 126:1 140:1 170:1 394:1 1156:1 1427:1 2012:1 2016:1 2031:1 
0 0.4375802261251591 0 0 0 1:2 2:2 3:5 4:4 6:1 13:2 15:1 18:1 19:1 26:1 31:1 45:1 47:1 48:1 51:1 55:1 56:1 64:1 70:1 77:3 78:5 79:1 89:1 106:1 114:1 118:2 131:1 137:1 140:2 196:1 204:1 205:1 206:1 229:1 301:1 317:1 321:2 327:1 394:1 598:1 625:1 644:1 648:1 716:1 778:1 784:1 790:1 900:1 1113:1 1128:1 1163:2 1229:1 1368:1 1433:1 1555:1 1751:1 1844:1 2012:1 2014:1 2031:3 
0 16.41116707594448 0 0 0 1:1 2:1 9:1 14:1 46:1 107:1 115:1 256:1 261:1 482:1 2012:1 
0.3159130002530126 2.938214915569721 0 0 0 1:1 2:1 3:2 4:4 6:3 7:1 10:1 26:1 31:1 37:1 42:1 43:3 48:1 49:1 54:6 60:1 94:1 107:1 134:1 143:1 160:1 193:1 207:1 274:1 322:1 535:3 568:1 632:1 828:1 864:1 1209:1 1271:1 1369:1 1431:1 1491:1 1538:1 1897:2 2012:1 2014:1 
0.5263658805211406 1.999060568503984 0 0 0 1:1 2:1 3:2 4:3 5:2 7:1 10:1 11:3 20:2 21:1 24:6 37:2 43:1 81:1 179:1 230:1 250:1 269:2 283:1 319:1 392:2 408:3 525:1 528:1 705:1 798:1 883:1 915:1 1071:1 1107:1 1445:1 1783:1 2011:1 2012:1 2014:1 2031:1 
32 0 0 0 0 1:1 2:1 3:1 22:1 34:1 40:1 130:1 2012:1 2031:1 
0 23.3490525570636 0 0 20.11228167814811 1:1 2:1 4:2 78:1 124:1 269:1 929:1 2012:1 2035:1 
1.104197563867064 2.107485769542025 1.31161288921305 0 0 1:1 2:1 4:3 5:6 6:3 7:2 27:2 49:1 153:1 178:1 215:1 243:1 325:1 342:1 355:1 362:1 410:1 438:1 581:2 630:1 890:2 990:2 1098:1 1309:1 1644:2 2012:1 2014:1 2031:2 
6.470760549423001 9.343355185768495 0.6784239154617449 0 0.1075804123607343 1:1 2:1 3:4 4:1 5:2 9:2 10:1 11:1 15:2 23:2 28:1 84:2 148:1 155:2 198:1 242:2 250:1 304:1 307:1 404:1 457:1 681:3 781:1 975:2 1037:1 1938:1 2012:1 2014:3 2033:2 
0.9591755475086082 0 0 0 0 1:2 2:2 3:5 4:4 6:2 10:1 11:2 13:2 15:1 17:2 25:1 26:1 49:1 52:1 60:1 67:1 68:1 92:1 93:1 97:1 111:1 117:1 134:1 137:1 147:1 160:1 173:1 197:1 203:1 211:1 226:1 274:1 292:1 438:1 483:1 524:1 536:1 592:1 625:1 649:1 681:1 866:1 910:1 1259:1 1574:1 1661:1 1814:1 2012:1 2014:4 2031:1 
0.5555543615270321 3.20933845080791 0 0 0 1:2 2:2 3:1 4:2 7:1 8:2 9:1 13:1 14:1 15:1 19:1 36:1 38:1 40:1 48:1 58:1 74:1 92:1 109:2 110:1 125:1 126:1 137:1 173:1 194:1 251:1 265:1 289:1 297:1 461:1 515:1 555:1 556:1 778:1 1185:1 2012:1 2015:2 2016:1 2031:1 2033:1 
6.116683443687337 2.950325017390675 0 0 0 1:3 2:3 3:5 4:1 5:1 6:2 9:3 13:1 14:1 15:1 16:1 17:1 28:1 39:1 46:1 49:1 51:1 93:1 102:1 108:1 111:1 112:1 132:1 209:1 251:1 265:1 272:1 315:1 372:1 448:1 485:1 499:1 511:1 560:1 676:1 687:1 824:1 825:1 853:1 889:1 1655:1 2012:1 2014:3 2031:1 2033:1 
0 1.028987555610726 0 0 0 1:1 2:1 9:1 11:1 14:1 18:1 20:4 43:2 86:1 91:1 268:1 323:1 375:1 1190:1 1397:1 1675:1 2011:2 2012:1 
0 0.3495384353820631 0 0 0 1:1 2:1 3:4 4:1 5:2 11:2 17:2 19:1 23:2 29:1 60:1 82:1 111:1 137:1 142:1 154:1 248:1 300:2 310:1 463:1 518:1 559:1 600:1 1615:1 1736:1 2000:1 2012:1 2014:3 2031:2 
0 1.279496808332558 0 0 0 1:8 2:8 3:2 4:2 5:1 6:2 8:1 9:3 11:1 19:1 21:8 46:1 93:1 101:1 118:1 162:1 229:1 231:1 266:1 267:1 287:1 352:2 362:1 482:1 1071:1 1195:1 1306:1 1487:1 1817:1 2012:1 2015:1 2031:4 
0 10.57923663465823 0 0 0 1:2 2:2 6:1 10:1 31:1 81:1 94:1 203:1 399:1 664:1 2012:1 2014:1 
1.703202099626441 0 0 0 0.270859590123906 1:1 2:1 3:1 4:2 5:2 6:2 7:1 11:1 36:1 37:1 47:1 55:1 57:1 67:1 68:1 77:1 78:1 109:1 110:1 117:1 126:1 184:1 216:1 281:1 353:1 578:1 602:1 875:1 950:1 1096:1 1375:1 1437:1 2012:1 2014:1 2016:1 2033:1 
9.707832552944065 14.28854480340888 0 0 0 1:1 2:1 3:4 4:1 10:2 19:1 44:1 54:1 122:1 150:2 153:1 156:1 186:1 237:2 362:1 369:2 402:1 449:1 2012:1 2014:2 2031:2 2033:1 
1.017488544471517 0 0 0 0 1:1 2:1 5:1 17:4 21:1 28:1 36:1 38:1 41:1 51:1 111:1 141:4 154:1 249:3 274:1 277:1 410:1 438:1 465:1 493:1 532:1 626:1 642:1 657:1 851:1 861:2 1277:1 1474:1 1790:2 2012:1 2014:3 2016:1 
0 12.68154529887825 0 0 0 1:2 2:2 34:1 40:1 81:2 173:1 2012:1 2031:1 
5.137580583554403 2.306741483198504 0 0 0 1:5 2:5 174:1 316:1 550:5 790:1 2012:1 2031:5 
0.9369355710310187 0 0 0 0.3659126245043754 1:4 2:4 13:2 24:3 25:2 39:1 54:2 64:1 88:1 96:1 109:1 110:1 137:1 166:1 223:1 533:3 719:1 2012:1 2031:1 
0 32 0 0 0 1:1 2:1 4:1 6:1 8:3 9:1 14:1 25:1 317:1 515:1 2012:1 2015:3 2017:1 
32 32 13.20750779273946 0 5.79082901715793 1:1 2:1 3:1 13:1 22:1 45:1 73:1 116:1 195:1 318:1 331:1 419:1 676:1 2012:1 
0.341225566483606 0 0 0 0 1:3 2:3 3:9 4:1 7:3 17:1 19:1 20:4 21:3 24:1 26:1 37:3 38:1 43:1 51:1 56:1 59:1 70:1 74:1 79:2 93:2 110:1 130:1 137:1 140:1 150:2 152:2 156:1 161:1 194:1 203:1 226:1 241:1 251:3 253:1 287:1 378:1 390:1 394:1 658:1 833:1 1030:1 1136:2 1161:1 1510:1 1719:1 1762:1 1834:1 2011:2 2012:1 2014:1 2031:2 
7.912051897855863 7.37955142209729 0 0 0 1:1 2:1 5:2 7:1 43:1 71:2 115:1 116:1 296:1 537:1 560:1 1002:1 1466:1 2012:1 2031:1 
0.4287031435338112 0.283518301669431 0.1800003270025766 0 0.04051796874395566 1:27 2:27 99:27 2012:1 
1.083506459137738 1.062251859633275 0.2259693934073393 0 0 1:12 2:12 4:1 8:5 9:1 20:2 40:2 75:12 78:1 79:1 119:2 288:12 392:1 545:1 1054:2 1351:1 1961:1 2011:1 2012:1 2015:5 2031:2 
4.45877437766987 5.705810847850117 0 0 0 1:1 2:1 7:1 8:1 20:4 81:1 123:1 345:1 387:1 407:1 1286:1 1508:1 2011:2 2012:1 2015:1 2017:1 2031:1 
0 26.39207641084106 0 0 0 1:1 2:1 9:1 13:1 14:1 351:1 2012:1 
0 8.012167368123107 0 0 5.314571685468716 1:3 2:3 3:1 4:2 6:1 7:1 11:1 15:1 25:2 29:1 104:1 170:1 203:1 226:1 282:1 358:1 363:1 399:1 452:1 565:1 841:1 1562:1 1772:1 1945:1 1990:1 2012:1 2035:1 
0 0.07696701289392709 0 0 0 1:3 2:3 3:2 7:1 35:4 149:1 210:1 224:1 338:1 367:1 510:1 845:1 997:1 2012:1 2031:5 2033:1 2035:1 
0.5194262685264938 0.05280836732344184 0 0 0 1:1 2:1 4:1 6:1 7:1 11:1 13:1 45:1 51:1 84:1 138:1 146:1 147:1 154:1 309:1 323:2 373:1 463:1 495:2 582:1 601:2 614:2 804:1 927:1 1037:1 2012:1 2014:1 
0 3.213028678648808 0 0 0 1:3 2:3 3:5 4:3 5:1 6:4 7:1 9:2 19:1 21:2 26:1 27:1 42:1 45:1 114:1 156:1 166:1 174:1 175:1 194:1 256:1 321:1 328:1 329:1 335:1 343:2 440:1 516:1 678:1 1056:1 1074:1 1165:1 1194:1 1834:1 1935:1 2012:1 
3.011303594134562 15.35311107435133 0 0 2.41204122158792 1:1 2:1 3:1 5:3 7:1 57:1 178:1 755:1 1136:1 1223:1 2012:1 
11.76512107717754 2.176574373937337 0 0 0 1:1 2:1 3:2 4:2 6:1 22:1 27:1 56:1 95:2 184:1 209:1 281:1 618:1 902:1 1035:1 1316:1 1324:1 2012:1 2033:2 
29.97335030653659 32 11.02670778512729 0 0 1:2 2:2 4:1 20:2 212:2 235:2 576:1 881:1 1458:1 2011:1 2012:1 
6.425147199658959 9.346532552240657 0 0 0 1:2 2:2 3:2 4:1 5:3 7:1 10:1 15:1 38:1 40:1 47:1 48:1 50:1 60:1 179:1 196:1 249:1 277:1 366:2 390:1 396:1 398:1 558:1 622:1 673:2 778:1 2012:1 2014:1 2031:1 
0 21.41161713709634 1.028935850774656 0 0 1:1 2:1 3:5 4:3 6:1 7:3 8:2 10:1 18:1 22:1 28:1 31:1 32:1 37:1 47:1 61:1 62:1 75:1 115:1 136:1 138:1 146:1 152:1 178:1 188:2 191:1 230:3 254:1 258:1 355:1 363:3 385:1 412:1 417:1 423:1 439:1 592:1 594:1 596:1 686:1 705:1 843:1 956:1 1044:1 1194:1 1203:1 1546:1 1771:1 2012:1 2014:2 2015:2 2033:1 2035:1 
0 0.6691920982538219 0 0 0 1:4 2:4 3:5 4:6 5:4 8:1 9:1 13:4 14:2 20:2 26:1 40:1 62:1 65:1 74:1 96:1 131:1 154:1 162:2 242:3 282:1 289:1 302:1 332:1 424:1 669:1 734:1 837:1 1428:1 1480:1 1533:2 1601:1 1797:1 1957:1 2011:1 2012:1 2015:1 2031:3 2033:1 
13.82043045071763 7.844246187128936 0 0 0 1:1 2:1 3:1 4:1 5:1 10:1 17:1 21:1 23:1 29:1 412:1 642:1 1495:1 1593:1 2012:1 2014:1 2033:1 
4.473582253440165 5.562439545015432 0 0 1.956569204243496 1:6 2:6 3:4 6:1 7:2 10:1 11:1 26:1 32:1 42:1 47:1 83:1 87:1 89:1 180:2 204:1 212:1 235:1 245:1 279:6 320:1 415:1 616:1 733:2 2012:1 2014:1 2031:1 
3.73186608094092 1.248488223467057 0 0 0 1:2 2:2 3:2 6:1 10:1 20:2 23:1 88:1 131:1 189:2 194:1 258:1 294:1 332:1 493:1 529:2 864:1 1005:1 1790:1 2011:1 2012:1 2014:1 2031:2 
0.03900584522127899 3.169132365086162 1.747537720507202 0 0.09630782511887273 1:1 2:1 3:7 4:2 6:3 7:2 10:1 15:1 19:1 20:2 23:2 26:1 28:1 33:2 39:1 48:1 51:1 60:1 111:1 125:1 150:2 166:2 172:1 194:1 231:1 282:1 307:2 426:1 428:1 445:1 541:1 559:1 569:1 607:1 637:2 727:2 733:1 746:1 885:1 1106:1 1267:1 1358:1 1411:1 1483:1 1527:1 1667:1 2011:1 2012:1 2014:4 2031:1 2032:3 2035:1 
0 17.40426585029022 0 0 0 1:1 2:1 5:1 8:1 23:1 73:1 82:1 103:1 545:1 599:1 670:1 1206:1 1245:1 2012:1 2015:1 2031:1 
2.011745915521201 0 0 0 0 1:1 2:1 4:1 6:1 7:2 11:2 15:1 21:1 22:1 34:1 37:2 38:1 40:1 41:1 53:1 64:1 70:1 79:2 95:1 103:1 152:1 158:1 163:2 210:1 227:1 303:1 305:2 323:1 334:1 369:1 386:2 402:1 419:1 498:1 537:1 555:1 631:1 656:1 667:1 689:1 690:1 871:1 929:1 950:1 1039:1 1063:1 1156:1 1224:1 1243:1 1281:1 1310:1 1614:1 2012:1 2031:1 
32 0 0 0 0 1:3 2:3 20:2 25:3 40:1 110:1 2011:1 2012:1 2031:1 
2.25142609629898 0 0 0 0 1:2 2:2 3:2 5:1 7:1 34:1 64:1 77:1 93:1 140:1 142:1 184:1 238:1 263:1 281:1 346:1 412:1 1294:1 2012:1 2031:1 2033:1 
32 0 0 0 0 1:3 2:3 57:1 58:1 90:1 147:1 529:1 2012:1 2031:1 2033:1 
0.9886096246686829 0 0 0 0.7893848339125021 1:1 2:1 3:9 4:2 5:1 6:1 7:1 8:1 9:1 10:3 11:2 15:1 26:1 27:1 30:2 36:2 42:2 43:3 53:1 55:1 61:2 83:2 84:1 87:2 88:1 93:1 99:1 105:1 121:1 126:1 127:1 128:1 149:1 168:1 185:1 210:1 215:1 318:1 386:1 554:1 573:1 963:1 1021:1 1028:2 1042:2 1071:1 1236:1 1639:1 1660:1 1674:1 1694:1 1900:1 2012:1 2014:4 2015:1 2016:2 2031:1 2035:1 
0.9212058233039632 0.4322355528222431 0 0 0 1:1 2:1 3:8 4:5 5:5 6:2 9:3 10:1 14:2 17:3 19:1 21:1 26:1 28:1 29:2 30:1 32:1 40:1 42:2 46:1 47:1 51:1 65:2 74:2 80:2 93:1 107:1 111:1 117:1 119:1 158:3 165:1 210:1 221:1 242:1 268:1 300:1 339:1 404:1 435:1 463:1 465:2 549:2 814:1 875:1 951:2 1330:1 1384:1 1487:1 1525:1 1784:1 2012:1 2014:8 2031:2 2033:2 
0 0.06691123645080389 0 0 0 1:9 2:9 3:4 4:2 5:1 6:2 7:1 9:4 13:1 14:3 21:3 25:1 26:1 29:1 30:1 36:1 38:1 40:1 41:1 45:1 46:1 50:1 53:2 56:1 77:2 78:1 86:1 88:1 114:1 115:1 118:1 126:1 140:1 148:1 183:1 199:1 221:1 223:1 246:3 332:1 539:1 558:1 645:1 914:1 1113:1 1456:1 1648:1 2012:1 2016:1 2031:6 
0 1.372885345670964 0 0 0 1:3 2:3 4:2 6:1 7:1 31:1 35:3 42:2 43:1 61:1 83:1 87:1 235:1 236:1 285:13 339:1 527:1 1062:1 1335:1 1393:1 1579:1 1692:1 2012:1 2031:3 
0 2.769745980029389 0 0 0 1:1 2:1 3:4 4:3 8:1 9:1 14:1 20:2 27:1 34:2 40:1 150:1 152:1 460:1 771:1 869:1 877:1 1202:1 2011:1 2012:1 2015:1 2031:1 
1.482327600792646 1.421037913166409 0 0.2902162272975641 0 1:18 2:18 99:1 228:1 236:1 273:1 366:1 375:1 388:1 564:1 647:1 835:1 980:1 1076:1 1249:1 1337:1 1517:1 2012:1 2031:2 
0 4.095086180669176 0.3447809732104997 0 0 1:1 2:1 4:1 36:2 115:1 218:1 332:1 404:1 774:1 2012:1 2016:2 2017:1 
0 1.75081470036119 0 0 0 1:1 2:1 3:9 4:4 5:2 7:1 14:1 24:1 33:2 55:2 59:1 71:3 124:1 163:1 256:1 275:1 329:1 404:1 424:1 511:1 545:1 698:1 971:1 974:1 1293:1 1330:1 1495:1 1622:8 1679:1 1899:1 2012:1 2031:5 
1.859828965144721 4.640121042669373 0 0 0 1:2 2:2 3:9 4:5 5:1 6:5 8:1 15:1 19:1 27:1 30:1 44:2 45:1 53:1 72:1 83:1 87:1 95:1 106:1 131:1 135:1 159:1 198:1 221:1 239:1 242:2 313:1 320:1 331:1 342:1 424:1 449:1 497:1 511:1 569:1 590:1 606:1 618:1 688:1 763:1 835:1 1123:1 1250:1 1355:1 1362:1 1379:1 1424:1 1678:1 1788:1 1814:1 2012:1 2015:1 2031:3 2033:2 2035:2 
