solver_type L2R_L2LOSS_SVC_DUAL
nr_class 4
label 1 0 2 3
nr_feature 2035
bias -1
w
-0.2741141837690785 0.3070818694140613 -0.7265913968719844 -0.2954497483630398 
0.02004876050673702 -0.01245581785037276 -0.01645905182297185 -0.01240964125666862 
-0.04800425553246738 0.1287889204710599 -0.1746982734893245 -0.0874519401771528 
0.2442887713148261 -0.1579894176583795 0.08791325703717986 -0.09371598602990916 
-0.04721406906653432 0.04734516103556613 -0.08225897030708489 -0.05106597258254475 
-0.01577027662612823 0.01539722866152305 -0.0166338296018349 -0.01177643884261509 
0.05827898274009374 0.05144232951263417 -0.8945856845365787 0.128917730163121 
-0.02578030442302376 0.006866471602354134 0.02515225787779626 0.01581051353620666 
-0.03460737533299298 0.02092573017032727 -0.01451697455221241 -0.01412125015754057 
-0.004287808547363084 -0.01152796587771351 0.03086888363327357 0.01761227862534576 
0.07850294769502832 -0.02321757601542523 -0.06494647272870256 -0.1045307829238623 
-0.04274115445868013 0.03559929093444196 -0.08237245806057164 -0.03352648062596693 
-0.5222002279747416 0.5155764700343801 -0.6275977439540619 -0.5219852847436772 
-2.019493273853219 -1.006537908729536 -3.203140898083443 2.482096726568047 
-0.02598431107931782 0.01355476226699887 0.004662009317718792 -0.003397261564723431 
-0.03565242236914049 0.03358225715681253 -0.04861251753231319 -0.05846410993276681 
-0.1024867191098982 0.07445992985886299 0.01865407513236503 -0.03482816162974593 
-0.03460663559584066 0.03574045497841299 -0.01115342657046104 -0.02519763950809559 
-0.03561580274912664 -0.004824674766411848 -0.008140510136661545 0.005256914142520164 
-0.03949746534255742 0.09452647572854812 -0.2458855696848595 -0.1283466498462145 
0.007896480885558537 -0.003628920604273117 -0.002604007265517522 0.01260659424328649 
-1.993054606799937 -0.6968692775717228 -2.071119147764545 2.1382095468195 
0.2086185691319995 -0.1897538303136625 0.1192848252064095 0.3052297907467847 
0.3103321412055201 -0.1888686953824903 -0.4807284154593257 -0.3502014454175337 
-0.006842610672724125 0.0111181424576497 -0.002429505104774797 -0.001471258367231386 
0.02828264500312444 0.01097425582268833 0.01948920061450015 0.009767539676232928 
0.1601694033056197 -0.139204664727445 0.09385671875868258 0.3080219185830895 
-0.04809987362523513 0.028300266986618 -0.05934120772823727 -0.008630752114188702 
-0.03072121060406473 0.03661326130027838 -0.02708737601156625 -0.04184417736553886 
-0.01794676066096756 0.01910140296488465 -0.01055923471884362 0.00277093670936949 
-0.03868483109477935 0.01239534926569466 -0.01102272680670886 -0.001825808525485936 
-0.08968532734077729 0.03011249010306669 -0.02997576209628239 0.007002770731917534 
0.0797924507798743 -0.03569485592380883 0.04959353665723926 -0.02904155313129074 
-0.01059574588350592 0.01403384194304512 0.007305085361007803 -0.01821202785012389 
-0.03422102764129101 0.05759589113987472 -0.073595213622263 -0.07291235895278042 
-0.03957937301138266 0.03913473037569584 0.003397148431556871 -0.04029608845860837 
0.6967471279400413 -0.5007733460480459 -0.7321355975333381 -0.6151007749572004 
-0.03839763139071431 0.02475262131190711 -0.0564660168641051 0.02258129646612742 
-0.04037380678423833 0.01051611136966547 0.09949839795825699 0.07248092253830896 
-0.03624730024246653 0.00418171640280522 -0.06373903291419325 -0.05264757409509144 
-0.09560292351578589 0.05888629105315764 -0.002397421783906933 -0.003381968177209939 
-0.02195658957563607 0.03123114685416007 -0.129665436292713 -0.02779700664915608 
0.0001370998237884367 -0.02211208283997129 0.009279464701633424 0.0303442772934694 
-0.02019274828536191 0.01797973389790795 -0.09004063748215368 -0.01434477442249534 
-0.0535792112745475 0.06265847826584885 0.003971890132559074 -0.01397680011503265 
0.05797760985972583 -0.02424294092820074 0.01653093967413179 -0.006518099039364582 
0.7894411524215543 -0.6895640227649985 -0.5158141785955253 -0.5679453487501568 
-0.002714688343617222 0.00537108704761583 -0.0978833394551667 -0.0402151308411359 
-0.06969342401078212 0.05834002388080117 -0.01828552889920305 -0.008126473733672956 
1.110653568986623 -1.039174893268596 -1.064319569156564 -1.008491493854993 
-0.07266283853867729 0.04333598747578987 -0.08580358285191553 -0.007241598889389833 
-0.01089671200224815 -0.004782947685327239 0.1184120894630914 0.04206375327987114 
-0.04206064426840394 0.05037935212828946 0.004410124575467612 -0.04351279992452531 
-0.05311968723002154 0.03920828726200893 -0.128079452659582 -0.004222254309457968 
0.05932017566071109 -0.03496959799375751 0.0675022506614639 -0.02260497432078595 
-0.05651888935269993 0.05075008973790598 -0.168470655104839 -0.06589986985902924 
-0.002126912331378284 0.02734800658137135 -0.1238057136727421 -0.008664479028171084 
-0.0355147645597501 -0.004425870477807469 -0.01933961360266604 0.008085513212129728 
-0.02848045435192817 0.02155275017194053 -0.006803020390123582 0.005066274794942974 
-0.0305943777208439 0.05442289272066615 -0.09184398960912001 -0.06476426472087547 
-0.05596218647798093 0.04474054465932301 -0.114866284689995 -0.02957606392490249 
-8.265285462715107e-05 0.00688097896899798 -0.05690483490122794 0.01930749431566788 
-0.01177603422501566 -0.005875466373107949 -0.09025436175855356 -0.002340947225616534 
0.1204283659605318 0.006489626808921543 -0.06669217680814861 -0.2219332762672193 
-0.07463783702894819 0.06565942283209945 -0.1077363681297874 -0.0145251628507514 
-0.05159670955441433 0.0686993756008573 -0.06501443774373619 -0.04813317394006513 
-0.09148764955009882 0.06728143660785377 0.03686688802091147 -0.05521024840300982 
0.003148422154103363 0.01693926257415737 -0.1034923957750484 -0.01572850275066878 
0.01232608149834068 0.009953029330096414 -0.04286991341584128 -0.03652912852029995 
-0.06154648631904343 0.0007952619108212659 -0.03659811487242427 0.03176270414898415 
0.006462593001981539 -0.02922366840023087 0.0812048051431763 -0.006399145559458905 
-0.0294968981314888 0.02336944495571072 -0.02371489599003822 -0.00785270387073767 
0.01116616811653533 0.02212558353686727 -0.08099421947931586 -0.02087123136117081 
0.05118596783008268 -0.02255753619202443 0.02319546584418283 0.0177089440453874 
-0.02225520939119083 0.03664169930217231 -0.1532985065730142 -0.03237726150277523 
-0.03148802303070732 0.01595789701599463 -0.0002960755245626874 0.04243085066298991 
0.001199736100978852 0.008572265339164858 -0.02485227545316308 0.009033018865317051 
0.00379803409781897 0.02596487526340707 -0.02894550964614448 0.03176622887076348 
-0.05069912771838797 0.03794734091407615 -0.04851832972604173 0.00444809169146974 
-0.1019409139555782 0.01346104037836704 0.0960353869948941 0.03753716717626352 
-0.1418790848092335 0.06317668632600432 -0.371931425863087 -0.003493343786665442 
-0.05083123255854979 0.05291652597363159 -0.1196984447509841 -0.04869195290548319 
-0.04601391238272016 0.07397431767352294 -0.105130906847947 -0.05121133266528631 
0.0122722805506047 -0.02293183847021705 -0.03347256579089949 0.06002936013369071 
-0.158674885705785 0.06919422382774251 -0.2131869970927796 -0.0586380954954201 
-0.06563893103879304 0.05667266845011829 -0.06066916548540853 -0.06418082973257867 
-0.04824788026015762 0.04671369418429595 0.05392104902757357 -0.04407590513733982 
-0.07686275618151442 0.07879820639142023 -0.08332542031794693 -0.08351557058295354 
-0.05938420957622163 0.05450112386295359 0.000246442381685696 -0.02897321878873242 
-0.01165238057777545 0.02698916285593917 -0.0648996407270271 -0.0495425221491235 
0.04780900039410346 -0.04379534223584261 0.1421588788647303 0.04317269377587634 
-2.180874536357051 -0.9599466791404119 -2.247640788878017 2.537995082851626 
-0.0308068778185349 0.02221869805555707 0.0515222339964724 -0.01052745483552289 
-0.03221554322444777 0.06113870065435254 -0.1605270609905237 -0.0536384250457275 
-0.06325134456948503 0.03439969569754135 -0.01622860634527213 0.03865777947533255 
-0.07062326763410198 0.06746660111062247 -0.03058827594372203 -0.002302379269107036 
-0.1007666860411122 0.03048840212084907 -0.03785375510177783 -0.01932811876482726 
-0.0668127251851285 0.08862190460069445 -0.1472477425738709 -0.08419317783518886 
0.07294915154240418 -0.06007123129077176 -0.02022453223244689 -0.006008662405814354 
-0.0805432169873003 0.06401919084504154 -0.05609680789899212 -0.03306184437215898 
-0.009891435619479945 0.003051591272155312 -0.1374504097054065 -0.01463723049227545 
-0.03411678595700852 0.0408934517761177 -0.0756403914429272 -0.05781355100640372 
-0.02747919786041608 0.01661441872215753 -0.02314947029040387 -0.02204975084162175 
0.006972126721968016 0.04133876919888368 -0.1240437529677942 -0.02394005458068719 
-0.004064141038973977 0.0136653192783091 -0.03151270846032393 -0.007331917153181888 
0.03252528425156689 -0.04477968818377467 0.1154889758665594 -0.0009184685906424117 
-2.089109154414555 -0.9594901286983097 -2.928357901177885 2.323136783460826 
-0.01263327660825669 0.03247139458919783 -0.09122240067543236 -0.09573348387188209 
0.05660839388171258 -0.02758483882605137 0.1364014595811411 0.04158612958506049 
0.0393286104407761 -0.01215266072908959 0.07904613523341454 -0.005994030255135176 
-0.0005259474705601556 0.04350944838117772 -0.1005397911851995 -0.05466145030242857 
-0.0828700983525351 0.03278315059287974 -0.1102932797611364 0.02638936240778047 
0.0272834300497077 -0.004321617932576452 -0.00689618505082126 -0.01749497411228745 
-2.265450503354068 -0.7741197738542804 -1.336578937052856 2.249084270326003 
-2.119953134069492 -0.6670185350705361 -1.740903394881197 2.123235539786092 
-0.02608221490037601 0.06968595984463864 0.1139544550155644 -0.04242271487913719 
0.001974373464183117 0.004511040406588571 0.05031399972807045 0.005403135444074147 
0.0123780875238523 0.002931747998043071 0.07673977310871548 0.001382542388622178 
-0.02139792531558945 0.001413363500415195 0.0476676162740528 -0.004561653632129492 
-2.355064680825839 -0.7201206539286154 3.658869577998607 -1.935610823252692 
-0.0144419127512851 0.02759915186712892 0.07495622439949212 -0.06356468426701176 
-0.001005100099243119 0.02665131403413299 0.01085610149935315 -0.07991473539734344 
-0.005043877331922269 0.01657715685088543 0.01718313892299099 0.007828341111061073 
1.198447360150514 -0.9165899980577359 -1.153129624682786 -1.034004166949193 
-0.05041167823029682 0.02013332465512273 0.01153856518952758 -0.001719056512593338 
-1.86578592543172 -0.8271696627065332 3.404618598193819 -1.72779081775962 
-0.01333138872456943 0.006429858813465118 -0.03800301835696659 -0.03278275468662312 
0.002364438809768645 -0.01440946501340878 0.006494522776317194 0.01390990419281883 
0.03547288776723435 0.02112526102001977 -0.05660025033639696 -0.00515568541033779 
0.01309282272953716 -0.1165215724329469 0.08278572236316191 -0.03417442810338678 
-0.1164826368186737 0.03322969342865484 -0.4754349096047323 -0.03350453210921955 
0.04771892320940398 -0.0653763402992667 0.1291284938956336 0.06429742134944343 
-0.01562304149541023 0.0271767361788465 -0.04413079163997076 -0.06425896000718524 
1.132469896048487 -0.4966076658749703 -1.829308934340033 -1.185795641238763 
-0.06987612247533541 0.1308252373011344 -0.06721392629588034 -0.03758273444408434 
1.619608798273468 -0.9534946991701173 -1.627687545293447 -1.347284359860942 
-0.0573143717910036 0.07866448504211726 -0.01440160578792882 -0.06583946929937508 
-0.1684141526874876 0.2168654181058026 -0.06089369967341302 -0.1037468272759441 
-0.08360763375667428 0.02649066714660613 -0.05204721059443855 0.006685759369061631 
1.331212770567328 -0.9413453737811157 -1.485502787531845 -1.101368869627014 
-0.06873630414354465 0.07887271318530481 0.007820059845566604 -0.09365748408912153 
0.0266088507720555 0.006765634070096603 -0.001824123016239728 -0.04297595905006681 
0.04194374987912548 0.007576314111339289 0.05468944905058352 -0.02629244696346204 
0.001071762993220879 -0.001232315335643406 -0.1787629157937666 0.01988089874451769 
-0.02399626764012031 -0.007979579770986376 -0.07768830418397792 -0.0233162089528882 
-0.08894617301673029 0.0794723735824102 0.1047675572179734 -0.03824925115668243 
-0.01370809164621659 0.02979546578697399 -0.1407866007840564 -0.04000838247714723 
-0.08714996176733331 0.04339456502047261 -0.03049377545911613 -0.01466509600332633 
1.315372528348014 -0.9353470192903927 -1.580661135569582 -1.000771237674433 
-0.01546977557225192 -0.01520259134317316 -0.03424759911943789 0.03814409596269811 
-0.01412934551619609 0.04230159760980866 -0.1056387719747411 -0.0464577628219711 
0.004280405836228993 0.007430709182253987 0.01798605685639264 -0.04761170241081719 
-0.02125524091858346 0.06592290943516205 -0.2041194266665162 -0.05188517228474746 
-0.07365481332223063 0.05095313339293977 -0.03026700205032787 -0.02453530341737881 
-0.009900932083725481 0.00949314931324622 -0.06667749938877006 -0.05020947414441844 
0.7469216954357565 -0.516367073673164 -0.8935813144937348 -0.7581897350035781 
-0.006191873428336328 0.04897520015987625 0.03665780532362169 -0.06829799902914097 
-0.04547747951655858 0.03400304533374476 -0.06249333963648207 -0.06550353370380765 
-0.0603734155228627 0.03153812108440311 -0.05096688941798103 0.05391829557520247 
0.559811804170997 -0.3615062982498568 -0.8242341883879191 -0.6088660632804971 
0.0944392062002157 -0.06348519946327069 -0.009512570930606989 -0.003605159501159258 
-2.563600681462121 -0.6562902808103986 3.663199466835927 -2.194482991341343 
-0.2071108169737985 0.1720079677267203 -0.1273980476906041 0.01794413401652506 
-0.1236623990590741 0.09783557209597804 -0.0473090637560447 -0.05542441260350626 
-0.1123694807791685 0.06433621038699402 -0.05512845044574445 0.03233871795268047 
0.003254804319948736 -0.01270563080670412 -0.0286507069759116 -0.007289241053957262 
-0.05578224916353398 0.03154458406555134 -0.09558807246727813 -0.01691028872181002 
0.009151199760986826 0.03236508809145133 0.1217713755747941 -0.006268856593574228 
-0.05519363020113044 0.07601317315509216 -0.1093256800183623 -0.04402045161674546 
-0.03822977971135284 0.05587319454853139 0.08124848373537781 -0.1016445247141311 
-0.05725248075285638 0.06683464687874288 -0.2125089208881816 -0.09666060517594847 
-0.01747518761820234 -0.03645472041522111 -0.03692933946189483 0.09966054904629228 
-0.006567780214599396 -0.006149146793931878 -0.04742726378287877 -0.01570072319011842 
-0.05143250380576302 0.03531671519725788 0.01880891544060163 -0.007228045502960924 
0.05806895092885397 0.05075390985357097 -0.8703977493954433 0.1636128032379861 
0.6929501170705383 -0.6028262326596356 -0.9011154358293413 -0.5675744240484771 
0.04351057131722978 0.001992332443443262 0.146151423855489 -0.04145486274995808 
-0.1828637298070977 0.1101832082370342 -0.176221279404516 -0.008771315590009278 
-0.1296071169422932 0.1027440090951156 -0.2699827312549532 -0.04621725889710442 
-0.1776809796860712 -0.153753400301904 0.01589403579020431 0.2141060073985167 
0.05269373626374785 0.02936825516832932 -0.1812861756842707 -0.04470299570667823 
0.02318750225962295 -0.2930048060618169 -0.04976563953309571 -0.07067521539948056 
0.009616329307545843 -0.01018653227337435 -0.08022572995635348 0.04721932817005993 
-2.5139477940447 -0.9968053517535769 -1.967200078954903 2.631605976459743 
-0.04547577348070624 0.01535572161031898 0.1161441285431129 0.01032097566089069 
-0.05455596257149356 0.005081580437910122 -0.2418780857366419 0.032931718425128 
-0.1805687641375842 0.2013097982783138 -0.208822806570248 -0.2474833686626845 
-0.04536812274978227 0.04161616906407273 -0.1946509207891698 0.002381711330885732 
0.1359866047261876 -0.07846490157403438 0.001329977641506818 -0.004728724584974445 
-0.1928793853268846 0.1619455005816748 -0.08265753711590249 -0.0003579585624999796 
-0.06847202898265695 0.09039665675725282 -0.2048583003765717 -0.1124433728763961 
-0.09759473407848594 0.05014397499822271 -0.00999190575702362 -0.01088459881572978 
0.1626420690511066 -0.08534902341734393 -0.05188327603831626 0.01353904263536227 
0.06112078468689698 0.004376890957297698 0.08011562087180055 -0.03966262847348203 
0.05495441312313529 -0.0949297211423749 -0.08339560969814991 0.1551141771445427 
-0.04908516512055996 0.01496177409596779 -0.105349121973629 0.009457769152974776 
0.04741705549166342 -0.005655276866025826 -0.008230404625368833 -0.07793174041672424 
-0.03813597054196957 0.07650618336310779 0.007012776694955572 -0.09203741173834822 
0.01976291103234838 -0.03116632312545836 0.04734859333136972 0.02536986941064363 
-0.0762165832359715 0.08637890060045163 -0.1120167539003801 -0.07211573791744509 
0.2576454559638411 -0.4182794730433758 0.2180562922098582 0.04316494172815916 
0.01467192696838038 -0.02211899755312239 -0.01702915162485825 0.0156506623353661 
-0.01272315715666243 -0.02036339450616532 -0.04872861447155948 0.01031452813918338 
-0.01267788102079298 -0.03649395633384511 -0.0871679535497258 0.07443366716841368 
-0.0127305587338162 0.04679191200134952 -0.07820972132337145 -0.04889632743878462 
-0.0365642318059854 0.006609442357134706 -0.1094145325699604 -0.04418290172249957 
0.725735021820364 -0.4375442727100896 -1.187868787703253 -1.220169337262277 
-0.01103649081631184 0.006318408108574078 -0.004487650478835684 -0.06087168738348858 
-0.04196731346992459 0.04580285708244327 -0.0521686304606061 -0.04619132557447456 
0.07153506486974112 -0.04439094123964164 0.01072951135726422 -0.01683122195263865 
0.006036890776895701 0.007046387308728121 -0.06526614562547697 -0.05962155014636082 
-0.03246633679534007 0.02074349071306301 -0.09022220129624463 -0.02871747350050216 
-2.117197484789719 -1.058989400988105 -2.17177068707719 2.31377106539572 
-0.002936298035573638 0.009626730393210138 -0.1063468561214125 0.01437891069403506 
0.08042165724249392 -0.05588769526619611 -0.04542450031363574 -0.1252889224240507 
-0.03651250770041696 0.01323539765890746 0.1528674199379093 -0.0001261206790839978 
-0.08159721329181177 0.05758083661116985 -0.06914686662803074 -0.04034055699445475 
-0.07160286604438815 0.08460804442097457 -0.2093814644186522 -0.1188810916153926 
0.06880863384665714 0.006721430587406817 -0.09208537610415996 -0.04202845038952725 
-0.005719639700780365 0.01426132266791769 -0.02733730677202912 0.01327966909135734 
-2.034498610544007 -0.8325113378739926 -1.313967694271916 2.090806031154945 
0.01114885827084957 -0.03847986032053413 -0.1511037716761199 -0.02618283491293641 
0.03068865054564598 0.03642351142483106 -0.1525526031203999 -0.04665712480826457 
-0.01927626905279327 0.0315613968193164 -0.09811928711483385 -0.08951755839676968 
-0.05114938331950698 -0.03260148098354232 0.2700730027753673 -0.01739011162660202 
-0.02111509550250319 0.001699705002983916 0.1578439566373579 0.05608015009156791 
-0.0114614273802174 0.02679177036191119 -0.02724128421618403 -0.01360262122249422 
-0.03572831600237173 0.02898127202148844 -0.02163664951177615 -0.03738160395418099 
-0.0452448085145986 0.05076556120736413 0.05606124273376624 0.02005795068959395 
-0.09518653285209121 0.08112858518324489 -0.08421572577610496 -0.1245376740584019 
0.02538055764884132 -0.02015645846854733 -0.06248428354080166 0.01479518811784519 
-0.04923042331666126 -0.02461605357039146 0.009820591876611693 0.1235568858798698 
0.02541347598073104 0.0110544203715388 -0.039378669077223 -0.116726711502195 
-0.06241638609650782 0.02035825025839241 0.0113033279213249 0.01235946712223227 
0.02718385190220989 -0.001782025168523175 0.0792835942760215 -0.05586132044747586 
-0.03367267958555974 0.01661306191209441 -0.1076036877871634 0.02006173698861075 
0.2617591814201748 -0.1300482368767069 -0.3671495177380436 -0.2797009692694802 
-0.05332036024737244 0.009800635911241723 0.0353242682883206 0.005096109064385025 
0.05998407681016216 -0.06585868978686765 -0.001530619832128773 0.03102700627044247 
-0.006619687207558546 -0.07732775092206509 0.2396678251561876 -0.01955806119238589 
0.01965014769357859 0.02173422256939115 -0.006894284950789979 -0.04534867542611573 
-0.1319863482701465 0.1284287057907806 0.1127874047285409 -0.2320482348392228 
0.02010982439436323 0.03984266462640304 -0.06069266049320372 -0.1568871792009268 
-0.09764232082744675 0.04336547122358272 0.07303399554398941 0.06875119358207829 
-0.003298394837010781 0.004675141475699523 -0.08121089156528973 -0.01971943519260436 
0.8372525537570042 -0.5868780636290611 -1.028856571452386 -0.9498293769463981 
-0.06206534456183498 0.09811024950629448 -0.07193602601197428 -0.08855095286988446 
-0.09874336178742125 0.04524043828965384 0.04655641894097455 -0.06876831179415951 
-0.02193128364606263 -0.01894137242523704 0.07746847194123117 0.02413384281488546 
-0.09032016784372049 0.1522987907873953 -0.05694580628778835 -0.04130660747402431 
-0.09624186875250379 0.1063115430105992 -0.2687845185742734 -0.1489043089975088 
-0.003498407064958846 -0.04348729606120916 0.03834517756792643 0.02368616173223389 
-0.04950424342239053 0.1028892053438374 0.06361985374816932 -0.08243344511399342 
0.02533852761947172 -0.008767168160292023 -0.1048504055145573 -0.01527510536918064 
0.03959485537101733 -0.02755354583308518 0.05170843868652177 -0.0448433613572714 
-0.02443251984999903 0.01072832573599183 -0.1367393186475462 0.001186317599323919 
0.04326453844302227 -0.05042855986438519 -0.0828354902832724 -0.01882598822343032 
0.07739572414746648 -0.0133618152292945 -0.06629929301981663 -0.03013696471426324 
0.01408299651562802 -0.01689895874060412 -0.1346888707064886 0.1145337632685237 
-0.03707167359899115 0.06797576291082658 0.09825787899887863 -0.07240990386726631 
-0.03367014955756414 -0.002014081413061423 -0.002622063932210109 0.03699503654515945 
0.004223476278657434 0.01397761251712641 -0.08700959069887783 0.009061322919375695 
-0.03419380321560529 0.01200143621411617 -0.1388843660585446 -0.05745731786253173 
-1.969861263898728 -0.5340405685035101 -1.979473123549 2.106253668577548 
0.008103432419127511 0.01637276180901102 -0.1282330003490161 0.01025336942426212 
0.4660373948554953 -0.2912375007506412 -0.3081662363306562 -0.6024869212422204 
-0.05447996735513361 0.01776793653857804 0.009986766131915242 -0.006596336158466864 
-0.1821871054743158 0.03804526750956191 -0.09421208857746348 -0.01267986276135769 
0.8072646514643894 -0.5213405346878818 -1.063767339490699 -0.8252662269157687 
-0.02477765074299737 -0.01643563773493245 0.05354597263079221 0.02821679771694815 
-0.1080383057967794 -0.005059856895494892 -0.1829683996328554 0.08615052736147658 
-0.05525165375185645 0.01399041388142191 -0.1172273501838284 0.0245568743993919 
0.03552414495208691 -0.01245349557470436 -0.04751268785545383 0.03442093258110882 
-0.03861944758436402 0.01769471052825515 -0.1409381081140444 -0.02111001813624774 
-0.06479229473640513 0.06627873424447796 -0.1840492258268794 -0.02419507485306337 
-0.32271482543317 0.3999300286115993 -0.3999715849741532 -0.2589886865035079 
-0.009185636350029919 0.01703694537455225 0.1071730660699502 -0.05124876263533758 
-0.03122950472996032 0.08636028094890454 0.005873068187826347 -0.07072567593504785 
0.007749283539421748 -0.008158968697272008 0.1511003997585232 -0.006535022521792749 
0.009593887815573708 -0.0114428414085722 0.03547344481456746 -0.006074807569001962 
-0.1051170171985357 0.1327191876835009 -0.4357228774316728 -0.2367789320552872 
0.4566289902220148 -0.3122280159264634 -0.5096465582548265 -0.08481913285073364 
-0.0001160619481452288 0.03217816154612656 -0.1222850628804842 -0.09382269078716772 
-0.02912002682229417 0.02836914280976087 -0.07093207005432861 0.004206165772660341 
0.01358015520899932 -0.02373075634580735 0.07007634504542701 -0.06682107957977758 
1.76052080330374 -1.253592793454426 -1.096292091280412 -1.528435084906268 
-0.1146974796934281 0.1139969751391814 -0.07995870880669993 -0.1058083848013415 
-0.0438807582067094 0.03530027134006129 0.03511101037022968 0.02594932123977677 
-0.1712373916606778 0.09370278882120667 0.009197667278102731 0.003091996943702944 
-0.04965184098426231 0.08713230310089538 -0.07209494509795811 -0.1404424869372351 
-0.0690300405459631 0.09117407976751354 -0.191015951735505 -0.09019734630688665 
0.08469868137633267 0.01318552149304395 -0.130858230092884 -0.03828438226001776 
0.01782194594550385 0.0771822445891968 0.04947473810624636 -0.08193243724315902 
-0.08442504612736249 0.1018926829913243 -0.04074874188321874 -0.1129130947085837 
-0.07427647287818538 0.1234866804399117 -0.1643992601626743 -0.2092319779617997 
-0.03775382903172331 0.0001872931905116481 -0.03790147148126839 0.00725843064157706 
-0.02791018239408041 -0.02117068858860302 -0.09278067178607562 0.07972994882854313 
-0.3013050018564473 0.3032868729886178 -0.1796920076572476 -0.2208978944213462 
0.06677087624132866 -0.05441099011446199 -0.1574184652715605 0.01042839245494744 
-0.06855870295512656 0.07396721125284136 -0.1013842135586982 -0.0007450691182232105 
-0.05979237383040917 0.06522536514325067 -0.002365925791164977 -0.05106808019234548 
0.04998799400209535 -0.02455003791483451 -0.1130934131074007 -0.09733552103438128 
-0.1397497077729123 0.08744029134595387 0.05964710226594343 -0.03283664203356689 
-0.1233650321788113 0.0998144892347801 -0.00962843237944044 0.002282353650442161 
-0.06558697959773524 0.03808047449751403 -0.08274839384894389 -0.03081621583737977 
-0.01581806241482859 -0.03019158346708559 0.033232983114957 0.02611727450179747 
-0.1457541493608904 0.1343629279240396 -0.1353526977707412 -0.09772908735866105 
0.1034477171120844 -0.04977927020983801 -0.3541278047954988 -0.03417730447086108 
-2.117085401398772 -0.9467775678600271 -1.317442328684894 2.197791640515975 
-0.03838155187327445 0.04812855190800056 0.04243408709635303 0.01234852709298935 
-0.03027016813193072 -0.03143033528637106 0.2714281921514786 -0.009348512281310433 
-0.1479452626482582 0.1354578360234035 -0.1176805151673824 -0.09029112277759127 
-0.06834595777771975 0.08473150461071334 0.04565762383265988 -0.1025328697385644 
-2.195757811372672 -0.8763792803316675 3.631139408042565 -1.889976256555589 
-0.28812446795841 0.3738510235202502 -0.4656237710669333 -0.5708049863025133 
-0.09068164165484958 0.03813472329958825 -0.04241920994207692 -0.04051029522139144 
-0.02937368883405593 0.03539806348047927 -0.03248781204373927 -0.006243434430358399 
-0.1300890601461906 0.118300933969657 -0.2413138741561466 -0.1063029462604774 
-0.2008740910932746 0.3155193329889361 -0.05971925109462806 -0.09426205823780269 
-0.06615344130401012 0.05418631539366839 0.1862656847181 -0.000985329923119109 
-0.04016533428460482 0.03639431727931694 -0.1395476610648767 -0.01464253845425798 
-0.06714813418577464 0.08741584640582266 -0.03374984820077242 -0.08243726094086327 
-0.07483587929866359 0.03751922950716144 -0.02365514337678139 -0.03130770633689053 
-0.1427566072355236 0.1377035393355076 -0.4087425027131995 -0.03127005040621948 
0.001307554451225378 0.04178418047210296 -0.02618411849555991 -0.03413678926961447 
0.05353520558521269 0.02339973084210457 -0.01264086647549219 -0.05686089042578329 
0.005284652578104301 -0.05000328709145892 0.1338050678435455 0.06586873801473411 
-0.04722963789056586 0.055102123496548 0.0311920302305717 -0.06158541115973999 
-0.037546874149154 0.006579420233978119 -0.3251405328093449 0.006474974119759926 
-0.084773370223063 0.09052755613841185 -0.06927130840941591 -0.02135342845179578 
-0.08407396754671681 -0.003665221403037584 -0.05314954134016418 0.009274060304841025 
-0.1657147707612348 0.1012385557712305 0.1155548941462171 -0.04187013985827599 
0.1112853465603544 -0.1108924113844272 0.005499207930168096 0.00689892242293611 
-0.03817008591506279 -0.009527456857925869 0.04672044578649107 0.01136227844262168 
0.04150058512007543 -0.06118037227285787 -0.1143439884539899 0.1327874317053606 
0.07178841427892557 -0.04654622239250748 0.0587960890165644 -0.06913646063383794 
-0.07093425470152889 0.03114551715101635 0.08260748342522939 -0.009519114983135998 
-0.1179907068863698 0.1561424774313797 -0.06026101523409261 -0.08664486165990871 
1.192549464521509 -0.9783915626045813 -1.67121097666672 -0.9024586009937092 
1.574196114201709 -0.8918253955964495 -2.443815699917853 -1.372987198621098 
-0.01746387958075565 -0.1759403186825503 0.09229831637305771 -0.1900096570517741 
-0.03118601481597236 0.09056486530641851 -0.2333110220745097 -0.1159288520549598 
-0.5657301565440709 0.3663904796036901 -0.1349545547181546 0.02454987095068617 
-0.0514132587066921 0.09934423793229651 -0.3826017481873003 -0.08532990259823665 
-1.860596378921934 -0.8241122938624945 -1.714361583451293 1.9383753823522 
-0.04225164093778298 0.03232476127915968 -0.02540354403119672 -0.05556039976052073 
0.01095765704925134 -0.005485608660784354 0.1327388473881288 -0.03558312159280121 
0.1396885375439117 -0.0800173684023078 -0.299316944504087 -0.09696095674774252 
-0.0332685137734427 0.0364724284531748 0.07711623007332268 -0.08719144062715664 
-0.05188439849502031 0.03388193555525536 -0.03916821355125139 -0.1507633085044287 
0.06003799924152257 -0.06625477882008397 0.01709164659085419 0.01428048180311122 
0.01206750052878273 -0.00867592996585962 0.01490742366024116 -0.05002325923940962 
-0.4051477093856834 0.524836218666335 -0.2892582717166994 -0.5907758321459358 
-0.0357940761104171 0.005153233152145815 0.02164915302030807 -0.0001383733516400658 
-0.0911969816683315 0.03630175711535614 -0.002740964577218829 -0.01358408282794783 
-0.04765646499404837 0.04205700338168312 -0.1049445773975202 -0.04244815295448306 
0.05804521560611248 -0.04743943479829931 0.01070326044069679 0.0293557305077799 
-0.2200943181410636 0.3843017891065179 -0.3943390198509938 -0.9165790243010052 
0.01030573424354825 -0.033662919500224 -0.03770433467795489 0.06018015001422208 
-0.05273575752237803 0.09620993344229431 -0.6438297703866486 -0.1867237998013375 
-0.03716564552481136 0.06665086500103559 0.05094160248235903 -0.03470054921751607 
-0.01964492393744566 0.02291242447512494 -0.05901133884801385 -0.01110299622023633 
0.00883540515436086 -0.01281085963822966 -0.06687051875878179 -0.01455139481905142 
-0.08749667355637822 0.05067205155131719 -0.07435227361653304 0.01028222060786176 
0.05610556786153068 -0.02240587793842925 0.1206618566434637 -0.07120616514648151 
-0.08639599031631057 0.0001187032946059798 -0.07472413829194632 0.05793791748874901 
-0.1520192245580263 0.06039599936711273 -0.1112929176577981 -0.0230900540695977 
-0.04908179670281926 0.06876711589829351 0.1056245165540219 -0.08495292987891066 
-8.856542570051225e-05 0.05194311385225867 -0.03774622550981719 -0.04598864425625887 
-0.02721130622225476 0.06220595278883097 -0.1461747662473834 -0.0470224870886058 
0.05790693762082418 -0.03872801104219708 -0.1521204984451996 -0.1190726196274547 
-0.07593931016893476 0.08889116492284113 -0.1870057422136725 -0.07271391757838538 
-0.007544845444753517 0.01527388677253453 0.04414316209039928 -0.07253449569710033 
-0.004684955594989103 0.002120366407938987 -0.01762043786539812 0.0275197030577133 
-0.002815832214489547 0.05943069380136938 0.02138731801074467 -0.1409225713044658 
-0.1525576689809076 0.1885195339892469 -0.2275081972924654 -0.1583452649362739 
-0.05649219607306186 0.06693534206448785 -0.2060490588084746 -0.1222316412692442 
-0.1611484443954293 0.1260714693055943 -0.1441144478161233 -0.05472883197137966 
-0.1200370818707007 0.1028620425945132 -0.1308321514905197 -0.1452462553656745 
-0.1584285819954753 0.125549246747864 -0.07483675313615454 -0.09734133413381725 
-0.4107916461791803 0.2439334108103657 0.06520817621951992 0.06841771838344783 
-0.1645978837856877 0.1532919287212296 -0.2096080146820686 -0.08659938207018504 
0.01629693107359426 -0.03288186587200437 -0.03624208744746133 0.001909923071415403 
0.4528600814361071 -0.2348607787747887 -0.268018401518595 -0.2414907774404655 
-0.08876404913900877 0.05511885263471519 -0.07160540448009928 -0.08112190235235972 
-0.01859494754425746 -0.02379606827630965 -0.09967958359427682 0.04299607901204515 
-0.1084599440064316 0.1171346825800217 -0.4198093898342273 -0.0693519657156163 
-0.07503855506167703 0.1756048417793537 0.1366805486000528 -0.1104763399425627 
-0.02951462358894558 -0.03738452663184434 -0.006196228169919234 0.04092338507842181 
-0.01014341649015118 0.03651131177127392 -0.05572402481790242 -0.07035002575784398 
-0.1431757714394253 0.05112111443762872 0.1473341122028437 0.03762294603029095 
0.01992355693891101 0.05652294596198952 0.02213765492132576 -0.06459946798830662 
-0.09956065512302154 0.09124945300294555 -0.1638923961291943 -0.1182518413895048 
0.02856469286660866 0.03281943577766376 0.01449265200636271 0.003134884912075812 
-0.08341951448345489 0.1026157815435406 -0.1753837651123094 -0.02604264672522169 
-0.09658038629412331 0.2654720375528321 -0.5122302194032368 -0.3904970549940308 
-0.1024508283140398 0.05234195121763191 -0.2571965081830068 -0.09182238430320543 
-0.04631182131649134 -0.04148560966961183 -0.1703065087107112 0.04018934996018809 
-1.394209949081552 -0.5053612463942895 2.211131999594561 -0.6608694534634647 
0.006594595229597261 -0.008632079284252168 0.09137784329715096 0.01183291486537631 
-0.1142600617227298 0.1332141178900405 -0.3234338142835466 -0.07478234415583418 
-0.06422504389369181 0.04311007137280298 0.09944188322008808 -0.01045603339503283 
-0.004318441963940167 -0.04025956746274454 0.06139302726676475 0.06066851321991884 
-0.0128943424399929 -0.03242962341967717 0.04680980508560505 0.06892547757127636 
-0.1185522522938828 0.05005825707174727 -0.01953343270035634 -0.06152084489464493 
-0.2432111479655597 0.1191300022389097 -0.5087582158290085 0.01003648145284547 
0.02244626638974984 0.003311440481130277 -0.03843605749906305 0.0650324621942132 
-0.05512732099713932 -0.02121658316709273 -0.07250875945971939 0.0327507943020128 
-0.05533170651017623 0.01260256168064307 -0.004061956637256761 0.05566581562946281 
-0.03583678628228744 0.08636050667426222 -0.07769961359323452 -0.1666888057191591 
0.03874660267634366 -0.08014864625216739 0.02951007174856523 0.07757479148118006 
0.002637594980863569 0.005093129721834549 -0.07155125277707063 -0.02795853953252968 
-0.008806902929253083 0.1206784192573216 -0.1627712831287972 -0.04569806880448297 
-2.124786605513928 -1.030967890630578 -0.8099227772235058 2.275166148912773 
-0.0308672263003786 0.00975688142861493 -0.07596941285243243 0.01684243088337307 
-0.284004280625634 0.174388784457787 -0.2929284012837047 0.1957007461581687 
-0.0271866155400767 0.02719406995071572 0.09097606378224748 -0.09856254531591259 
-0.08674103234260017 0.06174316475142189 0.04342928951412799 -0.1032688048431406 
0.09599553826676346 -0.06745926659664973 -0.1145303162448015 0.1074656539549335 
0.8447217197414331 -0.4671206571500967 -0.9048140941404167 -1.123133753893931 
-0.0426124680055771 0.04000874327178364 -0.06364713440213446 -0.08148991177370518 
0.01598908470138426 -0.02769572672548702 0.01276941903352901 -0.008128425182242991 
-0.0579771277517679 0.04494782602594423 -0.07346474708646342 0.0299607912958272 
1.052229758628876 -1.302931983420305 -0.8099322652620153 -0.5753267298132949 
-0.07002399565799511 0.02594094584018922 -0.08325128433568842 -0.04025857499247493 
-0.05493272591764055 0.07855332079287423 -0.02128793105649991 -0.1002518375391842 
-0.1177966821242204 -0.01751085523002833 -0.04969099528551632 0.1245706144055519 
-0.02532580414455556 0.00398276422473458 -0.1002978150226192 -0.0002872944348413708 
0.0008148482996177282 0.1125041917810759 -0.1783847118171364 -0.1656881443387492 
-0.009939367528701521 0.02601251165578524 -0.2466132776213771 0.06989532362322946 
-0.04102696535400137 0.002991957897995387 0.1111408842246796 -0.03614643455631781 
1.694404679380246 -1.101364781055464 -2.472120215134991 -1.315507028355829 
0.05646812007456355 -0.06059978794772977 0.05462450405694359 0.06263049485496197 
-0.05820842275982996 0.04645805349821659 -0.08047914982289375 -0.1917368760891185 
-0.00552846342761047 -0.03528336585671055 0.02118238360348859 0.07838290190953884 
-0.1871098229049347 0.06779258367011362 0.02870413088888537 0.06740055217883477 
0.01011742468739098 0.00431305357308262 0.03819940862162826 0.0232142638776767 
-0.02290999129630057 0.01938792041765649 -0.08776285467308294 -0.1133480252216615 
0.2405811620879056 -0.1880179950671753 -0.05466766634099385 0.1517916130925574 
-0.04904679153822163 0.102181944261228 -0.1016423413410904 -0.1189427602520491 
-0.04674014620343311 -0.02871198131110328 -0.06956285254837373 0.03456797904399136 
-0.04871955515207081 0.1366387224500814 -0.1342835060188656 -0.1248163500907235 
-0.03671974917295216 -0.07482986105395761 0.009193109101941906 0.128219984800155 
-0.0009016243597334181 -0.00439050300101646 -0.04574195390908029 -0.1634031074595826 
-0.08233939678730152 0.1577231570019551 -0.1705285423856809 -0.1758720423066865 
-0.03810187752647878 0.1305911008293653 -0.5127361500155326 -0.1617776473436195 
0.05415309174930886 -0.04719491354247857 0.1281196332689234 -0.04345491145806571 
-0.05701361985711315 0.09242935188831 -0.180792726003511 -0.02810881562565964 
0.05608017906386642 0.04861493928216971 -0.2460595011446878 -0.02268392735049871 
-0.1080652740287538 0.05791766855102286 -0.05859011543656378 0.004962922427708673 
0.04009673402347978 0.05114517680210504 -0.16824839348332 -0.03415450348545382 
-0.03519053908708165 0.05836082046623083 0.06176155504543181 -0.05867145855223213 
-0.4817924629092363 0.3951720986853591 0.1667351304666509 0.02458661928427724 
-0.0189576503460997 0.06107453341542904 0.002151017123854055 -0.1010131129908803 
-0.1408493449232475 0.1096560787884941 0.0183890233352747 -0.02986328034103895 
0.002869364759977285 -0.0374827556520192 0.08088178591730877 0.019427612439944 
-0.07244844887440217 0.04321346612053363 -0.03368436321576865 -0.03036139904788029 
-0.02319354896483613 0.004414964528145101 -0.1523988587721011 -0.0205491846864826 
0.06619803303570014 -0.07065084117032357 0.06498230892683311 -0.03853624446128773 
-0.05631765972873394 0.1074392225593616 -0.2419453691392489 -0.08482796592232698 
0.09545607548763003 -0.03198595813763261 0.02094017478430391 -0.04466916201468518 
-0.07629419751030513 0.04352793352888621 -0.1530671277542826 0.0002108200621871899 
0.007091737003793269 0.01690821394835197 -0.1447202234862553 -0.01271916192544785 
-0.07875484751757543 0.08939180662936463 -0.01635840772320769 -0.08727403001597601 
-0.1001829471341959 0.07437188953111537 -0.1627693476983064 -0.04634002377297926 
-0.143655987576173 0.1268484217013635 0.08875292644074177 -0.06745300223120065 
-0.03063489864649632 0.0553037256783349 -0.100056180952112 -0.04335773203289952 
-0.2255470515777232 0.1918631679766436 -0.5807419218173934 -0.2118489589222747 
-0.05405492004169325 0.04645732442174184 0.04903276680445125 -0.02563163748934648 
-0.01254538268893873 -0.001701227647715776 -0.01132364899280584 -0.0006902040705583099 
0.03426549487608706 0.01194674744559032 -0.07164918481564157 -0.1306456020027 
-0.9112092664463453 0.8629339848512556 -1.182165090317702 -1.002824212685945 
-0.08848736532204289 0.07778411220597714 -0.2476799940047945 -0.09075990263416647 
0.05460928249718297 0.006740757438116614 0.195684325079975 -0.06685019411208842 
1.806108551507651 -0.9364801843012657 -2.498792367384078 -1.850492016012241 
0.0494964908124222 0.01083408483532015 -0.1658121608089586 0.01663855170436417 
-0.04824903956807702 0.01223692069336416 0.139887541763585 0.0008295136214193693 
0.02364498215812255 -0.01308165937921266 0.07383723163487695 -0.01037678729204268 
0.03903589119919825 0.0002225387319278295 0.08279190375958786 -0.1205235757178555 
0.01633514971146131 -0.07409793042130876 -0.08933415894869394 0.007802096558784905 
-0.06210310151539421 0.03004990888509722 0.03298797369688206 -0.03920510685312437 
-0.138271943612213 0.004462305407490606 0.01010267590168404 0.05858688639323731 
0.02317485254359977 0.01450588756885987 0.1061081977259215 -0.02982317662508263 
-0.0231704729661926 0.04044881719702176 0.002017812993445086 -0.04666191252995765 
-0.02323767110324448 -0.1015003253041622 -0.03098246162856425 0.1222950908113788 
-0.001831112648936093 0.002522407090305106 -0.02867767152531935 0.02524957127772937 
-0.08132530825177162 0.04746292002925098 0.02192644335355318 -0.01865997470176068 
0.04916982465538763 -0.04049838142377193 0.05632296088445195 -0.1297188260825893 
0.02067905260150841 0.0108745492380946 -0.3393902613022075 -0.01842910553372737 
-0.0928717153006325 0.08572236294620302 -0.1932260343725619 -0.05232334069331478 
-0.1163699172168463 0.06491553331864178 -0.2660794759020911 -0.06882550845454448 
0.03602655561847348 -0.03938867664512772 0.03495754962642399 0.03729413916688018 
-0.0219220999243858 -0.03542857314166568 0.08455544490087991 0.08727726194493844 
0.08044025716503561 -0.06956295228833993 -0.05922638679488035 -0.008168120544352347 
0.04974629476461805 0.03074346900610267 0.04665638280975167 -0.2519093626968748 
-0.04324400084577579 -0.01770552626110265 0.03203661182338514 0.03326177523816865 
-0.06805424647560826 0.07218380284626887 -0.4064112044772225 -0.1162285194159422 
-0.06571108736363626 0.1025781473007518 -0.08202742253270713 -0.2339679801812006 
-0.02978283544274281 0.05521530712923003 -0.08944538688814331 -0.0513755557242408 
-0.08872573852521048 0.0925872253780777 -0.247988294082176 -0.07730383047188905 
-0.05660358634044005 0.1034820340119048 -0.1277434997037246 -0.1105269229214032 
-0.09268591646374194 0.09088299038856383 -0.1307777166585597 -0.1237520309492409 
-0.0282007240314439 -0.05438307914687854 0.07757350738351529 0.05772165877430994 
-0.09419201735352567 0.03246858961809883 -0.1597004372043608 0.03615764405492263 
0.01333585804909127 -0.01677606151982151 0.1125600456889241 -0.02964152860655155 
-0.1599118287230261 0.1488130565117824 -0.5475485102303459 -0.2279815424227571 
0.1002008097604649 0.003586781674469607 -0.01673668466154314 -0.01999832578618571 
-0.1167397309496213 0.1806017389287604 -0.1884364685705883 -0.1141640333525203 
0.08466030435123398 -0.1622849781144539 0.1785983356191585 -0.01448211033982055 
0.009455076609893535 -0.005983107447790818 0.04309837111640356 0.01493001453477151 
-0.0560759301323568 -0.05943747153515912 0.07236504689801534 0.06619174891821825 
-0.05835441230457888 0.09724125656331607 -0.2788285514084635 -0.03538431286696032 
-0.02718929578869935 0.04135740445213301 -0.3384487457278945 -0.0673649849115478 
-0.09923546034020109 0.1286462868025278 0.08899737901436595 -0.1020967355971488 
-0.009957228089148932 -0.01699455141833575 -0.09122036069621761 0.04088305551241189 
-0.06768984921155337 0.01195482696504849 -0.09749996208596684 -0.04238875107460643 
0.06688458645137084 -0.04316371039514641 -0.05694147923777226 -7.637981231738882e-05 
0.06456043913849316 -0.08439203332290189 0.07917127694364448 0.02723662767274201 
-0.1026997407747955 0.02329428478578439 -0.1892604608245962 -0.100781879010093 
0.1088308145950066 -0.02693002120099697 0.02781059395220681 -0.02275967111940337 
-0.07876615742763886 0.05101776649608618 -0.0756817468466683 0.05814515679624386 
-0.07185166291464704 0.08577285082533988 -0.05629065250142858 -0.03710943497413673 
0.08905375352856833 -0.05426884628086497 -0.1839341385537398 -0.08614808774062306 
0.009517243462263649 -0.02185087775685916 -0.04678642068610846 -0.001482621724386979 
0.03767014199803433 -0.01000530172700584 -0.3308033175580318 -0.02730713948079295 
-0.02421664972656373 -0.007758557606134656 0.03736803124395922 -0.005505933927425754 
0.01630332495478868 -0.004259677448319368 -0.1165614598660863 -0.03609607700349752 
-0.06286520314243449 0.03146565783530364 -0.06253974157353032 0.02745370606435507 
-0.008841606650696013 0.05106343065792198 -0.02438776822893091 -0.05614552910563549 
0.03623197266985539 -0.02373518626219308 -0.1933073977459467 -0.005471616317987787 
-0.05015194033180292 -0.01401834627241599 0.06616868668986568 0.04865499511733901 
0.1487157204938225 -0.1133337363165646 -0.4062928127692523 0.01700906711839171 
-0.07156433307168082 0.04919201631113115 -0.3004274845148509 0.04095889631926081 
-0.1230332167811765 0.1293057863366347 -0.1383071454114358 -0.1284943289820493 
-0.0290071741957513 0.003347717746983675 0.1025096041124183 -0.04735977394643751 
-0.05600532923759648 0.0429011844591024 -0.2367638131399487 -0.05707355163464274 
-0.001327678979127955 0.03850144646760027 0.1856177862205601 0.01447117709896966 
-0.03204838665326672 0.03903488652297748 0.03036833706454955 0.05401984420098607 
-0.0612969432775593 0.04862402049501878 0.1454664771288432 -0.0002270605382852803 
-0.05812589217685477 0.03293229612854769 0.1647678546087666 0.01345244148885508 
-0.03205928088706703 0.08652932619861195 -0.1622454187498507 -0.1040908996458735 
-0.01764887804337641 0.06512294345937117 -0.005600332390009172 -0.1398026150491739 
0.02685998499267785 -0.07316527818545833 -0.1724540618732673 0.1180976133143384 
-0.003556039252479896 -0.0139345951907703 0.06729853496756169 0.05090775951953645 
-0.2071456521638074 0.2673284857881747 -0.09271480102241772 -0.3725832768590123 
-0.1093128715042888 0.08951708004006093 -0.1953936529307973 -0.07395863062705886 
-0.03077060908782912 0.006048958110680023 0.003256905019375653 -0.04183850444474903 
-0.03870862212094153 0.008867918764200238 0.002885424543922848 0.004471039651646423 
-0.07985219844189666 0.05329083530478482 -0.2402906221524529 0.01410475670920791 
0.02337818663991512 -0.02381661107251368 -0.1454702454845473 0.02450460041524141 
0.0793416365098963 -0.07913566918099117 0.04185296547221454 0.0597597032851863 
-0.06610270443457877 0.1015931573914099 -0.1017476979831536 -0.05230845286908554 
-0.04270057836289159 0.01157045938051317 -0.1866717484645864 -0.01208252848933102 
-0.004858124723595572 0.007444930044602869 -0.1178348579590469 -0.1034827292924604 
0.06860697712997531 -0.02912552380441193 -0.04902227201745949 0.0623102692825548 
0.02654977640505027 -0.007446470630237102 -0.01720668336546505 -0.009992310961874966 
-0.06508912873616002 0.06995016358723163 -0.08593011218749158 -0.0490537953704139 
-0.1078745291112448 0.08149422662806233 -0.0623529097807476 -0.02423647837895368 
-0.0179574465289814 0.03453560244737892 -0.1401487569028387 0.04423736815931341 
0.00839139226404762 -0.03922866648142623 -0.04592194849634706 -0.05664221024134809 
0.0870011443775692 0.02427681986681999 -0.2291846133102405 -0.0529053245145439 
-0.1378646715331605 0.1439483429171766 -0.3791877537267028 -0.1723129047045499 
-0.03288214767177544 -0.3222632266042738 0.3591501309087617 0.08531969651725047 
-0.05170381273419192 0.02340579790997758 0.2759430294092453 0.04707715373817441 
-0.3408135349959863 0.2160147448967666 -0.3704066158131343 -0.01983732854413382 
-0.128237312764409 0.1154663882836246 -0.1913237276408078 0.02547259318393281 
-0.1026448554669648 0.05500623137614236 0.03173506261308962 -0.01406805807476331 
0.04878630779531975 -0.7271588631875225 0.1642189306179614 0.02628181225235051 
-0.07925306337164784 0.0006809631719905949 -0.01769948496247604 0.04813007336043727 
0.1668814415182305 -0.2098860090168718 -0.3153987907733986 -0.06064712482554005 
-0.103939331128659 0.1324270609873949 -0.2905247408814745 -0.1017100624017915 
0.02129423508466479 -0.04169931992105824 0.072147699448548 0.00407248224571645 
0.4349847958958785 -1.081467755250646 0.4313910226258623 0.01280489909872021 
-0.08962136277893422 0.1014822025274538 -0.1295478211959252 -0.05014985494910798 
0.002754618328906723 -0.01184733729266515 -0.1578600167625349 0.03782445206008651 
-0.03383193320181573 0.04525160071684602 0.005455807786097762 -0.1644127095640825 
-0.04121787653135797 0.03672878451358124 -0.03834683752422357 -0.07388017295536074 
0.005009253441428692 0.04126353852737695 -0.2844571057708815 -0.1411132496187103 
-0.08077839522335342 0.1200826158645877 -0.1142141852036884 -0.1083507202729939 
-0.1388190038901532 0.1122983045615893 0.1298903959186288 0.004281744493553091 
-0.0732184132866318 0.05179984633008204 0.06202283317792735 -0.03819167209471673 
-0.01931199000496064 0.02137907585296795 0.1140457397140996 0.02379130325750343 
0.007808475707956663 -0.009662405649124786 -0.04572203192904103 -0.005897219999385059 
0.01249536924815067 -0.03330636307604696 0.0716834501635594 -0.04422903620164023 
-0.03516285296115652 -0.05275571445957378 0.1704253760331949 0.02721708642122567 
-0.02502030868957922 0.004834381545618836 -0.03746069289305406 0.00738140639185114 
0.07367318196760395 0.01407830837630212 -0.1314516222566327 -0.1153797476868242 
0.01488490711571798 -0.03994072581084808 -0.1974661883154173 0.03886986048211551 
-0.05819703357531265 -0.02189428832026528 -0.01930043021591332 -0.002224189075855811 
0.006323022417178015 0.002011845336706453 -0.1097509714181608 0.002521621961464533 
0.03261384814155065 -0.01492242899429364 -0.05642769421093255 -0.07414001015027002 
0.0417184310246562 -0.01658218636076721 0.1130625405602067 -0.07148285819188595 
-0.04284084537775427 0.1431615173708409 -0.1124848320320177 -0.1402425474805859 
-0.04513781739634148 0.005468967457336932 0.1943329144020859 0.08661791354022487 
0.008966267147597446 -0.02287209438502988 0.1242301664724273 0.0002652515852819585 
-0.1257730778790664 0.1001040374841136 -0.05640667986796322 -0.05296506395252763 
-0.2216113368778388 0.09168972627747432 0.04195053338596114 0.1142657257104332 
-0.01041840647532928 0.004414329996764343 -0.254186457695982 -0.003334306321603232 
-0.09775958734117053 0.1075086318096121 -0.1623120293032935 -0.04581415139900175 
-0.0777210543421189 0.06302931807856921 0.0456198957610881 -0.03947002151202986 
0.09764670926357115 0.05855985701316119 0.06845821229341342 -0.1511611844167997 
0.01941264624742543 0.0002396807611475868 -0.3078581033282535 -0.03126676204418343 
0.01242488782303855 0.02887131535449999 -0.04802901925019112 -0.01190856450797555 
0.1169967983413395 -0.1101886993845693 0.2303807418850193 0.0479895286678575 
-0.02137888857257943 0.01374817316840588 0.1286643160086934 -0.02350353248409461 
-0.13050313530261 0.1051247003397083 -0.1961348886768651 -0.09762023269992873 
-0.05684271940131609 -0.2551025063344843 0.1947944004021933 0.2122071144736586 
-0.06722377491762577 0.09020454202949106 -0.1292072906702544 -0.1608689142810485 
-0.01510241578958109 0.01001705988167091 0.0605954562850828 -0.02258682467142661 
-0.01484888886212268 -0.008526363529055236 0.02059125437126661 0.02129741881301538 
-0.05128932911158622 0.01410033586765566 0.2302959804083339 0.0006796084929905919 
-0.1068149097739277 0.08871003110697241 0.06075868062153138 -0.1221284113295729 
-0.1113874769509277 0.1468576823460955 -0.07840593267639834 -0.04815037923268246 
0.2117521155560487 -0.5032355199986824 0.3116840646620583 0.2171476410092524 
0.06631317953526097 -0.006983424413482492 -0.1192397565233741 -0.06350608267749992 
-0.03478912442745758 0.02266871326447654 0.02080052275540512 -0.004443226444614258 
-0.05208380102189401 0.08365133087902199 -0.2384031551252675 -0.07110433045840633 
-0.1403126000619238 0.1738132711937916 -0.03845692611004522 -0.1277140887594905 
-0.04054161550295406 -0.05433562681905535 -0.04565609521281654 0.1175551941028407 
0.0614137279296373 -0.07353228958549934 -0.01943633337170617 0.03831224018921604 
-0.02170623266584553 0.0384091614952556 -0.03582401479615745 -0.1694777194561783 
0.09649278198687024 -0.03087760443539944 -0.01933426223804847 -0.1216238928493643 
0.002086289723108082 0.007935644370729081 -0.05138183908971598 -0.02030027683189559 
-0.11613971769928 -0.009888555205369911 0.06697772848606522 0.1401283149613737 
0.4916540677455744 -0.3101422491434782 -0.8820049475440399 -0.7082857872371442 
-0.09765828678464013 0.09939685978335465 -0.07157302043216773 -0.1333717181327756 
-0.04255389269187027 -0.02282103456055288 0.2755766774455239 0.04354802989868839 
-0.1095698422114068 0.06022088554051478 0.04429501211940885 -0.07213406389752175 
0.03656197700863145 -0.1518656128415036 0.1742149800229299 0.1003985400996225 
-0.06530166099964818 0.08407022467305425 -0.1933729124359988 -0.05706768317244168 
-0.00110784542108207 0.02050248725311179 -0.1601572285534379 -0.08293681094682963 
0.00500890023567665 -0.02428167296115816 -0.09403669393348757 0.06260854820538791 
-0.1188186879872816 0.1280167313314823 0.4932504544563396 0.03637157591408997 
-0.2284776577372914 0.1469776730011972 -0.3605837009702474 -0.2831798593438031 
0.0534113291569642 -0.05068817420506531 -0.2654213674202706 0.01479451919599747 
-0.0191152636570097 0.04849793625358399 -0.01490527710405717 -0.1800300064743126 
-0.1170038239735849 -0.05767275471918854 0.2177503409029158 0.1741261683050763 
-0.05846257126978267 0.07342646102054796 -0.1608517669825772 -0.07876181597624649 
-1.570487101701503 -0.4242203705446529 -0.7621857286026097 1.504897540742322 
-0.08427288442112058 0.01970973614782599 -0.04514832042282064 0.0773466067809694 
-0.004320424869197776 -0.006468058061052126 0.0479635043118422 0.04285716909912238 
-0.05695213838016611 0.06418539967297199 -0.1616119563370373 -0.06757033852045145 
0.08525866762062634 -0.00117259756540234 -0.08300487279049779 -0.05092968451757746 
-0.07635271078752882 0.07820471215742891 -0.1563862949114882 -0.1688806747256166 
0.001511477525748131 0.001731902863963721 0.04165628197968526 0.0215745006888343 
-0.02420471087027401 0.007106109869363999 0.05807957425809442 0.0688561551428569 
-0.0599632754813165 0.06836856064712379 -0.1102558211227732 -0.01223998394453383 
-0.07822195074456048 -0.001938402068844502 -0.2278213090829194 0.02865959722572246 
-0.08380460159728025 0.08192067861839111 -0.2043375101843852 -0.002047479757189264 
0.7287676089700561 -0.5839290407437364 -0.9754892067626747 -0.6899172902405041 
-0.03807505040272808 0.0322451969331046 0.06867065162406111 -0.02050461073145439 
-0.04787441085599291 0.0382904255165718 -0.009807482880618513 -0.01577402124570972 
-0.003970765963051542 -0.008855408692226101 -0.3241750876352236 -0.02556577082270716 
-0.07001391158251781 0.0441880098125395 0.02156600822896813 -0.07248982088642525 
-0.04271718112680017 0.005809388080933141 -0.03111555324027771 0.0301900513942325 
-0.05350497819897665 0.0007728540332205447 0.1548664780162389 0.0418060543339071 
0.07528136434064256 -0.04969543005587344 -0.03336827438052684 -0.04219263298751109 
0.1412629050810002 -0.1335673860879878 -0.07806802499550484 0.01706092315316592 
-0.4148883113321494 0.4511744481427998 -1.438900581988581 -0.2631629457290966 
-0.1144749856461268 0.04468059796593143 -0.001339248213214453 0.1338700299050819 
-0.04090876149160116 0.103684791827568 -0.1014493197078762 -0.1131572965626233 
-0.135517249896438 0.1207220070260309 0.00977587044820712 -0.0606987414882606 
0.038935202450403 -0.03020669025380565 0.06717975883265129 -0.003574819638961125 
-0.05424223379447646 0.002839945113993049 -0.009679787469001069 0.05124080300184873 
-0.1074475013751425 -0.07414645796679356 0.07153085388200085 0.08121016258975361 
-0.07108275884734602 0.03538018729016051 -0.02881131129760668 -0.0217141321793621 
-0.2538724942871671 0.2362973752843473 -0.2939196624982756 -0.3051201366578427 
-0.03782381887174734 -0.04286532048890106 0.06229347200826889 0.07999831054519974 
0.0358430097967788 -0.004228949367118807 0.061008790067149 -0.03849623788760172 
0.01135386412697429 0.04846025636944011 0.06125660201477485 -0.07766359503581861 
0.0164765297694249 -0.005358140605948817 -0.370261640500353 -0.1284590812131514 
-0.036487901490663 0.0682912920273598 -0.3396650213682207 -0.1414965156755086 
0.2872632396990453 0.06979639505836796 -1.651397688349433 0.08140556386247044 
-0.05368780871870486 0.08172584414484174 -0.1970426906229924 -0.1078201873185725 
0.07883454883502812 -0.08727448748361301 -0.1415860456617055 0.03658604238977198 
0.03096959224482513 -0.1010936082295493 0.08952428608168495 -0.01176775798567271 
-0.05335254811867866 0.06335621761968506 -0.04376420323489068 0.01996605798558108 
-0.02351639812907518 -0.01341612033517379 -0.3154798417513037 -0.0449395234512302 
-0.0920404286691054 0.226389381487855 -0.1066093362584513 -0.01997359623769003 
-0.01954851872584648 -0.02111464470463776 0.09157812286284589 0.08394289743572667 
1.057208828225239 -0.5837340043915493 0.2097542900161226 -1.457208286318599 
0.01463412241370817 0.06193772321118431 -0.1268247077665814 -0.06634581346370197 
-0.4950766733956796 0.4049354772522301 -0.2521426746010351 -0.05963926634288058 
-0.06517358699161237 0.1035242450298946 7.393971817656192e-05 -0.1218313557049851 
0.009541454872722776 -0.1484749891857198 0.2005721177700119 -0.0556338187952207 
-0.06465229683713747 -0.02449701028888293 0.0502040915383376 0.07772193526614973 
-0.1777518823365289 0.1382682861607809 -0.05079253671557905 -0.04151214436299326 
-0.1275279101142596 0.09396516708599 -0.1878940202628805 -0.00631023959715059 
-0.01220834639410928 -0.03265913176912665 -0.0999290105379335 -0.04164897216294376 
-0.05766283928569183 0.05545879343659036 0.09033796651070941 -0.02849719183136484 
-0.1053355382157048 0.04701802245859001 0.03691980335167335 -0.01031171891230647 
-0.07617723133940166 -0.1219372235528424 -0.5206618554644178 0.1081328194375385 
-0.05593529369214955 0.05836575229580718 -0.05430477717627129 -0.01439715281530892 
-0.05605675480085173 -0.03021292188731764 0.06394816284357503 -0.05807532934454043 
-0.03951795422861164 0.0630924507349203 0.09167887257759956 -0.06534739723561693 
0.107358321570182 0.04676500959503001 -0.001763224534400948 -0.2228332159874695 
-0.04342768768974038 0.03377834034181493 -0.2594277874869471 -0.05023551309012236 
-0.08695987567268744 0.05541665495483395 -0.04220880468282732 -0.04404218794915845 
-0.1526567501196085 0.1179010974367677 0.1620530746526676 0.02149582453181682 
-0.01922366631658125 0.05757046458165069 -0.3553892720369876 -0.1210742533986879 
0.03149788216291585 0.03611316787384934 -0.5467818319890064 -0.2400931564580355 
-0.08400280886746536 0.05450206497026099 0.06324997034452283 -0.03675000488673923 
0.05838076845918097 0.03583918211598211 -0.1061389822610777 -0.0824843248215501 
0.006441346110129033 0.01881486379881664 -0.1493988321279339 -0.007920890182868503 
-0.02719851364935078 -0.002254343209781474 0.1947327868061696 0.0720039086654686 
-0.5832103790979309 0.4121241585144386 -0.02130346510738112 0.006833483682875381 
-0.02957407895662807 -0.04886045671824604 -0.1158159729578694 0.02135211874888858 
-0.004048354371050099 0.006882999926216243 -0.2522687099420353 0.0226217472727537 
0.1172235141833404 0.01759586820767876 0.02309748865781298 -0.09988078269227921 
-0.2092955050112097 0.2060936110049671 0.01331080616591475 -0.0669171231435555 
-0.1178880458347101 0.1503891633135978 -0.5322225211365705 -0.1280214230837933 
0.02951711763300506 -0.03000032536249661 0.1056381596973016 0.01548553512197458 
-0.09429245084800179 0.0488421231320575 0.07594680137164539 0.04248561988213706 
0.07458035827409704 0.002048467799936735 -0.1278229469561201 -0.08132060575885199 
-0.1630334025893547 0.2318159291999336 -0.2667771809598145 -0.1421728718185054 
-0.03342021482338019 0.09988435699285736 -0.1246268047922313 0.006054052278483052 
0.02280891204186056 -0.02528379808560385 0.05906380277135777 0.09231159445289196 
-0.05363982739587725 0.002214134139289758 0.02618827876601602 -0.04430700201755074 
-0.06844392234419379 0.04183706443702394 -0.08434683135116569 0.0473137921066582 
-0.1152556206289075 0.1034025201572893 -0.1036624008236068 -0.1093033828161851 
-0.1215369692974546 0.01267043625752236 -0.07337556245969239 0.01252616904817358 
-0.09818083142036994 0.1995583959949347 -0.6148786996106661 -0.2768957239339591 
-0.1188792132355055 0.07274924981798762 -0.00767638223444419 -0.02126419437929281 
0.05296425618786673 0.01078127815366152 0.04909592615663809 -0.03046968968459495 
-0.1192480612243597 0.09673936452778917 0.08063791016744973 -0.07683094873363981 
0.009259173381741788 -9.303109020985818e-05 -0.2879778437105202 -0.04624717585172153 
-0.03815935133816317 0.0376053755520273 -0.1058618948160572 -0.02133680554602298 
-0.08744191263888021 0.06054308379050074 -0.04522793401516444 -0.07424201911013301 
-0.1382259219776499 0.140393547012537 -0.02649546742709387 -0.1144459954905379 
-0.04199947364769849 0.09514762015391555 -0.007258110044448238 -0.05913805437885478 
-0.04601279189399844 0.03817070090533491 -0.4343613918139047 -0.02440512580650985 
0.08582360409688224 -0.4138993177489995 -0.2733063079243442 -0.06767222456101965 
0.02502555534218275 -0.03591794543058201 0.0282214228123078 0.06642399520674658 
-0.07995943566169665 0.03743091235155403 0.09233489378046618 -0.04461278846493785 
-0.03271149753909264 0.06244156706407838 -0.07220883685967829 -0.1609774276093466 
-0.02805411794600029 -0.1050072783855747 0.117716360795302 0.1238180321033063 
-0.08607699003269617 0.09188069273384142 0.1467628665943182 -0.08269194895809742 
-0.02313570393523832 0.06671855324785041 0.00273533117826616 0.04029014634604763 
0.01944799739395728 -0.05984393742893419 -0.09226035307237775 0.006490297849688766 
-0.07548562664326104 0.04840813584850926 0.05607631535783931 0.03514177823746451 
-0.004563812344446959 0.03379305142352085 -0.1940941564109688 -0.09949957329047508 
-0.09329974757866084 -0.01389145916313771 0.1823329519680588 0.06556616780087902 
0.02597440776324213 0.1105537113554545 -0.3710132967449904 -0.1097745358821563 
0.0667317737399062 -0.0660080360366231 0.06867042200510351 -0.03646178930928432 
-0.2123834673815252 0.2309388590603571 0.1256552337860437 -0.0767027590753861 
-0.1089114433619134 0.08258543948297851 -0.09028826898400015 -0.03539187044780708 
-1.100129077976955 -0.06291294515806661 -0.4873817406325585 1.023036265468179 
-0.06278940889569337 -0.003369021110224146 0.242218646846753 -0.05798872446485497 
0.262199070716477 -0.124083550531559 -0.06542267208189911 -0.1895311423573841 
-0.00680303316963712 0.04119039071949179 -0.1209436034431999 -0.03192837841691249 
-0.1676528596893141 0.0476645139895544 -0.2104805387505358 0.0008744632323332245 
0.001841300671584747 0.0307626022805875 -0.191872138950598 0.01353636170000047 
-0.1854285299859141 -0.3122228380591495 0.07963349958274668 0.4247413967643184 
-0.03693459735465014 -0.03116044624851928 -0.2069455340380711 -0.01836102704321201 
0.3916012535407331 -0.382522360101807 -0.1778531435949717 0.05002937789994245 
-0.09058175457771311 0.05034289982744544 -0.01289583554081797 0.02669102411036195 
0.04887099911080604 -0.2947789553753292 -0.1270771037107703 0.21402628575713 
0.009989324128369994 -0.004617403904475586 0.02759521972456626 -0.02614691711087723 
0.02405656591206181 -0.02556338517409941 0.08348906117370154 -0.07356769888123627 
0.009851604828523767 0.001962595479044764 -0.3789334363337679 0.0721934787156446 
-0.1209858830349203 0.09563950224253523 -0.5445374539686207 -0.1187529864899575 
-0.1095996983368078 0.1403753084901665 -0.1020109581054678 -0.06103636738868715 
-0.07495732284013241 0.01590951268600862 -0.1973191607103853 -0.002723430891757011 
-0.1067857585161582 0.06437491945797157 -0.05364967448711202 0.05603669597646709 
-0.07822611486051594 0.08407175897495585 -0.07980031743784996 -0.08124789933560923 
-0.141833737952648 0.09914539126894661 0.06361871753261508 -0.01576728540328327 
-0.09156823500294092 0.02679963595963714 0.009339277421500874 0.01312912153012687 
-0.1289902859688467 0.1253162729155577 -0.3444305146389047 -0.261717791350328 
-0.2451178740689614 0.1520477411823813 -0.204352459548852 -0.1362126619670454 
-0.02148026737197446 0.04324894962322193 -0.3087517765077154 -0.01809024322180351 
-0.678555140310784 0.4349852712503823 -0.005170680761039718 0.03097406381677035 
-0.008255939867565067 -0.007084755376654015 -0.1404082335380977 -0.01785645477823809 
-0.08727109460894425 0.1164688063354698 -0.01173111242593411 -0.1515387952643363 
-0.527344791190521 0.5053955001183574 -0.2621940561136208 -0.4135398452161756 
-0.1823435466792351 0.0159881716623224 0.3686091715023211 0.06936597495409833 
-0.132072912097833 0.1004241710690014 -0.1352703522527515 -0.03267846005714362 
-0.1621430527483097 0.118992646006299 -0.4510701928013869 -0.07826819770266794 
-0.5538385363491931 0.4155741945892288 -0.3743949631028347 -0.0258471276729565 
-0.09759850355245747 0.07672628354591252 -0.1985727344214184 -0.0303284331502176 
-0.001946421068634827 -0.0059594905596052 0.02253870081776905 0.01625019366515248 
-0.1146365775752938 -0.01393425844020189 0.1292700779161349 0.05151804421124364 
0.05182157020800711 0.004575006992338868 -0.04634328240422947 -0.02883590788483293 
0.04837243944246903 -0.01797517300800485 -0.090548110350001 -0.05399524656662958 
0.1508577093084779 -0.1904178323355887 -0.567802117300402 -0.0006022500075629714 
-0.1343800549105011 0.1222085450920503 0.03707951661857149 -0.0435389088449442 
-0.04591298731002683 0.032041605718338 -0.1460757981004441 -0.06035965197599525 
-0.05938776121601325 0.1055176572985117 -0.2096418993991442 -0.1857565244791608 
0.1431436123739032 -0.02216124559552261 -0.03211733153402938 -0.08021493123003863 
-0.08221868697194483 0.04650047289724588 0.114136996471202 -0.07723587234682681 
-0.0004656841886930916 0.07295980100563534 -0.08852585086102269 -0.06839833387370105 
0.0001745647255730481 -0.009425499229898601 -0.08259374110396324 -0.1050209511507689 
0.03090245614128214 0.05506456033797912 -0.0008205751796993572 -0.06806219782148518 
0.1552925681052621 -0.1390403310374126 0.0714479067842529 0.06141786161227804 
-0.3668456360784447 0.4354164912230625 -0.4845731775495775 -0.2913479260493876 
-0.06742994305717587 0.05200839838645271 0.03546603269623429 -0.05362854381948895 
0.0001898098586494701 0.01935477876147547 0.05911662946296228 -0.005075109137640312 
-1.615453698147528 -0.5704115436806715 -0.710863240059894 1.575112513161735 
-0.05165106395282085 0.0009105490669759804 -0.1341578439556208 -0.05813764728020324 
-0.0929848252675244 0.08657788507292973 -0.02099971459394891 -0.06173640662422754 
-0.08188653745963995 0.07430876253962565 -0.02332476079089162 0.05151332869260239 
-0.176901866783442 0.2809111880297527 -0.3886237860277239 -0.2166973356566167 
-0.1949853302608245 0.2199598214402858 -0.3080297500696713 -0.1690181564493392 
-0.08430408084813061 0.05055656474570087 0.1370532285507824 -0.2848895737084157 
-0.04880331547374991 0.05059110032071611 0.02663311116060486 0.0305036594788652 
0.001320093459685941 -0.04505370586354152 0.02425126600190695 0.0001593309334154094 
-0.1373952967725786 0.124750708167431 -0.07871729877901305 -0.09091352416132226 
-0.1013259700226668 0.02928392362828068 -0.02871984238463721 0.04263499046416348 
0.1023154115918199 -0.06701346502853078 -0.3032053523629061 -0.08952212639596913 
0.1112915505469755 0.07798162014531675 -0.1983998836433253 -0.1658368714126599 
0.04350903267986481 0.003078245649755239 -0.2451187862998761 0.04252331422511652 
0.007568204511725709 0.003961719130097187 -0.4126735808885689 -0.0053994930547839 
-0.3504444366718573 0.3530033571520084 -0.4268972827186552 -0.2531969929364042 
-0.1164225972509686 0.06413419179037164 -0.07628180106323298 -0.04895670635964093 
-0.02884607949306026 0.05276495419603886 -0.3489943983544435 -0.1792673650065439 
0.1239184499589606 -0.1156244710545714 0.09775696873118929 0.1052630788656925 
0.03829445306722747 0.008239057043312592 -0.1518695373599944 -0.07854770020002755 
-0.06468783231206952 0.1150908061364838 -0.005673142972242324 -0.05756345198177212 
-0.03415523581391924 0.006555199501655498 -0.1409071797876217 0.06217186412189164 
0.08391873864440194 -0.01932639535023278 -0.1133150412201734 -0.07387526788097179 
-0.09508298490367031 0.02893585290868671 0.02578772604362555 -0.05912459400808628 
0.002693254892429715 -0.01567512509273595 -0.0611485640948302 0.01580454087375071 
-0.3013614063565445 0.2680514405498652 -0.3332260948579543 0.03220734066680547 
0.02672068105809024 -0.05006610586758765 -0.00218438989601971 -0.06697266253398879 
0.02973052474390561 0.1701457546788098 -0.03634273439970676 -0.1755464947927318 
0.09618827414086334 -0.05417045155635852 -0.1276144858676931 -0.05744652094903595 
0.1035170861541447 0.0293909435837606 -0.01243064259637427 -0.1369320404914549 
0.04502514479444467 -0.08109911258488904 0.005577254937809493 0.07317965579715113 
0.3065553288233009 -0.2665128330682299 -0.368494126404512 -0.2303297835497598 
-0.1120411796992035 0.1051806437622503 -0.1005049180207278 -0.07623585267008563 
0.007404168150175782 -0.02232599410840809 0.0609248417288682 -0.02609603339182222 
0.00858738978336708 -0.0353930168362614 0.1089498634020804 0.07723867408507498 
0.04318648193023528 -0.08137667530453815 -0.0872224104150701 0.09386737481847328 
0.007501588476961518 0.0198146240425507 -0.252509639702986 0.05190373049218802 
0.2108848198491415 -0.3089877876370365 -0.01650691663296008 0.05659263705057274 
-0.1199067822426954 -0.08132361142379613 0.3115433067485696 0.1962311640875303 
-0.009604293063019454 0.01892734757972832 0.07765536174877496 -0.03188777602977821 
0.1044693106258566 -0.07106529579664238 0.1499203848838935 0.01981069285485327 
-0.1381831499065793 -0.002326558202352049 0.02867767102730776 0.180688195164258 
-0.03108301756496524 -0.06361975338332149 0.06796971985109702 0.0668546173411515 
0.05256806715765679 -0.0583834358205653 0.1218210191552461 -0.02830070109749344 
-0.01874166513600726 0.04405578110689305 -0.1926595570812954 -0.05101345881094409 
-0.001633171498781086 0.04747607131250652 -0.1806895389279759 -0.08419881373409374 
-0.07567621734179214 0.07399851774479378 -0.2668131443898705 -0.06463930386378422 
0.05449153220256207 -0.02756139218553447 -0.2055538120421227 -0.04365047479758125 
-0.009169055926572101 0.0233902201856873 -0.620043412038627 -0.02816915270899325 
-0.2892074715081147 0.2874095689774906 -0.6646304436743288 -0.1306874599122136 
-0.2303042641627038 0.294961317544108 -0.6547351397860917 -0.5704467104328029 
-0.191822405322133 0.2610988179758127 -0.6502520954207511 -0.2807972206775682 
-0.08577086837490043 0.07119334617906219 0.02536981666497673 -0.04847479639501109 
-0.05781276569630246 0.1059194183827755 -0.0793157475997623 -0.2200202912634404 
-0.2106281810619074 0.2581053137234864 -0.07697482037214247 -0.2627640508633932 
-0.03764370554639523 0.05675571283913613 -0.1759291041716375 -0.08716354286551145 
-0.08008304817560863 -0.001344876252646447 0.2977306553067199 -0.1725411498633346 
-0.2641029633675775 0.1567856155063513 0.01791624261626765 0.1385859940616815 
-0.09456532878004556 0.1461646706864887 -0.2797838161535194 0.08867703912139323 
-0.05241752798053866 0.04122349452693471 -0.09854855259932437 -0.04747535458842624 
-0.05406695180678116 0.0368906766666985 -0.05467998676464207 0.01902263856168895 
0.1071814316178071 -0.01852718950942214 -0.1056429187679032 -0.04993192388127281 
-0.004290502551904495 0.005354072574992734 -0.02112178655245306 0.0002384696622955117 
-0.1975182546352533 0.2294295141764506 -0.0907740687603468 -0.12873693753868 
0.002766767509781441 0.06628088228737944 -0.002186531315904247 0.1262729641313413 
0.05922198355989097 -0.04975107567847665 0.02202169576636417 -0.1475366515293871 
-0.03437533985597091 0.0601724927243284 -0.156702747775585 -0.09138898018733496 
-0.01603187583143523 -0.03124771912487707 -0.2946685004740974 0.006151106705590756 
-0.05826793836937813 0.0699046023221907 0.1074607422418903 -0.06161835186910342 
-0.03237278799180694 -0.03825019548204295 -0.2097548493642121 -0.0002475013280139743 
-0.004246545617194343 0.004530559882987919 -0.07979152883660126 -0.02206753847689084 
-0.1469400571116721 0.1757756828855593 -0.1297953398351425 -0.1468920969875989 
-0.01966429209423618 0.02725225096469182 0.1270366612102268 0.03032213193499328 
-0.147738615045557 0.084214123750518 -0.03731914301985759 -0.01255703316650505 
-0.02662765683261423 0.01516563477210038 -0.1855405863162058 0.02978243697840645 
-0.1524548641220424 -0.0009323427214605823 0.02941021913143389 0.1014740718142475 
0.0258208757941517 -0.04966415813973248 0.09665113593438879 0.1275933133781113 
-0.08738124027691647 0.04041174372576059 -0.1443577937220574 0.05688931714918076 
0.09064486430330583 -0.08405030200026661 -0.09083072374102728 0.0355690563072387 
0.3695736307242058 -0.5060068725439451 -0.05599360030454367 0.1248876099103949 
-0.05904646183372465 0.03939248744081875 -0.2658882540203888 -0.06362859595246033 
-0.03367347252109461 0.05369696631179716 0.02552273254479535 0.03642865482827999 
-0.1173966969035697 0.08382556915033164 -0.2362733416174284 -0.06699237759304047 
-0.1574542312053489 0.1220709462354247 -0.08388633719360777 -0.1163146834165454 
0.1282548548677481 -0.1162970453281461 0.2182646159199366 -0.06390449548547217 
-0.1249536303206679 0.05136222073631242 -0.09544397833612513 -0.03411628891798713 
-0.02067875410117607 -0.03014214669874951 0.08531694771469062 -0.03346678095005436 
-0.2016368367355884 0.04897122027923005 0.0665402033314802 -0.01238754350968143 
-0.208442262222068 0.2011424656891223 -0.1510805360037837 -0.1258365945653427 
0.02638275312491863 0.0001666454968444345 -0.1981271352529119 0.01278457764914685 
0.05050712610412814 -0.0028493855566989 -0.1143486022611119 -0.006113586470274504 
-0.08038945873422408 0.03842602779174391 0.1001471894171212 -0.02809622974283146 
-0.04253188604395615 0.02983502854012685 0.06708746834669689 -0.03791148216783675 
0.05976179609835126 0.03778167210953824 0.03715003256904227 -0.03961114866911525 
-1.874052473920143 -0.9914454338671028 -0.839646024642551 2.019460651725267 
0.05297423759104576 -0.02967167040017695 -0.4243785087181353 -0.03705411975433211 
-0.1745862936603544 0.2322960095569835 0.3214247285162792 -0.09670564559441489 
-0.0001203871652757319 0.06016754257682019 0.01879870419795403 -0.09953547323315125 
0.0177037007948859 0.02427485312211915 -0.3217369685736892 -0.0470757934647232 
0.01808227823854977 0.01426389458097666 -0.06853063009299062 -0.06066895159222514 
0.1195533797072738 -0.006070652475061115 -0.05928524728184999 -0.05093015812581626 
-0.1490627248698034 0.1681117215525596 -0.1982550187298653 -0.1095443900115132 
0.1695326762809614 -0.03431156416576853 -0.3225764757275729 -0.08726850481374857 
-0.02104207690635194 -0.02597043732439439 0.108330042115899 0.006617607258151156 
0.007813410054433556 -0.02753590035891613 0.01047440514021193 0.04411492224336516 
-0.01754153267356065 -0.01858517936849527 -0.3450393745181655 -0.1302500266514202 
-0.04309294973640067 0.09228857810698932 -0.4379675559821909 -0.3176800306254089 
0.03797653162615794 0.009772188404194002 -0.08895872811558143 0.04747666914613265 
-0.07774676616468114 0.07344726249265919 0.01420088450371114 -0.02859680640278158 
-0.2816815820360776 0.2343403217162499 -0.5210180634941017 -0.4738497771284116 
-0.1037715650614813 -0.02411804134147787 -0.1148058300811384 0.1063948701626555 
-0.138245144654477 0.0323168807635993 -0.1103853764381237 0.02021966563430547 
-0.332413595683606 0.1973371665737919 -0.1196600383182508 0.1672722292170289 
-0.1755490674796062 0.04030093823517939 0.06082351343648632 -0.04689934558768556 
-0.03141720626875256 -0.3207166850563689 -0.06518111959258514 -0.3427249586501205 
-0.09520713266882241 0.07780494646314264 0.07426299418022356 -0.07079456545274534 
0.008904122804418855 -0.01893110861285448 0.228107773180425 -0.1228829901064273 
-0.08812226795733964 0.02469295694577611 0.007525344698806601 -0.02127284931906636 
-0.06224882928869711 0.02954593924792228 -0.04229464412845552 0.01022299298063973 
-0.09579291043285811 0.09201563490721552 -0.1002165342636244 0.008517837914608334 
-0.005824610769857186 -0.007186605391542842 0.08837697079801148 0.005186072240862347 
-0.1934275594162304 0.1011851511508344 0.09596994035649772 -0.1213507854837821 
-0.06174436856226301 0.07008264610236502 -0.06974094122017976 -0.08424229104096975 
0.01357298240548966 -0.03229801065190212 0.002347868180764784 -0.02342048833080385 
0.1566385942566177 -0.09352975414176459 0.03393588718893252 -0.03175631089464689 
-0.01531318178242129 0.07301879006361076 0.1381875519834502 -0.1224397699987815 
-0.01595314498010427 0.01730852550383973 0.1907099020963091 -0.1081794159538803 
-0.04449919422987008 0.05104783475660154 -0.01604154380040588 -0.09538819043759013 
0.0459191819468311 -0.07187121365736508 -0.1687118933349534 -0.1106291688860351 
0.08200533864620062 0.0018161867437426 -0.2872814825641848 -0.1063336853891836 
-0.01111544880763122 -0.03259319200915594 0.2359067728752497 0.02171416752486495 
0.02524057671449653 0.1170468579611719 -0.3020910239838802 -0.185012526952904 
0.09656270300854995 -0.03287021747556092 -0.2623852318077145 0.01733466274546097 
-0.05378418877161398 0.04444948366934441 -0.2645570375682562 -0.06406814976592362 
-0.04986807019205379 0.1707323546168767 -0.1001209940572011 -0.1746687147481201 
-0.01363137769642487 0.041686713869269 0.1822424977149474 -0.09481415730321885 
-0.07251709524834181 0.04643831012397172 0.001492010254539685 -0.03275059332277763 
0.04709439918154459 -0.03832071741938257 -0.3639919867340833 0.048545906016567 
-0.06617294853744418 0.01911416446102375 0.01818502785548027 0.02486882444743406 
-0.1889127462801077 0.07941241748485089 -0.1137800338822818 -0.07722384103866102 
0.00101143107206386 0.03898883276637436 -0.05570567994727359 -0.1153982806425837 
-0.04960540955389185 0.02144190953746941 0.07870294438255995 0.01395178703547841 
-0.05654604947448161 0.02008156691270014 0.06817144070331702 -0.03182506163272723 
-0.08946937711511034 0.09634656662485533 -0.1666337338211556 -0.1148664786992902 
0.1048461241254906 0.03106531121712236 -0.06060362274550139 -0.2528669340779575 
-0.06980808554226062 0.09834126593166519 -0.2563999609159009 -0.09705431818532741 
-0.2108823995794278 0.203591212200983 -0.6131217167276647 -0.4402518956382976 
0.07852872734361657 -0.0160758532877523 -0.3063499090950966 -0.1256025915162541 
0.1354287272943911 -0.04535551872152916 0.1388206031335424 -0.09791895245079565 
0.005712248432295116 -0.01919504248795084 0.09918419689112228 -0.03659879673014332 
-0.4233632084125601 0.4230460943722726 -0.3552678286591544 -0.3857967410833197 
0.03596794390035554 0.04393349942012765 -0.01208745008534691 0.02272793901559846 
-0.06969467439930921 0.1071226778901932 0.2359203680934208 -0.03889454615222862 
0.07919913837804404 -0.04127421745471527 0.01550039976743369 -0.03664858396074144 
0.01594939934857735 -0.0444913153437298 0.1924677387608014 0.08546291353444643 
0.2581375679929399 -0.244933241519238 -0.3368002192436806 0.1036697524909255 
0.004314352759875474 -0.003821930879611111 -0.06545883137815733 -0.06509908006156563 
-0.007176316084163085 0.03070876464570278 -0.4305036388364748 0.02222889421095543 
-0.1339797907206839 0.08549474472096535 0.01242609265923372 -0.1004933880091658 
0.129693625809926 -0.1410162074012973 -0.04686115821201164 0.03061519542912963 
-0.03583890615156909 0.01632118597421518 0.05300965426687095 0.08021585252483161 
-0.05477724648397346 -0.02371877350778129 0.1583137412470301 -0.02501926657569095 
0.1081212698893586 -0.03529556465906004 0.04711645037960174 0.03244768025838615 
0.03473488888844931 0.02927912894169495 0.01666534769059895 -0.04886184724021456 
0.1010191149314888 -0.02763748498163949 -0.3387686410592649 -0.04545073895933975 
-0.1573445007650593 0.1109278450469892 -0.1301114029244336 -0.08640067116564366 
-0.1678884313118855 0.1026328988034521 0.04946084976026027 0.02760766293960379 
-0.1370647053495669 0.1037718519202359 0.05567047969265934 -0.06368707558479554 
0.02159424952651092 -0.08343752461666014 -0.03972672429134935 0.1050942829584594 
-0.03144988306932674 0.05927254826068781 -0.2324154518358406 -0.0004898505712162392 
0.02541090008808154 -0.02937808077592632 -0.1905862113798346 -0.005707408385940201 
-0.05745289646373308 0.128460250586736 -0.2392498905882781 -0.1561983088037047 
-0.04673529866111981 0.1048327094812929 0.09712101555373576 -0.04934436228275603 
-0.09379311617568978 0.01769657655143415 0.1371816511955394 0.05393523013599318 
0.002093116386913571 -0.01485908235739363 0.08918224154292734 0.05263719260417585 
-0.05314492532573315 0.02669152647610088 -0.4342183748141384 -0.003865859752481462 
-0.1256859979359898 0.05586911597054035 0.0299282763130777 -0.04955034673439927 
-0.1708861642840481 0.06717587537609683 -0.1552504933938446 0.0474473905854493 
-0.1094409502556648 0.1122419868576004 -0.0449044639286701 -0.006677149524314635 
-0.1316875977353905 0.106743944532368 -0.3345678175053594 -0.09255756636519318 
-0.07371314369934337 0.07262679652343379 -0.387955478354356 -0.01336802578525659 
0.02792872190430842 -0.02380699892160889 -0.0109965344672241 -0.006027341055067061 
-0.04622716596067202 -1.27801416453328 0.6805962935029128 0.1868407827251578 
0.1881575131444842 -0.0788129416804365 0.0493651133065329 -0.1328449158819782 
0.01116982045087845 -0.08469879981616885 -0.006513411261896272 0.06671678538848395 
-0.3056233509938444 0.2306700619124213 -0.0699059847005051 -0.05796648322254408 
-0.2455700102536581 -0.02823976970087329 0.1547952930438547 0.07780686003901517 
-0.1213921114713619 0.06017329183199485 0.3131000349353787 0.01646950161687855 
-0.02462823444126234 0.02942928186954125 -0.3572852058633367 -0.03663413385090183 
-0.05548308729995306 0.1121682215500771 -0.4625622056556333 -0.2056439065976247 
-0.02394210906616905 0.008953778512812663 -0.08502328796061397 -0.08995759110057924 
0.2557007634684354 -0.1590368067273189 0.2094555480617858 -0.2881508072130063 
0.003212556398351388 0.04452859527404961 -0.1417158285093143 -0.1107761514907947 
-0.1579784871971177 0.1714510331333741 -0.1180877273779583 -0.06013942873418276 
0.002384827335048209 -0.02750000087476163 0.06965835730891065 -0.008833386126303524 
-0.01153048298703605 0.006303602812193517 0.00421071986483422 0.02586785713598222 
-0.2080445489021451 0.2376929748189452 -0.4378839715102423 -0.1851356757544841 
-0.229097166244383 -0.5378381956287945 0.2934826519010069 0.08528161141139112 
-0.03322499486730057 0.03570040962114538 -0.08826544281639111 -0.009591465693122464 
-0.01759806168080581 -0.04916116532094471 0.08074530028960737 0.05051989922178397 
0.02476695821854742 -0.06063893310195463 -0.01629697177646815 0.01107170697240252 
-0.1093288607992575 0.05340445026532224 0.03266149617911093 0.05489306215796372 
0.1283290277978001 -0.1108079053350432 -0.1228851746356513 0.00384345433987031 
0.03281371286698682 0.06331918466655563 -0.09297058504805623 -0.1195070895701761 
-0.09427427686201972 0.04942893547236718 0.1809488396611408 -0.02853161582608672 
-0.08638514828667108 0.09485036501880156 0.06074327367139107 -0.07081333716702196 
-0.05241727398127623 0.05379982233507272 0.1182969949889126 -0.04204909609260317 
0.06819914300068101 -0.07804514244849461 0.2549961785206428 -0.0909547108315588 
-0.08790088206894237 0.02062593013152416 0.1078336872504058 0.105122159755383 
0.01030971949573437 -0.3483218790501753 -0.365794659631185 0.003485257467875113 
-0.05553239404284526 0.0582830887452617 0.09587074835045264 -0.05790215653914287 
-0.02401589920903561 0.03390231557271262 0.1853937611005874 -0.1457794421253114 
0.389444762081032 -0.3547934007436261 -0.3444585900419314 0.1888943245558944 
-0.2318851751250522 0.3183053297864484 -0.6301516305553333 -0.3245219312356034 
-0.1178046569261795 0.06182986852003752 -0.2369182741156189 -0.01261973474627056 
-0.02211033226076306 0.05401740233583775 0.02545688813397198 -0.01195351946487875 
-0.00640800126085076 0.01561926889268887 -0.2400562711201946 -0.048631859895169 
0.002615141062472542 0.01605700671358334 -0.03677930721283097 -0.04038537499049796 
0.06270902941388934 -0.01612505919096663 -0.4065315017969677 -0.03481729295271892 
0.0558048488573582 -0.1803463135690057 0.1630256301069581 0.1199956620358236 
0.09064868467132316 0.1098137624350354 -0.1757023252141926 -0.366384874762973 
-0.1491865735094634 0.1123104817430309 -0.007992861536349051 -0.0452794708562617 
-0.0126068030530668 0.01555630506637508 -0.2143969649657474 0.03693959868072379 
-0.5240363491345982 0.4549325224644563 0.03566479357348734 -0.3231118901534744 
0.04648324380521176 -0.07470966337354364 0.1204196051739573 0.05622472464789136 
-0.004523272441810867 0.01031930870530976 -0.0788085722134977 0.08293116243901512 
-0.03602397995620486 0.03798538598359567 0.09121049198337954 -0.05123949656398438 
-0.1044569784269321 0.1068627420529023 -0.145545605738413 -0.05895351796218909 
0.0386972360665656 -0.01253710365928411 -0.136529535568354 -0.03444170024430711 
-0.218922310692661 0.3337710976466007 -0.2108377131620878 -0.4993422137502732 
0.1209685628530104 -0.08989305340361635 0.08328222168471261 0.07067713173374798 
0.05173229339224498 0.03560470364167743 0.06849271567888909 -0.06382825511156399 
-0.05359681115151264 0.006117609921251797 -0.1897050299161815 0.02250097188290079 
0.09243651458992772 -0.05555645455962056 -0.2853212576377258 -0.06067943359580286 
-0.1500195263352515 -0.03713230266190205 0.2982583529952597 0.0915640142209682 
-0.0872238197499718 0.05194779197932636 -0.2583680949505417 0.02845954813879531 
0.1812836020802029 -4.231753969247305e-05 0.04152408679630661 -0.1561846112441749 
0.02480483528677319 0.01207624585977134 -0.2565748232963465 0.008403878151363677 
0.007185461829288974 -0.01152307000567272 -0.6738103462103033 -0.1204929804903841 
-0.01140229144021634 0.02303644073586949 -0.2238165589380237 0.0354343857373559 
-0.378766426264967 0.1917724588657879 -0.4032000479894967 -0.037773497859151 
-0.04876126247392677 -0.04959854206652374 0.1977010587723902 0.05019999167274321 
-0.04581115712618908 0.0921714701147614 0.02699345811859852 -0.1190333748987858 
-0.1018330411002732 0.07160619483145847 -0.1146697979860658 -0.1273897218968097 
-0.04278191829660528 0.09077258766137195 0.009500665998683726 -0.0799578148534381 
-0.07157626235804386 0.01050973746721231 -0.1541425120838884 0.03258770418557577 
0.05854867707733914 -0.009222616977415523 -0.09134620517625534 -0.02922543925806318 
-0.1271626291463205 0.09020107175309644 -0.1293802318668205 -0.06303754788751734 
-0.04752050356505132 0.09617135682652786 -2.167214210267578 -0.1555415578091962 
-0.02023931252188744 0.04951719876777642 -0.2603401595436429 0.04340663816799906 
-0.007763791866268747 0.09467758769992182 -0.687170456348605 -0.06306958156654294 
-0.3339753992892816 0.1252437891249896 -0.2873486521040377 -0.009861596478206735 
-0.09728668852531824 0.1353443082644119 -0.4702656513514415 -0.2106020953741188 
0.02169599897911159 0.1333854481552792 -0.5095336542011113 -0.2189824820572724 
-0.06659250488603036 0.1051578137736372 -0.04430152226231926 -0.2571852447499269 
-0.05363330450563103 0.07985370582074525 -0.3061251191722439 -0.1104521961071415 
-0.04548612303209089 -0.1041495654838114 0.1265430478629831 0.1366571437417739 
-0.04638296958910901 0.1120484916108902 -0.2392744062933695 -0.2363112740526138 
-0.07123928589659585 0.06400788137532017 -0.04678584393374815 -0.03497920252799262 
-0.02278203937859268 0.0478112584358534 -0.04895581902332031 -0.05301411683543277 
0.04254618925376475 0.01246951063106033 -0.2012709284303787 -0.09683742031380554 
0.1051415727826268 -0.1125586274024449 -0.2979687739039072 0.06468550525630037 
0.01405742520308509 -0.01659091087638204 0.0513434766213378 -0.02800526897474041 
-0.09133619773414867 0.1317147380846776 -0.4597821459268795 -0.1426630527547227 
-0.1119626678756487 0.1086839261301957 0.03218308192583651 -0.08694138067943925 
0.02325742755997928 -0.02453037722056053 -0.02181761618815024 -0.1724555826979295 
-0.1773750090381283 -0.1546546703928074 0.2668866075387629 0.2568125345489161 
0.001692841883680633 -0.01730782707355963 -0.08906733922945156 0.0541218642253765 
-0.1201287087327311 0.05788112001455911 -0.2323953796880402 -0.09558042705498296 
0.01630960128204884 -0.04176458544447427 0.2232633298665399 0.05645124016772992 
1.442978417435596 -1.10211570068883 -1.578499390471711 -0.6771576697349518 
-0.2678211635388144 0.2208075042546732 -0.09433205353022295 -0.1312174939881913 
-0.01831662748620838 -0.0106996829570494 0.01466285110173342 -0.1096176479533206 
-0.7569132224328626 -0.405459275515526 0.709859521710728 -0.2519371753805188 
-0.2519236531678426 0.1822036441906809 -0.1938029058930467 -0.04398250746781493 
-0.08761793573475143 0.03003489025686845 0.1437635408375008 -0.00837559451264012 
0.0329740679223381 -0.09396052984284556 -0.1053069290146188 0.03199151252412376 
-0.1073306697357083 0.1224608012199033 -0.1325084189276721 -0.1096990848394388 
0.007276867674861048 -0.1022344898493578 0.2881877169895609 0.05861766651852851 
0.08896377220446103 -0.07600053719785874 0.06075548359663932 0.1039626677501805 
-0.07857744389909591 0.07815058504593096 -0.1222445689513604 -0.01166333275199999 
-0.1344310532328898 0.08969999008362342 -0.2361664840264283 -0.01592935289850828 
-0.1386154444546313 0.06230068460058115 0.1388312973257634 -0.0915190957377081 
-0.05880977868679087 0.06791183607411037 -0.1378803606696265 -0.09082259781136288 
0.009795829416681735 -0.1669760724409052 -0.01443011007821077 -0.01326341041732424 
-0.00682995826315577 -0.01030758505494169 -0.09576944898009786 0.03410114312993238 
0.0869966101201127 -0.04455830713855686 0.09440728413519354 -0.04874260890457351 
-0.1377392516384434 0.07740584386701969 -0.3508766622616807 -0.02948494103717154 
0.1219552004620949 -0.05226317206758403 -0.1282346126559218 -0.05677347165284908 
-0.02052793591007256 0.08663824325057386 -0.08538784628322989 -0.1270248333281677 
-0.05162575168939999 0.06725791711012931 -0.3229395190896833 -0.04696295992291426 
-0.02989172954192152 -0.08533433032886702 0.2350656429878311 0.059372368220971 
-1.355550632767384 0.1820347846702351 3.055341019306254 -3.313192386537421 
0.1060172023405712 0.09378068965568381 0.03694000798404194 -0.1442193768495942 
0.07093069019734312 -0.05239076738984862 0.0589954239880711 0.0986641403394891 
-0.0701211729859835 -0.006719919282899542 -0.03815713451727364 0.05550865111333119 
-0.3867066978082612 0.1786190172729701 -0.5763677305333486 -0.04964529277992175 
-0.1934130258273023 0.1510047557330567 -0.2734038304842967 -0.07332377855997181 
-0.1664759241248232 -0.3109452128828865 0.3983175410011696 0.05031231540163836 
-1.236366318202968 -0.2703870384683765 -0.9016202578566568 0.9160256597960228 
-0.1088934335941422 0.07933431476626476 -0.5122188285912233 -0.1041268668095018 
-0.01031968412673061 -0.01076145018551966 -0.4168075752948427 -0.03674503766020076 
0.004086590411532232 0.01658520417103653 -0.153115257173399 -0.02419913183367933 
0.02278434611009759 -0.02345743737352192 -0.06951089340824769 0.007574702111778288 
0.09186355680310465 -0.007709601718369853 -0.05939037699223581 -0.004983522632740069 
-0.05747335889344219 0.07540832847565078 0.1318317952683282 -0.0859155008957232 
0.1144594928636352 -0.1379976023052899 -0.001335759647193418 0.1014992091044999 
0.3169250958848923 0.1103924191901981 -1.009618524865601 -0.1605264344223813 
-0.1367442135153161 0.1583525472362963 -1.024371291567521 -0.08992268949608984 
-0.001493802099630647 0.02174213350935091 -0.5133975833222764 -0.06660446106793685 
0.07998650789540405 0.08110476188563777 -0.2131540898323549 -0.2918939278070102 
0.01640704561049604 -0.01178691981882618 -0.2356093949200591 -0.03940717318779113 
0.07253381445939333 -0.08296767372469376 0.2435747964973538 0.0868012324537374 
0.06441746398661635 -0.00716577324976923 -0.1510772894994419 0.04214789639452692 
0.07096345300230443 0.03573014143348115 0.1518972696431075 -0.1522364391938565 
-0.0697815330907065 0.04072895823154922 -0.1322024501415387 -0.02061958094940162 
-0.1171082590314281 0.1244920954597522 -0.1156418654010514 -0.0400021685589235 
0.1219733331757113 0.1185564884350312 -0.5477868650252705 -0.2120557018485597 
-3.384490663745653 -1.185974155694509 -1.209044508749961 3.309087277234809 
-0.06760950528411577 0.07816915066656412 0.005172234352546198 -0.1371733964731306 
0.008783984767723721 -0.01575438310663237 0.08887079847178828 0.03721869332763577 
-0.1164983556180197 0.02648967234008101 0.07103834153738695 0.04691440018652793 
0.05256455626303406 -0.0124732712989702 -0.08453838678303349 -0.1200418208143717 
-0.09515301579919515 0.1205404215188103 -0.1213510317449326 -0.1939544267681296 
-0.1281589823703737 0.1657372858531855 -0.2757025501352539 -0.1580046438062481 
-0.01707839284729342 -0.3077662899388475 -0.38836509653859 -0.1045975261932249 
0.05002710816618757 -0.08487185604841423 -0.3355513329950023 0.09594948321594503 
0.001620147946510279 0.02174573280094318 -0.1094936767235679 -0.06369926474854376 
-0.003023051245318108 -0.0220898255457754 -0.1636654309539247 -0.006364405141112088 
-0.01898231489892627 0.06842596069127178 -0.002228060568157486 -0.1629888450808794 
0.005950026186056147 0.01849371938480231 -0.2359220279576127 0.08213032129287673 
0.05198729712264751 -0.04052404107077079 -0.1862064907698057 0.1069181708574549 
-0.09743744501628679 0.04582481375649164 0.176907867788605 -0.03437440841047762 
-0.1422269962802014 0.09757483270283504 -0.1571303560772211 -0.1752860886489858 
0.1410342813244414 -0.007544596399960982 0.04810225183627032 -0.07139521525945552 
-0.2085640319714895 0.1522479288745675 -0.3006830749081529 -0.2600606675854215 
0.03886467792506888 -0.03539793931840119 -0.09055259271934642 -0.06779488198663441 
-0.01195544626298113 0.05420637399660017 -0.01432457249656772 -0.08764017541656856 
-0.2258372284655149 0.08933768762951808 0.04582547146494954 0.03941038390920235 
-0.3281359860850834 0.4226476984336169 -0.5261779508207547 -0.4868675133778819 
-0.1080963514218281 0.1603048039605375 -0.4705869335547659 -0.1527275700049444 
-0.05422016542753379 0.03365858443707449 -0.3681363088252662 -0.05606824895183546 
-0.0556519728157149 0.09238444160904936 -0.1838249169042652 -0.1428837084607059 
0.08205885931722672 -0.08497526853444448 -0.1459759744258629 0.02678615715913835 
-0.15565257625402 0.1061980104448603 0.09489526208085722 -0.1411426285794302 
0.2194906382949755 -0.2428616624542022 0.0354730147782886 -0.1153492290405666 
0.01070890341895932 0.02942606222413598 0.2067181617931922 0.08125950111663222 
0.09476684259717742 -0.1364564410064434 -0.329628988016904 -0.02747054893954732 
0.01143615546797054 -0.001528300755102152 -0.1913560540812524 -0.02848125050492472 
-0.1652470140889497 0.09284758933706015 0.0886695935236301 0.04610346440887077 
-0.0345388236741438 0.03708457876863108 -0.08438417630139339 -0.06210552547169974 
-0.1163117963679698 0.1680391751163693 -0.1578427051768436 -0.2922861271382722 
0.256420868161261 -0.5262832078904917 -0.5538336702840135 -0.04036198852322542 
-0.07782449460421814 0.08579962726460205 -0.2047887246803581 -0.02848725945918113 
-0.05371222177615955 0.04190623079674415 -0.02313135879074297 -0.03471982406312497 
0.02626543821524501 0.0551373071238253 -0.4509489524324366 -0.02043368011189053 
0.007254506575878271 0.01587648154105727 -0.2034250007389669 -0.02611900899487023 
-0.01284764908527475 0.05989668814292155 0.08053949157279013 -0.4217013409495384 
0.06222723508527926 -0.07610077438715523 -0.0583585483842138 0.1538496222446967 
-0.02820765628571859 0.04485743815971392 -0.1556605489338716 -0.01967956188005938 
-0.06970298964701124 0.0718813807731782 -0.1632377355609713 -0.08346743965018204 
-0.003401370305270948 0.03567634869629371 -0.01121858319770225 -0.09300420266086397 
-0.04511940215038904 0.005181425082702392 0.05634286132922246 -0.02312250850299348 
-0.07087289124107241 0.02559753921145783 -0.1575564979254152 -0.01122742931992659 
-0.101126973953316 0.111409109327017 -0.3142942504012188 -0.03606033124926421 
-0.06962915444500339 -0.02355459979353754 0.01948141165318189 0.07517565871233502 
-0.09352843564559464 0.2016346638343222 0.0394150249648296 -0.05199995548983587 
-0.1523861364105746 0.1001495802279562 -0.01088772092592516 0.07403642009530687 
0.01628272748430029 -0.03721105984452912 0.2233644046727565 -0.03077714759425619 
-0.1362481866940204 0.1425360708467905 -0.3787742785512922 -0.165919754379683 
-0.04636603032892647 0.02401367979409171 0.06688489422692279 -0.01033887364252538 
-0.2177800143386181 0.2150477796276285 -0.2928208215174536 -0.2511843303335921 
0.1250318684795928 -0.08662230989391001 0.005049661970961255 -0.053468783520898 
-0.1167798866431042 0.09393850266596127 -0.03366960425186214 -0.02485808377977342 
-0.05533262620639987 0.07854437187674802 -0.01415785899880051 -0.1237253222087883 
-0.2574633590817795 0.2008488174996091 0.06854360947683852 -0.1530177508316481 
-0.03318238957452816 0.01923430072925606 -1.009474737536088 -0.1520855218749844 
-0.3192198196503939 0.2839912103611456 -0.02787726174617683 -0.01273199232901983 
0.02375642196928904 0.03782200060743707 0.1324382786229525 -0.01511813291626121 
-0.006003634074700028 0.1179124764192776 0.2060138446604348 -0.09317768734064627 
0.1485387318883719 -0.2067543766921685 0.05890100464438181 0.07430003532320431 
-0.04756173554049805 0.1388684569270816 -0.4956791481759892 -0.3129144665439957 
-0.1516932279404279 0.08488398544404285 0.07420082279840501 -0.09656842775275967 
0.1822117630537984 -0.08989123716188253 -0.08321218009941604 -0.1152517445344996 
-0.1131413182185314 0.0446729200386138 -0.1806526854192481 -0.1905184463992025 
-0.1703780667610008 0.1724118364253962 -0.03720530732347321 -0.07837250743846179 
-0.06821860136372018 0.009260451834269295 -0.1095510548186448 0.118046343692539 
0.09917706252338374 -0.05090477875514896 0.1182047915230416 -0.01006383167355906 
0.0965288665955068 0.099713090836511 -0.2220406019904115 -0.1541560079150761 
-0.08448521188722688 0.1545468650546951 -0.2920174682868413 -0.1679065467658521 
-0.07377256306642906 0.01452732811794814 -0.1665172718720442 -0.06654454774377107 
-0.09203092640394782 -0.03678286985291541 0.1697392041868841 0.1085800104372105 
0.09509149273279631 -0.01895987326118007 -0.1637047931580639 -0.1236637599237357 
0.01209417420074687 0.07286274362597768 -0.189258704866994 -0.003288829211356984 
-0.05643804960324573 0.07347264490004581 -0.2885570700974324 0.04781648299146223 
0.01323961240689668 0.04085215534222954 0.01745989597919063 -0.1206022940083435 
-0.02271082618539456 0.09242682634614587 -0.01906183115166396 -0.110066972257322 
0.1886422085479598 -0.0562546264005367 0.1525023323666093 -0.2384312359479323 
-0.09169447833730081 0.003705588647834095 -0.03231926302524143 0.06890396023168868 
-0.08676028061197308 0.01036884315957115 0.1103286271065149 0.05013257398223707 
-0.1577620609565084 0.07478964721534319 0.2903374597807326 -0.07535746235663057 
-0.1902292680253887 0.2272739301425771 -0.09869603296729912 -0.141931563973623 
-0.02450818313975196 0.04539008185057831 0.02497572320832736 -0.05382346666439858 
-0.02458067252923935 0.05318631725374742 -0.3079699310620717 -0.04850536528855846 
0.06206592437935489 -0.05744445593162113 0.112983504793054 0.01695822762621748 
0.03621524224094388 -0.04469117468854163 0.03636236546267154 0.0005843569652962521 
0.0180780010037347 -0.01677956779333755 0.08611549627504748 0.04536099755869427 
0.01592028880361815 -0.01712941689524453 -0.1469185252057333 -0.0149468581752579 
0.00548485027991986 0.03613450147901039 0.01636347920578812 -0.08753002836951219 
-0.04635443448511709 0.07581891801906221 -0.5086763752030585 -0.1448500734539355 
0.05793471418080295 0.07184399060636686 -0.3275106589534064 -0.1816719082417615 
-0.06624430505241759 0.0820735033160549 0.1713107020374181 -0.07422563780933569 
-0.06434208270371597 0.1159988950517523 -0.3088306401466469 -0.1077485790913232 
-0.1005596026826983 -0.1377889499200302 0.3017631928758192 0.1777205415446048 
-0.01963350546325613 0.01556703497410686 0.06674728128723052 -0.1739678591938077 
-0.05400775352312531 0.05882155367214212 -0.09840010066310553 -0.104533873603572 
0.03086255540592802 -0.0004446349697765223 -0.4915056205741697 -0.00416093939346921 
-0.0002317804491036861 0.017581938012498 -0.08024399181083428 0.05531072196771571 
0.002329487855614951 -0.01355197278823843 0.08340773306692115 0.02707202323085006 
-0.1568298417642435 0.08710088472692185 -0.2321678504768843 0.01003094386670803 
-0.1028282453661447 0.1135734279541749 -0.2230676340216942 -0.096323260379037 
-0.1252163146372594 0.03803938621663654 0.04429896354401425 0.02620032851592716 
-0.0544886666649258 0.01784685385812059 -0.1829980762257589 0.03764467581493551 
