solver_type L2R_L2LOSS_SVC_DUAL
nr_class 4
label 1 0 2 3
nr_feature 2035
bias -1
w
-0.1908970079111159 0.2091846206443967 -0.3274141220752225 -0.2222496451257656 
0.00777604345223039 -0.002408219507528667 -0.02090454868040158 -0.01439942359992052 
0.004590266144173841 0.02797697885592235 -0.08777668042984202 -0.0823984231179872 
0.1203350812011626 -0.06006907868704979 -0.04775912541839528 -0.1063349937453084 
-0.04248015187583151 0.04984383375726692 -0.06901886750060741 -0.04095655621440138 
-0.02199234344363511 0.01857314942198364 -0.02353875459737083 -0.007606885984840318 
0.00436534324030233 -0.0003539055128724709 -0.01122437141031891 -0.002124069170549211 
-0.02431829373914067 0.005894567640651816 0.009942414969272749 0.01488863824353321 
-0.01994242002931686 0.01903938787664096 -0.00532455076130125 -0.01118539850320838 
-0.02714510047455959 0.002695569652966325 0.02469777761212802 0.01777163067128054 
0.06575436217279138 -0.01787969464644005 -0.03855816821962663 -0.07190171872309893 
-0.03292016266487623 0.03540777754773228 -0.04541159181123425 -0.03119894621441028 
-0.4490555850861142 0.4738931512348339 -0.4395937063540997 -0.4171873709020237 
-1.653484898147181 -0.7406701595338481 -1.340459277126715 1.987919378575801 
-0.02243202940765284 0.007833491872327443 -0.0222685976979915 -0.0006366006442754814 
-0.02206681346806401 0.03776154632618331 -0.03916523131926539 -0.04485504198202252 
-0.07386994167856226 0.06553177335589183 -0.01666272990443483 -0.01804349952319182 
-0.02496455738736987 0.02365839166162931 -0.01529057159486925 -0.01866094663933379 
-0.03361981069776807 0.01098453235446518 0.0003111804450512981 0.005798198099712766 
-0.02543976880490403 0.06506495358623002 -0.2077266745493423 -0.1162678130596105 
0.002304688542526672 -0.004328974195812222 0.005533325137388037 0.0100651519875223 
-1.630617678696641 -0.3537991048025166 -1.103514806025254 1.552391320521393 
0.02692087531827031 -0.02607188738482903 0.02346723152519532 0.002422927575524573 
0.2573499595574444 -0.1083472306111885 -0.2074429335815478 -0.301019319929859 
-0.0152117751154142 0.007632231254787122 -0.01164180545940945 -0.002408513863662001 
0.0220085315076697 0.006058876316798332 -0.001155274721926394 0.006134655037096581 
-0.01653607945931917 0.01131273378567503 -0.01157848864801539 0.007342761787483158 
-0.03438933426589299 0.03277272741959673 -0.03576729310831683 -0.005625692841288213 
-0.03112212712591121 0.03021260703569832 -0.05454772904665128 -0.03506209028819051 
-0.0159632792215036 0.01670888403721228 -0.01247242451388952 0.01412345669645668 
-0.03313908884548059 0.01035469054914369 -0.005541442259452916 5.840099884797771e-06 
-0.07130834097230593 0.02690713503654759 -0.02654479053196587 0.01633569221976727 
0.0624130301502431 -0.03440104285093779 0.03574160513348603 -0.01771791661136343 
-0.01716466338520664 0.01491725130480398 0.005391021379964415 -0.01434119536117671 
-0.03786375916368362 0.05693999634132428 -0.05994679133786594 -0.06225643762034749 
-0.02329678802234108 0.02791320831740856 -0.04426123747636768 -0.03369761875754768 
0.5635090645053477 -0.2729685070721931 -0.3751360194259303 -0.6092312437105198 
-0.03318030642732191 0.01915381929041006 -0.03858338224485192 0.01244449237057488 
-0.02558801165279311 0.003243146991770503 0.05906317585673346 0.036792496897434 
-0.01939874919313916 0.02448304219521665 -0.04093476198261992 -0.04488106515923936 
-0.08119670261545514 0.05993768201072772 -0.02248091848498667 -0.01452140499609504 
-0.01384379608077277 0.02093719304948247 -0.087977509023835 -0.02518441594612648 
-0.003681423382015889 -0.01114379542671219 -0.003473035765589602 0.02317658018693882 
-0.005585213386588225 0.01959564119146872 -0.08069170348655055 -0.01815760859974721 
-0.04438606552814575 0.04865867886721417 -0.01127498035568091 -0.0242449922818721 
0.04637517758813948 -0.02344564231336693 -0.003360640422586769 -0.01159928389794376 
0.6722017236294728 -0.5042642181397182 -0.3028202920345289 -0.4683279625786709 
-0.01842466573502864 0.02001327449227246 -0.05612362132337496 -0.0312370252030503 
-0.0522337849035035 0.05382348953322982 -0.0226334691155743 -0.0155452584352896 
0.8980047644638846 -0.658594662370939 -0.477274696923663 -0.7988058534180708 
-0.06433914842499587 0.03656013500527057 -0.02115657914579053 -0.009787292587642714 
-0.02269680943665439 -0.0122210973524021 0.0474143666256176 0.04236192719589136 
-0.03005539716597984 0.0392740230270828 -0.001575354212796519 -0.02934038126497669 
-0.05022201910332166 0.03769314642312813 -0.08186676051506514 -0.009687162497260489 
0.05466687426891322 -0.03338659733016582 0.0188645552779925 -0.01282830769115522 
-0.059262256624484 0.0520847634595052 -0.1100108254083931 -0.03801395389444857 
-0.009636014411548903 0.02072976667010323 -0.05115327308250932 -0.005805138122218802 
-0.02946117165282022 -0.001693951309891247 0.00244127989646023 0.02422463316239798 
-0.0360607403573296 0.01783960241478656 -0.02777489090201422 0.003094178836033327 
-0.02048950799106778 0.03910503062866041 -0.05211515958811336 -0.05203617402119418 
-0.05139010125656118 0.05105714784191533 -0.07526839106865682 -0.02910850967802624 
-0.004177855144966059 0.003136814944208551 -0.02986781697430622 -0.005906296337748773 
-0.01553634905240039 0.008294627137761306 -0.06195444453545416 0.0006088117610926148 
0.1520822765091485 -0.04198597862314313 -0.1684348277132169 -0.2203650619193332 
-0.05535724678426397 0.06885382911244592 -0.0626863158278599 -0.02102947900248103 
-0.04140751091665894 0.06131164280713967 -0.0444478783152255 -0.04145096383628261 
-0.07385872567462631 0.06812764052470259 -0.003743171240144081 -0.06260970775231363 
0.001269639224407309 0.01210242718181405 -0.06732389158974475 -0.02580402977302737 
-0.01125404055435692 0.01761811216743666 -0.04296184406678934 -0.0289274414358447 
-0.03636042069686087 -0.004797756010003387 -0.02737296076434283 0.02414150639609491 
-0.007117478022874645 -0.01897907539804225 0.0337672615136813 0.008563275363955552 
-0.01537896957304166 0.01853417092853006 -0.0310387625120053 -0.002080188394960635 
-0.004650838061655799 0.0162369609458986 -0.03888277728138604 -0.006721506249107478 
0.01457367693284703 -0.03130247636087276 0.07941469797450861 0.01309332196958275 
-0.0397148679965534 0.03160664690887864 -0.102749246012644 -0.04362958747464295 
-0.03901298155968294 0.01637283644867421 0.02917964454542045 0.03941382689063481 
-0.01121658931768066 5.23445313243645e-05 -0.009439051720742282 0.007948632468376708 
0.005097983190477062 0.01108069340621113 -0.006379809710582387 0.02116673517366318 
-0.0353554144835057 0.02805784225460376 -0.03400757331692886 -0.008119672742111847 
-0.07991174872868735 0.02123865413316198 0.03495822408247343 0.03056713813811041 
-0.1108549319610675 0.07622074318322776 -0.177822896024983 0.002631086203808612 
-0.03919941401370459 0.05452891918545828 -0.09248351141491339 -0.05114449367238184 
-0.0465798155774938 0.0311044786954565 -0.1096444672892203 0.006502479471678755 
0.008573937781480091 -0.02916460482973898 -0.001567804219261691 0.03899743878857478 
-0.1715758355202819 0.08732034678933773 -0.1876682793992854 -0.09074822478304172 
-0.05367307100772069 0.05022122741898993 -0.06821919578972489 -0.05590966433187203 
-0.03183883088801316 0.03985460193321989 -0.01955627277141267 -0.05717940177784167 
-0.06055133299874885 0.08241356925697217 -0.09195629966809749 -0.08582562573718119 
-0.05573710028312235 0.0429676992380598 0.01865062565343081 -0.02426382910709713 
-0.01099484187271961 0.02363348008118754 -0.02979506747310094 -0.03105716223987475 
0.02350908510671273 -0.03081253318164014 0.0550116661626592 0.03541932638084451 
-1.616395739983541 -0.6320947711537446 -0.5113743553426593 1.932601236210933 
-0.02096544632361574 0.03213819226626903 0.03545177068125367 -0.02581621878435849 
-0.02655586989471391 0.04092382106836615 -0.1109888937558451 -0.04634769340475979 
-0.04948953253383296 0.03253167801352824 -7.017772320244386e-05 0.01056365833084854 
-0.05880227812631469 0.05116733332769852 0.004678494770234504 0.001447161195523356 
-0.07024153112806417 0.03669515713683237 -0.08124353342045282 -0.01699512956731294 
-0.03904144060636757 0.06560015231607268 -0.09771051748623394 -0.05802938085276554 
0.06410840970255438 -0.05249190257062047 -0.04872676418402934 0.01045299043081449 
-0.06007753014136209 0.05140707971099925 -0.03365578145877036 -0.01179030989158568 
-0.01092606595226944 -0.006306557604576869 -0.07789539123876031 -0.01726338418502429 
-0.0319520775099232 0.05099015085076401 -0.09891869153848611 -0.06434206055852405 
-0.02331719028387712 0.01877504216821059 -0.02624392639794611 -0.02064928540145395 
-0.01087991332820063 0.03361537866440413 -0.03068360778502043 -0.04349754732246737 
0.006696598881443773 -0.003044763339474495 -0.003832361062613882 -0.0234027251331181 
0.04422081517506251 -0.03387871272807923 0.05149372778636596 0.009813758321299774 
-1.590026071767489 -0.6451882673306137 -0.6180802056162464 1.797983870199425 
0.004079768945180101 0.0157410495124851 -0.04913792794539838 -0.08749784751723774 
0.0394863745147714 -0.01663953919514111 0.04814882254894184 0.01999109354487105 
0.0332901069977268 -0.0146029463071851 0.04120645653085894 0.0034808945149764 
-0.01256504300155379 0.03992371326145604 -0.02686132612025201 -0.04745208952254814 
-0.05045901905836746 0.02110819972350944 -0.04437776015035294 -0.0001666675528328054 
0.004809408922661812 -0.00979347151896374 -0.01478566600211143 -0.01457750462011849 
-1.810227725384867 -0.4977299594709376 -0.5413383791267725 1.80526110140231 
-1.585255019584502 -0.4173576654590366 -0.5125728498487443 1.600571703051771 
-0.06019822760553788 0.05692351563132161 0.05551935261964458 -0.0172556563702245 
-0.01096985268996694 0.0028010614912197 0.02210949895941572 0.01384798484559006 
0.001302389432606275 0.001644124261219826 0.03354637414325449 0.0107858006173791 
0.000329052771167284 0.002857171713719973 -0.03020393551127671 0.00035339463153422 
-1.696934396332653 -0.5014555698230553 2.269143618865443 -1.201364069304818 
-0.01345832038943919 0.03104585446300709 -0.01402058250753338 -0.05484299102570057 
0.006186574485326652 0.02039235382113902 -0.02159403075192269 -0.05739517544063858 
-0.001868217464414666 0.001069178846806384 0.01819741006525597 0.01263645711898045 
0.9407566236824527 -0.6131979834610206 -0.4500915617891434 -0.7752818093840388 
-0.05038314136846687 0.01226384249590757 0.01159819153217297 0.002028839523952193 
-1.442122024274173 -0.5629191037826646 2.268660288199354 -1.031316802810732 
-0.0213881044312682 0.02228249486814718 -0.03061553635531226 -0.03110006958794147 
-0.00211292468467808 -0.01207670995728818 -0.003232092561736696 0.01924234203574508 
0.01829031576842929 0.02114975416856942 -0.04281577655213564 -0.01908934159968893 
-0.006811166101334445 -0.0235243500540378 0.03871251528056262 -0.01332975010972778 
-0.07605179940567254 0.01604556700052381 -0.1529856173265103 -0.02289839658894146 
0.03654296926981584 -0.05440756666117225 0.07426197142976265 0.04728000792108105 
0.003707248814998607 0.01635930389157078 -0.009685211284511708 -0.0471822784710805 
0.841474294127264 -0.2902089603723911 -0.4800448042959191 -0.720320323158458 
-0.03611795017074948 0.08668128619527529 -0.03194290957959488 -0.02147026373541579 
1.227170629238545 -0.6740410513130162 -0.5344673253375113 -0.8977826811545235 
-0.03939566810823141 0.06467895594877274 -0.03039628780127717 -0.05066199502400156 
-0.1271484215318883 0.1860837583673531 -0.05952360093532499 -0.1063575751706823 
-0.06173162231073204 0.01457697717453899 0.001921558346001447 0.02042522244143793 
1.050010056864871 -0.6490071644603778 -0.5181689583682503 -0.8179471765972772 
-0.05945838140164101 0.07973189867333912 -0.02231594187163817 -0.06817893267695382 
0.01425435564456246 0.01797035198674235 -0.005265107336932647 -0.02950394776647219 
0.02860517207880994 0.001040749483468114 0.02819558325459957 -0.01263937729236102 
-0.003380479270988325 0.0005461107521766171 -0.0733663309712934 0.01110462730154984 
-0.01530313428116303 -0.007526175037928941 -0.07468229120269676 -0.002260311948719437 
-0.07505748378802897 0.07451349520773017 0.02290577620668596 -0.03064294040580062 
-0.007196669940227877 0.03283526006290531 -0.06839017617535557 -0.04031429930251763 
-0.08690477190395081 0.05454426447110679 -0.04279343837981588 -0.0136232753738703 
0.9661979263979604 -0.5174919636346367 -0.5124351381143049 -0.7574007975807406 
-0.01985310643623002 -0.01212624764517367 -0.03035019909946255 0.0144009544372399 
-0.02002871625863711 0.03982362036931236 -0.01643340127267987 -0.03525467999899851 
0.007534692659920888 0.01513685284099437 0.003113417064389665 -0.03069129664479093 
-0.01710664187736893 0.04414449756791096 -0.1033541445586249 -0.06211274256996328 
-0.05331667198187923 0.05887966650534567 -0.01203100235742427 -0.03982005939598464 
-0.02073980481744932 0.01853975321142997 -0.04271528820780151 -0.03544582513658308 
0.6236453271711916 -0.3670675492950504 -0.3854601490739398 -0.6106304924759799 
0.007516635137730258 0.02938921389857035 0.02784803472483328 -0.04043784735709034 
-0.0433287497444634 0.04074239144496312 -0.07529735828340353 -0.05259089253463219 
-0.03228274222995828 0.02558297258114518 -0.02442698821928808 0.02546917088316747 
0.471450777544231 -0.2311729115864116 -0.3870582443212312 -0.5249069996868369 
0.07213057706577457 -0.06030164032881786 -0.05171695410149277 0.005422194702578891 
-1.481741267657461 -0.4488963613239292 2.184633700325608 -0.9976167389208728 
-0.1703109651919976 0.1617933186050072 -0.1062554327254775 0.01373911144179879 
-0.1002213517832555 0.08258985621709979 -0.109702089545419 -0.05110061699262423 
-0.1117071512052688 0.06700969519236241 -0.05818861304367708 0.001467523476778601 
0.004896735959901739 -0.003266667658511583 -0.01975416309376441 -0.01217679233464066 
-0.05649579570733581 0.01796178329801201 -0.02777245122547756 -0.001222965216326784 
0.0001126663977364404 0.04231046537213476 0.0550172531066331 -0.02899267936327598 
-0.03373170643233302 0.05784072236752413 -0.05500696295825087 -0.0465979960391258 
-0.03326199142472285 0.05575344037901403 0.006706097094844231 -0.06968255978401762 
-0.04355522135550687 0.06171710744894781 -0.1144816249510417 -0.08478245870192193 
-0.008271382394498324 -0.02464392670312909 0.001179462605894526 0.07152815181435691 
-0.01391688331833083 0.01009719767279378 -0.04710608187570936 -0.02116185515027493 
-0.04000776411007633 0.03387213337950056 -0.03508157618621045 -0.0192679965690796 
-0.0006437125291044128 -0.006707279754556357 0.007290153451522442 0.01923230143490957 
0.5325812471032848 -0.330188813578226 -0.3027158453823146 -0.4959311770743124 
0.04402333546464715 0.003784918968747135 0.03521776019158328 -0.02420560375698688 
-0.1331996169684245 0.07406282096867002 -0.09652242874565102 0.006462440892619596 
-0.1084537201859491 0.0970365131444885 -0.1371564136272306 -0.03593662418207894 
-0.143966679464917 -0.1037931366594665 0.002270931623199805 0.1505010742143298 
0.03168527828751455 0.02707683562740401 -0.146946667562495 -0.04918198985429272 
-0.009006726724932589 -0.2066447255288285 -0.002319399144729083 -0.01326853653842054 
0.006647068931418414 -0.00400497726235733 -0.04156213650489488 0.01341354109192615 
-1.721932970944907 -0.692825418029951 -0.6863030884708154 2.004876962348605 
-0.02703556715223279 0.01089117173894249 0.02532724715533339 -0.007326991687112079 
-0.05589511601589053 0.008118114991084394 -0.1029456351283742 0.03137360124078286 
-0.1119480246369595 0.1452736742087005 -0.1260496657261371 -0.1284653534073939 
-0.04113964916356692 0.05262867842813902 -0.04016637445736164 -0.01179814163785597 
0.08814158697912072 -0.06627606750213008 0.007685064561486801 0.00535640588493027 
-0.1236368595275468 0.1220055069258464 -0.03043842529024818 0.01820427230540456 
-0.05398871748226405 0.09879859829978077 -0.1427715918397513 -0.09910169225973775 
-0.0776137149762911 0.05252404900612517 -0.03708468643105456 -0.0142003442838292 
0.09960781185811271 -0.01554227904613274 -0.04397005273376126 -0.01580947703669664 
0.03571958119581093 0.01345020218973391 0.01901344698977147 -0.01989284413942313 
-0.0003978084298315827 -0.05071790179093357 -0.06723887631554276 0.04897122946335878 
-0.04040764423236943 0.006779232597716327 -0.026581885911131 0.004046258177407508 
0.02997314079471204 0.005036212361218099 -0.03178031198554027 -0.06101988492921203 
-0.02549817460522106 0.06480844643158551 -0.01987001642788007 -0.06810091933977873 
0.01246914877677272 -0.0172543899915778 0.01975086762425846 0.01172960419746876 
-0.05544589597042836 0.06900213617101938 -0.04975844649542867 -0.04296603198299011 
0.1769906015256045 -0.3310629035612918 0.09873464100387544 0.03438009430176368 
0.01660680301359676 -0.02202186185516706 -0.01289715627742214 0.02202552469492811 
-0.02668749693209167 0.0003984878623295869 -0.03744737925942786 0.003123128478031314 
-0.02129184372243549 -0.01281980821229158 -0.003228034729321129 0.03028601511895985 
-0.008336481191840285 0.04119809842916995 -0.05740341456419214 -0.03259283125015758 
-0.03686592853442998 0.03500750384767415 -0.05238770708182176 -0.04231749111055098 
0.2223945938135227 -0.09922034414599278 -0.4224910113191865 -0.7884021519269142 
-0.01720235567297432 0.007426567651382244 -0.01008659413165341 -0.03367127799626322 
-0.04643253068570375 0.05225940504074238 -0.06021203249922556 -0.02781589546188055 
0.0606723451941361 -0.03619852402937506 0.004600760951521707 0.006537196190889841 
-0.02566312805590373 0.0267408404960014 -0.0556386958917076 -0.03920741292360956 
-0.03830838643840199 0.01728959320373499 -0.02545150955826795 0.005117946907843929 
-1.538162741631582 -0.6028039865450768 -0.6691186814283896 1.683282942955707 
-0.01335594920545787 -0.003298217055727906 -0.03398367161197929 0.006863736339631023 
0.08108824413800374 -0.03005909486179362 -0.03393667352686795 -0.08558355738796972 
-0.0286769656999454 -0.002844365166699493 0.05701424624823811 0.0146550382853464 
-0.06886808977178054 0.05711500176360766 -0.05803876945875833 -0.03671877925640549 
-0.04771001154180374 0.0607925700755105 -0.1398287727634391 -0.09389608209635139 
0.05045157522813936 -0.0001051717311808462 -0.05886328028296658 -0.02902270790720658 
-0.00594625726514094 0.003081421835770289 0.003837830197867407 0.0159271374366105 
-1.51815059790263 -0.4897648973072104 -0.4810175749269723 1.567138065975369 
0.00335161529388689 -0.02805643397960389 -0.06432427678726925 -0.01563217542691971 
0.01486628317876283 0.02804490695902681 -0.08325327955595017 -0.05758132561619422 
-0.07204983655952932 0.01320697630655783 -0.1341380878096175 0.01453490387090024 
-0.0917860880592902 -0.02145961656670065 0.1824244540192045 -0.02022190672225998 
-0.008250801807634274 -0.01113504937277285 0.06643315011198951 0.03774710405101934 
-0.00439237610919218 0.01822617113038754 -0.04347883536374113 -0.0005528969871413754 
-0.03523620409419792 0.02817113981542299 0.002624623672737523 -0.04058517810426537 
-0.04170903040980748 0.04705710326152891 -0.003026091553741742 -0.001992157125319112 
-0.07610317211665305 0.08680425596049184 -0.05899103469068793 -0.1194184620718931 
0.001619397819968788 -0.01899555301853614 -0.003094069034693216 0.009507639976365653 
-0.06532102419380316 -0.03099318106394856 -0.01012978191847903 0.1067580896267061 
0.02478137137385465 0.01857462298989465 -0.02058222641245301 -0.1004059644470599 
-0.051756966226374 0.02629040657030057 -0.04086166560779476 0.009951927810739402 
0.0213190216110324 -0.0007269935222457417 0.005734969717139995 -0.02916435885829644 
-0.04250146618840017 0.00990823258624644 -0.07118606996296804 0.01700610582818611 
0.1865615110846781 -0.06473556127556562 -0.1568067926078553 -0.2178713122704011 
-0.04550832041738352 0.01711968423860038 0.02548529023106181 -0.0068690492875048 
0.02324656970902588 -0.04743214969124476 0.04222006928689739 0.04303257561506965 
-0.04024341188249658 -0.04360702952878007 0.09563208391623598 -0.009468560477030576 
-0.001980900699470568 0.0258191697149031 -0.01559289765394681 -0.0446677183969538 
-0.1157986818019471 0.1347600372975625 -0.04439111887170354 -0.1788797729114583 
0.01896817694893001 0.04838614573642862 -0.06070265221322124 -0.1280921703130014 
-0.06113540706682181 0.03523136476321008 0.02420131487736198 0.05362954566502601 
-0.02044259515794988 0.00970347903195214 -0.03073530735953627 -0.03555140975461797 
0.6746465150106475 -0.4009503604908926 -0.373006059619946 -0.6881822141038425 
-0.0595948456117301 0.08289806088192204 -0.07156535224334182 -0.08337685375353257 
-0.04883935967242422 0.02903676947503304 0.04343371735250961 -0.04880276489437922 
-0.01609168064513334 -0.008515543406701718 -0.004652856480681503 0.02331879591807018 
-0.04911041953110273 0.1195840183706202 -0.03627939657216925 -0.005377942118472911 
-0.09128496695599099 0.1020406472786454 -0.2019628524043431 -0.1185656829723707 
-0.013576536271361 -0.04316223662786751 0.02180669638693239 0.01503843410848157 
-0.05196240187305475 0.0915080046573911 -0.02055297363904536 -0.06817866042676482 
0.0411949476521871 -0.01327320278757442 -0.04203077035263271 -0.01189228133070495 
-0.01475715937227859 0.03806296881861964 -0.05620045600379356 -0.07712071903436683 
-0.03444241588447655 0.01490279464559296 -0.06927700172449985 0.004316737515801748 
0.04284456445847277 -0.03844859053378019 -0.05267926915252134 -0.03182056144352215 
0.03851839185731636 -0.00735845135729831 -0.009478742399191565 -0.02343456209294744 
0.002514499379971925 -0.01536782209548591 -0.07134656274507586 0.08394868638688419 
-0.03306707942575073 0.04281837851907145 0.0373906062554713 -0.03825838856987382 
-0.02801350224282389 -0.006206172401146765 -0.01612035004111693 0.02433395413073853 
-0.01431001048618283 0.01250461238308802 -0.0572532033785754 0.00326991710136311 
-0.0292494980806895 0.008330103811853949 -0.06155647442060428 -0.04806533327979255 
-1.260686420097109 -0.2330271604440566 -0.3495553552338107 1.37830438783424 
0.01047115890373863 0.01936488239333949 -0.04807283828686155 0.0009903826120208526 
0.3946675781502477 -0.2202304442400325 -0.1506695045313042 -0.4143472250433256 
-0.04026025403664781 0.03121688046360626 -0.00224432426359387 -0.01369419199432187 
-0.1205643433136414 0.02823881790527726 -0.00678319703432465 -0.004358354977647974 
0.6597474922262966 -0.3475776467011369 -0.432697361640061 -0.6552093482633133 
-0.02293288923153473 -0.02161452529035773 0.03285719870459005 0.007349723526855794 
-0.07260278717015935 -0.00600602070917252 -0.07204457707769188 0.07936430554175744 
-0.03727619669485478 0.009567017004478373 -0.0453688935980644 0.011203800752542 
0.008784265467663236 -0.003257016603274447 0.02325657487863064 0.02307496689036927 
-0.01521842607805504 0.01003469585037401 -0.05649077887948793 -0.007612736817698828 
-0.04560489829916374 0.05180045994366725 -0.05613495235439372 -0.002703359441366756 
-0.1932230228503192 0.2875038674427793 -0.09539871907408552 -0.1816879325058161 
-0.01160019568906 0.01347059897914502 0.01252969505321353 -0.05554741443228554 
-0.02896650977716019 0.07785431059046515 0.001166885010627256 -0.06155490043795782 
0.001297509055453131 0.001634581125863708 0.06582222406303849 -0.006273911367195103 
0.01202225031094871 -0.003827781447786751 -0.006438605644809727 -0.0002980146612594839 
-0.1173771959220823 0.1525294326415605 -0.262433326559529 -0.2124745780113526 
0.3547708095672443 -0.1980346971371091 -0.1740959026821532 -0.1405656297065348 
0.02176858846954318 0.0293875658725291 -0.06205089582774978 -0.09977023241327077 
-0.006738203102812495 0.01044531333743313 -0.03326822346570135 0.002228694804344022 
0.0207485604272146 -0.02480100752606957 -0.01689033129880716 -0.0368000148176626 
1.170300365466409 -0.7125204601491653 -0.3493819006209331 -0.8149075483141427 
-0.0818970207604988 0.08420716519020074 -0.07508812703030199 -0.06940400597040915 
-0.01924297493346606 0.01743920424486893 0.004764685210823962 0.0144312307919051 
-0.1262137464279148 0.05767035046397366 0.01191153339667475 0.03676974000751151 
-0.05191504343973247 0.07068091430904493 -0.02585849689431951 -0.0834156115704892 
-0.064010349530983 0.0922932636288924 -0.08220288866381865 -0.07598426739910254 
0.02207882956171946 0.007816959861108735 -0.06229906917000122 -0.04074924496456547 
0.003186653479836143 0.06266592201135605 -0.005357344485897374 -0.07642994367141789 
-0.06635705368665291 0.07902005077823218 -0.05997146163699819 -0.1034931915123318 
-0.07357912666868294 0.1299957807288209 -0.1220070770066325 -0.169058529208796 
-0.02889004480772103 0.01940769412432367 0.01469906940504834 -0.003132086676605713 
-0.03366227097917512 -0.008019160936354845 -0.0452835735823441 0.03507951395409921 
-0.2093200493258633 0.2786759721321469 -0.09148915313319496 -0.2078128350178092 
0.05341292188858632 -0.03788468996432799 -0.08084595843001516 0.0001578626090497673 
-0.06184373701348311 0.06833294475619762 -0.06723551609510529 -0.008436619559811702 
-0.04509026855783507 0.05683743027580675 -0.02655180754016979 -0.04405400117080348 
0.03196828511151319 -0.01277090066454824 -0.05123651454413213 -0.05987358004560978 
-0.1223914318919112 0.06037891679542682 0.0003507215141637657 -0.02937756597335833 
-0.08922758336994431 0.09898635763178693 -0.03172072349759773 -0.002644593180167953 
-0.0599206263363599 0.05134024548061872 -0.06431391591105655 -0.02502275162680297 
-0.004651838466468344 -0.009318837572614987 -0.0253131985924546 0.005590565525492672 
-0.09559012062193474 0.1117645454259355 -0.07582863482338682 -0.06780944833623388 
0.09902962345488898 -0.05551658433043309 -0.1340916219899781 -0.03735187613622305 
-1.53817540292126 -0.5513668792818877 -0.4317207807799456 1.600378215594237 
-0.04013457959983688 0.04767601019906968 0.01324862791601793 0.01820520778315319 
-0.04629248778131968 -0.03875511049117558 0.04697005963792473 0.04643809701226119 
-0.113447089533529 0.1255909900986348 -0.0843597169088602 -0.08625013719818381 
-0.07245023027168902 0.0988740860241851 0.06184154222091917 -0.05683790796282773 
-1.539684147526451 -0.5196375144569296 2.148734427583416 -1.035601692581631 
-0.1941600432482154 0.2914947409747787 -0.1415286484824482 -0.3157984953519497 
-0.07300377150425243 0.02948286758594074 -0.03117904031525253 -0.02970873640172084 
-0.03289662616611366 0.03663583482750198 -0.01410205533625099 -0.01282211563116709 
-0.1007360872786803 0.09834216915884324 -0.09603030811559198 -0.08196961828106164 
-0.1111062702762444 0.2441703541592588 -0.0742777374517115 -0.07887031634210412 
-0.04559283385015398 0.03931066772944145 0.06678623960434424 0.005429632351978133 
-0.0343862367479147 0.04708895902450261 -0.06209070180606419 -0.02071191599445411 
-0.05977624033257419 0.06806919782179952 -0.04204723397122122 -0.07322101255730169 
-0.0377390852128887 0.0295005159687891 0.01007607820378232 -0.01959122436867455 
-0.1040097157209285 0.1045047472324699 -0.1465033803307228 -0.03359124364638975 
-0.01797486495143663 0.04261623688928909 -0.06792009425699086 -0.04208498632527942 
0.04108021835083915 0.02637395758671386 -0.02792963677309602 -0.02188893864289674 
0.02140851161083316 -0.02864192337674178 0.04544998488505396 0.01831570379506168 
-0.02523987014165916 0.04169893157033493 -0.003662645804862634 -0.05025497838779967 
-0.03039067253099153 0.008689210534455821 -0.09770592445957162 -0.008341574259802483 
-0.06823566506119963 0.09945003321378761 -0.06169275848825392 -0.08239794955879089 
-0.05127218883721378 0.009697848551451258 -0.06142724910094408 0.001840649037170862 
-0.1239430775001003 0.08671010719065225 0.03613953976854033 -0.03048581055731552 
0.05705747481798762 -0.06777799365302153 0.001324617433887628 -0.01010577783068805 
-0.03568090800221947 0.006679965252492624 0.01012488053781448 0.01095389828226666 
0.02455114431867996 -0.04913256717518293 0.002323848177490918 0.08434957502877213 
0.04480058000895268 -0.03114000209403965 -0.005664824770085128 -0.03781566067677593 
-0.03860144613447946 0.02318301854239045 0.006011953293098306 -0.02761095350628366 
-0.08689966512778016 0.1219490804841313 -0.002324475773475038 -0.06456257265453932 
0.9289158934528858 -0.6471095042592008 -0.4415459085436627 -0.6981911539399016 
0.9936669967200699 -0.5143393467328436 -0.5029231460221277 -0.7940789426017948 
-0.0287351419707879 -0.06875716041767464 0.0336144774796548 -0.1165410398879893 
-0.03678944010086098 0.0829092189319538 -0.1529058380603949 -0.08362961313004029 
-0.4389239921550736 0.3269118246295987 0.02588821506871098 0.04505359313196954 
-0.02370063299544569 0.08796420664927715 -0.1062845225157368 -0.07506086755173237 
-1.451923033706433 -0.5161053327002585 -0.5556595750496951 1.529666170742476 
-0.04891619496100336 0.02919983068090108 -0.05185856861959171 -0.0278450938251513 
-0.01038562422149843 -0.00552997782232941 0.04911126800975162 -0.02811904489849469 
0.05690440472032901 -0.005902653063717445 -0.04949688145344926 -0.09523102485082834 
-0.05011892092386719 0.03711329080819473 0.01778975102849939 -0.07423013308161849 
-0.03313225278680665 0.04486231079194727 -0.07055781175593125 -0.1175328221911175 
0.03402761706535508 -0.05081405596771874 0.02034566318686375 0.01270630863760835 
0.004513505443966765 0.003208610585736866 -0.01236482887811929 -0.03350518236277864 
-0.3015183461568461 0.4043678150578062 -0.1631538649887511 -0.359802142853102 
-0.02076517201875299 0.01147192400585995 -0.008679287190115681 -0.01616004972435046 
-0.0797433556723334 0.03145278880679533 -0.007717713123681323 -0.006143282889684059 
-0.04255964214147528 0.05560373318151055 -0.01357798613540619 -0.04522717937734119 
0.03460622350659308 -0.04643654618504158 0.04139468920715409 0.04688006324613556 
-0.0690333763270758 0.1450778892282107 -0.0669114163044283 -0.190309698977792 
-0.005881734345785266 -0.0171206429947955 -0.03673292010579565 0.02544847234250479 
-0.0328671913339067 0.1007568445841847 -0.1634535524940078 -0.1829876990915494 
-0.02189090053661849 0.06225432891456655 0.01092500962871528 -0.03791359933128727 
-0.001507199648150618 0.02290030547564754 -0.04391355448204321 -0.01207992700121179 
0.02276515544007451 -0.01565099058269699 -0.03398900002054955 -0.01173006576093032 
-0.08779595119679989 0.0357101604019485 -0.00538876622479616 0.02493977402873934 
0.04048914369621455 -0.02504164542112787 0.05810753652593376 -0.04387592379968501 
-0.06315068579908356 0.006448838297745483 0.006527386333790958 0.03723664695100291 
-0.1132653799498611 0.06404664974463536 -0.06407096754559846 -0.0163044842306841 
-0.0419238640594647 0.06105728776274726 0.02572018433557146 -0.05661991005885823 
-0.04901836501262104 0.0392616428313622 -0.03361251432148588 -0.02290523038172516 
-0.01592998485203111 0.0444103801976654 -0.03912115895071933 -0.01546427201284007 
0.04847938473636941 -0.01917234129449969 -0.04941679981709976 -0.09004490951670904 
-0.06377888412561122 0.0722471788332158 -0.07282224197270609 -0.05062608964089073 
-0.001739410379848657 0.01116138038339086 -0.04447899748880185 -0.05548852916126117 
0.006268861190255674 0.004922924577752916 0.005226628788345331 0.01676055094225275 
-0.01788811428426222 0.05282027509169475 -0.0007080779462842491 -0.09430734529190657 
-0.1016522169819568 0.1430794221043871 -0.1331189638128702 -0.09664168693961596 
-0.04303007807866532 0.06492596366393508 -0.1000681497238739 -0.1069689465450492 
-0.1262790463046532 0.09608266864647182 -0.0624738966498626 -0.05124309585695883 
-0.08946350400909325 0.09514535925110962 -0.09032648280523257 -0.1108460600192754 
-0.1176636615032523 0.1085938968351889 -0.0370735848246003 -0.06585411490765911 
-0.2156223945450423 0.2154740883108447 0.1462492380296378 0.07492944795546273 
-0.1200783501590919 0.1300075452253239 -0.1013366622404371 -0.07434501549161497 
0.008353001600037914 -0.01709160657878107 0.007103929826674406 -0.009892513989954112 
0.4912537428062575 -0.2615094001263016 -0.08881319894887504 -0.1555383739084026 
-0.05555088093706149 0.04304408881733004 -0.04866635498849093 -0.04096211586631932 
-0.02258033996893791 -0.02210033462355904 -0.07599906355008201 0.01540888979280945 
-0.08337797994119904 0.09178743976308937 -0.1590961909994385 -0.0534065070024229 
-0.05151020507947726 0.1208359073885857 0.02222952679681346 -0.07327447916261287 
-8.917165292449652e-05 -0.023457869311233 -0.01293070737353794 0.02282046477298319 
-0.005695898830494157 0.03438865219771549 -0.07865606247481921 -0.07128594339718779 
-0.09662060119824036 0.01911746004808578 0.04009992633841921 0.04482829573350329 
-0.001268955983940524 0.05318515341361812 -0.01413755867713569 -0.06819163704636115 
-0.08576386754095426 0.1033469005218493 -0.08859741107419269 -0.0973244010256305 
0.004604342991863286 0.02244971389283642 -0.008918915641651081 0.001611851640608307 
-0.06134178015791605 0.08133764642916919 -0.01803685810298995 -0.02983864597261823 
-0.08706208411826209 0.218941280674274 -0.1001782427975482 -0.2490511744014735 
-0.07882273746376996 0.03697128758272997 -0.1001746675099232 -0.04269395210968673 
-0.04671628419485509 -0.03062744789624737 -0.04934764342003228 0.03727491767731509 
-1.091013654214728 -0.3183020034369464 1.576313166492898 -0.4997251107376082 
-0.01223966459727451 0.00855558014192207 0.03179891215441095 0.013183108053492 
-0.08008412781109554 0.1161875449722032 -0.1392492694641345 -0.08658830415344132 
-0.03771027571278737 0.0420535068405027 0.05031897301034468 -0.02002456108042193 
-0.02319847910553822 -0.01632586556590906 0.01196242343148997 0.05194454467135402 
-0.02547790487909717 -0.01342847592076789 0.05139094331645636 0.03271549799067645 
-0.09333249325806152 0.06051155371811755 -0.03872527971060804 -0.05042572090127809 
-0.1491087679448783 0.1012738606828824 -0.1786037021962721 -0.02512229204479317 
-0.0002249089656489728 0.01045997045515967 -0.07417333143876537 0.02755646265288672 
-0.03830003748135351 -0.01522596223159666 -0.06777302942032357 0.01277239511475355 
-0.05616330811894842 -0.0008941916455471841 -0.02149777022300127 0.0635717727406291 
-0.04998076940560647 0.0929840568893625 -0.08515221467607076 -0.1136164086991069 
0.03150266280202881 -0.06701194172184517 0.03646660779966104 0.04401898444275537 
-0.005049047498793978 0.02057447704744256 -0.03771904291604666 -0.0304246922294835 
-0.028142856593191 0.1199247306864857 -0.110314758006462 -0.06325268041483073 
-1.507218253405109 -0.5198580653602413 -0.3233026512062585 1.601664545876461 
-0.006744769161941571 0.01938651501593683 -0.04381393128168706 0.0005088660085328899 
-0.1663467166850837 0.1197567354711349 -0.04783710134304832 0.1212937920359841 
-0.002858642389688456 -0.0110009740850937 -0.02407408103615297 -0.07157994217316295 
-0.0713516626492105 0.05659512913016532 -0.02453543197798547 -0.06734803244583462 
0.07439441849522892 -0.06127781788312808 -0.03104593692029661 0.05413425503480071 
0.5730498276619348 -0.2032014395524386 -0.1974905661514146 -0.6237185139931548 
0.0003003872139840102 0.02694611071806537 -0.03919769504776553 -0.156105578646412 
0.01220010509821318 -0.03588468982421147 0.01944837237215987 -0.0003279702770109529 
-0.03900300799133984 0.03456706889779215 -0.01960745476463352 0.0155898330819817 
0.6720616675407531 -0.5188502473085075 -0.1342254628865035 -0.3789392243863145 
-0.04309271958856421 0.01862573284127624 -0.01265264413505699 -0.03105644538932911 
-0.03981352251806097 0.05523908099263743 -0.04606405226787252 -0.04989138445943897 
-0.1461285504998072 0.04908227748129412 0.05917594871354506 0.07751917015621819 
-0.01239620964538581 0.0187017521153696 -0.0469839546785646 -0.005394687084943992 
-0.01705724896500237 0.09261824448044087 -0.08210882503828937 -0.1087889795008859 
-0.02697378581159757 0.04381773655471254 -0.05836425154780757 0.009670069611366093 
-0.02702591205648809 0.01212488640595269 0.02458063575298466 -0.0203900219108647 
1.017813177183525 -0.6061016327504561 -0.4087973175479653 -0.7626152224909363 
0.03760337635971588 -0.05059810208318671 0.01776513849250811 0.03307750196486142 
-0.05738727353502383 0.05082357636613947 -0.1155411392201326 -0.1469686773821743 
0.002695752020447572 -0.02000575307240726 0.03690769186754755 0.03343510218598721 
-0.164849247941281 0.05966427899901984 -0.02676777071533255 0.08301823842986088 
-0.009141280960978458 -0.007159896799267472 0.004419570247734424 -0.0008296448700826251 
-0.02642517310820607 0.02814172374570257 -0.06912838694813728 -0.1006299059383989 
0.1595212994759546 -0.1529421135336347 -0.02738728097979907 0.09248368119236362 
-0.04596347024175141 0.08693463174410093 -0.1037170926562648 -0.07922811386093223 
-0.03643246454915066 -0.02172961644089579 -0.06393022653931506 0.03242223814221909 
-0.0545853047238579 0.1456376799185933 -0.03721941000736502 -0.09536362261929533 
-0.04316589438279815 -0.06496409009957857 0.02987144220059999 0.1137778611970352 
0.0006000752622098278 0.009910436154989358 -0.03676617963615382 -0.1127789906656221 
-0.07591815546249625 0.1295789774350206 -0.04008537551093948 -0.135054238656303 
-0.03570902504458606 0.1086147886365875 -0.1529283876862504 -0.1381897942993234 
0.03589620663844233 -0.03243680913248256 -0.002296641214303219 -0.03131897079878845 
-0.03807206719619807 0.06983511991220108 -0.04788006397283504 0.006565925474779396 
0.02641457012642101 0.03813589016329462 -0.1834157785104998 -0.01845314699003099 
-0.09946892545027644 0.0436306821451355 -0.03462188444660446 0.02860490718271698 
0.02366206394328673 0.0233841450095921 -0.09033477462373785 -0.009323909479611635 
-0.026432974934077 0.04381962084519988 0.0009257749876113021 -0.04949949089106418 
-0.2595309009141905 0.2482862001791603 0.06316395866433074 0.02350146155470019 
-0.01722726702563795 0.03286198425258557 -0.01922777994823131 -0.0801860062160686 
-0.1232697015771812 0.08959139026261823 -0.009348044526182847 -0.04817364160461054 
-0.02856563680181025 -0.006255015405166086 0.01617399416318162 0.0144012199766208 
-0.05711466558643739 0.03998572652515446 -0.003286228974518491 -0.0430710381234667 
-0.0124046107592955 0.01758678822751489 -0.1001010142871728 -0.03360641437510988 
0.06067247324846552 -0.051763935854803 -0.02447999450243103 -0.02615063434909132 
-0.04768365407408773 0.09751566965185951 -0.1192693000041015 -0.06748000229290513 
0.04971368291713897 -0.008311049092021192 -0.002747517050361179 -0.02737694442505334 
-0.05957250251784008 0.041529971837446 -0.02506017177466202 -0.01503480512498456 
-0.003132417311399987 0.01282523467968346 -0.09435100333137432 -0.01888120403854093 
-0.05476467369480578 0.07666073531855298 -0.01960763222348856 -0.08043623945412605 
-0.08542015291122193 0.05799827839923773 -0.09649095051246923 -0.02755272254841765 
-0.07192124622712076 0.1073728534774345 -0.02166239806581988 -0.08709707343533708 
-0.03557996317448293 0.06023295067183744 -0.07376614104783538 -0.05621049679905599 
-0.2051811344016301 0.18476577816458 -0.3406421886718495 -0.1761411096681011 
-0.05601851426805911 0.0347171990633393 0.006848276777421933 -0.02139373924170606 
-0.006958169845166508 0.007562003706618098 -0.00518204222291248 -0.01235428096663982 
0.004743138190231613 0.03334706121508611 -0.04452530999215003 -0.08286886507234795 
-0.550260519470376 0.570433346032991 -0.4886656533237624 -0.5573557030013202 
-0.05045398697341431 0.04341385287765175 -0.07273271509390884 -0.0726548246217707 
0.02224692054744417 0.01264462815539044 0.02297470725398184 -0.03088193505619733 
1.014792337319443 -0.5224596542489121 -0.4506997492975562 -0.8724084857316242 
0.04445313819432264 -0.005266774989211249 -0.06521363931286639 0.02959352434286087 
-0.04378844786917063 0.01366360101790065 0.05800635373235808 0.01694907157148858 
-0.01379993076792087 0.00514336330028113 0.005230028730692174 -0.01170076688283254 
0.009423870081357415 -0.000385128661716947 0.05336476170082056 -0.07721736906458075 
0.01401254362860744 -0.04912184928514158 -0.06780832133193092 0.03329929971268185 
-0.05910220405406536 0.0404022008134263 -0.01654654608464053 -0.03653657626314576 
-0.1065725172659358 0.0213997216831805 0.02822800367330102 0.02422425622224747 
-0.01288880298800355 0.01253314825500346 -0.01817308198992138 -0.01450867292858209 
-0.0009541021901059956 0.03049386151670942 -0.009525909880261972 -0.03551326757689952 
-0.02618063979574119 -0.05732937632559301 -0.02786025315771637 0.08080184713928459 
-0.0007496925680966724 0.01736065037340157 -0.05851747301724974 -0.01788693426363483 
-0.06025526457480819 0.02660166404653547 -0.01068088120751173 -0.01075809765724713 
0.0373237661060978 -0.02676354019986926 -0.005471419328447118 -0.0949801229442386 
0.01092828923499006 0.01194458577369789 -0.1177671791663524 -0.03408673525371865 
-0.06645326692244602 0.08120856315422191 -0.08927571309800145 -0.04533249423605508 
-0.07467083313589737 0.04803235706856888 -0.1227844596274623 -0.0649879564069689 
0.02324768098668117 -0.0321666888370884 0.0343760880150996 0.01569337354726291 
-0.020934966296683 -0.02442462385290252 0.007506235288093725 0.04689392286495758 
0.05737760784442439 -0.05630137714959602 -0.01847701243062452 -0.03035854449008252 
0.02366842795708406 0.04147265342096908 -0.06569387742200208 -0.1585301312027191 
-0.01944774434069824 -0.02520432260211142 -0.01025777034386503 0.009091100440045491 
-0.04486107353743581 0.06868153615170658 -0.1887825857870288 -0.1085756237132009 
-0.03099962596895667 0.06600829098663233 -0.09944166267069032 -0.1773360561884613 
-0.02395064417826898 0.05176015908982366 -0.07076393561510813 -0.03741563402125114 
-0.08337931921410913 0.08494764569295868 -0.159571708215177 -0.06725685917045963 
-0.07048953059175771 0.1177909093262132 -0.08633980918753506 -0.1033984346771614 
-0.0802348530267665 0.07822034356763614 -0.09111090759591206 -0.1035153503282043 
-0.008127018759604056 -0.04521176513560612 0.05207243263859983 0.04268579145879569 
-0.05023320348801842 0.01995481042527805 -0.02774976809961568 0.05005229326581844 
-0.005004862743159446 -0.02284613335482063 0.02630942388247521 0.01612179075360022 
-0.1182542866867615 0.1315104409444205 -0.2878587726674047 -0.1583287036136361 
0.06821572119151222 -0.01151405023758556 -0.04844744179422328 -0.006653027027121392 
-0.115796167181928 0.1506756899936703 -0.1011145795934121 -0.1087156937650203 
0.096221320803363 -0.1897384453297699 0.08601297223352208 0.02468141636067939 
0.009252381296160931 -0.009423740450817852 -0.003883947964914369 -0.003582833967637345 
-0.004504497444628885 -0.05227583593770917 0.05149219793270878 0.0370676826325299 
-0.03851765101640472 0.06861382824375228 -0.131108827859071 -0.04910785479314538 
-0.01244144709968328 0.02938471235907888 -0.1040228228084219 -0.05844243748488817 
-0.07041469545089071 0.1059509476365958 -0.02125828323086759 -0.08430563486245056 
-0.00151842003830249 -0.01596542412627208 -0.05847116958552499 0.02532411278600689 
-0.04587585566227127 0.009867227851141629 0.02395550997827519 -0.01520658500818722 
0.04160513936878998 -0.02898310616965857 -0.01943036099697568 -0.01280928029458261 
0.02635381404051972 -0.03968542612157131 0.002530572558236994 0.01823992828041849 
-0.07898612889425782 0.01123741644290479 -0.1017492914243797 -0.06921744440179536 
0.06357137605195758 -0.0201282957072048 0.01649616515354883 0.01428404973942537 
-0.07388255163485377 0.0511469636540662 -0.0375605974761332 0.03375775760985505 
-0.04155704957434891 0.05492856874578649 -0.0327843433307384 -0.02865535098253741 
0.1371245141801647 -0.05159144520485876 -0.09722344337886872 -0.1174991040512629 
0.02860163553529796 -0.01537515436523084 -0.01167216043189925 -0.003460430114564831 
0.00468010221697595 -0.06339208799744328 -0.08377720079341637 0.0716399096351262 
-0.02521546376325243 -0.01413953239488356 -0.03091804578471284 -0.01913452799741812 
0.02757945411839359 -0.0002540683450656877 -0.05509790321865327 -0.04248488201669288 
-0.03190031397240789 0.01931868367447261 -0.02013871899159071 -0.01139991991692264 
-0.00523375980864551 0.03350858187533964 -0.01407544604245745 -0.02627470263866386 
0.02177307306487728 0.003333606947192402 -0.1019178102241657 -0.01803417880118699 
-0.0170408612280633 -0.02148060562961495 0.0131931433015078 0.02846034145371219 
0.1088985645628259 -0.1006256918536606 -0.05418454080218774 0.02186097625619886 
-0.03449751437951671 0.05952051499993394 -0.1189846309234209 0.01209467668193494 
-0.09714603919678581 0.1003755171549023 -0.05139535339623982 -0.08233126729915535 
-0.01151755051464032 0.01791418212271762 0.01832750360730264 -0.03257327361291831 
-0.0502107849430639 0.04543512934663911 -0.06927088532610692 -0.06094061927725901 
0.01438715135984669 0.007539869876373762 0.05266921975431595 -0.0124911595687655 
-0.06864959639542606 0.08208641356093625 -0.03229834648839922 -0.02750591486578845 
-0.02108292657077151 0.03911521693882938 0.06988411820945248 -0.01561262931557409 
-0.07438719728836564 0.03357711963734605 0.01596498626439285 -0.01755666444010151 
-0.0239387190943851 0.07843895338862439 -0.04692984463360339 -0.0669266497974511 
-0.02515514767039598 0.04796817701611245 -0.0530904803373872 -0.1005636223814203 
0.008274917465496086 -0.04867897466903912 -0.03372864096370193 0.08322488259070622 
-0.00639654813086088 -0.01430034405898146 0.07113609061654519 0.04222255939760113 
-0.1657254793310206 0.2257473780704806 -0.08174712676330964 -0.2213974265917907 
-0.09494666289396592 0.07739385628219078 -0.1063997653797166 -0.06222545167964964 
-0.02215247720546024 0.01230142888667252 0.007787590013068243 -0.02381000146054976 
-0.01559346209627148 0.0004904866249524962 0.04609000639730863 0.02192466150833433 
-0.05854180544992273 0.05168303400847015 -0.05772770522164987 -0.002080769192034504 
0.03209009820268711 -0.01005424334854986 -0.07300434598250131 0.002870478471845121 
0.03419182399847452 -0.069120028625781 0.06285149970219492 0.04633964226974702 
-0.04728611439236989 0.06303985937139979 -0.03369684018519875 -0.01847087913795057 
-0.03908684632546058 0.009209582638063284 -0.04738747428097848 0.008548827912666371 
-0.02798331951291719 0.03267086816502997 -0.06959673806964121 -0.07452186756656813 
0.03934627106687771 -0.02722927743512547 0.04000857769876122 0.02768767189071267 
0.01028542210971344 0.004160889494634367 -0.03369781220005296 -0.0264579130713708 
-0.04903616353176865 0.0697546901132004 -0.06700877175288748 -0.03788543688971566 
-0.05213682090970095 0.0397313269852829 0.02281627027518412 -0.01603254039161628 
-0.01934068531098269 0.0314175138539722 -0.02479507405520668 0.007971815751565811 
0.008219813339396899 -0.02624750117566333 0.0001911701816505292 -0.03223036446294768 
0.06253263007020943 0.02642191828889077 -0.04951217319047908 -0.02916805339111174 
-0.1171968266553034 0.1249081510334213 -0.1445330062644886 -0.138614739735424 
-0.04303367402627255 -0.2529225728232993 0.2507660649990254 0.09015021784089745 
-0.0297524248611866 0.01090764297013633 0.07263246026638477 0.03054144060989719 
-0.2167912488848797 0.1901480167486975 -0.05446057276587164 -0.01608941792947065 
-0.09148696614322849 0.08511626436636958 -0.03879939518112328 0.01526488728206745 
-0.07339818675237579 0.0507343133495121 -0.001485172206699379 -0.01842742202457709 
0.03161076395289267 -0.2977289820509857 0.09316835090266445 0.01318911966796259 
-0.03891737607249258 0.00414481832389163 0.01773176315909649 0.02691960819653605 
0.134511460164201 -0.1376304896953758 -0.06308095814447952 -0.06449718258336075 
-0.1266229938997474 0.177525950848666 -0.0764970003930172 -0.1293228361924402 
0.006611134675265319 -0.03079358788804926 -0.01413329249280584 -0.003710732024709464 
0.3592107475318264 -0.4488325635226498 0.1204580696830232 -0.01918912272190501 
-0.06422242324826795 0.09098441517815711 -0.02453719214669972 -0.05304498510616763 
-0.008899669322267498 0.01974190684046247 -0.04796302492833901 0.00495162352073676 
-0.03062942153666045 0.05494769411191713 -0.06032128210081215 -0.1286969930904853 
-0.0354763565983537 0.04179774997875966 -0.06711355361601208 -0.06098909234054314 
-0.01230981563308634 0.05065122384817455 -0.1507850505665468 -0.08994510199086268 
-0.06371479036262767 0.1069818175057734 -0.05843568618021668 -0.08713263256877216 
-0.1031657793164873 0.08812561961632875 0.01016800932917158 -0.01753900409197979 
-0.04742461816633704 0.05265287684095548 -0.04457618819966001 -0.04406497476458591 
-0.01985361778771904 0.003239621672706738 0.05785194348755425 0.01702738635730924 
-0.00931549181629626 0.01302911792412112 -0.03803180300582577 -0.01298454973200204 
-0.004991510597649103 -0.005367841030601261 -0.01074965847574854 -0.05305963437775728 
-0.0455482143071514 -0.01996567456318798 0.06743418892663788 0.01070693129298128 
-0.06199916447697377 0.03198425803062223 0.007940090713879496 0.009049011644773902 
0.02933095194453886 0.02639907506048529 -0.1041951901449455 -0.05190815681372939 
0.03317300870807004 -0.07226703638669529 -0.09197700629104071 0.01108231591055654 
-0.02557297558601331 -0.02004225823238729 0.03325491779782582 -0.01159488038981072 
-0.02032857303276018 -0.001669802040806988 -0.02330839478973551 0.006399641490987906 
0.04007815799276026 -0.01804608089454691 -0.04064541257997918 -0.06465377821901551 
0.01284147097497035 -0.01318248941227159 0.01156311050461159 -0.0458545178647705 
-0.01589603291219702 0.1066373161566424 -0.08152653999016381 -0.09755310401066061 
-0.03619542440776904 0.01242631491003566 0.05768822983046592 0.07041868056813254 
-0.02196968924695382 -0.01109750088961121 0.03874826769101476 0.01003145518194855 
-0.07295350930956897 0.05992325495999408 -0.04760719202535981 -0.0302354013249194 
-0.1328913569879657 0.05158354093260681 -0.008551777362240479 0.05118598954804687 
-0.01074757347009168 0.004527815005739693 -0.09152137372808454 -0.002109269930214101 
-0.05840678994436738 0.07467721118717278 -0.05725822684799257 -0.04742633112049777 
-0.05145075880651184 0.04704898212014088 0.03026949275802029 -0.04437843595339358 
0.07936450066820966 0.03033328918483096 0.01930431288411195 -0.1055991176501539 
-0.0005792122432860012 0.01849920363781845 -0.1013992990016471 -0.0477933996091776 
-0.001587668725989225 0.02421383489253791 -0.03287678230311628 -0.02006060577504621 
0.07445669775710452 -0.05549558738257823 0.09754386598629484 0.07871156239866711 
-0.02518330430600992 0.01862714037335765 0.03523173788492311 -0.01905819897971751 
-0.06143510104489176 0.05891655732433639 -0.08211015875397376 -0.07203868760247553 
-0.02887440093706055 -0.1159968923037751 0.1118103615735828 0.1676719150754815 
-0.05083892136717798 0.08319148007425642 -0.09828372301837733 -0.1203486279780487 
-0.005794686092455823 0.01789183876961844 -0.06410473637258567 -0.0434382656046742 
-0.03638454866154023 0.01523716328457018 0.02243125562302883 0.004242729374813895 
-0.04746036954603142 0.01474263620242314 0.06773788346896314 -0.0009785338999677325 
-0.09278697557587906 0.08961411752510431 0.006212920750751092 -0.09099757899558068 
-0.07567981137163234 0.1452145150002113 -0.0573911447796306 -0.04398538179799744 
0.1543135080262078 -0.3601488416144507 0.1298188624094988 0.1730719845969417 
0.02523779811801583 0.007789762356125125 -0.07233626533824346 -0.04065995392549033 
-0.03626596882914154 0.03517641741265796 -0.007832709088848956 -0.01563017245708089 
-0.03290235340887401 0.07275708476946033 -0.08218824794652464 -0.05014070397172338 
-0.1192768599813579 0.1412956399420245 -0.0585087071918628 -0.09429334735310851 
-0.02957179698088471 -0.05928038712304463 0.0102557879196214 0.1084550409420633 
0.04079989411813677 -0.04760273821161808 -0.02182831941598196 0.01672685393094174 
-0.01190502882165883 0.04182351197205585 -0.04688470094180663 -0.1318104692441626 
0.06498342467306217 -0.03335935703108656 -0.06535708676586616 -0.06776696983124876 
-0.01843021546931694 0.007564192820938103 -0.0406101535808398 -0.02153116939734804 
-0.06655333272695507 -0.00986656272886388 0.01938991251979464 0.102902040614621 
0.3805569648510235 -0.1766780963651252 -0.3530006720036449 -0.5692796285173343 
-0.05420176581070687 0.09511457907522311 -0.06059845348691401 -0.08819670625038208 
-0.005675962176225758 -0.03534546970830095 0.03295324777345356 0.07178084101273821 
-0.08181841599983365 0.06421887216519405 -0.02485827265339387 -0.07035420516142678 
0.04442777536401285 -0.1121592229104849 0.01436285753880003 0.03055736885199744 
-0.06497271647278868 0.07633298449167771 -0.05975931469867256 -0.03521711076734919 
-0.01476596174632602 0.02671234182720622 -0.08013044565812179 -0.08294179359742043 
0.009274190673200842 -0.02450351018101042 -0.007930827071427747 0.05957354370157741 
-0.07093353026290257 0.09214837570826545 0.195567325650755 0.02413858831662266 
-0.169659216151539 0.1029965859330169 -0.1888241549487283 -0.1999796373629482 
-0.007094849096017624 -0.04585666479359786 -0.07045933555458504 0.03505120901365873 
-0.02787984297672428 0.05802185161878488 -0.04334124116272896 -0.1206387449961863 
-0.0938105099306018 -0.05409623343433445 0.09519089026701026 0.1390986798419943 
-0.03591187501611352 0.05504041330799662 -0.1185111775280895 -0.06245385224150395 
-1.212311264339531 -0.2522697837175648 -0.2609338705676243 1.203516275262528 
-0.03095729497584287 0.007044923313065707 0.02020184711795472 0.03649670126341899 
-0.007298773853937602 -0.02074713893738572 0.009812312386179139 0.02849500726606769 
-0.05394083278673274 0.06227635171008347 -0.071629036982468 -0.06958018245356623 
0.06633908027733797 -0.01656126893662731 -0.04540968175842833 -0.03547328214753664 
-0.05273428448730804 0.06760985247770698 -0.09582561452563028 -0.09467789122595953 
-0.01757702047013813 0.01770559790169954 -0.01827499133824845 0.006311356150381239 
-0.02583484428465095 0.0009561788370042543 0.004617040723899834 0.03220629557323189 
-0.02960679488877526 0.05452985136311004 -0.05354831851243146 -0.0155440118036589 
-0.02235762753641146 0.007176931058768096 -0.07281114020764425 0.00164763787758781 
-0.08632858009709386 0.0686765927316024 -0.09004354188018437 -0.00319591465827248 
0.5637865909587092 -0.3654085225306263 -0.3652132043850031 -0.5444735311223781 
-0.0256869726348517 0.01894396439859981 0.01091812725679367 -0.0282059268786618 
-0.03467125225933543 0.01970695660953594 -0.0106834165483021 0.00817139399787719 
0.0001172045125104208 -0.001496059053761746 -0.05224408423420768 -0.01160659986441809 
-0.06361890365018209 0.04921189427325409 -0.02434014098813218 -0.03572731766532865 
-0.02875904657117358 0.009584609158338159 -0.05298607077370536 0.001342369035403449 
-0.04640960688802949 0.003678185795009464 0.04831961170087523 0.01351859392926343 
0.05322766609911319 -0.04003624455195072 -0.03314855333026649 -0.01690781163207394 
0.08563310387587013 -0.09488233641391275 -0.02740421298474432 0.02135793117195272 
-0.2069893177688767 0.234347883474291 -0.1468610479618202 -0.1618281122444719 
-0.08041917167184122 0.05332511370799666 0.01336868132723077 0.09963432769056735 
-0.01654866880319824 0.07884917280308243 -0.1187816773735185 -0.08760523255242622 
-0.09303640804442136 0.1016025842898331 0.0205234003024238 -0.06712627372860983 
0.03025156860447685 -0.01362074259609201 0.01717569582222842 -0.005320128628553147 
-0.03819431561951733 0.01516937638947371 -0.05805818392504287 0.01089287024192399 
-0.09148886062243634 -0.04356804594818868 -0.01520967898986061 0.05424570818526524 
-0.05086316268715484 0.04164757067482251 -0.01101820071826259 -0.02011905805246852 
-0.1731713225092568 0.1705630112370065 -0.2437068502528319 -0.2297099793436806 
-0.01701714429262469 -0.02662789832188768 0.006929114619562636 0.0501441485074425 
0.0417041133313904 0.001191392582691674 0.01799360621961804 -0.02370927131991186 
-0.00202258369865357 0.0421294151628975 0.05594721305230014 -0.05836930378025205 
-0.003001910830937425 0.0164681297223548 -0.08320729762543078 -0.09708527065350361 
-0.03867749527841317 0.06158013460509955 -0.1588911021915826 -0.108796292059273 
0.4043511109436093 -0.1384859715895949 -0.182031397691206 -0.3115826057570901 
-0.01682667473947352 0.07298589773350646 -0.06727965127095159 -0.0801919827310711 
0.05022752886859608 -0.06095810908611722 -0.002787943347532867 0.04751177265298918 
0.02515727798641595 -0.08580748677348272 0.01410563795824649 0.01830258139813556 
-0.05609640903152747 0.08078232537662755 -0.04062238007862787 -0.01384237348661887 
-0.05003001384455935 0.01563679660782012 -0.1394412001271841 -0.02976930479791725 
-0.05812166616533226 0.1970341225365419 -0.00400365527436253 -0.04272258318012016 
-0.007198802928600158 -0.03042304211663348 0.03610044754726223 0.07105390752032475 
0.4714140544745156 -0.180029097972773 -0.1358077106384744 -0.4154913805150695 
-0.00295713945463256 0.04863942528319402 -0.08352464053573197 -0.04879972759179111 
-0.3312928656769069 0.3636028187291717 -0.0008385984204707108 -0.04983436354920662 
-0.05400001721271912 0.09424178570073745 -0.04404472165774045 -0.07975232031416719 
0.05034477539447126 -0.08829962076544032 -0.004038430873911455 -0.1047727057063702 
-0.04872154803262752 -0.009785035015512115 0.04064860213422615 0.04471217364040474 
-0.1361268865711611 0.1319219012650894 -0.06362953587545958 -0.05079092929320032 
-0.09096640977863921 0.06260289040887373 -0.1234682171102583 -0.01857494637279624 
-0.0004728695946337802 -0.02620207216746448 -0.1130204496543005 -0.01751574038391393 
-0.03412792305463003 0.04980078823315109 0.05556426604576534 -0.02252545416475937 
-0.08534256954186949 0.05413889267564761 -0.05904349718151736 -0.03946163809308699 
-0.005445337237071978 -0.03923707409885901 -0.06510000650456223 0.09385414359530031 
-0.04889492657177574 0.03861871580223356 -0.04829809618137974 -0.009212519679717337 
-0.02105756645356884 -0.01608859235131823 0.02206300015015124 -0.04468075869346545 
-0.009328595125255702 0.02745434003842016 0.002610200743508258 -0.04390408422440621 
0.06995913364602338 0.03328975047287069 -0.02771459122674943 -0.1431482602511405 
-0.05984345332054727 0.05878077345113558 -0.05354751187484198 -0.02571588353032151 
-0.07748006971638989 0.03641138163231523 -0.06026454927643157 -0.003150685391412777 
-0.07120015845304607 0.07991809418123763 -0.01857453732622937 -0.009394506922124372 
-0.016730455102039 0.04874966448843511 -0.1333104497581447 -0.1004403182528198 
0.02478340213707166 0.04380698337777642 -0.129699147132902 -0.1399788181934694 
-0.04261105004629732 0.03323927645846939 0.02067287501064212 -0.03138344204035019 
0.01664598436512473 0.03211303139760041 -0.02282823104859821 -0.05441028433428881 
0.003937277912433227 0.01876032898430679 -0.05536620065382426 -0.01337404805325936 
-0.02298116977455605 -0.009696782820636692 0.08889946727386405 0.0579382330576031 
-0.2706877850850007 0.2209598865008994 0.08329385965811327 0.007490334488115685 
-0.01470635548647835 -0.03031139239969533 -0.00830317359450415 0.01675914027213284 
0.007687264410150521 0.001293807767498055 -0.05433138250508626 0.007423490505488278 
0.07550382067802089 -0.005971117913715233 -0.007676415370516864 -0.04066278079479897 
-0.1145593478727595 0.15047350310842 -0.06955230971795436 -0.05846297558036422 
-0.1025653579813945 0.1410888850817718 -0.1345384664614492 -0.1221193988477652 
0.0002802672530342662 -0.01231700572954364 -0.01909395953363435 0.002383976829703008 
-0.06545339641158232 0.03632635372129552 0.003177334668424259 -0.004583700443048047 
0.0439185548597737 0.008850011994890902 -0.03892345498286288 -0.05181686328476884 
-0.09581447572824656 0.1586642069387134 -0.09319799108607871 -0.1014109175765147 
-0.03930728657952576 0.07440868275170094 -0.0275545768969091 0.02021953767910428 
0.02673896266389519 -0.01427157763505392 0.03306206353814947 0.05332699780682549 
-0.04884117610681539 0.01241243955703927 0.0007226232378678403 -0.03854265362367249 
-0.06734614792592966 0.008527573285033896 0.01183900735681665 0.04602729235033308 
-0.09661691709201906 0.08231537288865071 -0.07611301542507777 -0.07191272874998832 
-0.08091725813643215 0.01836749229562952 -0.03687485657482999 0.01183048193774114 
-0.03039050737655322 0.1203574760287947 -0.1229651283961354 -0.2555994396912705 
-0.06583864907376216 0.04339906282854876 -0.0008235697382996854 0.01047970665611684 
0.02135401671020493 0.002515098812586597 0.0244187074576866 -0.0281224187704051 
-0.08118752339855675 0.07563478819372836 0.03429551870103736 -0.0481405782032337 
0.009411524816274816 0.01111313754394963 -0.08701182817429236 -0.0262998352999516 
-0.01580380897984444 0.03109456471241092 -0.1006246524120706 -0.020282203091984 
-0.0737152298885928 0.05684335052178584 -0.04897134958523595 -0.06742148119430347 
-0.1191215716666654 0.1278288361792721 -0.0797539963585998 -0.1009116020784001 
-0.02043673275589554 0.07400851603952724 -0.01285262890000375 -0.05172362178365672 
0.004336826446079425 0.02361972187063096 -0.1533281378843641 -0.05533553115588431 
0.0503193307468509 -0.2391203511639596 -0.04574109167118898 -0.05560175645061638 
0.01093123811902852 -0.01636340386890438 0.04280114656108897 0.02998261140337836 
-0.06150921580079112 0.04560872791035934 0.01278956849162658 -0.02882281157674171 
-0.02846583543931978 0.0701072098255372 -0.008786533782231569 -0.09112497281849669 
-0.0139932169557767 -0.05252566385015106 0.07450450368376856 0.07491111161489186 
-0.04736194757042557 0.0601588700974144 -0.006072557887402852 -0.09165830489634186 
-0.01767823487341255 0.02635021586659381 0.02490723355243242 0.02605080465882719 
0.01466688647082545 -0.02676688156811226 -0.06623837388604453 -0.01798247914884998 
-0.02545408139096798 0.005406402666485573 -0.01441013040459346 0.02219349224582859 
-0.01637224773841488 0.03816900239078186 -0.03856410154240268 -0.06059438705965497 
-0.05726258455987085 -0.01188798559695997 0.0452451813004243 0.007517121044715138 
0.02390619443000126 0.09877640951943165 -0.09718090034528176 -0.07780131221576395 
0.04623665138805746 -0.04488909051839909 -0.001030267807661336 -0.02102379220382637 
-0.1387143077437998 0.1885202704564864 0.06467398470892605 -0.04369246202785585 
-0.07930720538369652 0.07475246920947842 -0.05645232021891727 -0.02071263510901062 
-0.8041560120627219 -0.002907192869585118 -0.1664351628148214 0.788952817892594 
-0.04745188214639047 0.01102741872955993 0.01783939195143515 -0.03277512940271708 
0.2083042654042019 -0.07225746165253218 -0.06251500288448994 -0.1665036493252563 
-0.01376229426856607 0.02649123849202505 -0.04123298365036765 -0.02686956348485997 
-0.08509246701745321 0.03269790858637791 -0.07989152878278986 -0.01229597439129373 
0.02554724136182451 0.01886242121849459 -0.01037200426346509 0.007298798514861248 
-0.09093945097502038 -0.1471506674649888 0.08961821702351877 0.2346599196656061 
-0.03247915006799314 -0.0234820641128568 -0.08027569936926257 -0.02289775979152561 
0.3559153690255101 -0.3351262141850672 -0.0550257173909179 0.04316220211861955 
-0.06956098084744478 0.02712840168184031 -0.003864700697694146 0.004587325478247489 
0.04298229865256719 -0.1779008349868588 0.01647635639441025 0.15127042667049 
0.01387018022688691 0.01962034513356326 -0.03849692187254967 -0.03560618462817501 
0.004152353515075332 0.01016004342928215 0.04169669329580471 -0.07270865852784524 
0.0007199989140280548 -0.006724057887400691 -0.08713615574457462 0.04643792440839838 
-0.06416855112935861 0.07156582456994699 -0.07379297027909361 -0.08805024985872223 
-0.07121044338046695 0.07883144311833182 0.03510791150630312 -0.02857792682076933 
-0.05630974871825646 0.01389005077328266 -0.004524729711773798 -0.005830391553854278 
-0.0663662379882794 0.04457481650055253 -0.04931606934937021 0.009297909229740234 
-0.08653348584353858 0.1047450091423915 -0.08012994400609857 -0.06508396831149797 
-0.08957799342383811 0.08967751605719451 -0.009857254371794966 -0.04370810881850935 
-0.09002650985916787 0.04060456545213068 -0.008808861207638199 -0.004434423420300703 
-0.1148651785469687 0.1144536972007092 -0.1776215529615218 -0.188007293258131 
-0.1539827698649777 0.1158850200742965 -0.06618014977077986 -0.08761987050312482 
-0.03922924923148815 0.02177971453396197 -0.05808260789889311 -0.02040420083304653 
-0.4863120645965026 0.3720312290345481 0.1106377671527302 0.07394625309294742 
0.01894989639546241 -0.0143712084070479 -0.07255697127696226 -0.05376041077120628 
-0.06078936450348318 0.09781009008745767 -0.0561195873549931 -0.1065066402836875 
-0.2555896857304528 0.285548176989352 -0.06948598762896184 -0.1626474298343477 
-0.1185036865893026 0.01151402200905823 0.1230628411441654 0.06365732301934116 
-0.06638535213084967 0.03882684621960754 -0.04166768644013993 -0.03732477775945209 
-0.09164321011654918 0.04930653335289416 -0.03426867039692218 -0.0222186554970034 
-0.3727486113923273 0.3631416798208815 -0.04358288194000986 -9.583966277194811e-05 
-0.06985460909772716 0.04932708792366754 -0.05184716759540185 -0.005064139378564579 
0.004046568856235068 -0.006015802758695505 -0.008356443434131278 -0.00415195297125401 
-0.07945359466055608 -0.01639402933357199 0.08231547977443249 0.01199761647864903 
0.04174852880522335 -0.009919336689195434 -0.03272728516042862 -0.03423673972899945 
0.02578961636463186 -0.01227293758779781 -0.04936591802061068 -0.0319191079186722 
0.05866753956298965 -0.1062295253491548 -0.06571245269837522 -0.07115558734670731 
-0.08855478691918783 0.08987604531655286 -0.06593645729598846 -0.04879124849710401 
-0.03861387693916168 0.03790711702665081 -0.04374004541804211 -0.06602136615341564 
-0.04565515410671529 0.08726758711457724 -0.1466414288875615 -0.1423025012772893 
0.2049573499327592 -0.0899390795911432 -0.005571170678120414 -0.06259047593429796 
-0.06479350102861653 0.03652745767230059 0.04722126081357908 -0.04358905327985934 
-0.03519255552722945 0.06103952597496909 -0.03936170826111801 -0.05191967066351511 
-0.01080107749100628 0.002742158789921108 -0.02236319696931412 -0.06098806264051116 
0.01931107167705266 0.04797882231343217 -0.01612044447545658 -0.05794077186468755 
0.08465301538752859 -0.04398288696677899 -0.02060989983126412 -0.01992267768485624 
-0.2581756933898572 0.3359573965853779 -0.1983066442236643 -0.2370557269126974 
-0.04115427950540661 0.04188467262930594 -0.01389216148586269 -0.02968459281135697 
-0.009517241225693699 0.01048568896972725 0.008453626668721506 0.02833006443459902 
-1.149182396683423 -0.3338201325543338 -0.1685655079217731 1.218730935941731 
5.135971258129985e-05 -0.01657377681325409 -0.02214402210933175 -0.03358596269700274 
-0.1032466126625094 0.08318718503929216 -0.05485807061564388 -0.05219756904487693 
-0.05418600900161344 0.06029439741120426 -0.01005142371443567 0.02721203824788099 
-0.1369310941620839 0.2467182693619651 -0.08394007070034895 -0.1418012163724041 
-0.1689731245849153 0.1731176331483045 -0.1365397829626782 -0.1359157280858506 
0.05732296441368614 -0.04656622309103508 0.01723207185621628 -0.2816616372937752 
-0.03904482478347018 0.05773998383815044 -0.0002093632579482783 0.01495216062083264 
-0.01336486386193002 -0.02126927852130929 0.01813088477265689 0.005677060750736936 
-0.07674520207442471 0.08816372507476275 -0.01401990461554136 -0.06836869664289354 
-0.05630306172394228 0.0319986533471488 -0.02645421891803834 0.00130634551392025 
0.07222147339750924 -0.03928952134302036 -0.1457327975779229 -0.07089666728275332 
0.05116937486755001 0.08028807584009109 -0.144008895972414 -0.1033127407936174 
0.03379482052936914 -0.005213186667448685 -0.07596680499054663 0.01821735316312992 
0.008114016762640865 -0.004933741258971619 -0.124393684107071 -0.004775214394894838 
-0.1222744671565558 0.1637158611503019 -0.1327813787880995 -0.08514430892485955 
-0.102594997799009 0.0704540396568505 -0.02923278947774568 -0.06382911222345998 
-0.02843096644340654 0.05014203630774045 -0.101647205726669 -0.1173676746661153 
0.06787543935547596 -0.06339875933203003 0.007105771901463506 0.03837136925092906 
0.04001408088055308 0.008534083717989411 -0.03026847001648496 -0.04341748218781991 
-0.03861505109252908 0.08978010083802451 0.01149573642337603 -0.01835570688442931 
-0.02322570907947475 0.02081928400702921 -0.03420236968295305 0.02701519760661363 
0.0665373846574716 -0.01375441232634569 -0.001886783517678623 -0.01669069884923 
-0.06951471664961272 0.02348406445390892 -0.0469020001538973 -0.08134411350416483 
-0.005350123080155365 -0.004869581446592373 -0.02918400788104941 -0.006757608068487461 
-0.1773002463501114 0.2274961258465029 -0.0384202983895905 0.03439907452053745 
0.008304494822118483 -0.02708064756146575 -0.002515135072395736 -0.02687426463837488 
-0.01972012381669252 0.1178248995811732 -0.008709145658506966 -0.09255106613455306 
0.04626980865702595 -0.02611521168338959 -0.07352384394336167 -0.0713972082562412 
0.05347789263665526 0.01964225426056001 -0.01095443377494114 -0.0932312420449366 
0.03339047140480814 -0.05997682998355014 -0.01577976071578041 0.02629736398670026 
0.2232175359010471 -0.1597969370334852 -0.107366117274547 -0.1831241482339896 
-0.08998957356477102 0.08579966207605963 -0.0487309600876366 -0.06742125120113683 
0.003101393602935798 -0.01783223513294479 -0.05621161141878828 -0.02907781486288566 
0.002051934266646931 -0.01942399161300434 0.03119850282076527 0.03909870387850471 
0.04338005886219921 -0.05736396521987996 -0.01489054368610478 0.05232681005882911 
0.02344605984247952 -0.02476669733869582 -0.002303453116796718 0.04066598770105515 
0.1227861157092039 -0.2029462343586114 -0.003919227715719398 0.03209655394037146 
-0.08878644792844384 -0.0841488404496743 0.1263324434127736 0.1279710596928889 
-0.0121776794135819 0.03689872611254371 -0.01029939671209766 -0.03897607590371135 
0.03194462832453981 -0.03348137808009765 0.01525449373540611 -0.002267593743505221 
-0.02549974306413384 0.00202215027718011 0.05146491421500644 0.05735016465117802 
-0.0349005999612091 -0.03337806304535951 0.06075023253921581 0.04209712701706494 
0.02466074229905406 -0.05544362700739551 0.05611618844779587 0.01343962127153051 
-0.0107199116772865 0.02562180935230272 -0.06635746358717237 -0.03385037888396501 
-0.01304087625314799 0.02832481680628398 -0.02101817493710097 -0.03277936268682759 
-0.06322938239365725 0.07043544634998233 -0.1128040504451644 -0.04592216138463448 
0.03815337574974201 -0.01062167159538464 -0.04083667202809863 -0.04432793344378277 
-0.008993262891637419 0.02509507726690609 -0.1591477818296616 -0.03476969873043605 
-0.2355511658362192 0.2518748724143027 -0.1634553462938351 -0.1352679072270327 
-0.1235694388560489 0.1918217839366022 -0.2789290419454336 -0.371020138113881 
-0.1330155508954345 0.2242357162970338 -0.1099481273216769 -0.1575648057766316 
-0.02655889664542749 0.02832376963310099 0.02637875365998361 -0.04469418626973846 
-0.05702011326830354 0.08592075255399031 -0.04051651924870001 -0.1422436296237904 
-0.1188570227281499 0.1714235338026825 -0.07171229197574067 -0.1551398676214025 
-0.0231436854311031 0.02839097611242444 -0.04668495148464049 -0.04892115064367877 
-0.04223365138561323 -0.009162998449488226 0.02437277763991267 -0.101825665105139 
-0.1813430981622612 0.1182928676130168 -0.01106591337755506 0.1078373134035796 
-0.106730556846924 0.1377653326119529 -0.08436941207056892 0.002872807942710246 
-0.07005020795810209 0.06527876265218575 -0.04747083232053051 -0.04925416942769543 
-0.02961255255187831 0.01752465725644994 -0.05368046844811184 -0.002986598751487056 
0.08402403000016664 0.01176761829283113 -0.02766284000023455 -0.06714800193702043 
-0.02186648279458107 0.01325147815872608 -0.03592731926383937 0.007159299020839618 
-0.1403192518081472 0.1854476677572447 -0.05796131103159216 -0.1003024166456997 
0.0006498536340013986 0.02952450809347512 -0.04283799807558993 0.1091371901169663 
0.04027323423179933 -0.03192561825800756 -0.03433175794825748 -0.08551169982990914 
-0.03682126157275645 0.06070736611950382 -0.09715122973020919 -0.07958451958965203 
-0.0297155201437878 -0.0031395184398743 -0.1134568321982275 -0.03005709853140629 
-0.006790479069432321 0.03865569011378234 0.03614659958826304 -0.04447755849441856 
-0.03355844135637336 -0.007106980145510203 -0.06627345263509837 -0.01881364803823983 
-0.02037681048036188 0.01235289313384146 -0.06486299317774365 -0.01582488991710248 
-0.100924699556011 0.12417292383422 -0.06868013734089365 -0.1052865633551646 
-0.01192827862183708 0.03897343984154958 0.02765535548266994 0.008515269434505396 
-0.1113471243770375 0.06191091976463377 -0.05238251483838058 -0.01476876932533661 
-0.02725385745336661 0.03945274120254627 -0.03217140826682636 -0.004096741922132298 
-0.1191928675432092 -0.002531670784199793 0.01116573663136336 0.06547613505017599 
-0.0003396326823776177 -0.03519455125145599 0.02913788164485583 0.09154080398164978 
-0.09586348034758888 0.02217201040914614 -0.04216631870175838 0.0814951010801316 
0.04921047383464344 -0.0570717869015257 -0.04445760650843159 0.03368732067094255 
0.2753229036110406 -0.3183448317929066 0.01735249302607181 0.1004687664190418 
-0.03796570970400191 0.03243586028063877 -0.0311017389372535 -0.03015981025546669 
-0.02763597090729025 0.03810276055261161 -0.01390231816577768 0.0149662427285883 
-0.07069478085786805 0.07913468418726331 -0.09583084489274622 -0.05234373671625077 
-0.09816008587515036 0.09727731229005356 -0.06776449820637583 -0.08218508479413657 
0.06280480208896504 -0.08479776156743603 0.09439859695357752 -0.01491052869744061 
-0.08333857012096436 0.02724586893964527 -0.0616502639021267 -0.01919807961733595 
-0.02920250278660816 -0.005278121173084025 -0.01150929093160065 -0.03870208574260701 
-0.1474143469649431 0.03690318422658376 0.000869511315473409 -0.005847617811814862 
-0.1175781623461356 0.1512347643401338 -0.09164279880386608 -0.08430204063212668 
-0.007183071873768392 0.02143499410151707 -0.08585472272353231 -0.02758031258480732 
0.02455866792617365 -0.009720206343207504 -0.02933029905606287 0.019950315972694 
-0.06142437128869016 0.04711721003177901 -0.01179858942235427 -0.02296302949445552 
-0.03866387883994071 0.03844051415640436 0.03034067439534567 -0.02339209288920383 
0.04241766429200187 0.03065796972724976 -0.0001108105075874612 -0.03889398802146449 
-1.253338045809104 -0.5316841115735559 -0.244818710142026 1.399142536680544 
0.01613762999973927 -0.01578348172371965 -0.1110713445351108 -0.04685942117282624 
-0.123754146049307 0.1644095061065502 -0.013252967149121 -0.06978829700573791 
-0.01917892367247418 0.06108922192924297 -0.01072328952221945 -0.06782032732340175 
-0.01111235268936102 0.04184784985253605 -0.1060703157331267 -0.05073657041779351 
0.02359938261126821 0.002028195910282428 -0.03240226590693387 -0.08724053959137848 
0.08380594362473757 -0.006081999942831898 -0.05564803188594429 -0.03382255031933014 
-0.1151941101838944 0.1510149663863574 -0.06694805934978364 -0.08187478407850181 
0.112396406150894 -0.01340059196091603 -0.09393146518032879 -0.03855616200475868 
-0.01542841404136916 -0.02048006684175877 0.0146389220796434 0.01465047225767527 
-0.006798117207347134 -0.01090282963749627 0.007638148942172107 0.02022991095253092 
-0.02012750908240493 0.01550199540293613 -0.1566251942758826 -0.09964701779238992 
-0.04717511665890686 0.08734615804922782 -0.2168617023778079 -0.2078265989237927 
0.02091028162249175 0.003507674422950734 -0.03462521545166124 0.01376416525773953 
-0.05274292292654011 0.04044217143482823 0.0001998626089381987 -0.03923616535054988 
-0.2357420854094709 0.2075789314089403 -0.3415034731148568 -0.3510876173958177 
-0.06759078191105809 -0.02752085208502161 -0.01694689963246827 0.05576256385483366 
-0.07844005206487857 0.02511753369791464 -0.03284260612404152 -0.003045220863732892 
-0.1774465327443857 0.1334666219351177 -0.02138087044793899 0.09001565760677875 
-0.1016328800866736 0.031997512299344 0.05438090639960581 -0.01774730741166813 
-0.002817934186408646 -0.07544441057357093 -0.03404922475023981 -0.151502789208926 
-0.05523992512462605 0.08884979840316438 -0.04798523420701271 -0.03910166346809395 
0.03046123372015529 -0.04127150355831515 0.01162340097701811 -0.0345487168150943 
-0.05565982519090352 0.01547662215197967 -0.02139804942009006 -0.03738922628777537 
-0.0577294351853501 0.02385375511119136 -0.01776106374563036 0.01333928134076565 
-0.06909436983015227 0.07411669814693378 -0.005165280635434049 -0.02532519478387739 
-0.0023453450314695 -0.01373702151759793 -0.01985364928567089 0.01081797989356842 
-0.1863977457083394 0.1113248525656327 0.008013119093844643 -0.09341756484160157 
-0.05037342897006313 0.06136438620988691 0.002865677848181062 -0.04785081050635101 
0.01185708864858212 -0.01469788075448349 -0.006547842661451757 -0.02225957349372785 
0.1188505349246804 -0.0862900556812439 0.004780014479593357 -0.01338600536038577 
-0.03376450952969182 0.07722180679588479 0.01265451762975234 -0.09451062931247506 
-0.02070401748970419 0.0186431339886423 0.01862553821675613 -0.0453482653734923 
-0.03655412299582408 0.0572985444228238 -0.01573128232866467 -0.04676965225481661 
0.01110893914393151 -0.02860578127179666 0.00173598434622319 -0.05346686169883221 
0.04190258774626159 0.01625877432933865 -0.08447872593094502 -0.07248747528086577 
-0.006460273389568278 -0.01696471897346255 0.07026892108148924 0.03073551732158827 
-0.01123080897908343 0.09534297242852591 -0.1201887549763288 -0.1210703505478261 
0.04605549484312149 -0.0078462056320855 -0.07483741748114091 0.004500925047922523 
-0.0344106455428761 0.02024886832959355 -0.08752226998611973 -0.04316173436239192 
-0.01228461824824432 0.1182019750005762 -0.02662662450437822 -0.09904662035220085 
-0.0252627253726906 0.0429417807367269 0.03317907584373924 -0.03902262323495347 
-0.05298675351026701 0.04701498920576845 0.001091854827101551 -0.02406402200681971 
0.0316011247957927 -0.01657164730905431 -0.1042701137440946 0.007552726822436218 
-0.02946211072975025 0.01730851587331649 -0.03192521414628761 0.002373074428457402 
-0.1512056520864623 0.06993238191812944 -0.01993840540461176 -0.06524939225881439 
-0.007792146084284351 0.040884083506231 -0.04068995949262567 -0.08801627192567806 
-0.01957402272332913 0.02531203155678769 0.04120199400033232 -0.003354820561346064 
-0.05441300881545121 0.03154709109606973 -0.01612957731872215 -0.04451066541889229 
-0.0751398869416747 0.08346248420020144 -0.03943446145125398 -0.05301764445752251 
0.09015528331545783 0.03445723795296775 -0.03684884996479049 -0.1319428905901037 
-0.00158336419520245 0.03355120655071742 -0.05305663514611962 -0.04225288620972321 
-0.1711455792946537 0.1713446429051134 -0.3384602936845957 -0.2905499675822085 
0.0365083942350001 -0.0145684616362691 -0.03342308570890075 -0.05611644911101273 
0.06945168393272315 -0.03579515026702046 0.03843752201458274 -0.03507181258301938 
-0.004553162255722708 -0.00878807640115163 -0.03743117100558448 -0.030567205644499 
-0.3004370636614754 0.3567390162474375 -0.1337423240344953 -0.2565996960981142 
0.04415645947916548 0.02624798974977147 0.005211027897014089 0.01343378959493979 
-0.08190863954279121 0.07278776803501966 0.04819615070172639 -0.009283737501096557 
0.04055347153272255 -0.05616540632234167 -0.03793517922868308 -0.01235370646273351 
-0.004386886870363987 -0.02528087103177079 0.0328949513636834 0.05302707292721962 
0.167853291670503 -0.163264384864681 -0.0682978466160912 0.04156076810578561 
-0.01694146605860668 0.01585688055669312 -0.05295803733517777 -0.04489075139947031 
-0.005700789999001941 0.02676350504240636 -0.1017605579239077 0.002188887720678059 
-0.07458863555892015 0.07560677027852468 -0.05757309579620174 -0.0915905743740819 
0.07407404496824037 -0.08199870605434963 0.02908712715453455 0.02548883536636689 
-0.009445740174223087 0.01220405973813567 0.01659442211737722 0.0244104628373533 
-0.04232914750397523 -0.009200271390563185 0.04161262114933616 -0.01570220333054441 
0.06721961776919116 -0.03528220946444507 0.04056292746684539 0.01948976190571481 
0.006760375718450179 0.0007121949308524348 -0.006857548468956793 -0.03300347741263954 
0.06951993522436253 -0.001957496724918672 -0.02482681957148519 -0.01924907333608849 
-0.1148960456662761 0.0987718279078096 -0.06764412262195943 -0.06193763331363854 
-0.07588249275020867 0.06230017422954059 0.06458045315672811 0.05152335004526901 
-0.087297746930739 0.06840270822391899 -0.05134220640233732 -0.04129794766599014 
0.03977680913979501 -0.06099948103821724 -0.006118746317326829 0.07988546572492534 
-0.04367173949416119 0.06023909224914839 -0.07896957739815028 -0.0104489811416372 
0.03166293697132985 -0.06408002676894252 -0.06118360270552557 0.02965720960759242 
-0.02956416470227765 0.09921810153711175 -0.08165245824227184 -0.1028239163404374 
-0.01136453836239468 0.05573651724025105 0.03363616752984938 -0.02462461844253156 
-0.0675022058045415 0.02479422447052804 0.03708814824633076 0.03785172495542868 
0.01472542770165616 -0.01201599470544267 0.05279559610267111 0.008292031017394711 
-0.02128358159463271 0.02371471737018631 -0.09362926229659002 -0.03342245919616228 
-0.08962599017917358 0.0451383576799624 0.007702424730373498 -0.03196715172774446 
-0.1082328291389525 0.04419184814501221 -0.0220494482089383 0.02921672165263284 
-0.07809604050450582 0.08525494746234558 -0.0152114670949579 -0.01794881545376964 
-0.123633635660602 0.0924512860933199 -0.1506748303294981 -0.0674695913512196 
-0.07511354471155468 0.0824321178824734 -0.07672669721339506 -0.04265054874703531 
0.03281106806048198 -0.01448417061331418 0.007995320204898529 -0.02971665506125868 
-0.0260610124654028 -0.2164941219605993 0.1749890989793295 0.09598357719092289 
0.1066648132993363 -0.06801175037759408 -0.02173977210492805 -0.04830994606013749 
-0.003047944594755226 -0.05982878769818607 0.01005618033155116 0.03814874490826136 
-0.2227247825874068 0.190232797354391 -0.07262636395736562 -0.07766431167973359 
-0.1479989228927998 -0.03360760272052729 0.08750599606204991 0.0787870827690926 
-0.06377527306108907 0.02907081000114634 0.116792375191023 0.04010770831112799 
-0.02977873463831167 0.01854870693824594 -0.09206823197029354 -0.02353942026215253 
-0.02473214078221009 0.09406610900972472 -0.1797540619966899 -0.1338252795551945 
-0.02954094074934268 -0.003449469090628788 -0.02689555827413912 -0.06179199577905433 
0.1307478199707199 -0.08214509657797725 0.07581188500351382 -0.1368482254175864 
-0.01269195080584358 0.04894355155504085 -0.04915041551137213 -0.06272414407784695 
-0.1143523051262782 0.1377932279755053 -0.04147465222589626 -0.03118438275069539 
0.01316066415134925 -0.03265659821311025 0.01507522314379025 -0.02176131628383527 
-0.002512808044258832 0.002701162731233372 0.01518613502973082 0.03070003279656831 
-0.1365605044779324 0.1955466333727594 -0.1480932292402736 -0.1352710051202856 
-0.09275327688819089 -0.2095912159046289 0.1932177175001348 0.003769858668975719 
-0.03784045567925543 0.03009242025230939 -0.07268906630702161 -0.02789961780191205 
0.008076784394101052 -0.01992127181117723 -5.475617233828096e-05 0.004995205413894506 
0.03463961320912872 -0.04589481429196575 0.01809928229042404 0.01003644361749335 
-0.08854715200935317 0.05613044326638769 -0.006273357171898617 0.01724046116278334 
0.09275944893606965 -0.07455324561734043 0.0271645188957382 0.01447128124990841 
-0.006632914427705324 0.03730609183137607 -0.08983616574159332 -0.05141179216711687 
-0.06512401945018458 0.02920894157572287 0.03747835897971789 -0.02557602746035548 
-0.0642622286221315 0.07065380853231995 -0.01753159576449835 -0.04819042376294327 
-0.02854110596196093 0.02706370011235075 0.01721301416154309 0.001850385023192437 
0.01878998485759709 -0.04231505272943616 0.132791227994212 -0.04116489390914484 
-0.06864651625846745 0.04156540273945791 0.004768479451839881 0.03756537158993431 
-0.01192644412161208 -0.1048536675129826 0.0176500071928828 0.01273024799197358 
-0.0578514547462555 0.05493020488566051 -0.02096424415839414 -0.04097195607093675 
-0.02594744512937603 0.04861748357386293 0.02310421616026075 -0.07030450157470376 
0.2351997482912096 -0.1984670518432852 0.03691164631873946 0.1156902642385272 
-0.1705770490316892 0.247159797411982 -0.1686881089248304 -0.2262145509825016 
-0.08818522686592502 0.05125182503611093 -0.07359106531710466 -0.003215934288549492 
-0.04062176546342042 0.06316534733579891 -0.007331231323804908 -0.03717832605563712 
-0.0291941738280747 0.03549859166955419 -0.06776188747997434 -0.04650371025897389 
0.01708362416283193 0.01477449405884299 0.01360453843220484 -0.04009017524380374 
0.02800593478418636 -0.02516036984084885 -0.02200742418550527 -0.0248498222072095 
0.03148894339288741 -0.1238449415144608 0.05478879557764683 0.08909204794094847 
0.0047109743861312 0.06466941996153468 -0.01743438764296682 -0.1705920375103033 
-0.12180891050762 0.08522993178937097 -0.02965312821505857 -0.03461189774191425 
0.01196407265200681 0.03164263279026602 -0.111052671076079 -0.01316870653113433 
-0.2965844282851393 0.3464702605311534 -0.02533341596939322 -0.216056821347956 
0.002932760966614281 -0.05448599874086076 0.05025820349081032 0.07272447518511904 
-0.007377832760346713 0.008975672622645328 -0.008543548025599618 0.05694449496834211 
-0.02876342378902576 0.0421090042876166 0.06454114097115263 -0.02102256230973323 
-0.08745888665563255 0.09158523224355555 -0.04722319787956191 -0.0407873238979401 
0.04149127154977509 -0.02928670917356492 -0.0341879207251883 -0.01995450722505795 
-0.1843365622411227 0.2854805285776094 -0.1264320543044118 -0.2967688271309743 
0.06599106751855423 -0.05880396579298627 0.02821494394411434 0.01215878232033177 
0.02833492262501106 0.02199022304147909 -0.03137545301031529 -0.01954586934820226 
-0.04001881833766555 0.00878731314886076 -0.03895229593796359 0.01239972711601794 
0.05780177220206596 -0.03866582888143505 -0.07198584777882083 -0.04253914892198336 
-0.09760075593541225 -0.03048734862892782 0.1129685917394074 0.07717701737074494 
-0.07472801957163978 0.04341263340413396 -0.1077341170030308 0.00352009139340047 
0.07408773015059604 -0.01487004154303938 0.06617098385163128 -0.07591666242412927 
0.01208644579481526 0.007004679032300778 -0.02738895519447648 0.01433026894317788 
-0.006741640719404454 -0.0007631467352661623 -0.200758001403322 -0.07622401461899063 
-0.003020186845518389 0.0220710504877697 -0.05795584186656286 0.0001133292520138355 
-0.2407543071283295 0.174179503626431 -0.09604161309154843 -0.03969627809339449 
-0.02526916087965813 -0.02616756136104444 0.09131372846801966 0.03930064961444225 
-0.01436477673014864 0.07772370917955658 -0.0131630256045729 -0.09636889415860291 
-0.08584009186801206 0.06947854522689755 -0.05945837154022615 -0.0825300769820359 
-0.05791688093186367 0.07884307289165589 -0.01386583690916352 -0.04344512696849032 
-0.06208460189960632 0.001084472072507627 -0.06190890252718591 0.03205341552843104 
0.01869321900090061 -0.003926920081038922 -0.03073907551257869 -0.01523265047309266 
-0.09528527621315311 0.08173305632328778 -0.0773468106392082 -0.05500656609805291 
-0.04292156719913354 0.08005035070564756 -0.1941489831051622 -0.09050341840311389 
-0.01159764572787291 0.02093034860666593 -0.03828553026135304 0.01895944247998267 
-0.01923554962709344 0.0616893161915238 -0.0947110538840151 -0.04217355197241786 
-0.1753869178730577 0.0637172300563234 -0.04914738517541783 0.03206385111068105 
-0.07593939495952046 0.1240605537127993 -0.2487847975611073 -0.1536398081844421 
-0.004323815715218698 0.1045672474640077 -0.1433178676251584 -0.1470581615306963 
-0.05403156865284666 0.09377027325345938 -0.08810306828438895 -0.1772024639071691 
-0.02926946160801218 0.0456003150012853 -0.06221717888346668 -0.04294539239497214 
-0.03465379261954305 -0.08908010802135356 0.0150291411982854 0.1068315314548522 
-0.03748857270800493 0.09186580001489084 -0.1392242102211723 -0.1495117121095503 
-0.06299668938025633 0.06084326878076502 -0.05867851585313726 -0.05918277826348411 
-0.03614703881770875 0.05951298324987153 -0.06556391161486162 -0.05184178922817835 
0.05446134089466895 0.003160834634426862 -0.09095305132526427 -0.04512165906411889 
0.08479499344800595 -0.09225372915922882 -0.07007326344357583 0.01744619156790096 
-0.003204495517358966 0.006631388933186129 -0.02248590858943834 -0.02750880050793314 
-0.08101141175045547 0.1024925602823423 -0.1097744787903677 -0.09519928640727861 
-0.04781037643161171 0.06451670446230422 -0.049585061248042 -0.04711086357035093 
0.01745880307423131 -0.0183890111787093 -0.04879038769364011 -0.06904043754761989 
-0.05952041382379469 -0.08227855606874646 0.0903011180511719 0.1267035925166635 
0.004521208550240992 -0.04286257019203697 -0.01478053442696097 0.08227650027585671 
-0.09361310124420628 0.05068168217133419 -0.04538930398931957 -0.05603301584029176 
0.03383655950657491 -0.02000318234482984 0.04207968082941818 0.03591683982229059 
0.8104582466790823 -0.5097160270650948 -0.2574079805708415 -0.3670258086914257 
-0.1533907455905979 0.1512387714669697 -0.04904699713951237 -0.0693835434276374 
-0.01503146386193294 0.01059770532780098 0.0039884410339102 -0.06216082994021675 
-0.6042564447130455 -0.05806371302616842 0.9117529137152688 -0.6659910560623966 
-0.1362247688623436 0.138243578538131 -0.04324869707798576 -0.03391915696180642 
-0.07481812952791717 0.02853811653968492 0.02969596332219608 0.01575948507831859 
0.01285763051214906 -0.05473497427460961 -0.02283276191110659 0.01916758299497094 
-0.08343284194195857 0.1052305091607872 -0.07770933121413119 -0.08252341236981602 
0.008380233803378956 -0.05508570221440012 0.0529803802860094 0.01738409089837515 
0.04777918446720702 -0.04748028281069431 0.03804993502333891 0.08665161012429029 
-0.02226523198982896 0.03451120736224951 -0.02584067882300731 -0.00838086239036236 
-0.075530266212605 0.07172591078917404 -0.06990495572696778 -0.01552038127428066 
-0.1029682123518424 0.06317756016534624 0.006882679529079897 -0.04442224179983374 
-0.03966175382528781 0.0652971133250782 -0.05887891967996245 -0.08254098022911001 
-0.01400469384626623 -0.08589261885398809 -0.002494455906894432 0.007126538851804601 
-0.006642599402152806 0.01552824826575322 -0.0434253745726986 0.006386568205486006 
0.04673971702906504 -0.02325253285787863 0.02802115057694216 -0.02344247267956043 
-0.1071791988449798 0.06134185545942424 -0.1290837005265492 -0.04817124977123375 
0.05844755542067653 -0.02384110809917928 -0.04110828721731526 -0.03915739854621077 
-0.009290970599695627 0.04416132672562018 -0.04101613863703966 -0.03678068579786075 
-0.01302319662192083 0.04551359902054476 -0.08826622777256193 -0.0340612344857462 
-0.01477672167065907 -0.05496322452052423 0.08193842713313271 0.04826617402562124 
-0.6099917758603298 -0.0367914255700214 1.002318233768205 -0.7210346762746149 
0.06033922018637595 0.06671117568462537 0.0129365433528321 -0.0801886503343486 
0.03301903801109059 -0.04355261085291674 -0.01664481335816852 0.04994681133388432 
-0.05534397777096103 -0.0004068402722583153 0.0007670666645317815 -0.001407900527062483 
-0.249352844219546 0.1362737529483722 -0.1340269372993043 -0.09001690490759978 
-0.1362401491480185 0.1009960978989541 -0.1706661651279198 -0.04127462052599355 
-0.06899735904921155 -0.1367922737251511 0.1187431262290153 -0.01342471637732259 
-0.9014737742413814 -0.1615340569582255 -0.2323606050939477 0.7079282526907683 
-0.0526523631684687 0.04861854976847459 -0.1186502469360235 -0.07563021855014819 
-0.009853432937679032 -0.009465205814555143 -0.137605008073078 -0.02076975211736529 
0.01188234699048621 0.007486466572964631 -0.1101287465249376 -0.01366159437032619 
-0.005123317637889917 -0.01381112897124315 0.01805702811908371 -0.00602187284462099 
0.005224786879009373 0.02851842133983108 -0.02494707373130507 -0.02539175799885843 
-0.01322620330157705 0.07272458228252572 -0.02287573365508707 -0.07072081165948936 
0.08076042044916587 -0.07177141615496978 -0.008963690420856657 0.0451415031956006 
0.1842884701259536 0.05438054344071185 -0.4050584681587355 -0.08564485732048711 
-0.08065490351505678 0.1171645040641816 -0.1639906401423064 -0.06996174931572481 
0.01117919881735274 0.01693622362710732 -0.08841691149037774 -0.0360703742640987 
0.04443847337318664 0.06548306935366818 -0.08807278365413569 -0.1647014895203476 
-0.01046691986091449 -0.002392237595421065 -0.06914693371603874 -0.03085248986097249 
0.06779507783715701 -0.04811390744117522 0.03882665528122992 0.04640267463408715 
0.03803034736186044 0.008729497887473453 -0.04451569554360188 0.0003250742357619483 
0.01130858441434657 0.03061172178572155 0.03720002231161804 -0.03635312463847926 
-0.05520259572539096 0.04620636324860333 -0.08813854530797414 -0.03751403625256954 
-0.08814073689645741 0.1133385636945896 -0.02928712879456723 -0.04944516010493958 
0.06035084594538248 0.0714146001745129 -0.06992234484723335 -0.07620350143331681 
-1.411674951093942 -0.5030375987762983 -0.1872139200193349 1.681905907007204 
-0.04067817220912165 0.06282235267172374 -0.01292318362241418 -0.05394273613755571 
-0.007367447070933494 -0.01607324184457748 0.01511910747794528 0.02288903710682798 
-0.06409763016848413 0.01603153731666749 0.03751992872220308 0.03344214421820659 
0.05294835448461877 -0.02260570812651823 -0.02063313721146538 -0.04389776301921094 
-0.07500829194458977 0.09353355181614627 -0.05508255878486539 -0.1034764416545125 
-0.08778879457710553 0.1025815960226528 -0.1269308042666956 -0.1055328240948495 
-0.03704705114022833 -0.08097711417080219 -0.08227670289156649 -0.02528075401828769 
0.03898591736001609 -0.05907371901075265 -0.05291039180940723 0.05701186030157987 
0.01361703177622732 0.01740514983054278 -0.07275634731169502 -0.06056546151297462 
-0.01326552728905019 -0.00722551484328512 -0.06215476564753692 -0.01349128195118692 
-0.02294924189723164 0.05077854051931633 0.009099628354231648 -0.1070993130268483 
-0.01972505570307905 -0.06731471192761669 -0.04391040377800138 0.1133355050092123 
0.01099709283160576 -0.0176856078261707 -0.01611909511820193 0.03248605258438275 
-0.02577385941537419 0.030378731244928 0.0294972589490335 -0.01270446321910671 
-0.1274438777567683 0.07546822708768369 -0.04843628345673353 -0.1010101540746976 
0.06088484390970295 -0.005971219446865456 0.03043818158511098 -0.05214193962641266 
-0.1354880219088821 0.1263763606339013 -0.07887269054401394 -0.148566478410295 
0.02854533899333144 -0.03249187799297916 -0.03451061351752203 -0.04321431848542818 
-0.01344730157200957 0.01207274431217836 0.01596795785008551 -0.03301247353497069 
-0.1511198366679134 0.05489790723968698 -0.001841908582546479 0.04022552112845964 
-0.196012194953276 0.3034018851797038 -0.193733142163595 -0.2068809761285748 
-0.08305717970781806 0.1384496130711249 -0.1142700372377538 -0.1302717361620671 
-0.007537712918863401 0.04313711361896318 -0.05054377565017695 -0.0270547233185878 
-0.04106425018424875 0.07359868084128672 -0.09535194484288491 -0.1155944056004924 
0.04948367386388151 -0.0600485397255441 -0.07485904647064637 0.008229154070229684 
-0.104207691424313 0.08078518410095852 0.008977094818557029 -0.09029797126959271 
0.1560884340712438 -0.1665642193941468 0.005778272632406241 -0.07337192076821072 
0.002437122125357702 0.02585417108950034 0.04199152481328669 0.04269232169468091 
0.05153202959118268 -0.08124609145480574 -0.03613323310302588 -0.02161993475769123 
0.01558837781441672 -0.01371881264747024 -0.03268044523915828 -0.02310069693312893 
-0.1092241609490885 0.05831796297370796 -0.04699099128731232 0.02126902407525293 
-0.0304866868112136 0.03187063523754102 -0.05922251262341154 -0.08430095063159085 
-0.08712523508757267 0.1288193024141871 -0.06500967935868163 -0.1503969263664287 
0.1368763741344071 -0.1338334951424325 -0.05848229485864646 -0.03896324751642246 
-0.04031936605993072 0.04505165121475223 -0.05477987650407914 -0.02400312507668447 
-0.002202362372382614 0.03695447114579341 -0.006349711744610482 -0.05932860969635325 
0.02101307198623 0.03272821350282713 -0.05989677843674856 0.003092287956182438 
-0.007028171696597704 0.03013437676408569 -0.04564627947382739 -0.03953980443073326 
-0.009912406589597873 0.04328064916879716 -0.06753572293647431 -0.1975891390017336 
0.01462713545715557 -0.04117069899821826 -0.01397803719556378 0.08519765592531554 
-0.02719261112643141 0.04408519028608906 -0.0679589442109778 -0.01909138356081202 
-0.06529168917463402 0.07748747468119635 -0.03142190487642589 -0.0817964884595922 
-0.01151589271726697 0.05381485223383747 -0.03636887094727612 -0.06423994947043299 
-0.0511850914600965 0.01309832445327236 -0.002901955720648023 -0.02111056340528149 
-0.04570858172404928 0.003426896624447084 -0.0227010312780066 0.001623221160950701 
-0.07355371969234646 0.08481954517087205 -0.10784029562962 -0.042062703342296 
-0.03346516000497603 -0.03582914197020933 0.07091984208825142 0.04891289706604575 
-0.08155325107879956 0.1900426985371922 0.004256618086565427 -0.01962437639701357 
-0.1223267711561852 0.05984078411781953 -0.008014285451267155 0.02535893912331279 
0.01251657189146176 -0.01493170434796618 0.06234287096176134 -0.04381042094477973 
-0.08533415792339248 0.1211781460224939 -0.1046157603016638 -0.1153912814175132 
-0.0346314983747959 0.03004600076613577 -0.01705224771802445 -0.04068197461431329 
-0.1655990425076659 0.1892524077675881 -0.1849734588775761 -0.1899963330060213 
0.07203456490670582 -0.04754034740246889 0.02160034998678269 -0.06099304340757605 
-0.07610113570988458 0.07746986134713145 -0.02650528287591535 -0.02932460912818749 
-0.05094784325254383 0.0681881765004447 -0.00513214513600366 -0.0648039154674923 
-0.1524063176754225 0.1462875126373687 -0.00401871351415366 -0.06998014707405255 
-0.03133993984876806 0.005812215691915546 -0.04888798258097407 -0.04744705179052156 
-0.1578579726941695 0.15071105030407 -0.02792206615825886 -0.03859724653680876 
0.02871091210468757 0.01400858117670882 0.001912276072974019 -0.02723888573193012 
0.001060560982002201 0.06548465386577729 0.07748184332613732 -0.02143878993754329 
0.0797452535772628 -0.142832899058421 0.03677641277231909 0.07426350005681344 
-0.05999443198194018 0.1281378301087919 -0.1466533095097119 -0.1643487140342426 
-0.09658603755221616 0.06153374183868354 0.01369223856684084 -0.06678223547161848 
0.1150627062591048 -0.04443915154918179 -0.008933468792848334 -0.05117754853395321 
-0.0832191827819499 0.04218112015793538 -0.07506043609405809 -0.1073365497122043 
-0.1001951512659993 0.1282881712355239 -0.03066504271777226 -0.06969578204663773 
-0.03410785912014472 0.01409417339109346 -0.05219821942880023 0.03988913803219805 
0.05423107754291288 -0.04093082899814509 0.03093481672562955 -0.005715905127041224 
0.04233999133585246 0.06301772935289632 -0.07878714349596172 -0.09595477020837027 
-0.07266683174521447 0.1201775420310753 -0.06655615322393087 -0.1142926644413868 
-0.02572911891204953 -0.01294961113117915 -0.0678791384936196 -0.02155412798906955 
-0.04276597290262612 -0.03116637857194762 0.07033966616912408 0.0688327906338199 
0.06669784446429926 -0.02395373349753843 -0.08160029011276709 -0.04998524350694968 
0.004116265275683704 0.03766479596783513 -0.0109193955251228 0.01388116040013098 
-0.06618401724748781 0.07689436936473298 -0.04075169643754792 0.01035762783596711 
0.0238349590828753 0.02908129696246214 0.01745530178355285 -0.06080793403527071 
-0.03095589391846557 0.06812479437171814 -0.0998509213458826 -0.08062477650037256 
0.1294140026453 -0.03232911501392344 -0.00336066529007694 -0.1225003282650042 
-0.1089240382649534 0.00201625479320907 -0.03251923442158791 0.0595359697979978 
-0.05577367917684316 -0.0002759905773110787 0.04618111811910883 0.04761507700374831 
-0.06801449272178708 0.05976145832379125 0.05022711197650315 -0.07295247783549362 
-0.1261324972607847 0.1488646670660984 -0.09129743296657315 -0.1056476629074707 
-0.009653521841849678 0.03746352518677618 -0.0206980923476543 -0.04519133315950234 
-0.0454368361246338 0.05299551133726114 -0.09111114503026363 -0.02979845510065803 
0.05129503793379984 -0.05232022764996419 -0.06561200667962537 0.006773252464309606 
0.05485649783621713 -0.06237843435059207 -0.01261855137242481 -0.003717641897357906 
0.009430862998534685 -0.009038044388486025 0.004912664638869606 0.03793472429664388 
-0.02189596569078122 -0.01799366970058711 -0.03381855685392131 -0.006196281219419678 
-0.0005650762520528457 0.03182290012493488 0.0004676581895635684 -0.05362669704992108 
-0.0503134059651927 0.08080838663689345 -0.1608178797608563 -0.1318293583744528 
