solver_type L2R_L2LOSS_SVC_DUAL
nr_class 4
label 1 0 2 3
nr_feature 2035
bias -1
w
-0.2409810025448412 0.2936310261474505 -0.7022040570897157 -0.286638253212008 
0.0170329570754158 -0.008471032409637721 -0.0246042074056274 -0.01393754049359119 
-0.05608132357844272 0.1196039927070585 -0.1748140163631638 -0.0927453657786403 
0.2363166184942644 -0.1511447098888513 0.05953270914652679 -0.09169022813117052 
-0.04232199218377322 0.05400729441231789 -0.08607659507135704 -0.04526618600172807 
-0.01852677656808846 0.02260110024595669 -0.02114373466556158 -0.01797756710298632 
0.06643569229981545 0.05344186000632017 -0.7451517515160437 0.1083302252711862 
-0.03008838477277649 0.01038342379179826 0.02598535273368578 0.01352645446791113 
-0.02560380611483572 0.01847268644865057 -0.008551225017264248 -0.01561105671723732 
-0.007135810857493853 -0.007029467520313993 0.03265502212804929 0.00821165099359444 
0.06988824488289297 -0.02757626102555245 -0.06044514745875641 -0.0867892781511243 
-0.04094648723825291 0.04052364056757925 -0.07391603424355783 -0.03355917882907863 
-0.51794835423847 0.5138677498305083 -0.6222628914365333 -0.5172283823767356 
-1.97791959135923 -0.9247865902035933 -3.26377984185578 2.396720850784264 
-0.02581389236934848 0.008713952117537378 -0.0007874586083543864 0.004121991338027859 
-0.02489744547348024 0.03717840181116886 -0.05237648594600597 -0.0463878388475483 
-0.08524034757542238 0.07900029369582709 0.01965322272638089 -0.03419581096750494 
-0.02737117194033455 0.03353499599043759 -0.01439814696753232 -0.02529624651104816 
-0.03216299369501684 0.00989969626984471 -0.007015110219152998 0.005737485348903843 
-0.03945424287687741 0.07074673147417626 -0.2409536244714026 -0.1243339380922206 
0.006293091905749792 -0.0007514803917605291 -0.0006213465137860114 0.005126898986058772 
-1.980192928219309 -0.6717087682883827 -2.047763379096917 2.062409007928569 
0.1868850078186594 -0.1659775614029423 0.1090405782973905 0.2331304236098427 
0.2952198650846362 -0.1720221568465632 -0.4520165066511577 -0.3442916242294196 
-0.01598818295923065 0.01530688308059676 -0.006482309411480505 -0.002283797224516712 
0.03094479152747866 0.009379833455817237 0.02656889654104056 0.01295095564913382 
0.1402139309150664 -0.111153436907089 0.0682036085831928 0.2484767109593132 
-0.04196124012414405 0.03251779573727089 -0.06051531835984484 3.021555666459213e-05 
-0.02510385015214993 0.0284093888407481 -0.01568809340926882 -0.03554064460165149 
-0.01781415839260642 0.02005354836411869 -0.009777725299119196 0.005692162972816395 
-0.04353288459867617 0.01714718024116752 -0.01797267061877755 0.002707392215356859 
-0.08783004470155717 0.02723287135668278 -0.0265849876105229 0.01397437722966469 
0.07773665274043109 -0.04372673473428989 0.04608448229408227 -0.03080440251587457 
-0.02497380588951415 0.01679535025238338 0.006380760458196869 -0.0187085372551059 
-0.03976516683306382 0.06123741245071334 -0.07937516446200543 -0.07203894908895532 
-0.03454005139895031 0.03799008492929407 -0.0002778733658939693 -0.03664584640391259 
0.6574492598167223 -0.4649684544795614 -0.684182806072427 -0.6125699753271686 
-0.03679974430994366 0.01710711889932888 -0.05311652975680149 0.01054246568052693 
-0.03347771929257563 0.005275547187108923 0.1010028628674756 0.05559430491402402 
-0.02164283809038647 0.02144478580117381 -0.05930076455959853 -0.05707466130600166 
-0.09769307338429351 0.06026668709102229 -0.009163346314970322 -0.005382727181731656 
-0.01287460559323531 0.01830387655002871 -0.1233570841226593 -0.02927113676964195 
-0.002114261597759123 -0.01382741702276057 -0.005849953629827334 0.03399016675658759 
-0.001793391984403062 0.02094248743774582 -0.08856732948986844 -0.02320938244060992 
-0.06240411168318213 0.04744050076494622 0.003773939155332477 -0.01424472314116466 
0.05717128399956653 -0.02312588846201697 0.01594534698644871 -0.01320512546256177 
0.8029555598762765 -0.6685408669071702 -0.5014670342209913 -0.5705742673385826 
-0.00887593042890121 0.01097434914281794 -0.0967548297736625 -0.03334806916779884 
-0.06399398735504989 0.06645425993646328 -0.01525523703631271 -0.01211233928150116 
1.085562356558621 -1.010770383460422 -1.022507973247646 -0.9777768291862798 
-0.06805977178452893 0.0459547454993286 -0.08082051144377655 -0.01455965832622189 
-0.0006356043740666723 -0.01037690603437701 0.1172672440133431 0.040224895514013 
-0.03284160003919272 0.04959217274776308 0.001065607144354316 -0.04350788940300703 
-0.0520563245021592 0.04091200407616891 -0.1271846334072974 0.0003972103706780133 
0.06550630680619229 -0.03885092642357445 0.06535959148769663 -0.02215297595330366 
-0.06281204215179897 0.06094854364783779 -0.1715374302218341 -0.05012081718471069 
-0.009678378143179678 0.02435783981277593 -0.1186405317474394 -0.01350316306674577 
-0.02458838146564694 0.001107170313157546 -0.01873773169887107 0.01760643763278642 
-0.02998567828500853 0.02326400982079948 -0.01162227647276291 0.008723678858467775 
-0.03138047584105694 0.05111511163563966 -0.08515949574356607 -0.06102477760909097 
-0.05726707568335186 0.05518318768671575 -0.1017907958940434 -0.02835324149451884 
-0.006827825394078884 0.0006799990237363021 -0.05545555539777922 0.007768044931794697 
-0.007275200588830386 -0.001346983524250757 -0.09432270017188213 0.002569000878462448 
0.1073012265552422 -0.006779063023709325 -0.06956026800330373 -0.1899556734539764 
-0.07486028115448511 0.07453954012705916 -0.1005456467252154 -0.01623268400697486 
-0.05234428252730797 0.06716897825248949 -0.06749450233540247 -0.04723119420257253 
-0.0838934886148406 0.06462698499055604 0.03180583540905278 -0.05238707584995848 
0.004665718732221456 0.01318368589303476 -0.09138226499855492 -0.02240218490935794 
-0.001734544276960262 0.01627952448197074 -0.02965089414538805 -0.03437495204728906 
-0.05028037853004683 -0.005633953873376753 -0.038196493680156 0.03104906293984699 
0.007500322246385822 -0.02654143145308497 0.07695112148258944 0.004326234106811364 
-0.02556802836355633 0.02820167213427694 -0.0208574189694223 -0.002170523947730181 
0.003017800650471602 0.0206939031624406 -0.07960373148724946 -0.01742945341595519 
0.0469883317331395 -0.0382556147980143 0.02316047673126861 0.006332021136096907 
-0.03513290174376717 0.03167746437451015 -0.1436798614588355 -0.0348119628165473 
-0.0445127948100302 0.01989236591935527 -0.0009798727018815777 0.04683122315247927 
-0.007619860000686667 0.00274650249866069 -0.01972006138335006 0.008700087836894617 
0.005788711581895483 0.01621374448318214 -0.02292476014605688 0.0334227038418029 
-0.04360295644900044 0.03398986478657239 -0.04956599416574334 0.003164295797102234 
-0.09032516641755553 0.02351355030149857 0.09254206229160385 0.04284759146064124 
-0.1386229555469252 0.06677499480891635 -0.3500788588109003 0.01099054800309628 
-0.04453167047151421 0.04736540439200596 -0.1183811146500924 -0.04789231064356588 
-0.04113991164681222 0.06472722748550047 -0.1005024035676888 -0.04294026685669711 
0.01534754227255694 -0.03504659261297217 -0.03300403744970287 0.05617706869522045 
-0.1691075565059728 0.0632938252033487 -0.2110268195196643 -0.05913928284249593 
-0.06927375789064377 0.05080227088286395 -0.06579387819286216 -0.06947800811252715 
-0.04268213195927333 0.04078099503252498 0.0475328671735728 -0.04492612769189966 
-0.06783064988875333 0.08307367425520454 -0.08930869067370617 -0.08358483505374313 
-0.05669097341009096 0.04836099057389077 0.01640379301835736 -0.03015916862694638 
-0.0143273658315716 0.02920663107785051 -0.06761798362751181 -0.04689024860531193 
0.03916310710871976 -0.03621185244455978 0.1464509781391604 0.03927819753279223 
-2.114497756184865 -0.9117044027520327 -2.128578934805449 2.502949617824052 
-0.02105846054382456 0.0254756960387025 0.06662793307680624 -0.02782194601754757 
-0.03656014558091129 0.04140273920659981 -0.1588297301302765 -0.05163611110997009 
-0.07309738082853487 0.03398059034892009 -0.009568377687493343 0.03241844942507401 
-0.06860428265709365 0.06712579478326229 -0.03195723705555643 -0.003528790800467199 
-0.09989920172683016 0.0380034817108075 -0.05006653091644047 -0.03006667869073235 
-0.05514969285120695 0.07900826831321381 -0.146943451410661 -0.0747424972252507 
0.07504788065076072 -0.05655388135030692 -0.0427785820819569 0.01023200676344076 
-0.08019387089793732 0.06507271028979514 -0.04220024270766197 -0.02239890456696532 
-0.006440006955421284 -0.0001820184090161798 -0.1403969925481547 -0.005466941399229222 
-0.0384104645297486 0.0542051190408438 -0.07320134341216453 -0.05370827091639767 
-0.01584597964378892 0.01755460418054773 -0.02169460781499558 -0.02127453130267006 
0.01809421622304402 0.03270643699551313 -0.1053369486722963 -0.03838978042302237 
0.003165552270990487 0.002302987709508483 -0.02965403806597012 -0.0173251860273641 
0.04905658540566731 -0.03780910512768419 0.1087056282683167 0.00498590446081053 
-2.062604562862105 -0.9404144888851208 -2.77660785384476 2.26713161496497 
-0.003687935796720918 0.02183713243493878 -0.08475102348161399 -0.1030243775278841 
0.04037933706072284 -0.01694957113023428 0.1323891398137457 0.03729137455001014 
0.04253347149740846 -0.009812445356274241 0.07000359208915338 -0.001412238776516968 
0.001384328550308863 0.03226857315100517 -0.09523225292498284 -0.05078261542098584 
-0.06581563264897358 0.02538799466153489 -0.1055242441119175 0.01315894606604626 
0.01441861788734281 -0.01652403777585111 -0.01121785295932688 -0.02191303568425274 
-2.251619544867962 -0.7325992316478234 -1.282346439820246 2.20403452365674 
-2.100484255887463 -0.6526244183246863 -1.607050267059031 2.051761496227722 
-0.0527417410982998 0.0653677968642554 0.1145555902826392 -0.04825765676052252 
-0.003106588263440862 0.006718344663979149 0.05555800845174469 -0.005865146413761857 
0.006749190438099856 -0.0005579324892752116 0.05391721556425021 0.005349036620432335 
-0.004570963646001892 0.002687996732486686 0.0416105640951956 0.002965247360328539 
-2.324492228002384 -0.6766632217162423 3.534016165771226 -1.846706104458994 
-0.01529452461037099 0.02923092146890416 0.07605098511699823 -0.06905093685794859 
0.01042572121292352 0.01880972618555932 -0.0003400015386703037 -0.07087040800946538 
-0.00126772469914799 0.007495122525985514 0.01900831731490461 0.0104151462629574 
1.144953321885116 -0.880646601478134 -1.084045209798612 -1.002268672578883 
-0.05151775762509386 0.01877388393363476 0.01077646240067665 -0.00277421976354191 
-1.85236256656394 -0.7831147948855794 3.331541340084984 -1.678543458115628 
-0.0098699370281547 0.01342010438085534 -0.04217912367138354 -0.03279428819996456 
0.005315951485832015 -0.01401602657543374 0.00898352839430624 0.02329398468661431 
0.02722698764942065 0.02669755350335941 -0.0731410122035086 -0.01573146342760861 
-0.01627064305098876 -0.06994697476289016 0.07905504900803864 -0.03273514609465874 
-0.1141721737611559 0.02559555717970516 -0.443454436029354 -0.02905697190332065 
0.04838195585063149 -0.06035025841193888 0.1309552436734477 0.06266842071999851 
0.0008287730830253606 0.02210851487216903 -0.04311018329666218 -0.05788022647116472 
1.106182611884367 -0.4601317411455745 -1.754333798873276 -1.151079333002292 
-0.05101008085670743 0.1056683579254605 -0.07283404965511742 -0.03397057714280828 
1.578305480668257 -0.9315274886637883 -1.521784834470055 -1.292348220569435 
-0.05322552008929812 0.08017199528212035 -0.01385296894462562 -0.06624529524453535 
-0.1626917158103704 0.2132993220472942 -0.05804088518396606 -0.1078095325575197 
-0.07547902728104544 0.01771910617032273 -0.03502572889210013 0.01817422274163071 
1.302297479973975 -0.9173823512090693 -1.424986999714345 -1.05789238118499 
-0.06161079194249927 0.08596334859119092 0.008363586310254082 -0.09520515314706889 
0.02128664283474207 0.008450120029940656 -0.02473710552269626 -0.04060061564505856 
0.03907140557649531 -0.002535328738822183 0.07333269685200514 -0.02301120512130082 
0.007175651894353096 0.007074308097101177 -0.1615849493084774 0.02309914372673429 
-0.01580698480616012 -0.002047206360788273 -0.08704097477596037 -0.01043966372411152 
-0.09251670410479584 0.07872268424190954 0.09531023338060354 -0.04496215676121355 
-0.009035632628114521 0.03689502636869407 -0.1231895293748762 -0.04652606052902042 
-0.07904466790507095 0.04695914238149345 -0.03526226449941654 -0.02091149335434591 
1.283292840636199 -0.9095041868978933 -1.532833280231732 -0.9734825159551652 
-0.02238532753547873 -0.0197644904966992 -0.02664201679314369 0.02968710113830903 
-0.002169700665692561 0.0387180980155869 -0.09240502413890259 -0.04229150267286907 
0.004868141085286897 0.01817858275469655 0.01527484878322535 -0.04628164854151099 
-0.02042721699705585 0.05353502362266631 -0.1946186296600908 -0.06105532706950456 
-0.07253296362816382 0.05848671253331562 -0.0265856963055354 -0.02886471695499663 
-0.01498366260663541 0.0186911652836696 -0.05587358893673224 -0.05105205703545831 
0.7231592926940787 -0.5031596835991332 -0.8685431951374745 -0.731715878929044 
0.004501030635402102 0.03725597746106323 0.04621137323065878 -0.06584221801552217 
-0.03728758417141977 0.03457396777379925 -0.0564330776310667 -0.06174866409646582 
-0.05181400602668366 0.02842430603127693 -0.04646125428368726 0.03934416895990217 
0.5397584035985883 -0.3469458016721376 -0.7816203119809875 -0.6089281391242368 
0.09161640695840265 -0.07764560557061584 -0.007127625595318963 0.0006437826346510928 
-2.497382769474144 -0.6329866143225611 3.578572174036852 -2.156133787377351 
-0.2166995477365675 0.1714374161271175 -0.1113469145107902 0.02032811231239764 
-0.1082966928587926 0.08556219127004622 -0.05003463472683446 -0.05513855270736171 
-0.118297376663609 0.06275884715785296 -0.05626176418323552 0.02277862012689008 
0.01283336897983768 -0.005331715153713709 -0.03676042958689455 -0.006853792633063666 
-0.05432287145818014 0.03183243982396835 -0.1044172134266661 -0.03214088751107069 
0.003857812408026223 0.02458219766581288 0.1201380281453345 -0.0151276475414594 
-0.0506330885610669 0.05724315922424567 -0.1040905242017899 -0.04737947024843853 
-0.03505197737612705 0.05362959263976468 0.0754379489566351 -0.09126271615414937 
-0.04545598111610998 0.06139804875476818 -0.216090301469463 -0.1042249332423299 
-0.0202090454725032 -0.03470340680575688 -0.04696826850039162 0.09555464837042883 
-0.01678746080471182 0.00302841879386389 -0.04649869406842198 -0.02311117864964161 
-0.04929540531970381 0.03050107842655703 0.0009611360620686866 -0.01246873377084102 
0.05022655162170422 0.05126036679865176 -0.7205418533576931 0.1356600786471174 
0.6590395308047835 -0.5607305167417437 -0.8518846041940428 -0.5765032967451104 
0.06366317508413444 -0.005129717245389766 0.1461833013893405 -0.03681206416356273 
-0.1628030502273804 0.09049136472258382 -0.1763174975303992 0.003148228382478465 
-0.1288607463870696 0.1037862376464162 -0.2626468768884458 -0.03657329332400226 
-0.1638202291536056 -0.1441569631131794 -6.298325606603813e-05 0.1911525529717336 
0.04237912682323142 0.02820821772650488 -0.1673917107204503 -0.05750249862242796 
0.01652584583978169 -0.2929026539911011 -0.05020148749446544 -0.06919555458598346 
0.005653120320295998 -0.01180337685001447 -0.07547322102565629 0.0402356049030634 
-2.492319373886581 -0.9573736839443069 -1.876107146403475 2.596400894804783 
-0.04476364884701949 0.01339444003241003 0.1025879465035033 -0.0003046745650400822 
-0.06051936155324259 0.01017855071103604 -0.2318747348089407 0.04673894121314969 
-0.1708270491197635 0.1927927197892745 -0.1979442660654261 -0.2427840041051844 
-0.05050184203917715 0.05454682527199572 -0.1832939046203389 -0.001019435875261501 
0.1259052767106755 -0.08103947221299453 -0.005540032391741923 -0.001855718786642604 
-0.1805867303226382 0.1549304524580816 -0.07858821116248992 0.01073214868663935 
-0.06013960641123166 0.09843097155042639 -0.1904194852930028 -0.1135388163240128 
-0.1009460835278605 0.06013188934420359 -0.006190329382775653 -0.008566149105216541 
0.1483930649308537 -0.06266908835236876 -0.04586911991066408 -0.0003043615000509793 
0.046502752517055 0.01152920506858012 0.08085042711814351 -0.04065632669004957 
0.04846403330004992 -0.09007562988856174 -0.08282025992929196 0.1450328463948081 
-0.049605965144745 0.009215923012310097 -0.1090929583823026 0.01128964528199335 
0.05064341521414872 -0.0001125703254417918 -0.007072699864069432 -0.07174309581968463 
-0.03168767102354812 0.07663677455690686 0.01171437103369309 -0.09829987788893946 
0.0141801502661764 -0.0209888675729431 0.03267058623154102 0.01900193045600527 
-0.06507147634081649 0.08201415938784153 -0.1003376592676467 -0.05874128786338933 
0.2507988736117585 -0.420502323008953 0.2145751682739384 0.0488920618615915 
0.01352469484028098 -0.03426205370285143 -0.0166554068780963 0.01281260942524919 
-0.008249890597163075 -0.01409208495497675 -0.04650360325479409 0.007695863974641427 
-0.02074476125165346 -0.02845949004358464 -0.07334226935958006 0.06136106170921482 
-0.009118523792474206 0.04697244634662012 -0.07646388487322565 -0.03407074635806395 
-0.02394701546966638 0.01912664572741475 -0.1069232958566215 -0.04266260830918733 
0.4720243856584618 -0.2781226717840831 -1.146897658390734 -1.187203062906121 
-0.0131911228004464 0.01311385435055231 -0.001253682627669517 -0.0563470131328174 
-0.0535057031475639 0.05025932008058177 -0.05116049988327041 -0.04208235682683337 
0.07998284544162505 -0.0393745569535994 0.006494080658995732 -0.004712064597685193 
-0.001234285975216296 0.0183619906840311 -0.05016513304475305 -0.05541849664389292 
-0.03203521321795905 0.018483211785027 -0.078159275189132 -0.02390844484824735 
-2.084118718172054 -1.032822204326983 -2.129313301198747 2.271829796152225 
-0.01055594510113858 -0.007388670252038031 -0.09614300741632721 0.01524276010606017 
0.06919059991684801 -0.01671490317993222 -0.04778702476325474 -0.1153227484697622 
-0.02833575076431165 0.00771878428848051 0.1395593047046829 -0.0005845838924603644 
-0.08351751054843411 0.0629996158877725 -0.07604509621478651 -0.03628853926622996 
-0.05243823266136765 0.07674843136992114 -0.1923810482816191 -0.1162752193053036 
0.05792486967232497 -0.01395171059288322 -0.09145970905934228 -0.03693479339435077 
-0.002296612645060614 0.01585557528385226 -0.03995667963331526 0.01158657719397947 
-2.006756772814478 -0.7997011712212375 -1.251337527253179 2.033921757543213 
0.01018300855455832 -0.03525216444298728 -0.1444289018928209 -0.01652164853407371 
0.02131537093635512 0.03249095725009271 -0.1497599089767919 -0.0512864939553445 
-0.005876687494351378 0.03421540073831833 -0.0895549058223355 -0.08189316118466157 
-0.05031430144977318 -0.01828524356621914 0.2620938444720055 -0.0147888559273786 
-0.01963946721493416 0.006308505755533801 0.1613736686668403 0.04801006952611422 
-0.003856705536496057 0.02592517393492849 -0.03675463892849112 -0.002332558030434965 
-0.03455091872278991 0.02273889428890003 -0.02514634401951507 -0.04956358706777342 
-0.04652227456740825 0.04518268216141683 0.05075948125781667 0.01604626343770827 
-0.07960332519540783 0.08562630720787778 -0.08471602180799154 -0.1239121105571826 
0.01444372868585627 -0.01788514083504342 -0.05824669633568293 -0.001291126484628452 
-0.05592256844890931 -0.02777838975324803 0.004949285506390796 0.1233769363723193 
0.03147741786196061 0.01575737166009569 -0.0375848388600486 -0.1136269909367285 
-0.06891343618550234 0.02745196011075863 0.005173672707287963 0.01509768969170924 
0.04586568258971709 -0.009823781863193359 0.07327418713005604 -0.04241408156346837 
-0.04017770359608993 0.01445639397774191 -0.111171337371913 0.01866076984670745 
0.2516127804651414 -0.1238468393988291 -0.3653596767365674 -0.2549281844029167 
-0.06100896008112444 0.01317235132672048 0.04307287752953374 0.005605062894521537 
0.05703207196365512 -0.06612951862979666 0.007360131690036211 0.03862427207984291 
-0.00843399469178213 -0.08171557528815113 0.2267118282165262 -0.01747242340018063 
0.005522196438366047 0.01600259652836618 0.003286819975338525 -0.03675669456089142 
-0.1274780959189713 0.1376180795198716 0.09133321289143645 -0.2298733506195568 
0.02091516402663413 0.04240224850642835 -0.06656452234519239 -0.1673293301070117 
-0.09197627740436179 0.03916078780984055 0.07025574758764083 0.0732359542855118 
-0.01158140631302242 -0.002225855892049102 -0.0755722990591438 -0.01969271443249284 
0.8287403797279185 -0.5623045146120305 -0.9768191483475601 -0.9391548380483155 
-0.06337147729652197 0.09163638716504044 -0.08191690228751533 -0.09402848229933969 
-0.08670237700162364 0.04045897383336532 0.04972848629842068 -0.07019263222601076 
-0.02739948116629888 -0.01721204805963893 0.08406755663278058 0.03095146011894316 
-0.07671631781945701 0.1579838926068566 -0.05986477959481015 -0.03633645887373942 
-0.1036483731178338 0.1093627743570348 -0.272408255222766 -0.1464480367419053 
-0.006625577666388048 -0.0442127192464172 0.05977668985851303 0.02474032002889193 
-0.0645358976026075 0.1017261378508137 0.05550000296947366 -0.09103690440356661 
0.03486011738375558 -0.002134737447424843 -0.1025927557800284 -0.01816926469782172 
0.03588162623372777 -0.01806227240730082 0.03818361263006461 -0.04925739261723769 
-0.03197586946072881 0.01911849824013526 -0.1296605585174373 -0.0001679216966338432 
0.03636659049577134 -0.0546127511813439 -0.08767036578095501 -0.01455763323767845 
0.0677201409784462 -0.01252282720835623 -0.05970575331211382 -0.02928595988470512 
-0.001146244785737747 -0.01321434164961875 -0.127553874212363 0.1132481469577449 
-0.03116088595446261 0.05962778511358396 0.09618581200056603 -0.06347304719467721 
-0.03834481410753223 -0.006729409866534544 0.004468013186052246 0.04695011654252448 
-0.0004179929189838589 0.02437796914307628 -0.07443448859577104 0.001859187210563071 
-0.02546770840277163 0.006756534928489469 -0.1288508370821482 -0.06047241097693984 
-1.93864088808443 -0.4706093347100059 -1.89624423586763 2.041624985067231 
0.00908151317742428 0.02397120655326574 -0.1225819372578106 0.0004532111322325563 
0.4607423229771844 -0.2873042465862929 -0.2756976272564778 -0.5735979082408476 
-0.0480033278877708 0.02162900649629449 0.02078955768451889 -0.01246938415825266 
-0.1751888934165314 0.04257882864736157 -0.08735273209171925 -0.0131167706416197 
0.7735417983082197 -0.5080452731471929 -1.021780734014466 -0.806441723732807 
-0.01691892999324788 -0.01704521466729298 0.03025175073617045 0.03089037685690545 
-0.09874592816651473 -0.006945402897620676 -0.1923189699767221 0.0880799312175333 
-0.05691274752438889 0.01747203000115021 -0.1147954636769567 0.02874669081494506 
0.03048541498892185 -0.01118728747834495 -0.02609765013923111 0.03695269233244078 
-0.02822620293326754 0.01510466722394004 -0.13546756023654 -0.01378724727460418 
-0.06481747383514923 0.06448604846297182 -0.1804405843176942 -0.01812904495706857 
-0.3175898078632667 0.3835993529182203 -0.3806057674546836 -0.2653050562262505 
0.0005547700775327799 0.01257316865173717 0.1116839727485958 -0.06195446979407745 
-0.02685901158703464 0.0898316819570105 0.01026904789229453 -0.07502100807685165 
0.01810931274146588 0.0007230498963769596 0.1371034653961926 -0.02094046904061236 
0.02734385216089863 -0.005242574546286699 0.02587387435511236 0.005026791092303045 
-0.1098338687733979 0.1300032757265857 -0.4275911281661636 -0.2328720822415652 
0.4323530089562376 -0.2946950694978729 -0.4916219265192625 -0.08013541687493221 
-0.005814133922959805 0.03919193981110738 -0.10687834179953 -0.1001423103779235 
-0.03009649220621845 0.01844072227085916 -0.0804870773069909 0.003094868401853313 
0.02220020688452381 -0.02288332248177455 0.06428980422171185 -0.06835241479929487 
1.723879689856032 -1.238090358665782 -1.055380439635281 -1.485595414275408 
-0.1053140015626381 0.09830344024875558 -0.06493535848175543 -0.09288267999452195 
-0.03420462184154631 0.01886621319721947 0.05135822799075045 0.01779461339923078 
-0.1684606739972762 0.08914608467404844 0.007530304950869131 0.01270446608980635 
-0.05685068700001646 0.0893666380976595 -0.07075972640349305 -0.1258827957176248 
-0.08272192285921287 0.1178963050923795 -0.1971649541337233 -0.09221721817255628 
0.06826117264730901 0.007905789228159814 -0.149779700906004 -0.043407415220521 
0.009786455000379786 0.07234691160258848 0.04898216101325391 -0.08433301472549941 
-0.08279084065310746 0.08704830542882587 -0.04091690984402575 -0.1155232350888393 
-0.07473507473715801 0.1278327170495808 -0.1595551591796405 -0.2148005840253444 
-0.04224807432726028 0.002011442706471826 -0.01957813055597161 0.007041726290428005 
-0.02661871509142747 -0.02310561410132175 -0.09960292992646148 0.06544480683799098 
-0.2866777530114254 0.3058308882323985 -0.185566334548069 -0.2202088042732448 
0.06685809305517908 -0.04892436707576028 -0.1549535939101829 0.002428172114385847 
-0.07548916447505787 0.06861688635402571 -0.1088570213606806 0.01420194041866929 
-0.05516351536580578 0.06922727807158288 -0.002720179755152904 -0.05929792389605218 
0.04114007068444794 -0.02368128628467967 -0.1028554536801627 -0.0888734419238519 
-0.1140252312922512 0.06250511161053071 0.04432545964768889 -0.03337957955663737 
-0.1190792882070372 0.1075616178858885 -0.02218065242031618 0.01514550737722583 
-0.05273052341481778 0.04353539477872083 -0.08275877551433378 -0.02635330078947801 
-0.01672316925650246 -0.0258466038115595 0.03291126475574763 0.02016058710661092 
-0.1299427351555193 0.1239909474070806 -0.126076082255917 -0.09014154278723516 
0.1120484242468318 -0.05002567305841253 -0.3486620635361609 -0.02420767971350236 
-2.091525981536183 -0.9208878162140774 -1.246321335327956 2.164115517288245 
-0.03948993440359306 0.05127151663800133 0.03972074888379921 0.01557005177449709 
-0.02479646534562311 -0.03409261993045448 0.266154922939432 -0.004247552655924807 
-0.1444681525732474 0.1323866793261588 -0.1148597023064988 -0.09114574180803026 
-0.07024151537887244 0.09345501803135378 0.04677888824268391 -0.1052694520382162 
-2.155011131207012 -0.8421953253898999 3.55818079683321 -1.842980755806126 
-0.275347309132677 0.3634785239197858 -0.4679175020078966 -0.5495203618288746 
-0.08958425382072152 0.03055507261757629 -0.02958972211738344 -0.04855514613735117 
-0.02669571394292585 0.04175755111797012 -0.02770155199030875 -0.01856780265729709 
-0.1222205563398893 0.1157414013545599 -0.2373922046211629 -0.09921043484170727 
-0.1942492535542275 0.3066050776216247 -0.07098063786124995 -0.09736298462666387 
-0.06396858831713473 0.04603809219793023 0.1712093841715534 0.003954990154789875 
-0.04278858975821632 0.03711710454915226 -0.1299656429914792 -0.009895390519992237 
-0.06794888760424289 0.08173200077286238 -0.03740063761460375 -0.08546635021101133 
-0.05889513967942669 0.03760340738136901 -0.0203391718534534 -0.0291383191414304 
-0.152579033641937 0.1298731140375504 -0.4023901809305653 -0.03432155690822104 
-0.01377115445607316 0.04114410131080028 -0.0284976090162453 -0.03229613444032178 
0.05683415193595887 0.02711532979029817 -0.02282303598636164 -0.05371359761757642 
0.0108651047338528 -0.03954863631072124 0.1125496791148546 0.05309211833409684 
-0.03381415954411082 0.04839970601466322 0.02941438407767407 -0.07060659083349288 
-0.02275000890495717 -0.0005268007635464882 -0.2942018548001626 0.00921025972809655 
-0.08735904055991903 0.09256571971633931 -0.06388313113053776 -0.02859470001521416 
-0.06996480187570699 0.009746993838001554 -0.05122074122864068 0.003918490312089594 
-0.1630569001651338 0.1015562869303176 0.1100578252641024 -0.04815409298608763 
0.1033661747530785 -0.09898751428669743 0.005363640203744236 0.007719171504326387 
-0.04483289531373035 -0.001014120144120572 0.03719706576339377 0.01630110373147375 
0.0401509257927796 -0.05826539504834176 -0.07113416848794257 0.1339128538229273 
0.06779138308964675 -0.04973792404164844 0.06355138198886542 -0.07594539440451541 
-0.06750092909150307 0.02950450078556748 0.07823092242244661 -0.01454859742482197 
-0.1137946189100386 0.1426478983462364 -0.056788629830577 -0.09089222481591661 
1.169534223042692 -0.9623094926266186 -1.583829943633492 -0.8854431750131787 
1.547563950813617 -0.8436120524229216 -2.294639357109507 -1.328422820376961 
-0.01851214431305962 -0.1624613063074855 0.0745579457344541 -0.18935499961022 
-0.04040638292726231 0.08161656919927922 -0.2458138482838856 -0.1055147183806299 
-0.5631519118640667 0.341077802573671 -0.1005436695207097 0.03652282694789497 
-0.05207454381360369 0.1030563990669985 -0.3711282277830645 -0.08662866730046324 
-1.850336612340454 -0.7824119080019605 -1.689610118315674 1.908979841757545 
-0.04836742112823351 0.0273622543056368 -0.03217081733443861 -0.04652164044362485 
0.005371871545092622 -0.009973740323776138 0.144419505061878 -0.02936812617325775 
0.1283049653155971 -0.0733778077053093 -0.2522592495397341 -0.106369240356677 
-0.0321463306166121 0.03412138659858781 0.0804370723823938 -0.09728931282501552 
-0.04828302995893819 0.04312440687347262 -0.03966902661547685 -0.1455431081309483 
0.04678555225948512 -0.06104578210808785 -0.00138943430484248 0.01842110851540883 
0.004052174604045274 -0.000909740881230906 0.01772040394075684 -0.04548941661267091 
-0.4191277506752193 0.5306787613029863 -0.2866704446743956 -0.5666441955682351 
-0.02763188492171493 0.007786427538473783 0.02118763119483445 -0.01893219694788115 
-0.0931443617645404 0.04110189720385556 0.006019990920898732 -0.005218185931638688 
-0.0335021615274536 0.05022376256881857 -0.1076432976063783 -0.0436708803975065 
0.04845954614617919 -0.04671336267841485 0.01149014833007973 0.03442613274652788 
-0.200500427570451 0.3737169880130263 -0.3633150396945316 -0.8642091124790137 
0.01336252990703642 -0.03287160516784732 -0.04554077211918078 0.06998197038211443 
-0.04764584277331445 0.09613964890936205 -0.6100886647165246 -0.2035366085566747 
-0.04663443223792567 0.07248701353806172 0.04960002670453039 -0.03512241051041433 
-0.02061171279688563 0.01735840963342068 -0.05301274316296529 -0.01002860619034004 
0.02524985626231327 -0.01256085758864522 -0.09538533646759413 -0.007111197571060861 
-0.08589998351980654 0.04845914599938271 -0.07262387243097145 0.006093067524092298 
0.05720532090875416 -0.03146862288016134 0.1177654711996786 -0.06612377758914384 
-0.07993980529998539 0.004908436475707328 -0.07250763920250998 0.0601395211448762 
-0.148224544220135 0.06097885645830892 -0.1069294329026094 -0.01417358137157023 
-0.04785482272733715 0.06758993597056434 0.1003257048688439 -0.09117387159215116 
-0.0002306612345360595 0.03008062641682148 -0.04104529788478208 -0.02436105966342445 
-0.01347778388463756 0.05651526207772849 -0.1453589367104252 -0.03774047664321746 
0.04720803821901676 -0.0292740854478538 -0.1497614190814018 -0.1053478571779545 
-0.08115298731400433 0.08989782520955601 -0.1705224803820042 -0.06543365090746629 
-0.009966860334679542 0.01044477803283297 0.03361461005243213 -0.06780453015213368 
0.001255936515414872 -0.00105044575055138 -0.02687687319853601 0.02553816545062283 
-0.006038272274649361 0.05816742142939701 0.01706994556605703 -0.1319592959553693 
-0.135780777978332 0.1747598577116403 -0.2259999662941778 -0.1470097051869323 
-0.05553173404721715 0.06942501122502515 -0.1817253867098458 -0.1216015270988229 
-0.1575930112827657 0.1196978987959284 -0.1283950164004259 -0.05339895680565542 
-0.1144483420633916 0.1049221600844846 -0.1410961626139919 -0.1414337846982533 
-0.1644538469362499 0.1241297448864102 -0.05854572729163247 -0.08116645012393291 
-0.4085959112864304 0.2349137558591604 0.07631945234433003 0.09118609471032216 
-0.1592969791870681 0.149764237404766 -0.1891704137444674 -0.07918538218600699 
0.01734602834678941 -0.02976104826196171 -0.02462635919451815 0.01321441044383749 
0.5580736736257592 -0.3226152887984298 -0.2310857855003377 -0.2147613377665977 
-0.08506355271814514 0.05331017355558511 -0.06259251032975774 -0.07317874165754087 
-0.02598162345025816 -0.02468470412577184 -0.09695116356752016 0.03239781044504556 
-0.1098868169463221 0.1191506737016629 -0.4089935982713394 -0.07080204400083653 
-0.07537776485501088 0.1598390237625286 0.1390596663444201 -0.1090335878384029 
-0.03846393641828804 -0.02379388129183194 -0.01585519122621681 0.0302056663174894 
-0.006932411680028666 0.03094027442704728 -0.0634018195150102 -0.0558020243415203 
-0.1445551243448053 0.04596622375344116 0.1376559455345055 0.03684398161773238 
0.0184970190440582 0.0603861451495696 0.02714716295489725 -0.07454077240654577 
-0.08707779103901364 0.09501395087625319 -0.1567477382540459 -0.1006559613557332 
0.008350475398034858 0.04548416196889393 0.007119168984768751 -0.01051738471159 
-0.07979927679691023 0.1006994328497412 -0.1462896551991437 -0.0356126117928064 
-0.1010164776609356 0.2710389974471364 -0.5078590528931342 -0.3927730585600834 
-0.09789282717434451 0.05347847750748905 -0.2582740030874526 -0.08857601669894184 
-0.04635367131485794 -0.04331493672817478 -0.1572867606513573 0.04557447942974586 
-1.40178405199163 -0.4724506284283091 2.165863506319597 -0.6478196824713944 
-0.008797508940056892 -0.003103300208503881 0.08761164012480888 0.01325776724476567 
-0.1121527042616172 0.127383733240137 -0.3010343910613344 -0.07311857497421269 
-0.05282665867721189 0.04524279860196023 0.1058212047890646 -0.01830366241943911 
-0.007129701311096626 -0.03514960104051042 0.05127932576840002 0.07034528322941554 
-0.02070665063458328 -0.02494043984331436 0.03815461648034246 0.06605370527322622 
-0.1053833974413245 0.05698289756749391 -0.01428128039779331 -0.06191683212172126 
-0.2344951881164281 0.1248288371011706 -0.4889433319607266 0.02772149904034381 
0.01150827892340963 -0.003206091715763851 -0.06285427671100249 0.05732647687823938 
-0.05594778875377879 -0.02706959573076181 -0.06764515126779351 0.03138677737044167 
-0.05785833164348282 -0.002988785060811938 0.0004620698329734631 0.06316407260426314 
-0.04652926607090357 0.09025333846351646 -0.08469981009009328 -0.1590455873779355 
0.03929809932092869 -0.08269662535732476 0.03831441876132508 0.07944306619825653 
0.0007110862978755555 0.00973246691456842 -0.07735839614462647 -0.02802642863372771 
-0.01093019133505946 0.1116153250222967 -0.1550684298312575 -0.04592520934204546 
-2.092756248752066 -0.9889252619896107 -0.7714073045039734 2.225461533800515 
-0.03291008873592248 0.01865041305535449 -0.0777035940783494 0.01364500746189334 
-0.2727791685129848 0.1770951275580215 -0.2640456558904164 0.1940023309423753 
-0.01919892264713413 0.005905404882992103 0.0859036201405891 -0.09999829716490444 
-0.07662323702101446 0.06574173041330471 0.04023381606977242 -0.09705503522617477 
0.09185329646901169 -0.07784358334997586 -0.1237996266069042 0.1059762767851958 
0.816490276045405 -0.4478751248765038 -0.8370697340584146 -1.089927200303744 
-0.03845165168968206 0.02800210592378664 -0.07614394675294207 -0.1064333925309581 
0.01569535881111859 -0.04305385384368805 0.02827663991915071 -0.004503003002017371 
-0.06254915982095732 0.0422446233767187 -0.06367608735726554 0.02361172607896386 
1.002163626028612 -1.265762129643137 -0.7456829490214206 -0.5590737797697395 
-0.06683282860325243 0.02377390148295217 -0.07515911903820621 -0.03694891263210025 
-0.049300079474294 0.07920377109870896 -0.02807326508163472 -0.09438286808548466 
-0.1148984289752586 -0.0332995045019825 -0.03999216522662279 0.1209212892276102 
-0.02566159230115007 0.008272451886748614 -0.110823739583161 0.00831873218849933 
-0.002352241997669641 0.1095018938222522 -0.1727066697023456 -0.1623532580892947 
-0.008400573932045196 0.03023573103795162 -0.235136938412382 0.06219857601136801 
-0.03901866037325569 0.004857153600842066 0.1058504961759306 -0.03037084632997739 
1.639171571745139 -1.07146967743688 -2.167925022229474 -1.235658988010235 
0.05456900519554762 -0.05824284480183003 0.05436628386705057 0.04982470099828269 
-0.05184823368464588 0.04368125202053139 -0.07066504412520543 -0.1728640032685977 
-0.002090012773140393 -0.03147863099002177 0.01186902540005434 0.06655378862259605 
-0.1915007922117574 0.07085479471314672 0.04821056730729474 0.08372239046125206 
-0.007402918153805305 -0.003682387657607624 0.02596364738485027 0.01770758493056906 
-0.02070573775125484 0.01626786175431469 -0.08524035607715007 -0.1212331601588805 
0.2242916517701651 -0.18659041885262 -0.04459329473838228 0.1528221134928229 
-0.04893597215337655 0.09553659601177426 -0.09227062822844991 -0.1130966278044781 
-0.03883988260323488 -0.0276231939200965 -0.07024490705958338 0.04222495130185567 
-0.01953592612264723 0.1455177642468807 -0.1296585540539808 -0.1324190251203322 
-0.05361036210008262 -0.07279048322259477 0.007064387008706094 0.1363698777818089 
0.005922100662276848 0.0009580353035693404 -0.04256101701185014 -0.1724227551719379 
-0.09010744073405548 0.1534010043584726 -0.1596255573484405 -0.1832476181122048 
-0.03848262841714815 0.122072976359801 -0.5062107742514282 -0.1661707005908266 
0.0554465248988944 -0.04724820228201959 0.1217442130340709 -0.04014526907293065 
-0.05248378098368976 0.08886643442976061 -0.1924047544916431 -0.02459039719624915 
0.05907079606846852 0.04802842189413865 -0.2529396993368527 -0.0202026780690886 
-0.1318431189293434 0.0656355691997732 -0.04814509760731867 0.002830655187755194 
0.0325387835634893 0.05282879058791802 -0.1630198044821311 -0.04409555993930819 
-0.02644419410269235 0.05807896821142418 0.06789180597334082 -0.05852593598036714 
-0.4717860165697745 0.380771129643353 0.1619745287206742 0.01407053441156703 
-0.01894792039907939 0.05173959854873459 -0.001596286546408952 -0.1015585265449795 
-0.1434636464256573 0.09204404911630226 0.01471091625820135 -0.03880576068877874 
-0.01167104214586491 -0.03018399754554187 0.07772219984065402 0.01833730210644707 
-0.06722429675436983 0.03888936846746943 -0.03432894046488309 -0.04023144623845982 
-0.02204330403348596 0.01234273117391856 -0.1517982964296635 -0.02513107510290207 
0.07512714882769284 -0.06592448192265953 0.06829919782175324 -0.03844476609837027 
-0.06880174442523279 0.1051140627604184 -0.2407584542962852 -0.07935104222800381 
0.08552618794402307 -0.02497951965302189 0.03430939003461139 -0.03735308289757259 
-0.06949840052282366 0.03996052818340001 -0.141065400033623 -0.01065237732323409 
-0.01729163625387369 0.003959848162306417 -0.1522763991015784 -0.01192956641327782 
-0.0772019969082182 0.08160707785300171 -0.02913062776415517 -0.09202722132659436 
-0.1090749777928681 0.07366544642593004 -0.15861878904288 -0.04167445618039942 
-0.1499243860001408 0.1297922420943397 0.07435315301580292 -0.09495937911788022 
-0.02478763373372802 0.05135936317544549 -0.09621469743279323 -0.05008148757185805 
-0.2327347289410188 0.1908333929919863 -0.5757060884649154 -0.2004095382524627 
-0.06869313886285011 0.04402325625970523 0.05300355796453132 -0.02600215929595958 
-0.003614750435163278 0.001716745685801968 -0.008741984343928404 -0.0004442116203616725 
0.02697197699317903 0.01053883212328317 -0.06456166821005807 -0.1219281385199722 
-0.8988481639426722 0.8596939292362732 -1.109620051916538 -0.9833654316247752 
-0.08951947858017381 0.06271543134353495 -0.2326466149857444 -0.09537586762682479 
0.04201969668325775 0.003945210323075437 0.1816219419960657 -0.06724044520631718 
1.769449476600929 -0.9057586315304408 -2.321080311198487 -1.815697938033406 
0.04907425729019486 0.009272622252382106 -0.1426987491999322 0.02070232690539576 
-0.04761950768604611 0.01669636214456433 0.1315784476267123 0.0120222207064843 
0.01621510606307789 -0.00344877643472539 0.06070346848571694 -0.02110773803263891 
0.04471328685109571 0.001660456713825761 0.06603294868496706 -0.1195555936792772 
0.01801748618461426 -0.06234024551668205 -0.09379520165392337 0.02530654228011614 
-0.06963626844043129 0.02918912188411842 0.02311308730203969 -0.0465921849751073 
-0.1308606645282458 0.003267571117637152 0.02684446184634692 0.0539908395920822 
0.01052024295455674 0.007750772909273248 0.1075702306066748 -0.02278994382783473 
-0.01785933552658193 0.04355835945450016 0.002233542377612287 -0.04943278520953074 
-0.02551293905325864 -0.0939113092619642 -0.06130417537753674 0.1144315918495616 
-0.001049697790651717 0.01279014223516129 -0.04021295100097273 0.02081668261731741 
-0.08048447843504143 0.04688372224303058 0.02247935488326822 -0.01261053441828499 
0.03742514140027297 -0.03773139859635775 0.05356751372466249 -0.1319818611645392 
0.01536152741613945 0.008392943643141611 -0.3229863824244336 -0.01631055616262147 
-0.08189137128953038 0.09072933814621376 -0.1876843969444292 -0.05055207647913991 
-0.1049960790059856 0.05206821180948944 -0.246337169586623 -0.07804412451124611 
0.03281322038592737 -0.04107337738399505 0.04707346938039213 0.0304467143606048 
-0.02860841623108544 -0.02318428121483616 0.07787880581626279 0.08038245538395827 
0.0695400147545062 -0.06942784257571741 -0.06725519897944329 -0.01686349502620836 
0.05539413012190796 0.03080070915349321 0.04645024907459354 -0.2440059521158926 
-0.04117135756127432 -0.02668015968816933 0.03202702669698487 0.02721419747016707 
-0.06543232055605483 0.07730467755036141 -0.3872802697071835 -0.1217423960721493 
-0.06991364323093666 0.09938004664346954 -0.08879385082839944 -0.2387409800616007 
-0.03009417189704824 0.05699272896788624 -0.09101821432819281 -0.04569623675165185 
-0.09638172976347793 0.09674866223029618 -0.2356496940008175 -0.06947998536071563 
-0.05800767120023761 0.1127908649750729 -0.1423499270558806 -0.1098179466274542 
-0.1082879575537548 0.08998797815779719 -0.136900507420225 -0.1257004886511384 
-0.02810096235533562 -0.05379465051853271 0.07659168675180308 0.06216389925528169 
-0.0767089132113454 0.03356325590491693 -0.1570125826593435 0.04869867311202238 
-0.004070681882777628 -0.01836145491098625 0.1008206135337932 -0.02799848190044225 
-0.1539871828087747 0.1548004725333801 -0.525910434866123 -0.2188173659717454 
0.1024842381075874 0.003957533473891703 -0.01533726910918424 -0.02602429367106425 
-0.1290985435890628 0.1952805803137783 -0.1900575520838992 -0.1319714432496598 
0.1011970756187869 -0.1916850203482114 0.1712988663665924 -0.02295847873254726 
0.005516371904629112 -0.001481500452502084 0.04072638062317703 -0.00293478122054132 
-0.04430175085579253 -0.06622262254218109 0.07863054952390994 0.05520148075323732 
-0.05063110244246741 0.09452474142183154 -0.2769873249424255 -0.04057313026841108 
-0.0250482774834562 0.04130106277476022 -0.3201754980470956 -0.0669695861805269 
-0.1072125550397598 0.1216866912255203 0.08019105237993358 -0.1127230406210634 
-0.007524384526209769 -0.01916989368932866 -0.08446083309599695 0.03724474789525998 
-0.0643180202043795 0.009691879110206218 -0.08427444637885319 -0.04718985202641146 
0.06909428769076432 -0.04663552706575406 -0.04909537917990002 -0.0008648221863354318 
0.05139134330290464 -0.07810076469365988 0.06800979911646536 0.03399272811040287 
-0.1023263325224673 0.008849224648439612 -0.1896957630332232 -0.09029944017431754 
0.117066813775603 -0.01972882985125015 0.02959794439509251 -0.03483593761625797 
-0.08052965159711276 0.04955610093645233 -0.04910057252448623 0.05355800136249236 
-0.06187165721382924 0.06921126122953876 -0.04009001063249371 -0.03969358951351946 
0.1120257410900221 -0.05840078251069398 -0.1776327191673426 -0.09678798708006557 
0.02383438764860314 -0.02900457430998288 -0.04910002393511033 0.004968386089813185 
0.01944206275707424 -0.03456583278994563 -0.3149008924211951 0.02300120280544035 
-0.02954570751629296 -0.01816986929372289 0.02687592037393842 -0.007027159309921031 
0.01786194149614979 0.006023833955685139 -0.1284492851275542 -0.04440071044207833 
-0.08052745494231911 0.02347420632345791 -0.03683256357398038 0.02533470085840321 
-0.0004448976415464096 0.05539553284179798 -0.02354511984516926 -0.05706949034230737 
0.03947777077678022 -0.02114789737348937 -0.2128632328953628 -0.001747226685108942 
-0.03439606801350358 -0.01381364957404482 0.06997868283291825 0.04986321568975033 
0.1432494729528516 -0.113652733383669 -0.3726129559752883 0.01723976552666593 
-0.06686404270051172 0.06903862293554924 -0.2838557575519905 0.02822016597315618 
-0.1195920955483157 0.1183360016495051 -0.1274974113919814 -0.1188641099112331 
-0.0187808266001536 0.01539781181205917 0.08975178844145829 -0.05065280056273079 
-0.04680887214676768 0.04290787218887658 -0.2387107452033257 -0.05871903124460617 
-0.008076412274663087 0.02919442491740492 0.180222635229139 0.004263015569509397 
-0.03446493980593769 0.03632046138346327 0.03120656378437967 0.05652116973811302 
-0.06009262476213584 0.05097374766020923 0.1466901448229061 -0.009969603187472009 
-0.05940065660742351 0.03750430372552256 0.1450885481213319 0.01110025933225431 
-0.04664849624539558 0.08613444257454758 -0.1634238958167797 -0.09994042252419717 
-0.03067103509089997 0.06700394174174455 -0.02140757581250363 -0.1259678385723945 
0.01387357706060133 -0.0648137245409105 -0.1611051574089266 0.1148847603327512 
-0.008191627795491912 -0.01565223851609563 0.06170099110883363 0.05640544223429914 
-0.2172406237596793 0.2681202032779326 -0.1035849814131196 -0.3678746697730939 
-0.1224601772690918 0.09714482378058766 -0.1874215941142266 -0.0802836138324305 
-0.04463459296742216 0.01248491672306566 0.005498265762121124 -0.03749885062641004 
-0.03688639554353543 0.004117790853684023 0.00341220508573544 0.008852911332748264 
-0.07923312652585224 0.05138913878004162 -0.2173037912729424 0.01075638730807961 
0.03584012568928784 -0.01540562683554762 -0.1420707560358888 0.004664431235627256 
0.08049869078274194 -0.08546021201242179 0.06792497468865986 0.06217304237139024 
-0.07332665252319659 0.09066340241254353 -0.1086430201807534 -0.03492114854559081 
-0.03066076627854506 0.01315742558404795 -0.1525788051549566 -0.007046739798044301 
-0.006914240074130033 0.01590252198463143 -0.1069827104272549 -0.08627823829728175 
0.06154729827944594 -0.03923337061640779 -0.03819939724960013 0.05910465482725324 
0.03052588502321877 -0.01232536252087611 -0.02248711941704089 -0.01816785780991822 
-0.06871074476948498 0.06869730109456654 -0.08464353306392036 -0.0484374874112263 
-0.1114722120770703 0.08693761913583614 -0.04775600509961885 -0.03568056037166149 
-0.01021910571047048 0.03115189719299714 -0.1301166685376941 0.04149300015120415 
0.009395528261975322 -0.03023100855713812 -0.05351598490660293 -0.04475263299908807 
0.08150386927643488 0.03684721260330719 -0.213687336567677 -0.05631598835434626 
-0.1526481367147559 0.1514015763494985 -0.382890726471856 -0.1839938958505092 
-0.03680944370320577 -0.3257493727891658 0.3668255123422204 0.08689024743666031 
-0.05653980323789393 0.02117558522570888 0.2627085188519794 0.05123849427404262 
-0.3249581696623475 0.2208713482463803 -0.3288887887163909 -0.0161542663716972 
-0.1202653094372693 0.1055057239452227 -0.1575090696045917 0.02975643433578692 
-0.1016240782521588 0.05768385314306015 0.03007096800436472 -0.01257214700658501 
0.06091613266975193 -0.8115510198265571 0.1780209836447122 0.0228512219800617 
-0.07011343493722356 0.003567740519579977 -0.02032928911774743 0.05462175014043777 
0.177462648485623 -0.2195349881318307 -0.3102806330080683 -0.07211106084933853 
-0.1000792250344553 0.1409649581073971 -0.290289359754664 -0.1036392670688472 
0.0112337230014884 -0.04503216274503798 0.06514850518257068 0.004452016640995487 
0.4352160436815963 -1.040332886700966 0.4097346480992482 0.001038502527496381 
-0.0890491547077736 0.1118554621905749 -0.120428473354496 -0.05985493517558122 
-0.008817557697711628 0.002287755729568854 -0.1675064088918725 0.0411022584040811 
-0.0368963871701247 0.04879497506335332 0.003970986465781136 -0.1603089576301843 
-0.03077993189127355 0.03439825367982901 -0.03693403371142552 -0.07459426327936368 
0.003336145918632286 0.05788245676062557 -0.2806620449493224 -0.1339511959183541 
-0.07864829522506453 0.1184874865250472 -0.1191808880217911 -0.1033761571985872 
-0.1444236434132503 0.1084125614121924 0.1286884742495309 -0.00703534961637029 
-0.0726739747229414 0.06101229191768959 0.04877518046692735 -0.03429157444257473 
-0.0296561656158155 0.02760061614029199 0.1069925665229042 0.01406799271614904 
0.01654245665892257 -0.001567253592870875 -0.05749481288610379 -0.001753500996313886 
0.01366093172264324 -0.02212292027160751 0.06638422898028321 -0.05281117046568953 
-0.04264607317052715 -0.04164160538295791 0.1543979188442548 0.01943728252681165 
-0.02949051619819236 0.01772450494899111 -0.03039700334424522 0.003783806744024737 
0.06303664995223357 0.02012427413171049 -0.1169326812128239 -0.1045196698735542 
0.02056205444521232 -0.05436581876483219 -0.2009089475419727 0.03709134847590651 
-0.05641730682667138 -0.0294362119957053 -0.009314411370023585 -0.001296540064021046 
-0.006609643082822931 -0.009846440424963127 -0.08906142988525376 0.00635135299677374 
0.03807177497191767 -0.0277677619847785 -0.06596530424540833 -0.0734870206577671 
0.0405548570898047 -0.01927009064386052 0.1170188348403109 -0.06726923665018969 
-0.03861544395139789 0.1453132724904458 -0.1118023427461723 -0.1354713294758211 
-0.03883971201102075 0.01498309148060816 0.1837016944759734 0.09272703586326081 
-0.0004912509584906371 -0.01097716762741155 0.1271193357056902 -0.006929810350843055 
-0.1092430507487819 0.08765815880509743 -0.0821668733225274 -0.04488649220849388 
-0.2024647768735106 0.09254427476055899 0.02854453218104117 0.1143540444050668 
-0.004118390381411222 -0.00530059420865525 -0.2456909731691673 -0.0005393326282917507 
-0.08549968659993815 0.09540181427978231 -0.1590648402251198 -0.04219971786838638 
-0.07600652319283345 0.06962164482726706 0.05313305057329948 -0.04757933661652587 
0.1070083030872381 0.04374888849404612 0.0696242395379844 -0.1457536022683945 
0.01279715498858975 0.01175536523132645 -0.2861854561639218 -0.03981425531879554 
-0.001176749822617993 0.03416899794323186 -0.03538233588122815 -0.01194932505671744 
0.1070075242673797 -0.1048095220994668 0.2119872812608528 0.06436850970018385 
-0.03047983525569101 0.01712483567464038 0.1244311434803105 -0.02739863431550757 
-0.1071457078798949 0.1006289257715651 -0.1866463379549064 -0.09962874131894399 
-0.06750110042310559 -0.2477497984689033 0.1923896911932398 0.2162780192170525 
-0.06051144369089589 0.09041607129129783 -0.1131327318140075 -0.16226047924857 
-0.02080170727769336 0.01911654341641327 0.04894512021629756 -0.02128548792069909 
-0.03687545462226413 -0.001467370837564413 0.01424285363312375 0.02056361984245266 
-0.06480403474251409 0.011286322538117 0.2012204526553281 0.002236753175357577 
-0.1033667860282596 0.09230338882472927 0.07313017001261399 -0.1203000438508031 
-0.1370079734340353 0.1760461204413189 -0.07704454181699222 -0.04714219807663385 
0.207005485697727 -0.5165757033448111 0.3002024195124778 0.2128287047015647 
0.06583510410741671 -0.01438812292303803 -0.1064272425428363 -0.06972856035284944 
-0.04390327505966782 0.02363213385468457 0.01034219496554773 0.002812557006863817 
-0.05213475491783429 0.08816477079978954 -0.228094376565721 -0.05758071803584299 
-0.1439358838344205 0.1816332614526337 -0.04009694032371667 -0.1277231938267236 
-0.03019254565965243 -0.05785615037566033 -0.04256306200977088 0.1240781553894503 
0.06813265833116325 -0.06697434028645935 -0.02108522158639622 0.02990295005165646 
-0.007261633058423922 0.04376251520881923 -0.03375248719824097 -0.1669577799544845 
0.0917255503404351 -0.03547899834590916 -0.0147786444027956 -0.1146606440820262 
0.002443810612132512 0.01305744823452742 -0.05009997682457788 -0.01909621149378409 
-0.1082621299654931 -0.01653513712115948 0.05854943193349026 0.1417424586401458 
0.4702252937922116 -0.2935800170374225 -0.8506665708413339 -0.7043935333758806 
-0.08102664244601634 0.09892721545001336 -0.06657009572325016 -0.1306397348970786 
-0.03989867438719318 -0.04059572123731094 0.2813703887605359 0.03369748742822151 
-0.1014333189409 0.06081649873068483 0.05170181710957146 -0.07296665713922254 
0.04272916198413503 -0.1579313815223659 0.1691120705706028 0.09158463529840463 
-0.07337458242167696 0.09072846238390554 -0.1905965656414058 -0.04873108723692866 
-0.01393532254292257 0.02034559328191927 -0.1457818213673786 -0.08485794561490598 
0.005585474810412262 -0.01921385271153886 -0.09994918466406547 0.06381295138569464 
-0.1323165960343935 0.1281513702580487 0.4843138494890897 0.03745288031784316 
-0.2070094112329113 0.1370198430645011 -0.3384046698166055 -0.2752622112184676 
0.03808886515782581 -0.04139284550585237 -0.2609663030545477 0.01072819114005438 
-0.01842923117155183 0.05123224837984183 -0.02217102640705886 -0.1757492285295595 
-0.1221753045243636 -0.05473942816572128 0.2253982685983852 0.1751741526830013 
-0.04388565192677323 0.06329518343028187 -0.1510268034117184 -0.08633498832085817 
-1.560591694267788 -0.4108639926897103 -0.7199517230784087 1.4778775419938 
-0.0634304895914848 0.01769429847733107 -0.03833187791719987 0.06856940320589835 
0.0007130452745673943 -0.01602710597215333 0.0509512712578006 0.04051832564014468 
-0.04807008027438475 0.06016685571296079 -0.1522713920345859 -0.06995240683880967 
0.09555859876163481 -0.01866644487986645 -0.079927735085411 -0.04495690629026383 
-0.07592361254647702 0.07317992991990753 -0.165087617340701 -0.1624167797416586 
-0.01231667210296741 0.01452426216343682 0.03843002842511626 0.02427559039298762 
-0.0236069197414172 0.003718522906815612 0.06096225238619301 0.06494452715960138 
-0.03557622419867003 0.06887423107909824 -0.1066390096707401 -0.01924049070043451 
-0.06531075184621662 0.003786583839656212 -0.2203695510678042 0.030309685511514 
-0.08572758766034055 0.0762225613094589 -0.2000704206793333 0.002845623700785219 
0.6946013282730369 -0.5625186468237258 -0.9551893924859588 -0.6875550649479261 
-0.03423251015588753 0.01807123266673997 0.06645133224674261 -0.03173557929025066 
-0.04909715314692598 0.02792120672003342 -0.006432236114867957 -0.01389517880925329 
0.005639259914538 -0.007935914450763108 -0.2951084243997574 -0.02478585696486746 
-0.06614816273000955 0.0529591437802398 0.01883096292339387 -0.0673369222624086 
-0.05285798426050584 0.005575510513633435 -0.02436855385108969 0.03099934501050427 
-0.06086305424428203 -0.006784860302359853 0.1513487067059788 0.04284498001863954 
0.07794940133588792 -0.05607803013932486 -0.04293578967299657 -0.03561450009746392 
0.1354357118225028 -0.122255300376332 -0.08525900174874909 0.01598975429288954 
-0.4152788644637264 0.4492155478908032 -1.188727495063656 -0.2693298036278625 
-0.1018620003811401 0.05458122865464261 -0.007663013542170059 0.150445993927621 
-0.03060507018600797 0.1027268442928381 -0.1125997147638641 -0.1057001599595413 
-0.1302691902211795 0.1216814793078846 0.02591169192779284 -0.06666034087217979 
0.05562060437806093 -0.03320131197990592 0.07008323540224895 -0.004890976051027698 
-0.05809699627857109 0.01675887159187949 -0.01638868155297963 0.04450738056408889 
-0.1002131953101631 -0.06458610977349259 0.06674781139233847 0.08834183549442792 
-0.07356307689162135 0.03637229360573051 -0.04131833310223998 -0.02920344869601231 
-0.2410587093544694 0.2217854841871084 -0.2970471031593835 -0.299013503606451 
-0.02976210983559673 -0.04088948590350407 0.06321193447886009 0.08318861351264216 
0.03517553901613975 0.002333421937321256 0.06306753687272169 -0.03524575038641177 
0.0009499324662116173 0.05126779359991566 0.05355410748779386 -0.08965442136695137 
0.01501704857872375 -0.003232916184051819 -0.3535809802156137 -0.1301098057263846 
-0.02770076794340228 0.06739623919099641 -0.3305134222191032 -0.1364166830181436 
0.2692378788571669 0.05782712554298386 -1.370884797968351 0.09294462784313731 
-0.0445925577249013 0.08583447610534084 -0.2105925643497578 -0.1139028868433152 
0.07045966344595608 -0.08820181912852801 -0.1254173086506131 0.03926770004193472 
0.02796327298679993 -0.09916840866534095 0.06780708231199491 -0.008980722364509298 
-0.05953956017604911 0.07472025473830762 -0.06189958684352648 0.02498008046474895 
-0.03335549231924553 -0.01051947667865983 -0.304647210234736 -0.03880862581859939 
-0.09041256814988481 0.2138759907756022 -0.1076364687000828 -0.02634655592454982 
-0.01702827066844752 -0.02463096235384701 0.08662569927895322 0.08144507612136066 
1.017519852303383 -0.5035097354850354 -0.0407906911252804 -1.456540721721375 
0.01854045508224186 0.05327808688440135 -0.1280583001951359 -0.05580993353899619 
-0.478686994069599 0.4000160501175039 -0.2262917938110635 -0.06947807158611274 
-0.06720355344978017 0.1053189057764914 0.005887247029030949 -0.1136106276715041 
0.02760755537698796 -0.1585113124728202 0.1784321907103239 -0.06641019512292659 
-0.07859749472575192 -0.02796711638252537 0.0471906247176123 0.07741472884423646 
-0.1877039281396147 0.144972983583022 -0.05748383294759175 -0.03286062530222104 
-0.1234538850663186 0.08788303957778812 -0.2072187105143538 0.005828082340780724 
-0.0135962746273862 -0.03910648617840597 -0.1137963274204386 -0.04067874011020702 
-0.0512421829196637 0.06020939946750367 0.0837757160018669 -0.02123472084576126 
-0.1145394868146554 0.0486476436185676 0.006787807535958927 0.00222705977686667 
-0.0715828351828366 -0.1209478391998448 -0.4960897606341605 0.1112857728109756 
-0.05682607575550726 0.05318231355500751 -0.04144280259627215 -0.01168588283487369 
-0.04558195068741078 -0.03390231242545458 0.04484009529154983 -0.05506205975851933 
-0.03845498427253668 0.06001148163078714 0.07916771689156885 -0.06627007335691013 
0.108052567333618 0.04255397543507369 -0.02704459870957928 -0.2121193274908085 
-0.04693912910803869 0.03892481408559008 -0.2506016300408294 -0.04286960401552022 
-0.09335633201773191 0.05457255192526833 -0.05096591612813296 -0.03208708166057025 
-0.1310914546349525 0.1102364343356584 0.1401921886769649 0.01198084373395318 
-0.03313235333111118 0.05632799736218495 -0.3464333408260249 -0.126415363970915 
0.01392888703446676 0.04180273039374691 -0.4454590636904048 -0.2361495567634109 
-0.07959560464398674 0.04051526955164531 0.05148433321972387 -0.02697281074515215 
0.05928879128276114 0.03151152533739921 -0.1058682760327395 -0.08959844435781059 
-0.001952928836446558 0.02524868814026458 -0.1465796517202926 -0.01106651596162139 
-0.02713321761434965 0.004100860466810367 0.2014174818806014 0.0813043411080772 
-0.5154649288615664 0.370149523565762 0.00537695705508817 0.004829619466778792 
-0.02450642996513249 -0.04677437514721287 -0.1112224356159448 0.02837207890600395 
0.002964672777743815 -0.003926007440145906 -0.2285350022069557 0.01847504116753374 
0.1149452010299887 0.00568619677273945 0.0186437114096426 -0.1134752424231966 
-0.2071558588344317 0.1965566780205492 0.007731249652438484 -0.05060663273173609 
-0.1237707250126534 0.149907019412494 -0.5078168275605702 -0.1400286553541534 
0.02881973076161962 -0.02643401801631336 0.09865968529832091 0.009820741395724144 
-0.1005675678143982 0.047530834109093 0.07838570089051013 0.03562271636957385 
0.06917243620897036 -0.002388228019058323 -0.1076360624547895 -0.07829944165883004 
-0.1597428004616994 0.2357781686024866 -0.2585921427640643 -0.1419235424899909 
-0.03276554629116857 0.1008689047561414 -0.1282059724672767 0.01322369352448608 
0.01545905266191135 -0.01736537454136867 0.07396276022312913 0.09242704244031172 
-0.04799359908455868 0.00931177332355849 0.05354578830422747 -0.04709442136623439 
-0.06507107713709816 0.03240635768045264 -0.07577231828293919 0.03649791295313023 
-0.1246913015903501 0.0960747949572628 -0.1067807104693863 -0.09882962527867689 
-0.1231124167036267 0.02393872020315206 -0.07507928103724555 0.01445200490001536 
-0.08419101630911559 0.187675719420312 -0.5649216631744561 -0.2913819411480532 
-0.1119683004314219 0.06575826088843213 -0.01181754088731723 -0.001882542176997246 
0.05822731382937307 0.004880424714359111 0.05340130258750406 -0.02705534932645226 
-0.1168968613906319 0.08867830414924913 0.1009210148631449 -0.06375800429965786 
0.02070090868516004 0.006347006484098892 -0.2948747746852719 -0.03941176585809287 
-0.03879534926783908 0.03860499713993358 -0.1049350263480023 -0.01518781085769642 
-0.0951859770973069 0.06074120524079266 -0.03650215153428569 -0.07400122284383065 
-0.1421101005871832 0.1368036729032578 -0.01709339137420204 -0.1116755168457632 
-0.03481744627505974 0.09834620788628136 -0.0223483602987801 -0.06982354986536891 
-0.02835685886915014 0.0400204567000443 -0.4202983630449279 -0.0279782175316793 
0.08226909832823646 -0.4143972727847576 -0.2326838305238476 -0.06941479930018406 
0.03155170007228746 -0.03364397606451044 0.02224221849151747 0.06733955989631918 
-0.09242259482968583 0.04580728959705067 0.08737661948202115 -0.0499005070222663 
-0.03730923258703088 0.07393797420272424 -0.06847775502737528 -0.1603792350314945 
-0.03599804199583463 -0.0941134119630786 0.09571926849288229 0.1216821323864396 
-0.082988365143943 0.08419352592887072 0.1349312120655398 -0.09107276425871655 
0.002407239155720705 0.03952668114804485 -0.004717642054638075 0.04113325571309264 
0.03786631504942946 -0.05658049083824301 -0.1062682224956134 -0.006336073253262605 
-0.06022217755705523 0.04204542330014101 0.06364769419430306 0.03878816500454804 
-0.006517593530882523 0.04424298613816696 -0.1869956587814609 -0.08589246687788044 
-0.1000104633515805 -0.009325710288269002 0.1730726118859057 0.04213897218855651 
0.02370931374256147 0.1114641807256555 -0.3583249268836668 -0.1135020253264258 
0.05552787477145474 -0.0592219474137957 0.06976355077241632 -0.03107164764485987 
-0.1996103782797692 0.2211973151980316 0.149787921515362 -0.07348202417492425 
-0.1125979075692252 0.08675118844763799 -0.0855123817168509 -0.02696624799119324 
-1.081991675706644 -0.05499719989061067 -0.4676641321670423 1.014086164669393 
-0.06994215808005647 0.003187917116138265 0.2490023258151581 -0.05359688123716439 
0.2500221541908642 -0.1100108711116611 -0.06259454261287593 -0.1991403608772174 
-0.01624723023652255 0.03866899632331838 -0.118700996294544 -0.03262863738899593 
-0.1492081166439154 0.04258981639960181 -0.2147914713002585 -0.0160222214360213 
0.008171965120880208 0.02990132657642646 -0.1973829691174332 -0.0008127301615903787 
-0.1659798537268061 -0.3039151214802879 0.06893616696590268 0.4085720002887049 
-0.04208005662863915 -0.03244344240435703 -0.2050210291715936 -0.008719266527821212 
0.3942674319211792 -0.3724669897058376 -0.1734636221771856 0.04252637483547278 
-0.09168105422349457 0.04620758514938488 0.002745148732165293 0.02200793424404559 
0.04523751481830931 -0.2859076595981599 -0.1170923304551035 0.2123041706004229 
0.008699066076034691 0.01464203010014137 0.02637456378088683 -0.03777529822393053 
0.01927249133243237 -0.008870273263514548 0.08218989884653219 -0.07721817238490673 
-0.00162488803932996 0.008112173774034151 -0.3780738819852324 0.06373163404985892 
-0.119980942263663 0.09664310522251372 -0.4729878141376174 -0.1296292310702982 
-0.1171363824247801 0.1288191360362919 -0.08248944802829941 -0.06397999066303577 
-0.07581313891337822 0.009550440334171916 -0.1854996653035204 -0.01159909379452467 
-0.09428508662239261 0.06314616514626999 -0.05670249134643351 0.03898504760426146 
-0.09530531481594649 0.09530841731040392 -0.0792726867147469 -0.07797615541352244 
-0.1318126756147401 0.1005361956937586 0.05742930972137086 -0.03614306899948506 
-0.08833816529413945 0.02216147861317911 0.009930071905344891 0.0008496413658841927 
-0.1331903090419217 0.1251684761854263 -0.3435315178447029 -0.2663446982318292 
-0.2407312285363569 0.1594748234156749 -0.1827855017876727 -0.1302476205121857 
-0.02911848224594454 0.03903052522582763 -0.2407779806359204 -0.02543697179018681 
-0.6777305482548025 0.4310153805496041 0.02043635173699397 0.05001312392141033 
0.000438273242968551 -0.01362296377742606 -0.1612621575663533 -0.03551830710303385 
-0.09072169507299807 0.1180905354051107 0.001045483597138867 -0.1551985893121151 
-0.5325414892557541 0.5146040749166366 -0.2623328861170114 -0.3955629822201699 
-0.1880797573322361 0.01787899498477918 0.3703424289564979 0.07865376512685494 
-0.106359481473931 0.08861085321990408 -0.1183997091278335 -0.03325652154641175 
-0.1672314424905248 0.1070133650860321 -0.4118208846333112 -0.07543144586968568 
-0.5260358896222442 0.4110490399243924 -0.3249944175608356 -0.02069850298336363 
-0.09949367253585874 0.06605884389801651 -0.1882566650708257 -0.03292256903601637 
-0.006053900840383829 -0.003187463144953726 0.02501476720981351 0.01719897434599828 
-0.1202558967431766 -0.02746205368027342 0.1246530836876124 0.03318715739389883 
0.06283988077537042 0.0007639670902297091 -0.03851159084579537 -0.03014519331917798 
0.044486645137508 -0.01662854678123492 -0.09289711865789928 -0.05206949209212343 
0.1590134862920508 -0.1947385662642817 -0.4801259685945743 -0.006500989728139998 
-0.1342149811133001 0.1127337741122578 0.02134705071505322 -0.05047795072120914 
-0.04461654153924677 0.03662941907048183 -0.1475795212728827 -0.06110388431871978 
-0.05615959423143351 0.09200392598494533 -0.2075717634503922 -0.1812087827185638 
0.1765455491860655 -0.02204914192014197 -0.03370350771913449 -0.07465534533507552 
-0.08602636492847164 0.0454664318557708 0.09000091547327588 -0.0786174852363006 
-0.01461223123578956 0.06889822210728086 -0.09525884455320116 -0.07572122029188014 
-0.005517627433483809 -0.002658385453479432 -0.09886173664816822 -0.1019044491784559 
0.02118852327545744 0.0647341702951541 -0.004476738569875012 -0.08055880011182179 
0.1458964768823532 -0.1282314405394778 0.06570373831618029 0.050659410564162 
-0.3571111600553235 0.4362797355543195 -0.4649304629238699 -0.2905389586235547 
-0.05623818736877676 0.05845218310430177 0.03953099982684544 -0.04784682730398821 
-0.01247442851933829 0.01883716261758587 0.04689258350137523 0.003575234003921909 
-1.595868326253822 -0.5366739880499033 -0.6764408656662408 1.565333620729616 
-0.03766972507777595 0.001002881067501593 -0.1540651289793977 -0.05254511612685957 
-0.109052014936301 0.08738593847946409 -0.02966363067246494 -0.0572723530545946 
-0.08638001900141817 0.08043814112364703 -0.02148184386784006 0.0646493015961819 
-0.190065568594254 0.2890806170743611 -0.4156241227031832 -0.1870205213178503 
-0.1992671447055975 0.2153069800714904 -0.3114251033803964 -0.1677961879966438 
-0.08847160963747114 0.01108950147011638 0.1634433351182307 -0.2787206057349688 
-0.05254635892552759 0.05663524634119311 0.02347555179666732 0.02130611200182682 
-0.005998205720764538 -0.03887497739782869 0.02173191055022389 0.006305853712931696 
-0.1300682965463272 0.1231971016567627 -0.08623854958780568 -0.09612070718504352 
-0.08350175714740145 0.04178563330902026 -0.04829503065031122 0.04415154276794258 
0.1106266444644636 -0.06737907724012673 -0.2864598155673556 -0.09227158639386558 
0.1146801793496505 0.07938164644997185 -0.2118078482721915 -0.1550489398980157 
0.04914998308497246 -0.001604755439332823 -0.2462828790880283 0.03225981346877511 
0.009347890817977801 -0.005027694681758659 -0.4057646997471794 -0.006679975935569056 
-0.3259867740011927 0.342350543921036 -0.4198514116690783 -0.2495292085720392 
-0.1113681473757892 0.07080726917718463 -0.06206955482186178 -0.05931831931868006 
-0.02933040600762543 0.0481705119210705 -0.3410692486745409 -0.1718370148800309 
0.1204801292762324 -0.1054954383451253 0.08454851861899333 0.09441660159321913 
0.04403957279493413 0.005987076559755309 -0.1336040207923438 -0.05752300348121071 
-0.06862742966331843 0.1097166463676612 -0.02117488221983192 -0.06538442955049208 
-0.0261110061321472 0.01568270284349896 -0.14529753385592 0.06399543435463288 
0.08180615123845189 -0.01768399576896477 -0.1079821345985317 -0.06966715670183267 
-0.101899478717073 0.0219849513225788 0.02613232575241158 -0.06867806353623043 
-0.006466776832584942 -0.0161772234489333 -0.06281402329433544 0.01188573379841344 
-0.2880885343152073 0.2489761500862754 -0.3221052583981311 0.03475325491846679 
0.01550253553345687 -0.04293254128135295 0.01389943212246691 -0.05939005541569199 
0.01951310148680334 0.1698046111537874 -0.04810620074306444 -0.1734116012326173 
0.0844820809715606 -0.0500731074027978 -0.144065591988051 -0.05624240842199472 
0.1131663870232661 0.01834530853975476 -0.005042162124318445 -0.1319518508366629 
0.04800186995946735 -0.08405338302516487 0.01342455791390761 0.06731079516318575 
0.2773076283962261 -0.2473316921176001 -0.3330250906609827 -0.2146846876479476 
-0.1141220434159643 0.09434184755029316 -0.08974345409960896 -0.07531945310138759 
0.01295112358132395 -0.02352136924270562 0.06552035180783973 -0.02586641368330566 
0.01297034113914474 -0.02827332126483097 0.1090152673545164 0.07530634044074552 
0.0418599091146732 -0.07861348764787596 -0.09072491402579566 0.07871146239302657 
-0.006158593103704545 0.01793028647690872 -0.2525783552423539 0.05199718274006705 
0.1972095175952482 -0.3004957103234139 -0.0225963501458313 0.06236576255476949 
-0.1010432665016577 -0.05817773412078925 0.2994302201159284 0.1745508543020012 
-0.004067162889673235 0.02463121686187682 0.06935012387424795 -0.03783277775186501 
0.089546230907668 -0.06288955114363297 0.1448412987478752 0.02657474485934038 
-0.1547740069845255 0.009738542284406152 0.03583154204028963 0.1842655688592744 
-0.03537822490392777 -0.05388004092195284 0.05687375806079406 0.06555153195126322 
0.04000063124644388 -0.07445281625841427 0.1118975778866435 -0.02124627286768884 
-0.006762958474204068 0.03110372401492423 -0.1710199195022806 -0.0585682463553521 
-0.002043308995103056 0.04441190998216589 -0.170781427181125 -0.08024404428466861 
-0.09218060917639535 0.07446098807295806 -0.2525782219093213 -0.0582041943803525 
0.05745269357884984 -0.02566574781806758 -0.1945716364659761 -0.04035987627003214 
-0.01272330821230151 0.02602723966207479 -0.5732073952035862 -0.02015530612337051 
-0.2882563028049013 0.2827170413128576 -0.610684470644596 -0.1380037241209071 
-0.2251954862023613 0.2804479407162864 -0.6168491661464814 -0.5486908031291513 
-0.1846638340936131 0.2689837337438115 -0.6737400868338433 -0.2868896878862693 
-0.06965959070794064 0.0484736678420971 0.0306468383077989 -0.04462305525429151 
-0.05074816564659898 0.1035036192239714 -0.07472018324453428 -0.2283101442115251 
-0.215318466987327 0.2644915943056634 -0.08623622074340874 -0.265141555420654 
-0.02964278662356411 0.04932206537601685 -0.1673674395517483 -0.09516703276141376 
-0.07672987928632735 -0.008897505599552522 0.2919959249205852 -0.1841779744746979 
-0.2532016559226838 0.1374017014761883 0.03079209046822357 0.1466329583055173 
-0.1132769035016443 0.1439694499075248 -0.2673634257435925 0.09499844306802253 
-0.06040907626507105 0.04777815083852831 -0.09050052872417637 -0.05018134573556934 
-0.05415863064907214 0.03912584375117158 -0.07101044325394978 0.01307830520368487 
0.11000604898071 -0.02154342128998705 -0.09490589889930612 -0.07710445435049061 
-0.01125945733840627 0.01115498419189987 -0.04145319266627672 0.003265981934381395 
-0.1887635349889653 0.2266483772692747 -0.08677475217536838 -0.1345833693469529 
0.0006194675044268166 0.06239651025516219 -0.003213344376739882 0.1292893604275105 
0.05936958835551364 -0.04859273921844776 0.009289785080819887 -0.126164094975111 
-0.04351199059933572 0.07149722788408566 -0.1413229847580198 -0.08203323261867992 
-0.0236692469010296 -0.03085191844914974 -0.2874055885355611 0.004834680053685651 
-0.03596474420238631 0.07171314048349178 0.1045761487335133 -0.06909933315532937 
-0.04220575888273265 -0.0404967533497225 -0.204970720478675 0.002177705127041614 
-0.007246990141227524 0.007413316060821894 -0.06690403256748717 -0.02097313385763626 
-0.1312849915777462 0.1705828263626246 -0.1299366160242942 -0.1485959872123769 
-0.02186519797956381 0.03375635392184414 0.09856418836553223 0.03093289004359467 
-0.146520467180059 0.07466298235490672 -0.03393348633078855 -0.0124022338170499 
-0.02526294545974576 0.02706644055504138 -0.1831969179539332 0.0293275342589147 
-0.1483819762449915 -0.004465863530324171 0.02399788677184533 0.08555797577467859 
0.008160128150694817 -0.03898771409044723 0.1021496775020333 0.131255293092264 
-0.07799622776067364 0.04018844456205566 -0.1424891469372333 0.05968744943455943 
0.07502378108219138 -0.08080093823618698 -0.1092718894769431 0.03387472313330264 
0.3609446963639565 -0.4919720934087778 -0.05493732952771026 0.1348019939485805 
-0.05969191663673629 0.02312797597498736 -0.2546883308302554 -0.06911512249757647 
-0.03068581808693242 0.04948429655222308 0.02072105816622345 0.04511909485394567 
-0.1055955451517086 0.08589608054560721 -0.231643937269199 -0.0687478169536995 
-0.1420708093258528 0.1191918900269511 -0.08419809393762696 -0.1171322316332145 
0.1282630220923431 -0.1144260851992786 0.2173540647323086 -0.07030474329785363 
-0.1210331183407699 0.0435574928805907 -0.08624352210568713 -0.03373934162540836 
-0.02338683232035151 -0.02776104343052151 0.06411033856179402 -0.03121918699212839 
-0.2046093625668618 0.04789797660747802 0.06836619626444108 -0.01369568801420269 
-0.1922626903138129 0.199060105005174 -0.1400877282197017 -0.1259870111615506 
0.02969701343838031 -0.0004162777517481286 -0.1911678494474994 0.01077921370402392 
0.04807981174237139 -0.0007415228921866133 -0.1155165383767799 0.001478372902716611 
-0.07877365629052924 0.03906637222668121 0.1095239163414308 -0.02003043953190157 
-0.04729596803590145 0.04018872154078396 0.05306240590037722 -0.03841356376014845 
0.05169670630297635 0.04965462668455013 0.04085764434749498 -0.05533427471848186 
-1.845312009379588 -1.010182579029049 -0.8102278538844392 1.983928141766449 
0.0598397534397978 -0.0217606718647178 -0.4283297733359308 -0.0452614455665608 
-0.1688124593037721 0.2224114270255482 0.2947412554599311 -0.08685938073975495 
-0.0137357679520001 0.05865431992738072 0.02400950728060243 -0.09720281027446435 
0.01604990371275547 0.02904259482096322 -0.3167111911798074 -0.04134819944446912 
0.001523404438932351 0.007530932955167508 -0.0482383339911763 -0.06567362989697902 
0.1243370439913803 -0.002844544236547566 -0.06266538644999084 -0.0358855115574411 
-0.144057929306762 0.1671513809510821 -0.1949283461328622 -0.119640528289377 
0.1665586026863496 -0.02084694785454281 -0.2914067085858495 -0.08598759499826729 
-0.008994155878362161 -0.03065951270101807 0.0868522830051339 -0.0004615000503095951 
0.002250860680803146 -0.02296706043420357 -0.0002932345492928424 0.03897942596002258 
-0.01148074587414697 -0.01804409076056428 -0.3216333680801379 -0.1307285861744252 
-0.04914600989733991 0.0957610086768064 -0.4234781923023592 -0.3269261093061121 
0.03041793855504442 0.01347883336285724 -0.07498594829529728 0.04427991655727774 
-0.08736862779801491 0.06560332022743351 0.01095764756480927 -0.02339015243587361 
-0.2783215735664265 0.2395641899814315 -0.5266063700810961 -0.4636006703988548 
-0.09558620069041844 -0.03915294495942179 -0.108419451197568 0.1086824035849277 
-0.1337197162641399 0.03165578068632724 -0.1097510978846414 0.01352329361032624 
-0.3307093543753475 0.192927757751583 -0.1161009709327237 0.174280002845385 
-0.1715194968077945 0.05090223581104585 0.04596573225135194 -0.03810302051783629 
-0.04253300645658775 -0.4269415178434782 -0.06048412272042264 -0.3371973596807161 
-0.1047818369459439 0.08558943045349916 0.06628841674067523 -0.06073127486128303 
0.0003099964831838036 -0.02406712312168746 0.2169713298073612 -0.1075773622475907 
-0.08476788477664193 0.01736897797152213 0.01349612531001896 -0.02014449904369391 
-0.06984246992084971 0.03276702237389464 -0.04204108821611373 0.02231688760521116 
-0.1128281598036243 0.08733641726744375 -0.08791644788030024 0.01212852038153023 
-0.004639490594180934 -0.01280587022529197 0.09663046024881908 0.0005006083560001151 
-0.1850186048743746 0.1083918648525054 0.08901743592993802 -0.1148271368495965 
-0.05770715139387962 0.06810171679575043 -0.05262654781277225 -0.07967719139110424 
0.02108517049739433 -0.02463244501785833 0.01083561160269134 -0.02784264659980412 
0.1646148824620219 -0.1154602412247916 0.03002205959451305 -0.03133943793870875 
-0.01699741760416831 0.07583322006544674 0.1279200681602364 -0.1231849729911216 
-0.01294994240476071 0.01136512826070509 0.1502061140325287 -0.1026283430505001 
-0.06864016927121026 0.06159992603024882 -0.02795635503270694 -0.0917201538282785 
0.0379097867477341 -0.06959537950851438 -0.1392485894646871 -0.1083316747277748 
0.07502830749366142 0.01421292804317329 -0.2838003169786396 -0.108671974436507 
-0.0107105603588395 -0.02835647696443005 0.2278352935686757 0.03464858336746438 
0.01854950024212048 0.1176615853276351 -0.2908122433344021 -0.1861160106294599 
0.08131794010602342 -0.02148760454470555 -0.2456397433872868 0.01756138829761572 
-0.0439905274592659 0.04090368057435119 -0.2444285212710373 -0.05765757091762818 
-0.03313686765272281 0.1488862750915826 -0.1009005653408616 -0.1680199525966415 
-0.02267735753005761 0.04612916510475897 0.1780028905994531 -0.09444560615828733 
-0.08029398225030468 0.06637642917386036 -0.01158916705718431 -0.05051495390226149 
0.04385002455254143 -0.03199311607978202 -0.3805044847843785 0.04733280338182311 
-0.05902938038775614 0.01476970321514436 0.01247687994131436 0.0184623955151734 
-0.1858714344923429 0.07998414736118613 -0.111705441572988 -0.08553024304160958 
-0.0038434817869595 0.03723178030702783 -0.03942460135052783 -0.1020870959861503 
-0.05079073804191529 0.02198426464072483 0.09519734199411314 0.01671895431843209 
-0.05613792803278152 0.01377708822793076 0.0658419257904739 -0.0293156295739655 
-0.09683066372999952 0.1087011637434838 -0.152852389840158 -0.1141664186362956 
0.1083291472824362 0.03164168506765755 -0.08974559859699832 -0.2446436803072678 
-0.07455818551311436 0.08635744945894376 -0.202518919746891 -0.09837787318655208 
-0.2050860179122996 0.2049905875514877 -0.6001148514348936 -0.4151303473311816 
0.09138778983055865 -0.01448668205481915 -0.2833114863284271 -0.1215571172319605 
0.1302040782233869 -0.04523184758817596 0.1475459037323783 -0.09612771781477038 
0.003121455975593536 -0.02355320236603449 0.1054278585193434 -0.0399824392144342 
-0.426234813307961 0.4210076898630908 -0.3453528764043548 -0.3812702726360244 
0.04055822335908811 0.04494383112479299 -0.01088861188115311 0.03115572594179395 
-0.07590000474996197 0.1018933383923203 0.2655835365990391 -0.01374237170879636 
0.07995138826024162 -0.05375443482416412 0.02150235193072914 -0.02350427901642496 
0.001104947449119634 -0.03986812422098798 0.1899125928799914 0.09045125712767652 
0.2540403628592443 -0.2336485486941617 -0.3111269283350722 0.09971280927253252 
-0.005238447972683115 0.009969850441438329 -0.06756901693862633 -0.07466450825823864 
-0.01199547633524856 0.02040939108923964 -0.4104709630209199 0.03154416132567171 
-0.1302479917065496 0.08228607591325071 0.00934651506989494 -0.1099500637539432 
0.1280536662295048 -0.1312565201515948 -0.05859025129332067 0.02438576208252177 
-0.03653706039044737 0.01535496199328796 0.05604500039392171 0.07254717675757567 
-0.05776204645589146 -0.01994630057121474 0.1523127803017282 -0.03076388989880032 
0.09533865744800818 -0.04060303372030077 0.03373161294918888 0.03014217795710302 
0.04183711537624501 0.02365206938996545 0.002553081538430748 -0.04023456435586725 
0.1181517536987938 -0.02396150857626612 -0.3408822880779079 -0.04525861216734808 
-0.1552269172827984 0.119569007595436 -0.1151612324267293 -0.0829553740099177 
-0.1563650313104686 0.09990921622560171 0.05922744841151852 0.03480673739556612 
-0.1249844744164892 0.09432895889044592 0.0601779211962928 -0.06191221995860875 
0.02889004421731452 -0.07355935172165047 -0.05393811485744789 0.1064072464344735 
-0.04082902537009285 0.06368678428280464 -0.2341374860935511 -0.007161518967836199 
0.04167153976746858 -0.04855272943543102 -0.1830248920299473 -0.005076032048045633 
-0.05190366210355866 0.1353627568104992 -0.2298438262454716 -0.1665238151038047 
-0.04205544723449271 0.1028575011786208 0.09520477353970559 -0.06374288458885073 
-0.08987672917562027 0.02770246937526032 0.1234961769682841 0.05134602956004133 
-0.0007209222147850705 -0.01053105303291141 0.08435688775229896 0.04544692355394345 
-0.03985435147104793 0.03999498782668213 -0.410099942484467 0.001272426428495334 
-0.1160704637063474 0.05856380005337097 0.02185118057558688 -0.04689349966104423 
-0.1632869085300835 0.05773423940844261 -0.1452307914954638 0.04785227037044747 
-0.1106039723533842 0.1054626461317496 -0.03115981802909589 -0.006614937757630765 
-0.1367208105345822 0.1154808483563502 -0.3108661802575489 -0.0878755449508184 
-0.08103344648183307 0.08272385752817485 -0.3790558540984378 -0.01693331728756231 
0.04126643920255204 -0.02637371171868789 -6.532519279545427e-05 -0.005996810099390949 
-0.02076246910707675 -1.146839813005377 0.6700260891326867 0.184461808443412 
0.1828983770867107 -0.07740367071982088 0.05070655524629299 -0.1263220180627893 
0.005351567064712448 -0.08706052541117729 -0.008585893136987951 0.06674589705300166 
-0.301359807600496 0.2264410733766698 -0.07047526937623189 -0.07023500279549402 
-0.2458993831879275 -0.03084371402792 0.1658367460959805 0.08563650114879415 
-0.1026510772659546 0.05879488545821128 0.288779572212745 0.02509667305922713 
-0.01994213778650237 0.02774020931588709 -0.3399039566813849 -0.035834430021279 
-0.05492657618829916 0.1212346774851707 -0.4548067418892343 -0.1908880204402135 
-0.03560578888922359 0.01240200405287314 -0.07547205475959627 -0.09652556039510171 
0.2480116101971235 -0.173676764261564 0.1944430101084088 -0.2775976084533269 
-0.003567539070086662 0.05091085778900691 -0.1389059763239741 -0.09779622427387104 
-0.1538970182685635 0.1696221315190458 -0.1096197317295738 -0.05588424321054571 
0.00497778975596589 -0.04076388151630178 0.06877396034686672 -0.009672250155978983 
-0.01589246455309937 0.009033648397235458 0.003516905128719177 0.03469223133295431 
-0.2036144903838336 0.2446819424137656 -0.4153655711670842 -0.1914009352553421 
-0.2106863249580118 -0.5636848005605645 0.2898075767227027 0.09444816077197088 
-0.02807849045916904 0.03563530724053832 -0.0985406975182597 -0.02396247197863496 
-0.02175898102036107 -0.03884751309408722 0.08380724765025628 0.03613523640050463 
0.03413280567255522 -0.0582219444713286 -0.02498922310884176 0.01004721774712658 
-0.1007421227370258 0.05992926320788263 0.0190909106826986 0.04941646382103546 
0.1306401004430746 -0.1015220354857442 -0.1143484395694362 0.01305452762249238 
0.02518282671349943 0.05610128857495387 -0.1005664934425487 -0.1071474752928839 
-0.09901450151880005 0.05377621425412929 0.1840908899283352 -0.04104698112969606 
-0.08596606713504146 0.09291133795477688 0.07097761765262844 -0.08356122136159035 
-0.05542592011372634 0.04945128224711191 0.1203917663797673 -0.03215524553681236 
0.06517986068418767 -0.06813221131089242 0.271857818046871 -0.08987558564754451 
-0.0933534201927356 0.02959763737646275 0.09705939996122459 0.09938807301275983 
0.0110221500138526 -0.3340974984950386 -0.3404709250718594 -0.005718445058399699 
-0.05604912965857855 0.05768157874987406 0.07942148112697486 -0.06113901742867379 
-0.02177999994229211 0.031778677383225 0.166703080091583 -0.128463109847682 
0.3568165538829929 -0.328457654193417 -0.3046160234574696 0.174011563870016 
-0.2374391232536739 0.3245582939855176 -0.5584453035521032 -0.3300959984521633 
-0.1394238284875752 0.06693829523571376 -0.2114044784956145 -0.02080235024052405 
-0.02567281408769981 0.05717134285381108 0.02382375751123729 -0.02588968301186571 
0.001286308573928172 0.008943129955429414 -0.2355200883087429 -0.04043154166566856 
0.001942582252426207 0.01005177325831851 -0.04530026278604068 -0.04001913170954344 
0.05532811462058315 -0.02234097355537012 -0.3597589819851771 -0.04367755330790212 
0.05681152071932892 -0.1741146737573829 0.1467091537921584 0.1244315258874489 
0.08280010358008551 0.08512091556618687 -0.1654575950032019 -0.3435512629647759 
-0.1543448052463551 0.1111548101312975 0.003838741385962363 -0.04699571784385848 
0.004349857195788259 0.03351044038690228 -0.2182408987181345 0.02585915866679311 
-0.5059580342781 0.4409279791104875 0.02507390769148228 -0.3191696966788823 
0.03239448753125995 -0.06686974721715633 0.1144719511643226 0.07061298016811562 
0.001062931891223234 0.009876349029720406 -0.07824035278432434 0.07196224958687357 
-0.04203983090582053 0.05063157175126991 0.09120122098947772 -0.04692273522904886 
-0.1119695336329145 0.1087692957270238 -0.151487178885973 -0.05427780615679757 
0.05017539510083197 -0.01494381421140642 -0.1374798734657021 -0.03300601574292472 
-0.2298822687155095 0.3294601781585605 -0.2027579588517015 -0.478553691737935 
0.1110381901366916 -0.08553203839680325 0.1013641652059149 0.05847300337658719 
0.05753085901401822 0.03300713497887297 0.06818623749039952 -0.05879985579271298 
-0.05791622094372903 0.004243378073667785 -0.1806219272209771 0.01829251332910252 
0.09459507737532402 -0.04981759391108111 -0.2832999332923694 -0.04957643233191307 
-0.1527844174093154 -0.03997750741594173 0.2988831376003195 0.09478602077603968 
-0.08751966906403828 0.04689424936103286 -0.253037528281276 0.03435305423127433 
0.1477845933455861 -0.01128637424271534 0.03857806323408812 -0.1831269447724178 
0.01682556236176878 0.01691447085481579 -0.2419272155945645 0.0152444675151856 
0.02911588001319062 -0.01501106140254807 -0.6280422292511916 -0.1201104931833128 
-0.00607627054900539 0.02474998807999517 -0.2225959223252227 0.02492621818526175 
-0.3756768514552125 0.2037360452119243 -0.3983938995306557 -0.03216166716798783 
-0.05853675442396312 -0.04309060445254308 0.1889100403170422 0.05138365647785369 
-0.04549826533643408 0.09651350176977552 0.02099832040647971 -0.1211472660801869 
-0.0992242786985473 0.06768130277510778 -0.1172482588710001 -0.1305729484603118 
-0.04777435724344625 0.09085075817640269 0.01440474600592013 -0.07661625398309019 
-0.07426147040636205 -0.001267393882182524 -0.1581503308005368 0.02877344293286025 
0.05719869352317305 -0.01452659892580421 -0.08385624903305205 -0.02820300657837894 
-0.1255248860959408 0.09679819169570149 -0.1171959565693672 -0.0549973367921646 
-0.05679382215212744 0.1020658142891532 -1.985687858218158 -0.1552150674664685 
-0.0191353897839008 0.03904144685152897 -0.2398354464907591 0.04000785326781992 
-0.01438040343666917 0.08596469059848456 -0.6339134156882595 -0.05456090807031602 
-0.3320790324581083 0.1280998402852173 -0.2621787107622787 0.004627730764477277 
-0.08463594534512932 0.1326513693286866 -0.4649186159443603 -0.2007732364752614 
0.0265552693553854 0.144539905088084 -0.4843661330223535 -0.2264184286546863 
-0.07676789120357637 0.103508811532026 -0.06520581262718868 -0.2428141648088433 
-0.04145491837557801 0.0712672583988774 -0.2692348799171761 -0.09374001158260019 
-0.04961752298528174 -0.1133209255038384 0.1207781880532525 0.1368904869499408 
-0.04462800874061611 0.1237932585922354 -0.3038446348158778 -0.2361731602029001 
-0.07814809833554423 0.0655137333872247 -0.03922412883828114 -0.04679816055640814 
-0.03409397852632497 0.05964672942155322 -0.05215064195391811 -0.04244348310682354 
0.03987793633821701 0.00812481968025046 -0.1966849220957453 -0.1003113976851909 
0.09934355385311745 -0.1300844582474971 -0.2800608299404336 0.05760494042674666 
0.01760592415900742 -0.009784281011929397 0.04361711878972686 -0.03233965174143338 
-0.1017223547974663 0.1266121135859316 -0.4550978418647468 -0.1468901007608638 
-0.09363186032160428 0.09895011720701502 0.02344606444046704 -0.07844905052278821 
0.01623138289236815 -0.02581770623913372 -0.01832554238411868 -0.1681479521899095 
-0.1811367213247096 -0.1496379115956709 0.2517359559101126 0.2376951109028029 
0.002136489481402418 -0.03428556519069744 -0.09424788734194248 0.09624976177707684 
-0.1277976024379322 0.06516492320627679 -0.2234111230014235 -0.08257755834554202 
0.02398279209019311 -0.0418713537611287 0.2120165265588752 0.06592741533473104 
1.426176631154388 -1.061907261249833 -1.491141775055048 -0.6741544861560473 
-0.2661629694462436 0.2205980453422426 -0.08541302849981343 -0.1274402293303405 
-0.01579668182245206 0.002141558847252607 0.01760964324139086 -0.1006148999252177 
-0.8088980827811306 -0.4265546754467893 0.7989034158958992 -0.3926667048929879 
-0.2437016731247501 0.1858092236979582 -0.1966174224790875 -0.04435172607107209 
-0.09287330167636158 0.03596947550604349 0.1290788916063186 -0.005167149698839189 
0.02846676631266043 -0.08340506983372649 -0.09066635521603868 0.03947497740154507 
-0.1037692056526782 0.1214033973231201 -0.1292944610773239 -0.09901000738321908 
0.01853721287555021 -0.093699138903117 0.2901766687352543 0.05182073712274622 
0.08123450047289232 -0.06500322635654955 0.0505808951394521 0.100212088052517 
-0.04984597668348592 0.06910875572076308 -0.1282517981568418 -0.01677857552073185 
-0.1253286584136281 0.09086142976347619 -0.2252992700746527 -0.02411024403387308 
-0.1615782165063512 0.06424452923460609 0.1300881978470798 -0.08356362760966188 
-0.06302002435126194 0.07603184415953489 -0.1209570304585559 -0.0792049918593368 
0.001030357076359444 -0.1633471310335133 -0.01970637332027964 -0.01037584077932891 
-0.007863017533510977 0.004834616187620993 -0.08688562925445825 0.02761006336126492 
0.06709477947360148 -0.04096647514217801 0.0767759633856771 -0.04011500850173378 
-0.139881342956496 0.07975153633626614 -0.3160329087056412 -0.02666407309219412 
0.1198139452684709 -0.05161279086588628 -0.120637954171195 -0.06363223692859149 
-0.01993303872258791 0.08324594589724103 -0.16178428950598 -0.0933994880885326 
-0.04202136114194026 0.06696556815625275 -0.3022761373292303 -0.03857207422301157 
-0.03260783084286994 -0.07892310477803727 0.2343803401015088 0.05676629439220321 
-1.25440635926855 0.2394432321330172 2.86718353912458 -3.10121974792274 
0.1174440511232487 0.0851770910075626 0.02146858695577299 -0.1415574118169083 
0.06722657621844533 -0.05164818289996582 0.05833452847112546 0.09479637149955583 
-0.07071149377629106 -0.007732298173005853 -0.04190017719419432 0.05402081206714076 
-0.3865707793507958 0.1710018432449031 -0.5703130575451868 -0.04957394259737719 
-0.1978038561407073 0.1362787029526895 -0.2669942155119483 -0.06375558615686427 
-0.1529539985445838 -0.316572552542472 0.3948604973226316 0.06530443842118813 
-1.23195587750907 -0.2555163831851675 -0.8556541931090209 0.8981701461794708 
-0.0969732089476826 0.07682695802369656 -0.494108115567685 -0.1156444838536628 
-0.005401392571344726 -0.006193140617657853 -0.3887474673281624 -0.02869479389631602 
0.01961437827129854 0.0123822189598759 -0.1685021976137548 -0.001975520517804155 
0.01624387680122036 -0.02073074550272072 -0.05389575169189014 -0.003357339136717895 
0.06391196919347676 0.002192888883404433 -0.06879596522869524 -0.01618846761638203 
-0.04884346398646494 0.08545565590888381 0.1117669154857503 -0.08976839745071304 
0.102420741036771 -0.1283113764930357 -0.02103063967192846 0.09869761014076062 
0.3273989017580157 0.1125971343639785 -1.00670956225998 -0.1600787753804745 
-0.1087840750992776 0.1435230957152328 -1.02306910123439 -0.09489672787134247 
0.008239308890965417 0.02330545333071434 -0.5165968599263721 -0.07813896109991378 
0.08394438390674561 0.07932403374053654 -0.2125947447177436 -0.2944451008214826 
0.01294707279765069 -0.01521778452136522 -0.2269780146701708 -0.03538488738334403 
0.07395116406937244 -0.06438486995949119 0.2494840964068352 0.06545431925716666 
0.0487244402730759 -0.005818942567233309 -0.1629274815057218 0.02804199368021508 
0.07421231252028851 0.03166905538369549 0.1608577557578514 -0.1412271652083757 
-0.06363871721551291 0.04321294456862924 -0.133653863575219 -0.02693372463945428 
-0.1120527684908879 0.1145664128851213 -0.1124448575514236 -0.04277475960902324 
0.1059253522790067 0.1195262014589615 -0.5295142165480387 -0.1943186929146593 
-3.185173739504161 -1.132984628196374 -1.070722067744438 3.242842216230833 
-0.05818141313669986 0.07188705036207774 -0.009035569151888511 -0.1214438753369533 
0.01541554329580928 -0.01925316466056727 0.086762392348037 0.04045137650390599 
-0.1011635893479396 0.02170623954424488 0.05966504817317034 0.04630144713439557 
0.06941370499233319 -0.01467131378532546 -0.07627765059592073 -0.1011088190549974 
-0.08510276658718266 0.1161855113152176 -0.1155846247978165 -0.1878668101129959 
-0.1246895765465214 0.1666231000484586 -0.2699843648617054 -0.1486945910624055 
-0.02177571651629851 -0.289795628522944 -0.3740706832042638 -0.08858973812506263 
0.05482219838668864 -0.08318487009397336 -0.308731844126343 0.1028195916410745 
0.003685767533556155 0.01598050168940177 -0.1215469506330564 -0.05952825800056982 
-0.002809961583680598 -0.01742733964930848 -0.1677707030421418 -0.009646371933356795 
-0.02913463364226358 0.06411028300779428 0.002295063043208122 -0.1558436521195634 
0.009241813838280679 -0.0169777056750019 -0.1989316681869691 0.09960716871752866 
0.04500534409182734 -0.04768821536032535 -0.1731979074903122 0.09761987908356351 
-0.08153516597326249 0.04406620765696194 0.1814892887085572 -0.01700907165315832 
-0.1512281817274628 0.08721968077581432 -0.1509926626423064 -0.1705511992129738 
0.133541223213583 -0.003216045781660609 -0.007702733950570471 -0.07797333758758726 
-0.2092216299922492 0.1622298076305538 -0.2634582351576287 -0.2474374368643473 
0.04254518212972354 -0.03501260118269751 -0.08058789754840513 -0.06231172409656317 
-0.01702218178405838 0.04889262998755657 -0.01329093288780145 -0.09305024927337334 
-0.2328349734297159 0.08679134833556684 0.03060141092887701 0.04916420518856579 
-0.3153836290737873 0.4278802385341905 -0.5228225467896409 -0.465312644668638 
-0.1156076832291316 0.1708437827029395 -0.421262442770875 -0.1605188027990573 
-0.04766107059022828 0.03004719457042215 -0.3331228272193009 -0.05489133417321573 
-0.04990536553498769 0.09291746157940133 -0.1763313489992326 -0.1409240580361966 
0.05498232615586626 -0.08029300212496134 -0.1358041963110505 0.01797704447660714 
-0.1528651847717752 0.1025657276029671 0.08736543764283765 -0.1392904544628202 
0.2172995130871738 -0.2446737984414434 0.03250437976994075 -0.104101036003113 
-0.00618855937112733 0.03047890270812524 0.2150360955008617 0.09004302202049362 
0.09527189105614238 -0.1272888343584628 -0.3082479398092325 -0.03351445542782996 
0.01597068403827005 -0.01087258413382894 -0.1861124543116835 -0.03679878229888194 
-0.1613034391525567 0.08018672905034695 0.09723695277163535 0.04798296539035329 
-0.03674116295700501 0.03845289983115376 -0.07957838130704463 -0.07405316916883488 
-0.1095507805465625 0.1665796864059116 -0.1512381740055323 -0.27557101409346 
0.2399801478279425 -0.523506353795481 -0.5501486297347439 -0.03599381111513375 
-0.07310827938593076 0.06910286604177499 -0.1885099469645224 -0.01122252324966376 
-0.03812034638186907 0.03379924088807437 -0.01454266655226409 -0.05760483799943359 
0.02852670730726947 0.05588107689769947 -0.4147539752345232 -0.01851940981357412 
0.00610166155543923 0.01981993244971306 -0.1987905594170548 -0.03908076592198657 
-0.008048061368765909 0.05526720182965457 0.06828981066075435 -0.4120638053954652 
0.05216736420452087 -0.07991972693645967 -0.03466717808809239 0.153612239139194 
-0.03708030530209221 0.04503864560938397 -0.1554762808240079 -0.02007743985245934 
-0.08565874170440856 0.08529057945200662 -0.1542032007899727 -0.09391173182365975 
-0.005790120706826957 0.04588187686729872 -0.03030902720553478 -0.09966728234354215 
-0.04445605469968858 0.008574682087189324 0.0433118210252845 -0.02422450362215394 
-0.06202434048278603 0.009995766805929214 -0.1545488748880295 -0.003503302581754419 
-0.1117977217627027 0.1196974618542833 -0.2987198098323423 -0.0534165156727352 
-0.05217181259455882 -0.0393577096272377 0.01537303626281683 0.06138816383489357 
-0.08579257509881477 0.2037567495349115 0.01999209202905381 -0.05807193129081115 
-0.1526565019837844 0.08479017615396284 -0.01521670249322814 0.07106589236872743 
0.01362097520241843 -0.03671415502392077 0.2084787748890102 -0.03616631353873081 
-0.1388730452335551 0.151158940671686 -0.3519992161165658 -0.167007989793723 
-0.04270934785451291 0.02066003064656315 0.07745310904978658 -0.01367802962327105 
-0.2231823806716482 0.2182640267022845 -0.2822580253704136 -0.2351338791256422 
0.1276040223521394 -0.07921043954997639 -0.005277076888542866 -0.05917453761388925 
-0.1109474032440206 0.0998333141412147 -0.04095423868362646 -0.01755209474503594 
-0.06860883457904887 0.07620247744636485 -0.00713663149554054 -0.1186257227389793 
-0.2490739240310181 0.1964419535599679 0.05637921268306684 -0.1289204058602249 
-0.03873542962206139 0.02361026271743137 -0.9284396798151942 -0.1431318283120341 
-0.3004690150019148 0.2643051731013868 -0.05572128855620033 -0.02059279277805852 
0.02323177516801176 0.03381751918184087 0.1278997903166244 -0.02265174628319725 
-0.005470802668846211 0.1121113761204562 0.2074041379736037 -0.07538728125445059 
0.1393169530848307 -0.2154096863386308 0.0383795023605555 0.06956165402742839 
-0.04758164253254113 0.1363800466084711 -0.4779942748109493 -0.3047636752334739 
-0.1636928096526435 0.08040782733901176 0.09294840543971862 -0.08723633885006782 
0.1787894700727309 -0.08402669114872584 -0.07558544885648122 -0.1118287760536569 
-0.1080948564737609 0.04047949378549419 -0.1780750570713173 -0.184695205461432 
-0.1565765654002806 0.1734526984534565 -0.03433787962972158 -0.08650340460002931 
-0.05333075585684738 0.009925103311158898 -0.1070167892343172 0.1087587028555536 
0.09547468604322309 -0.04952522875376063 0.1149975639629485 -0.02450981820999488 
0.09227126120537735 0.0976098254158948 -0.1852425468245633 -0.1719183785770028 
-0.08723119698318382 0.1575104241897725 -0.2906831424370251 -0.1737762056209439 
-0.07144484600938342 0.01404706085636955 -0.1547511124307348 -0.05660908507203979 
-0.0907551082291984 -0.04168864557243727 0.1648337505546837 0.1049385084694692 
0.09037378945793353 -0.02998112236027504 -0.1490861064142065 -0.1128658216373767 
-0.02068483465686556 0.07463857513347846 -0.1509444058939414 0.003179367191699509 
-0.0653890432280311 0.08155030472479671 -0.2829089187628342 0.05109332995223921 
0.01325495959202895 0.04805689074240756 0.02909884146965781 -0.1310066872300953 
-0.02906911441044915 0.1002566931343339 -0.01893405544598581 -0.1185200577527475 
0.2007253936589569 -0.05354812202001978 0.1326763145600828 -0.2229034109928679 
-0.1027603956011916 -0.002973094914545579 -0.03268354788879006 0.05183153319428087 
-0.08374103843145211 0.006627190726449236 0.1010898242046265 0.06078683819230818 
-0.1481627691263646 0.08098257660318439 0.2798511332355534 -0.07223907523033703 
-0.1884356154330973 0.2244403402542874 -0.094711244556486 -0.1429904982961361 
-0.01883656070390134 0.04019292804571948 0.01647816161142062 -0.06681514418967627 
-0.03751971573850008 0.05197431919228591 -0.3003639909888411 -0.03788330910956918 
0.0613843085282418 -0.06769611038828002 0.0892782066232741 0.02059857265536692 
0.04766442309335382 -0.04029311062399797 0.0284030665899832 0.001396929452127275 
0.01289574180594442 -0.01337172318391147 0.08781744694031167 0.04252073430638743 
0.01104166814183632 -0.0333712187496434 -0.1475273885028171 -0.004415524500306823 
0.002904639881516432 0.0414157275732813 0.01428683778732689 -0.08718568372617096 
-0.04086032168935929 0.0873369372865017 -0.4617826721281653 -0.1554835612290374 
0.06257818294082654 0.08425936652735407 -0.3186006792705385 -0.18082679364177 
-0.06217634797538243 0.07733933140889668 0.1452376729258612 -0.07484816727616983 
-0.06546566985191909 0.1196528950468587 -0.3153124881616653 -0.1014803302717246 
-0.1081165420309186 -0.1261049815845839 0.283785123691738 0.1721233014849015 
-0.009095211708075202 0.02219388100865775 0.07621801386979224 -0.178788204664644 
-0.05168968443191774 0.0582093848142882 -0.0952045279387433 -0.09597108904089187 
0.02528034776606919 0.008510569785636827 -0.4794927266955595 0.003282974548870457 
0.006150336604810725 0.01776680314295928 -0.08513610087442934 0.05125722648213223 
-0.003568210180530426 -0.01205836476112758 0.09624414043216092 0.02775175212475883 
-0.1479106103681904 0.0959360531856764 -0.1974166564666548 0.005265551045266231 
-0.09505289210261628 0.1231650163035013 -0.2019762413223112 -0.09725138024306694 
-0.1148269139606657 0.03748115726059408 0.04093626745203035 0.03726815701126976 
