solver_type L2R_L2LOSS_SVC_DUAL
nr_class 4
label 1 0 2 3
nr_feature 2035
bias -1
w
-0.2281999429072159 0.2867075917027698 -0.6686713468582929 -0.2851479067833826 
0.01100868252872529 -0.004974035378410154 -0.02448488140456386 -0.01373663578277034 
-0.05598487293326648 0.1224473005259906 -0.1760226371951172 -0.09680625811010848 
0.2314185198628741 -0.1451079074553992 0.04203350917498274 -0.09724313277835181 
-0.04574219443689456 0.0518179110327521 -0.08244083822369933 -0.04684452221069776 
-0.01847939049381191 0.01961352667355749 -0.0186976939949982 -0.01805857983687702 
0.04640113209566234 0.05201557580708124 -0.5375077105341868 0.07245988124541411 
-0.03193912423294656 0.008595183843219842 0.02847796090675175 0.01444111561391828 
-0.02049557653111854 0.02233897101635622 -0.009348826743696911 -0.01380854540808864 
-0.013647379367853 0.002329393332631141 0.03931493989204141 0.01478911639316644 
0.07483048131191321 -0.02513180398310008 -0.06003935658401569 -0.08645718258393077 
-0.04025980706424667 0.03799020460504795 -0.06787046878043769 -0.03386665099868245 
-0.5152663950262577 0.5134513835260566 -0.6153440226893214 -0.512936827795046 
-1.941569094204049 -0.9013614621127055 -3.237411346225442 2.333209552794687 
-0.02933063869512476 0.005470833999401958 -0.0006004639495073327 0.002561554745242296 
-0.02716335144297393 0.03486692887602238 -0.05264205382046481 -0.0515001300905687 
-0.08887895632218623 0.0743257755763411 0.01819071684985647 -0.03026524636264699 
-0.03134801146401821 0.02959532974341162 -0.016060879916725 -0.0256100004814927 
-0.03827820724894423 0.009985462454395884 -0.00564613227936863 0.005100146488727435 
-0.03238762492424216 0.0677377715602899 -0.234839825000983 -0.1194494789441435 
0.006285037362239287 -0.001178072260422289 -0.00277065143400063 0.008179523256484991 
-1.956050986054357 -0.620201751525896 -2.055151361648242 1.996168061116281 
0.1391822671550428 -0.1202323759058139 0.08689649329140778 0.1704543576380456 
0.2843250512902636 -0.1606317548960164 -0.4264797213481727 -0.3416841993657747 
-0.01695370902274458 0.01014093960816798 -0.006543467430383539 -0.0005935563523321698 
0.03002887631012031 0.009416863632225422 0.02659993112415842 0.01033150563947016 
0.08798100205592775 -0.07658599041877155 0.04484636087048435 0.1661337248169364 
-0.03979724787372529 0.0312437626896475 -0.06075241635258008 -0.003862736963714874 
-0.02877365992789593 0.02697143905999627 -0.0180363406276957 -0.03304111462839932 
-0.0181969035441822 0.02022721207642957 -0.012018615345058 0.007900536326389108 
-0.03940914925763576 0.01680429545142884 -0.01580907148108561 0.0009626326372461609 
-0.08708291038346663 0.02450807706822685 -0.02178249691127758 0.01768035199418692 
0.074918738473814 -0.03998126392963891 0.04686016438758833 -0.0272666280049213 
-0.02030533839096285 0.01798681702082271 0.006681145262393311 -0.01946677415147159 
-0.04014495004846323 0.06115552839868176 -0.08107519362125194 -0.06983012977665988 
-0.02512356692263877 0.03308136629098717 -0.000359779062704807 -0.03909870911102996 
0.6414965487831482 -0.4344090224290106 -0.6480414960938456 -0.6131751642624245 
-0.03501891316445151 0.0168515195828996 -0.05506703922391862 0.0156686907499306 
-0.03220689974332325 0.006555011746806821 0.09967702200262274 0.05612330670695272 
-0.01797317899371505 0.01869470793700888 -0.06072865826188557 -0.05845813471030106 
-0.0981577961031936 0.06002998356567778 -0.008446851405606345 -0.008854513107283905 
-0.01679902973507948 0.01973275929770282 -0.118173694522967 -0.02909185611946376 
-0.00126884727109707 -0.01324907139380975 -0.007649165526059496 0.03386487349216136 
-0.001807629294063275 0.0219273831675815 -0.08601794945991924 -0.01887660772983313 
-0.06077246002965036 0.04789374314043353 0.003003336081925808 -0.01351471635598127 
0.05645448328233808 -0.02298142181149725 0.0150761439586346 -0.01257194996973346 
0.7990268272305279 -0.6580774164727177 -0.4829041082329482 -0.5578508689947659 
-0.01012244601055018 0.0151320945498622 -0.08864498533716864 -0.03066613446701849 
-0.06498360850901903 0.06358199121622951 -0.01286509949432798 -0.01091562793600195 
1.059665815610403 -0.9907787971005089 -0.9810774146865761 -0.9636186081037144 
-0.06449702558428133 0.04257189380667691 -0.07808912967465871 -0.01378129295353598 
-0.00492803731270876 -0.009116031408622185 0.1189601202744045 0.04279108709704651 
-0.03344138571076156 0.04973830998884701 0.003716130889347615 -0.03878191098888913 
-0.05161658283375845 0.04276792020187375 -0.1198167995122153 -0.002922483861476825 
0.06686195639701666 -0.03600710809631749 0.05593843035089339 -0.01914938975330426 
-0.06367953234293698 0.05674654415815882 -0.1734652019269068 -0.04601404681392449 
-0.008857288036781433 0.02386792788527001 -0.1151510754993404 -0.007525207731046382 
-0.02732498832653287 -8.584700901191568e-05 -0.01833031108439543 0.02036391617773563 
-0.02816356416152686 0.01922595981297966 -0.01308337494076949 0.004644567920255116 
-0.033540362167518 0.05182643391089203 -0.08117685454361687 -0.05625011181106074 
-0.05741143885462854 0.0530507125200023 -0.09978219197045726 -0.02886129020814138 
-0.001825887612502588 -0.0001755418102652432 -0.05323599306360446 0.003686664689224604 
-0.007586579923698936 0.002678786353107246 -0.090312748668085 0.0009058235677549152 
0.1027183522178136 0.0003811103169804814 -0.07815645782716148 -0.1884187985046804 
-0.07535371725289661 0.07310825052872942 -0.1007869349628877 -0.02082363528546176 
-0.04729865752241934 0.06751869064351254 -0.06695159101848175 -0.0446564256514612 
-0.0877307618135833 0.06775564050993282 0.02766648519338972 -0.05575274887739667 
0.004820274190454918 0.01083070989786499 -0.08998707566225067 -0.02359394250136666 
-0.004842575388371738 0.01620997101034981 -0.03004226593295617 -0.03569101621693173 
-0.04269212760874291 -0.006297716637535625 -0.03683493399605401 0.03605846581549855 
0.007964832182772996 -0.02095034620045065 0.08266803645006411 0.008897910624349572 
-0.02578524838725329 0.02923287431424372 -0.0196896618473839 -0.0016798220600686 
0.00267456724945329 0.02223894267345258 -0.07282304115096866 -0.01620480358831862 
0.04262805233328035 -0.03124503895699269 0.02188657349680526 0.005927321208368944 
-0.03629378761151519 0.03000799284596957 -0.1367866183372121 -0.03857125881296252 
-0.04722491224230912 0.01811800275917784 0.001585950679984911 0.04981629645802534 
-0.006929014119525034 -0.0005322345309534853 -0.02025527870154429 0.006344314341728618 
0.005830241089511774 0.01469296301815757 -0.02104425622341198 0.03501896597527488 
-0.0470597176431734 0.03465200466750148 -0.0517396167126162 -0.0005859386546527845 
-0.09574950495998763 0.02109045790367837 0.08775235258148772 0.04064222074750527 
-0.1414943811208594 0.06731572372132223 -0.3331896992476074 0.01833246691210944 
-0.0435015329424842 0.05211193147736818 -0.1156845636159057 -0.0447187790794036 
-0.04244731988683775 0.05585989225668396 -0.1011489474826446 -0.01382731066935084 
0.01496886693534357 -0.03256976236799692 -0.03432820697375119 0.05276161111988933 
-0.1676181939053973 0.05973866559662475 -0.2091759250392254 -0.055904056861179 
-0.0659793045305488 0.04929158496335584 -0.06595239555105385 -0.06749193814874004 
-0.03634169375651429 0.04099891932565089 0.04892007673457963 -0.0455119613794853 
-0.07323644538465646 0.08474532149216561 -0.09063923678736251 -0.08661130224332704 
-0.05988023828671514 0.05169385394518916 0.0150017766577708 -0.03103281969467532 
-0.01806604580450599 0.03026947634861221 -0.06919715717824465 -0.04739271416588347 
0.03423157104747655 -0.03075683320277829 0.1480392448252091 0.04078818417013112 
-2.078628154381288 -0.8877086760718076 -1.994585913434309 2.454162956243898 
-0.02411705484120716 0.02930745622903659 0.06157201565713562 -0.03440830814085821 
-0.03565352604158579 0.04278687034268334 -0.1531631624769178 -0.05026769194711002 
-0.06768824700544661 0.03591348601711663 -0.007028339250194867 0.02827868909845136 
-0.06920996645169944 0.0644600498559883 -0.02920337338082466 -0.003763045168180443 
-0.1011687693421803 0.04114458863938359 -0.06250140072865397 -0.0332442191451388 
-0.04614887055404516 0.07398295819401744 -0.1444836296735777 -0.0852858306564164 
0.07569895513845966 -0.0573763226135258 -0.0502996246340784 0.009311312979474557 
-0.07825155089779708 0.05858545489453573 -0.04224687051131958 -0.01030438293833203 
-0.007494945805787186 -0.004751909414952164 -0.1401109944411126 -0.009287391174732415 
-0.03604907534653958 0.0522872233187775 -0.07715542191217428 -0.05785704939524016 
-0.01923745201434947 0.01870527473317784 -0.02348756858556761 -0.0246767840349245 
0.01278330212501396 0.03258548601728373 -0.08388580172390142 -0.03359450476484974 
0.0019616107784363 0.001810641756586152 -0.02330330272416092 -0.02186225232422521 
0.04613814403346047 -0.03424052701216931 0.1052912671226936 0.006963559786780696 
-2.032144191948676 -0.9158175314675832 -2.557428380694314 2.231548999420558 
-0.008458265488965727 0.02136220700817572 -0.08280306779970156 -0.09980233421557971 
0.04020869369233353 -0.01861864302440008 0.1184911208322691 0.03571768050671423 
0.03550434524006135 -0.01589519431394248 0.06521955837813848 -0.0008756015039343111 
-7.043023729519479e-05 0.03349491676585205 -0.09387860498553885 -0.05368147818300652 
-0.06373319057489493 0.02770153631702531 -0.0995522048827911 0.01119809003979676 
0.01485404220411222 -0.01455825533932248 -0.009671114591764776 -0.01888039529260841 
-2.228683673121204 -0.6995242226908474 -1.22074272244162 2.168190700816591 
-2.079519522691573 -0.6315858668856191 -1.481042964989622 2.023904401082892 
-0.05091030289594613 0.06495109622010085 0.1054925627729768 -0.04588923783158619 
-0.001765152993463578 0.003146479210970485 0.05125319298733182 -0.001531968695978891 
0.004780921883479922 0.0005525702171022462 0.048729818880512 0.00983524102644332 
-0.006794216398507549 -0.00129147882916472 0.03318604015143442 0.002654747019499289 
-2.288233641598832 -0.6601018416636378 3.416120405514693 -1.764279941155532 
-0.01644406078591389 0.02786021584588621 0.07252271569432357 -0.07082261298590173 
0.0129619554229591 0.01728204555455388 -0.005408748657082242 -0.06905391569756077 
-0.002817867041992479 0.007803802910117553 0.02088295486985413 0.009250745725106674 
1.129971668578516 -0.8575139127006934 -1.027083754772914 -0.9862129651529528 
-0.0589584020680264 0.01645203046284918 0.01082521840388382 0.000914194715148876 
-1.836858096812997 -0.7576429206068463 3.243766098571448 -1.637272434603463 
-0.01740536043792744 0.0150208039572126 -0.03795422141396634 -0.03181598899072387 
0.001651253061656414 -0.01411202434302315 0.0132290840643569 0.02411754849730934 
0.02563589221025889 0.02369006588014963 -0.07419672972858252 -0.01298721203496267 
-0.008487897277954298 -0.06447037025101859 0.07270781624825093 -0.03265691018932754 
-0.1100118444417417 0.02246596786882554 -0.4201778677383456 -0.0290711585935559 
0.04585646519757122 -0.05816504430863415 0.1245301676615444 0.05995455240489191 
-0.003146660810413755 0.02359051847768975 -0.03669679704049851 -0.06147301120512079 
1.094812275979464 -0.4402711250537696 -1.653799292480691 -1.148691630403807 
-0.0474962249085225 0.1080353738112445 -0.06705187919228174 -0.03248726926142345 
1.548884179514172 -0.9090986533101945 -1.423910715035907 -1.279773999633581 
-0.05899732026814988 0.07806663810859857 -0.01556370609138271 -0.063500758351482 
-0.16094011598642 0.2082975891211928 -0.05590746123656433 -0.1082222109047334 
-0.07819914269983941 0.01620363424749927 -0.02691777137961202 0.01989727224406191 
1.287579420678659 -0.8951065659018269 -1.349778503472504 -1.041978021413444 
-0.05946942449455483 0.0822222081534759 0.006670270069073761 -0.09813281677528903 
0.01814774696964328 0.005984556553209384 -0.02361255145985617 -0.03458867740057293 
0.04161462515102082 -0.002933167286254579 0.07323390344050518 -0.02235097313571667 
0.004704920893759545 0.008082259299608745 -0.149903210420046 0.01850130806563568 
-0.01547369329928756 -0.008869993519703114 -0.08527297677504958 -0.006134742248884109 
-0.09442069500047551 0.08137884270128985 0.09624755236513304 -0.03839667584505379 
-0.004094427424451297 0.03262085818829484 -0.1205645896927173 -0.0423627682851782 
-0.08226095489933483 0.04873765709622484 -0.03982714253776359 -0.01232671387844749 
1.266048734414216 -0.8749667114363517 -1.448352435707032 -0.9569374522522294 
-0.02598989586423286 -0.01867217725904727 -0.02612879120452966 0.02756288433272481 
-0.0005641967336355621 0.03864785338845336 -0.08706141307073045 -0.04680013908622156 
0.00304404548247219 0.02257051140021966 0.0130984161254464 -0.04605034960461764 
-0.02771010748149761 0.0558177302511985 -0.1915268512766231 -0.05539730088737193 
-0.07443272642020832 0.05616613629944443 -0.02973211855815931 -0.0324112695090687 
-0.01393150915187659 0.02221801675848644 -0.05241517124386942 -0.05536391501387854 
0.7152887011271686 -0.4865331610204245 -0.8364655278857516 -0.7215278122824973 
0.009491678746489112 0.03649822347488159 0.04693769859889941 -0.07578588051783759 
-0.04454214633429403 0.04176773469417423 -0.05642186374871386 -0.06109722061205042 
-0.05533222577275866 0.02842850585514842 -0.04575399635687061 0.04200325694351206 
0.5297233065608138 -0.3309536191105421 -0.753805529738981 -0.6126558377332189 
0.08728940683161798 -0.07185220411033486 -0.01242815096208915 0.0001059143404270454 
-2.441875264690586 -0.6193897540849802 3.497435492504483 -2.097849326012901 
-0.2223128614617203 0.1768086175200932 -0.09689469857500208 0.02518234225001609 
-0.1081560767196946 0.08161096454658635 -0.05118791360253358 -0.04774220495927593 
-0.1207720805371821 0.06199169576581048 -0.05200093957668542 0.02197988650289477 
0.008422545900718705 -0.004489311765932878 -0.0373938061174731 -0.008580225361574816 
-0.0542299960696026 0.03091913748581679 -0.08795582499233888 -0.0324372188702555 
0.002230845096838983 0.03081890191683876 0.1152572896728352 -0.01847423290386497 
-0.05392011335265785 0.0611565933403168 -0.102888468051801 -0.04850198905013546 
-0.03616109413825508 0.05840584639467345 0.0631635816395697 -0.091725629605799 
-0.04077102229677058 0.05989680153863067 -0.2150105931197873 -0.1038969845838252 
-0.01688454577023952 -0.03250266070750574 -0.0442686941051021 0.09611343623621418 
-0.01927418825554758 0.002036711689352838 -0.04689140844570915 -0.01899578733214731 
-0.05133580409089157 0.03275942403106284 -0.0008237976655234482 -0.01903858249744803 
0.03401435689413804 0.04893567796830296 -0.5158537608724109 0.09685304231535745 
0.6382242576103315 -0.5340792499358648 -0.8027313388635409 -0.58208103620798 
0.06071269180697348 -0.007034380613580794 0.137512092078623 -0.03505979977644943 
-0.1617363723210964 0.09469485073173912 -0.1688831149250886 0.00109809547963244 
-0.1343241293563657 0.1053988822342351 -0.2508710908019965 -0.03406803004922399 
-0.1603575932112231 -0.1404640791514515 -0.004931201281426636 0.1849328163981405 
0.04360775314849546 0.03172125815915554 -0.1664737451270001 -0.05856656317516117 
-0.009105334117225264 -0.2919787672439765 -0.04348452262033611 -0.05693252571203899 
0.01361193047970101 -0.01161015933759911 -0.0697279172266918 0.02850113588323007 
-2.473625882882274 -0.9384122745734323 -1.776495003868965 2.565833629371351 
-0.04576518554946204 0.01351747801441011 0.09369431348808577 0.00326026751500523 
-0.05786114383619115 0.01191585923970094 -0.2206505063209072 0.04893995263375352 
-0.1675277951499901 0.1956533074238928 -0.1912660058443387 -0.2338603363051429 
-0.05429862072573239 0.054321710400134 -0.1598914038169771 -0.006483673790448851 
0.1295372058759629 -0.0822177642600276 0.001606781989371421 0.004205219234694803 
-0.1821248641287073 0.146039490375503 -0.06925771497976567 0.01479599319113882 
-0.05652854327684223 0.09670381120948837 -0.1848769611035549 -0.1144405910369155 
-0.09809016621992203 0.06211259317709175 -0.01185499277186479 -0.008628983558962348 
0.1375758949416268 -0.05303766494754106 -0.04701617918029756 -0.0004247288225397369 
0.04149237165638466 0.01503197727854905 0.07380196113963339 -0.04279871429194788 
0.04454187923921401 -0.09249308999882856 -0.08007623049106213 0.1405410366685832 
-0.04969721813467597 0.0114862685535422 -0.1024475156835073 0.002787499839812971 
0.04516666483642957 -0.003037126565309305 -0.008435787492054288 -0.07004743155243419 
-0.02650048781066337 0.07371504849257048 0.004631613752727412 -0.09495357588271613 
0.008613532916829198 -0.02151282933370799 0.02821132055334332 0.01935636506382554 
-0.05848951758112229 0.07612676560368221 -0.0951705811061845 -0.05794579814198899 
0.2364015007514562 -0.4108181695321829 0.2075898216742388 0.04870870967360178 
0.01356499922086753 -0.03212063468408055 -0.0180612627243208 0.01641355098397055 
-0.01302537205668195 -0.01230058024711997 -0.04760741616030729 0.005369983417471457 
-0.02697808198797276 -0.02269945866543275 -0.07603406499521924 0.06695122103600949 
-0.01138632125671679 0.04368004147794585 -0.07534304099413897 -0.0328427372204152 
-0.02772427384685135 0.02423574962462734 -0.1070469634367807 -0.04316636696688832 
0.3600935294332361 -0.2014220746979841 -1.092994884966962 -1.156965819340272 
-0.01147582679624526 0.01186623665747848 -0.003233660541272388 -0.05612084573160652 
-0.04772234983814498 0.05559140983654291 -0.05420570878537131 -0.04183293623506072 
0.08006657393492322 -0.03174422405309275 0.006896862238055581 -0.006091814508990553 
-0.01090282406052726 0.02527150717985948 -0.04187322006430766 -0.0485152069581953 
-0.03786652200529865 0.02336480430998542 -0.07508340891751686 -0.01820536602330897 
-2.065046303545209 -1.008392657779341 -2.055703913336859 2.242490606844981 
-0.007743898574200853 -0.005574211820667149 -0.08914291222113863 0.01500020874028035 
0.07704782609018315 -0.01957470147716134 -0.04191805813149466 -0.1140266628970707 
-0.03068408444829118 0.006117107256711312 0.1322376870604451 0.0046691449389141 
-0.07966517413149 0.05982905432366512 -0.07642258819494027 -0.03567494203456206 
-0.0520087828086466 0.07016688272621439 -0.180893478646793 -0.1127926105095168 
0.05682605594088002 -0.006479416840231737 -0.0830063517356604 -0.0373889620531429 
-0.004272848172634013 0.006685177521077799 -0.03527977156598017 0.01060785125632415 
-1.987181612945439 -0.7726187390953979 -1.188525895112617 2.00136547549972 
0.01359229757500407 -0.03752075709006161 -0.1333401984689117 -0.0187528748961322 
0.01829583294685707 0.03002075873705807 -0.1385868461191861 -0.05862400396495694 
-0.01199936938517242 0.03702931922459958 -0.09744796210437756 -0.08650148678700433 
-0.04222765017367792 -0.01314462827270595 0.2536742036343694 -0.007893249243378357 
-0.01644318435187864 0.002827758202008343 0.1508580649254622 0.04392012312363702 
-0.002191162456562849 0.02479892798912679 -0.04477581751622951 -0.0009544951666980107 
-0.03445413696166596 0.02512036565139377 -0.02016432862263017 -0.04922192432897643 
-0.04463281292439933 0.04554733789458981 0.04565046615530037 0.01242549397454705 
-0.08282494964007756 0.086218393880241 -0.08611611734228145 -0.126893951883999 
0.007738619546827998 -0.01876374684539671 -0.05656143352656411 0.00427180343331881 
-0.054392134520902 -0.02855071538536688 0.00246961016430615 0.1217864022942211 
0.03093169692861171 0.0172490403724204 -0.04130457860174306 -0.1199548380305966 
-0.07090965207904969 0.02439698694451283 0.006766683844803564 0.01590389654274969 
0.04529571695789481 -0.006729992888642644 0.07718185140587316 -0.04352137286802254 
-0.04053965840667023 0.008977806488828437 -0.1102015322047945 0.01991980412225888 
0.2402954754406774 -0.1168402077236454 -0.3510947370379691 -0.2491393498127253 
-0.05977075509012168 0.01579036828343729 0.03984428673432031 -0.003142654308310573 
0.04379631545534821 -0.06344232769573256 0.008181383676126691 0.03959391030451818 
-0.01690268409747667 -0.0763821864872582 0.2156332352423611 -0.01709119168681079 
0.006991457121656761 0.02212337551581223 -0.002312951823603515 -0.0388458564954079 
-0.1323345670402436 0.1480462102848633 0.0762036105611017 -0.2319354741505291 
0.01880088674768506 0.04207498562299938 -0.06770170179291583 -0.1633642041549107 
-0.08623537693095192 0.04074632090883968 0.06673795886299401 0.07218398101339993 
-0.009541914301924546 -0.001012722037899305 -0.07249474779876405 -0.02563940213151577 
0.8175597577848581 -0.5504307269497323 -0.9227190814509577 -0.9314278697618263 
-0.06645613548449998 0.09101372201061309 -0.08983739912813807 -0.09650698968946771 
-0.08899648171299451 0.04456417033832158 0.05075236188983432 -0.06854320977297859 
-0.02598153884696398 -0.01450369937048497 0.07512114931059866 0.03445227042226894 
-0.07280908932188954 0.1540964598258867 -0.05810982899680104 -0.0346235891952559 
-0.1017298957821623 0.1107045714899557 -0.2802203949071558 -0.1470362249512713 
-0.008147053332652095 -0.04302119101596333 0.05455304171935402 0.01927238438194005 
-0.06578075980993936 0.1035717362212998 0.04706361184217651 -0.09150160549452484 
0.03974668402405794 -0.01192708410630389 -0.09570253837968352 -0.01628410497796988 
0.03276460735603562 -0.01593193722319789 0.01880021364921451 -0.05974224740076793 
-0.03444177108622045 0.01334442644370927 -0.121990970154824 0.001637671547598558 
0.04175380561244511 -0.05434071838714591 -0.09336223313818928 -0.01999935382616135 
0.065174468480173 -0.01278560451716293 -0.05689006495104244 -0.02861377038974861 
0.004442743269683935 -0.01504266372602663 -0.1314455658054117 0.1142749250253153 
-0.03978344096854971 0.05450310418594859 0.09077254772565364 -0.05768085386756792 
-0.03994621651038284 -0.01090424700951723 0.007378226186831559 0.04758726450454059 
-0.007418986572331887 0.02784292408126743 -0.07485947095115189 2.447937466328824e-05 
-0.02925461312299782 0.003257839141967292 -0.1227401184773597 -0.06012837132255438 
-1.916055201248331 -0.4089076117397316 -1.767122163175566 1.988252633157029 
0.004653431227959521 0.02185998584281316 -0.1212032611959236 0.00264840157970881 
0.4538075642566997 -0.2840576413293203 -0.2483828330829085 -0.5627478488839647 
-0.04925485323920444 0.02474662876644185 0.01726779612147617 -0.01811509588687587 
-0.1684932076370223 0.03916978144974254 -0.0772180412278029 -0.01067453753554803 
0.7688009164227014 -0.4927803368093607 -0.9779089619823504 -0.8047364218707324 
-0.007694014830590958 -0.01740332228557217 0.02555148845010921 0.01711808489802507 
-0.09742807735085479 -0.01021946397814378 -0.1899882765454121 0.09378291532410545 
-0.05262837854029421 0.01880968726312188 -0.1125812646056315 0.02703508327337438 
0.02936341337304703 -0.01126934567001084 -0.009916332314404539 0.03570641905792472 
-0.02758130858033445 0.0131246020639714 -0.1197186262589689 -0.0130671043353817 
-0.06588553321275159 0.0611317042730763 -0.1741674391432533 -0.01461623064148217 
-0.3115745940355765 0.3764421401042113 -0.3430175871005704 -0.2570528086089955 
0.005658601696629769 0.01369086771348092 0.1111024065882214 -0.06902158121917529 
-0.03224509127486049 0.09023005549410534 0.01429303220349934 -0.07746998759674123 
0.008968795404197155 0.001481140615328007 0.1301714867271721 -0.02135438038005082 
0.02180518432220684 -0.005973294758486304 0.02565326899946333 0.004904613190378495 
-0.110265329554176 0.1350451597857908 -0.4185471584317647 -0.2313828205078757 
0.4242238789648951 -0.2848701913145542 -0.4713176365614198 -0.07299247285976901 
-0.005589921513734954 0.04452645424269487 -0.09685733890605827 -0.109497337614404 
-0.02906877684836975 0.01968978719430405 -0.08117810355472115 0.0002987456472718021 
0.02504403282204647 -0.02847829787063582 0.05302480575346006 -0.07031398087657342 
1.717709922300485 -1.224524437704425 -0.9929307138119453 -1.444301703623244 
-0.09945799702611767 0.09506455508725772 -0.06727040120459815 -0.0898604060244358 
-0.03626429999964551 0.01788374257385473 0.05108717928964293 0.01109076233753426 
-0.1656228890538124 0.07779757599225283 0.01348488164003668 0.01810090760781601 
-0.05646807113977249 0.07972729888833349 -0.06462391550507475 -0.1210951286018287 
-0.08333081654709407 0.1107052384094374 -0.1846654212138231 -0.0944645219904989 
0.06455929764028057 0.01010471863707909 -0.1458247519239105 -0.03992365855255103 
0.009399579906074814 0.07508817199347403 0.0445251278966035 -0.08681490704332402 
-0.07627438545390625 0.0906875179200107 -0.03857630859969523 -0.1246913927669019 
-0.07763369688610282 0.1354605680887818 -0.1581845896200822 -0.2164928451323774 
-0.04375322565524806 0.007715767174566089 -0.02624141457454501 0.004147774202585276 
-0.02213525843660716 -0.02219953811724345 -0.09362758060360092 0.06109396564833394 
-0.2844310968892104 0.3114097164084261 -0.186332844467708 -0.2312636155239228 
0.06367565089531789 -0.04762204589341242 -0.1589999904209727 -0.0001812218530543909 
-0.08032497418840348 0.07351408664234116 -0.1125104453168642 0.01077442531327546 
-0.05310508525289877 0.06823952379467967 0.003037278234532732 -0.05685944053068986 
0.03590660029985476 -0.02141560558677013 -0.0910774300165918 -0.08492689046248285 
-0.09711653617345875 0.05092119446509447 0.04535582255311637 -0.03986143751247689 
-0.1270241205084836 0.1062701666737186 -0.02557075358128773 0.01733416341222609 
-0.05485429914778048 0.04329638323456371 -0.08410394911609939 -0.02854649566802162 
-0.01535385679697118 -0.02202561281132012 0.02873295491267992 0.01768433744712992 
-0.1294018878923434 0.1253334212759765 -0.1237659876581839 -0.08296938693075605 
0.1253512803122039 -0.05886068516765801 -0.3421703576393617 -0.02818667290364948 
-2.075187468544908 -0.8903595522422787 -1.186740566492823 2.124040298000001 
-0.0390627591223708 0.04675385901818117 0.03907506183225404 0.01591861505832725 
-0.02407497369914446 -0.03403250601751401 0.2491507331367642 -0.004011965851779859 
-0.1395529086788318 0.1352978317816456 -0.1136075281067015 -0.09900020666439426 
-0.07558326146966807 0.09901756450783769 0.04429020197652622 -0.09910255605172802 
-2.138724849645661 -0.8236328822230733 3.457437931787887 -1.80105982712984 
-0.2851067300993309 0.3608232337153739 -0.4590333219356267 -0.5307431120786241 
-0.09055209061244493 0.02982532390120994 -0.03212444648009197 -0.04465664641756828 
-0.03372331021259729 0.03995599917702981 -0.0310637168133565 -0.01817297287327224 
-0.1178819970084639 0.1122746831139096 -0.2187027258917967 -0.1003677136646197 
-0.1857217828824756 0.3040813734629478 -0.07372396823056598 -0.09577562846584305 
-0.06857867817640538 0.04836545589076419 0.1532637428307072 -0.0006675768318934697 
-0.04454205962999663 0.0413104781307221 -0.1237212042712644 -0.0109690042035922 
-0.05911534003198594 0.0766817438044048 -0.0345719631540326 -0.08179214794863575 
-0.05025675617333374 0.03291152676303774 -0.01478575551846294 -0.02744843405593169 
-0.1510134578732446 0.1244250105410926 -0.3913770884152637 -0.03129075392934716 
-0.02194258167790515 0.04305397291633847 -0.03222769405907089 -0.03282886932556118 
0.05274184669156768 0.03114382639634723 -0.02920563637446579 -0.04726132212260603 
0.01852923957832571 -0.03549129152168803 0.09861920724060201 0.03818826411415049 
-0.04036504904244227 0.04672550062339217 0.02179678074381738 -0.06702457263326979 
-0.0272858958468761 -0.00915564843399933 -0.2539380788397491 0.01554652312077433 
-0.09239454052119457 0.1010304325374266 -0.06575818603994291 -0.04039544814458354 
-0.06771302072552596 0.004592670976800054 -0.04855885558946284 0.003273917244936482 
-0.1589951639498919 0.1028735616034824 0.09676436710669048 -0.04421316839015179 
0.09492855130275163 -0.09279205556976046 0.006829584462648097 0.00353554685304762 
-0.04362233478234419 0.002568394705423513 0.03667509013824038 0.01283803392320106 
0.03324742610724344 -0.05245437149796437 -0.05550475327700099 0.1332188523834282 
0.06614926480065315 -0.0437164941137871 0.06248213003577881 -0.0765812665823494 
-0.06561079903081789 0.02859469221408165 0.0723841138817177 -0.01312100859504837 
-0.1133460595878989 0.1448780344516415 -0.05682384803035407 -0.08922543254790342 
1.156468280733244 -0.9496148060486871 -1.44747320120937 -0.876210712013449 
1.53088633457048 -0.8208320441208287 -2.087977262788016 -1.286888458365859 
-0.0157502506847709 -0.1430130490822131 0.06623716219844134 -0.185401389734103 
-0.04402696449618729 0.07727399210834951 -0.2404089800736889 -0.1021567752326981 
-0.550903789774373 0.3305612556068539 -0.0729181196473468 0.04948507811709564 
-0.04351292078598446 0.1010648489474937 -0.3516829853201134 -0.08754933585872798 
-1.833634267314364 -0.7537773630786011 -1.608177051025648 1.878809581499191 
-0.04407771769697513 0.02728548477437263 -0.03822402245617262 -0.04009557506117296 
0.004013782043564315 -0.0125650033880888 0.155373461100232 -0.03294382058075229 
0.1232303500421125 -0.0654002278063068 -0.2145499016214041 -0.1145087113236741 
-0.04038188847427285 0.03390910720584231 0.07853855400236662 -0.09385663181248494 
-0.0440950670187689 0.04377918862291311 -0.04392555393573272 -0.1514828346892677 
0.04635154165985454 -0.0609856127442228 -0.008216679673088633 0.01888302941728681 
0.00672070767442534 -0.004107799896103067 0.01834376615168299 -0.04154480867570037 
-0.4259069712276132 0.5285029672836667 -0.287869222828562 -0.5517009162283915 
-0.02844343431971722 0.008058909978931598 0.02075739082204675 -0.02337685414345086 
-0.09042672116262677 0.0430577945952154 0.01524436037660054 -0.003088356719659369 
-0.0344305198800646 0.04993089596572501 -0.1010960293908895 -0.040182638448983 
0.04398594750554176 -0.04887228543445494 0.01131773983212626 0.04296478592141326 
-0.1827030798726235 0.3577655165944633 -0.3123536882714609 -0.7918911899885324 
0.003809389635288375 -0.03052802568427752 -0.04978188966583512 0.06259588716481999 
-0.04002726021570296 0.09483663647795969 -0.575448515958812 -0.209077238746108 
-0.04753171459257633 0.07123603951867573 0.04883663778048643 -0.03610213985444183 
-0.01938123190318995 0.01926165207370389 -0.04690795247201095 -0.00843903512190027 
0.01806298171079897 -0.009601246014919339 -0.1173912338149678 -0.009982939268074784 
-0.08357214917083222 0.04455294041909867 -0.06215640348403667 0.008099268653258131 
0.06358160279766679 -0.03095280134650774 0.1112477882452311 -0.06860434771051302 
-0.0777274607706161 0.0035755807053255 -0.06673379815095214 0.06294353668073271 
-0.1416178377495936 0.0610470150352689 -0.1025865956498434 -0.01740670666358526 
-0.04711432880502122 0.06955357347594257 0.09664576903195259 -0.09109046200913407 
-0.003262084144179598 0.03219337116827306 -0.04067143040618271 -0.02098056596482919 
-0.0153364314999171 0.05850169255254196 -0.1437753664666616 -0.03308123228515392 
0.04564852711908141 -0.02721019227936905 -0.1381656135448422 -0.09779707864506514 
-0.07758405563037894 0.08785633290017603 -0.158572157861125 -0.06237670393057848 
-0.005760862113863652 0.01393024429938122 0.02560135674449593 -0.06677105254016134 
0.003481516679427774 0.003216141659147177 -0.03091445550763464 0.02196131497977124 
-0.01301228506828652 0.05625164508374397 0.01900295962602959 -0.1292307878772759 
-0.1323900355720729 0.1756306918981865 -0.2295494308385354 -0.14195213227665 
-0.04717904580392006 0.06791673181233088 -0.173174745540966 -0.1227623575751879 
-0.1494168224732345 0.1183973638381391 -0.1140943821140616 -0.05445928265664365 
-0.1068896121670337 0.1010951969196906 -0.1435557750902737 -0.1396329610180846 
-0.1659793784998813 0.1249174453787272 -0.0530252910677483 -0.07725353291700271 
-0.4077377161764519 0.2268214995190131 0.08649183562075123 0.1050384130891664 
-0.1617640858674096 0.1507141197223832 -0.1736995083611307 -0.08568949497434067 
0.01534338232989017 -0.03159180288188364 -0.01814383716767772 0.01416676218266998 
0.6054463492678717 -0.3601726187323148 -0.2155512963837014 -0.195203029750617 
-0.08376396391409124 0.05356680248616374 -0.05948546148124858 -0.06842870262492165 
-0.03381723493898429 -0.02173484330820764 -0.09349131520530918 0.0281450313065798 
-0.1130367053207492 0.1175858294823695 -0.4063169137793179 -0.07345525180167709 
-0.07639881066807604 0.1589827995964693 0.1327681827774472 -0.1045746137929391 
-0.03776251454663811 -0.01864382891987128 -0.0207206025215517 0.03209469248034097 
-0.006245371420486202 0.0299387827269857 -0.05939883527901234 -0.05884217172338768 
-0.1450091156935248 0.04919727809491976 0.1359683758332582 0.04375063689619227 
0.01267867565418028 0.0578498351055079 0.02690290185315324 -0.08076623765822188 
-0.08874962429011209 0.09452957840080854 -0.1508750861857896 -0.091315723096126 
0.01166294867330194 0.04334241856249507 -0.005855676868558491 -0.007284993823091133 
-0.08004476979627048 0.1009011922945114 -0.1275764915206665 -0.03511561399101882 
-0.09756488260914951 0.2751566308170234 -0.4859665534614228 -0.3899754517673183 
-0.09681128877772954 0.04748607054985549 -0.2498608830427511 -0.08312666409767952 
-0.04682608606986695 -0.0412424063168829 -0.1408580743558718 0.04954965373435349 
-1.3887141006183 -0.4602409301332052 2.118088702852667 -0.6386563168697251 
-0.005824029314345888 0.0007954393684504119 0.08860444165317571 0.01537576085279919 
-0.1118299680033054 0.1284183738517334 -0.2877465714791183 -0.07489164117183229 
-0.04505537406759387 0.04654405403974524 0.1075240249648381 -0.02277186170425828 
-0.01453469662119013 -0.03378845372481706 0.04852269790184936 0.06917316509790604 
-0.0292344187351092 -0.0230904153138063 0.04063858026766871 0.06011496415815808 
-0.1075407862569982 0.05570696672640412 -0.0198346869306637 -0.06356822706070592 
-0.2255706501500785 0.1212349399514483 -0.4632173919296712 0.02248688715117042 
0.003124437008389605 -0.001653863239225198 -0.07654350345225097 0.05414127424351796 
-0.05560286293720907 -0.02681206470543356 -0.07180449601874138 0.03188863546857975 
-0.06132055076074368 -0.006872094228027169 0.004792239786837212 0.07339412044419596 
-0.04534659244469856 0.08851252134490069 -0.08623479336295291 -0.1520506593890487 
0.04323094346505137 -0.08195206685196278 0.03648043282416155 0.07565943803570674 
0.004562797776794782 0.01355462363246884 -0.07834995838550127 -0.03083451697514345 
0.0008855883293893527 0.111133003521975 -0.1500263511794157 -0.0456321226347137 
-2.064570573764822 -0.9552949760232452 -0.7451188515135219 2.190570347263459 
-0.02814609603587023 0.01756500555069209 -0.07231218374325367 0.01005467657797881 
-0.2706479336229198 0.1718725683841535 -0.2345679020554184 0.1863030275810967 
-0.007384033476069353 -0.0003845305837713727 0.07616551992552822 -0.09358844972801035 
-0.07834812933559976 0.06686888982328025 0.04741999982863214 -0.09165276317380719 
0.09472658719450999 -0.07790702525000108 -0.1246570752173016 0.1036116701794211 
0.7943151657739824 -0.4354657300167096 -0.7774631257205975 -1.060611408579418 
-0.0159661497751213 0.02231876298528335 -0.07094331905156943 -0.1278398368474801 
0.01618475811144159 -0.03660399372807219 0.03640245076024482 -0.00080827489625405 
-0.06319123901276522 0.03849138897412855 -0.06165232433321789 0.04056721051453448 
0.9829642763571682 -1.215251106394285 -0.6794706557442909 -0.5527420536293318 
-0.06740204940334908 0.03077035013162421 -0.0718819599586569 -0.04134792203182037 
-0.05512638063155361 0.07648146223176445 -0.03697711449309804 -0.08946681755862307 
-0.1140206285545891 -0.04286130811645807 -0.01827146609811892 0.1269350020001298 
-0.02200026388654475 0.01127777291505923 -0.1148203397987228 0.002359132512408695 
-0.004662553168001205 0.10493906534464 -0.1670476765986164 -0.1646696050348096 
-0.01304297141401884 0.03359468694375566 -0.2162925594470616 0.05584216363121568 
-0.0335136066445024 0.007479237038682467 0.102546018621551 -0.02851722659669901 
1.605239622942571 -1.051597609999483 -1.747582962791975 -1.204636543537124 
0.06087525895914572 -0.06130952694938369 0.05340682387815445 0.04146125739369506 
-0.04677993622738837 0.04036037527589681 -0.07224822406542078 -0.1655928447807513 
-0.001928434663838294 -0.03240509433079882 0.009769157865983228 0.06504741506184586 
-0.1915206427669429 0.07002439160576385 0.04398227540391525 0.08650413450129851 
-0.007495692388449415 -0.004044378230164189 0.02925640924902823 0.02466448104828767 
-0.01385665651748888 0.01417100726030456 -0.0782984679687002 -0.1195949424430291 
0.2245186109237452 -0.1881525585287036 -0.04641539337577803 0.1501704217635937 
-0.0497846666680038 0.0900095327852056 -0.08864853477858327 -0.1084844339332053 
-0.04616429149335527 -0.02320732209439485 -0.07714487004208376 0.04566760416271104 
-0.007606861608648671 0.141617911756704 -0.1244876045267567 -0.1314656648048005 
-0.0656709764502062 -0.07177957544138873 0.004256624704221196 0.143176667100563 
0.002743211590234893 0.005617481048798675 -0.0439524445953637 -0.1676261946874029 
-0.08951996536696376 0.1508852812928863 -0.1506382160039227 -0.1864685827600595 
-0.04181125430370774 0.1230990763365978 -0.4849145833865471 -0.165533761215901 
0.05104862680891782 -0.04913507624584367 0.1070318836612926 -0.04362316898625143 
-0.05244954716169332 0.08550495988514878 -0.1795611423007591 -0.01924791186773828 
0.05981220452739187 0.04382514581044393 -0.2605082624510719 -0.02245239598505744 
-0.1350182345980894 0.06658899600686025 -0.03651395785697382 0.007529170429643028 
0.03283658839320687 0.04905960890741237 -0.1464290778657888 -0.03895087265437672 
-0.02978531176452748 0.055591214819324 0.06410335229326522 -0.05934106817446946 
-0.4579389260895998 0.3769183787266864 0.1481533379065445 0.01339569032029447 
-0.02142456139633236 0.0484412543751569 0.0002157095291541239 -0.09932182475673644 
-0.1493632321101833 0.09369719613155857 0.01378973727192795 -0.03472115394117153 
-0.01424925430047739 -0.02588497844100706 0.06592967175719039 0.02299803611146322 
-0.06710816898285579 0.03739082610019768 -0.03359568135393678 -0.04027094483512578 
-0.02624112199592362 0.01010332064179408 -0.1519542152184758 -0.02593021071957101 
0.06790251200686062 -0.06709766229585666 0.06455619829650162 -0.03887150959236925 
-0.07058316233014801 0.1099235438035985 -0.2386937644506331 -0.08433839322283664 
0.08386916838857861 -0.02435766143565801 0.03714305424639577 -0.0383115597918279 
-0.07256871629220746 0.04323315680919212 -0.1287353059477259 -0.01398631966020564 
-0.01152429065142776 0.003599270196054083 -0.1508405081704242 -0.01618387260275388 
-0.0727554232899891 0.08304166823941558 -0.02780798637995605 -0.09213598328823108 
-0.1105626611493277 0.07090770759982259 -0.1543313836981063 -0.0382980442035039 
-0.1457368482149921 0.1413474881641406 0.07451541093668192 -0.09870597385701219 
-0.02658182773580217 0.05736110942630569 -0.08892332517909657 -0.05480353410194907 
-0.2338993866434501 0.1921917370764073 -0.5674789387948662 -0.1994468170189823 
-0.05932108962314925 0.03950948253258814 0.05577224006525659 -0.02795572220086137 
-0.003988270706874173 0.003990236381179504 -0.01254468068563562 0.002391438274421298 
0.02312870018028473 0.009691233058601281 -0.05600085713829865 -0.1164863348978742 
-0.8873309319510907 0.854081914301749 -1.028092780220398 -0.9583813632635938 
-0.0821026121257543 0.065273107623673 -0.2101372117011977 -0.09676478430210267 
0.04050411657329004 0.008477491111272649 0.1737808970248049 -0.06701003975921918 
1.733915234525883 -0.8844652292960097 -2.009779226193676 -1.752045501498149 
0.04931753816564079 0.01041528172455035 -0.1297295882887945 0.02085653841573149 
-0.05224920498084683 0.01270122228362777 0.1267811184510826 0.01374851203527585 
0.00952421499795846 0.001165283877954725 0.06649064589901285 -0.02994536285772086 
0.03704615674873754 -8.141022893321317e-05 0.06629321789372147 -0.1168628273570132 
0.01523361734370518 -0.06594069699986795 -0.09250413228516714 0.02971561232463201 
-0.06937338572377008 0.03501880447846831 0.01687303269340895 -0.04647013808106575 
-0.1321156448351575 0.007633616688037699 0.02153794735302115 0.05421079849738251 
0.01057716361000668 0.01554195689326754 0.1053358151404187 -0.02472307360620363 
-0.01566611500492105 0.04221035954172589 -0.007954204050130566 -0.05297471361804497 
-0.0248916934400095 -0.09447831226582652 -0.06733115029814207 0.1133713268951899 
-0.007701872630508964 0.01571581229784355 -0.05127627472344383 0.02188859744033277 
-0.08515853943425622 0.0364952106202413 0.01140225038066067 -0.009630137875005773 
0.04293605181984899 -0.03694377862328706 0.05044456294332895 -0.1388332466706222 
0.01103722564014501 0.004944525040669188 -0.308876065272419 -0.02443995183961053 
-0.07951116037960848 0.09257081347347387 -0.1808897052061997 -0.05305832200309253 
-0.1014979292788281 0.05232477723040057 -0.2374437288942179 -0.07447348744670541 
0.02907133746794594 -0.0400789473091161 0.05129670900552119 0.0289634588673679 
-0.02955548060173517 -0.02339555932481175 0.07034867625760996 0.07536177114007807 
0.07561901782930093 -0.06902133547063119 -0.06532819002076047 -0.02144339480052176 
0.05283621450620849 0.03160616081740057 0.0443876200101638 -0.2407846375790449 
-0.04269124293511171 -0.03237668138037346 0.02873251326640958 0.02372932609604201 
-0.06564977873226281 0.0788041065470434 -0.3774608755935244 -0.124947490120998 
-0.06456035027950036 0.09959015536396033 -0.09022181624489298 -0.2392991161976236 
-0.03306988820797808 0.05369195457622344 -0.09525493707709969 -0.04302652398814591 
-0.09453600172486994 0.09751679983012644 -0.2283222396202886 -0.06758972554310781 
-0.0573507182234151 0.1183340834940819 -0.1456766528697869 -0.1098837536353293 
-0.1047531346165612 0.08861472003034357 -0.1339383806352952 -0.1251857538075063 
-0.02337283822145596 -0.0545879793001063 0.07651889328833929 0.05838352301618228 
-0.08542926921962185 0.02946708981753944 -0.1541776671295803 0.05576402452611581 
0.01310062399074968 -0.01629313858698554 0.09911669900781135 -0.02569492288605806 
-0.1536112437639331 0.1544022504279407 -0.508906583171466 -0.2145414173818776 
0.1027467716880772 0.002413632687122496 -0.02305197279694587 -0.02447868187784416 
-0.1397792821500479 0.1968579591667562 -0.1769750293724417 -0.1441587007239697 
0.1121549808605125 -0.2244611474818585 0.1730199918439469 -0.02107086548249375 
0.002753075570581151 0.000448398619719769 0.03882113776381124 -0.01084343500299567 
-0.03588355855067669 -0.06567447936837198 0.08168160094260737 0.0552403937480343 
-0.04452195735712949 0.08779472471620468 -0.2689819737474362 -0.03987194639184295 
-0.01416113501215943 0.0366511393626737 -0.297115641374088 -0.07069662342072851 
-0.1046325694325552 0.121714104863288 0.07090023864789972 -0.1171088926148351 
-0.01128881503563138 -0.01767631896169642 -0.08746890683359798 0.03581913781977066 
-0.06748599959826605 0.01110635387481916 -0.07727697487392644 -0.03796650147441836 
0.06192610766112885 -0.04304737549281993 -0.04853849813875401 -0.001779403384592528 
0.05050929247955098 -0.0720843761475317 0.05627954470407751 0.02965893434688813 
-0.1072756287859463 0.01035080220741569 -0.1760644774211771 -0.1114082391287727 
0.1150311997039365 -0.02112713879327095 0.02704615491269695 -0.03068093749658325 
-0.08634339136505548 0.05514670192033398 -0.03499305435890149 0.0525064375966265 
-0.05617081408254192 0.06703800434829343 -0.03806232390338012 -0.03665216018380371 
0.1217738598328563 -0.06116265394113994 -0.1776918726639589 -0.1041097986723741 
0.01930977198707634 -0.02120746576538908 -0.05015102366241596 0.005442469360162143 
0.01990026730868398 -0.05247618602898071 -0.3006666420935613 0.0469819329024992 
-0.03047670855717026 -0.01589439746595519 0.02651004339399132 -0.009910213439703185 
0.02781973394871085 0.003443402342340045 -0.1337587302508506 -0.04661624379739171 
-0.06240597712078066 0.02512735962067893 -0.0199534465864411 0.02181711214308964 
-0.002293884158913392 0.05754349794517074 -0.02462271605096246 -0.05462943438020476 
0.03720202387920336 -0.0189036855075673 -0.2206974240208405 -0.003842603838997465 
-0.0349449053581363 -0.01540405306463799 0.06526063861993009 0.04838803671157417 
0.140177144654474 -0.1106506553076423 -0.33109817601311 0.0210878831316275 
-0.05753826210352957 0.06524550800656032 -0.2738317934009359 0.02743324170076672 
-0.1218693088297121 0.1152238964407937 -0.1207294873770974 -0.1140195127108342 
-0.02288699855434525 0.01634248633722859 0.08140828637717391 -0.0511967190746353 
-0.0602636800361722 0.04481050095074664 -0.2224720402216798 -0.0630291570678035 
-0.005535493304158754 0.02582728222457807 0.176355602905962 0.005742794139000591 
-0.03729536279738924 0.03154862693609647 0.03053460885287851 0.05159234472393349 
-0.05125579900561517 0.05452197348362062 0.1417048049431443 -0.02135808509278364 
-0.06215895649022956 0.03406047589262857 0.1312353427324029 0.01320992791082934 
-0.04713320318550974 0.09034011869344308 -0.1585977724669149 -0.1063189710485457 
-0.02508561424294048 0.06815289810635305 -0.02772722653537522 -0.1267390906481822 
0.01107099962438282 -0.06238343239552183 -0.1536828905852776 0.1142653779042475 
-0.001808740067270096 -0.01693863648235142 0.06098289454236726 0.06214355483791935 
-0.2136238582694642 0.2700882534663761 -0.1088955385226089 -0.3644567456794213 
-0.1222635550832501 0.09703410522395506 -0.1783266263923324 -0.08553159228164278 
-0.03774665147288471 0.01302604844551029 0.004442352956991634 -0.04358356401898653 
-0.02307838322551926 0.003247647928734774 0.005084678175008895 0.003990395672594968 
-0.08593190292645918 0.05454554858305583 -0.1974488483619784 0.01256085303813182 
0.03924197495451768 -0.009281170787527843 -0.1331971368437201 -0.0003465113275729322 
0.07393230039299598 -0.08145161785145058 0.08223424870539162 0.06010300587849254 
-0.0669612444485992 0.09031209539938924 -0.112030482478217 -0.03604892239311835 
-0.02688417704533734 0.007368723166684559 -0.130688354985103 -0.001286297073767632 
-0.01349817022975091 0.01772894666572269 -0.0970921084976802 -0.0878914870795162 
0.0502576339483727 -0.03454523660918563 -0.02367198163529625 0.05191145328432244 
0.02406699513964014 -0.01223920319500767 -0.02360974305205603 -0.02363504155537001 
-0.07133213436640454 0.07365881742041869 -0.09066853860237703 -0.05009100102118303 
-0.1064082908458909 0.08153063938222743 -0.03143280428699983 -0.03055320005606601 
-0.01360067720746453 0.03132922704806732 -0.1347988372422838 0.03318912524977613 
0.01566742589638753 -0.03306984492218969 -0.04906998410563777 -0.04548899805293212 
0.07813263464171535 0.03407470661682902 -0.202792808808033 -0.04968450062181085 
-0.1526620700198451 0.1519119446971008 -0.3880274016510546 -0.1838242182179723 
-0.03971674044331613 -0.3166750314138846 0.3668886326167458 0.08880201811024638 
-0.057211480307122 0.02032081898683617 0.2407396899017337 0.05328992976173502 
-0.3191703185763269 0.2211664207635537 -0.2936891268027838 -0.0205711528924829 
-0.1199788888545581 0.1070661289759231 -0.1461795983259442 0.02314498452458122 
-0.1000933751342113 0.05579941920584666 0.03485168023504523 -0.01613315309679597 
0.06509756660925907 -0.9274308572291554 0.1780169481920251 0.02096031764076221 
-0.06705210228163541 0.005675467655409837 -0.01096849040121875 0.05310437451244908 
0.1931023401728855 -0.2230351912472487 -0.2930770944668959 -0.07994582406946629 
-0.1034670846065593 0.1458283808057917 -0.2659714950909282 -0.1099692310582814 
0.01216076042769671 -0.04320073687073781 0.0557425113514403 0.001698049918516116 
0.4344918904401642 -1.015091984341014 0.3866533307270187 -0.002863566865250204 
-0.09267019199769437 0.1119188751975378 -0.1042153183729108 -0.05965405051133713 
-0.01184838500839143 0.004408776526200892 -0.164327773064759 0.04225481353126702 
-0.03801269971432319 0.05096111889023186 -0.00452589979621709 -0.16511149889424 
-0.03490861274146595 0.03351190940424069 -0.0387601977270289 -0.07810177696891125 
-0.006570136449277904 0.05682767712327803 -0.2703813629664609 -0.1310943562618546 
-0.07212501099246564 0.11339918283013 -0.1143581570843583 -0.1031591589837093 
-0.1319978826997552 0.1077684530414662 0.1173458013917051 -0.0148213491935221 
-0.07958601993060938 0.05517160749488183 0.04038906715025961 -0.03708942748501903 
-0.03295139826829328 0.03316128190048734 0.1025748481236189 0.01264523136636037 
0.01133695411408139 -0.001461888990015462 -0.05975907533277064 -0.002302010592363544 
0.003505866052558766 -0.0180275890509713 0.05862255416739479 -0.05715394665100791 
-0.04288390231713791 -0.03734949477879172 0.1413841537393312 0.01034755610988949 
-0.0357617461295754 0.0172024949332031 -0.02033237910686132 0.0102588947198564 
0.05922204565711515 0.01972268356861719 -0.1191562273989656 -0.09563363964382814 
0.03469395749443981 -0.06809186718403641 -0.1917215930586937 0.03186425141982317 
-0.05395762775357187 -0.0280171589514258 0.003703628546098661 -0.0008217698535257448 
-0.005995938314408701 -0.006728582545905267 -0.07603552733269815 0.01070280164021289 
0.04339301041257587 -0.03207341961884974 -0.06988536942160872 -0.075181872982785 
0.03742619682310336 -0.01707075551367764 0.1099073692993595 -0.06319188541913592 
-0.03972615990215762 0.1490858994790104 -0.1220553068846368 -0.1354367103378373 
-0.0524919683913277 0.01586487503525597 0.1784006145227736 0.09376864629383888 
-0.006516047045716506 -0.007366235425758576 0.1215453973347331 -0.004003382870837629 
-0.1122609014085389 0.0784963595932975 -0.09634273812333147 -0.04600222234021699 
-0.2005900670036453 0.08892422930194481 0.02433233337095252 0.09859566971342243 
-0.01044275286390568 -0.003074374524651637 -0.226908770252566 0.0004003875611056909 
-0.08574008137256781 0.09698001932195986 -0.1459363603976887 -0.04145647506484244 
-0.07912939435987414 0.0728342456112497 0.05232112633182071 -0.05038113419645293 
0.1141652033721059 0.04086096724239856 0.06490336763732026 -0.1521094388165967 
0.01952233227528472 0.01813405658340645 -0.2699057036086494 -0.04366224062895011 
0.006351277783996703 0.03271150033438858 -0.03351664428663446 -0.01620046063765454 
0.1020561944715902 -0.09651040141283294 0.1977020842810457 0.07388901961404962 
-0.03491175265088055 0.02296300907856352 0.1196372923061361 -0.02738950649902498 
-0.09448393614850978 0.0933468222717949 -0.1753536648983348 -0.09648618816361106 
-0.07429466230139686 -0.2363595953777722 0.1937977275779382 0.2202815740473065 
-0.05670381421153846 0.09135972091896241 -0.1115958077315077 -0.1602949110711402 
-0.01508894743759933 0.02022168763784817 0.03858144054479579 -0.02186502496936292 
-0.03162489370693355 0.000446949573970774 0.01922370159932096 0.01806142624207666 
-0.0677856946920167 0.01535235929973705 0.1849595934906427 0.00149513799466897 
-0.1020967598011456 0.09423923604908434 0.07319128650689682 -0.1126450919881397 
-0.1313536369439292 0.183990987397555 -0.07354630285361118 -0.04678903154005874 
0.2157165077351768 -0.5208588260713509 0.2939171164238817 0.2052790459909023 
0.06697031352335805 -0.01593396904116323 -0.1012594637999767 -0.06691526705240898 
-0.04570965069011206 0.03225371340433629 0.005394721862589338 0.003721815193635019 
-0.0493567930510387 0.09199878810884789 -0.2137025866763314 -0.05826306670595253 
-0.148073165931862 0.1798167933557452 -0.03975237467088726 -0.1233697842634977 
-0.02646822410751707 -0.05935143498213512 -0.03494319778871727 0.1258003879539311 
0.06517898636788774 -0.06564115024564571 -0.01735343355243524 0.02574707919671422 
-0.01091862061227408 0.04683838539494689 -0.03153631371703867 -0.1657485211066186 
0.09451355617602869 -0.03144687471253986 -0.02193777902674675 -0.1106094749600042 
-0.0023689132287149 0.01133352295303519 -0.06096296401151451 -0.01896261611073106 
-0.1011135134282145 -0.01263598723570127 0.04308282068626278 0.1417330838677671 
0.4684711852430244 -0.2802240790826078 -0.8153517786630269 -0.7051752895459023 
-0.08605628584701651 0.1013375923272638 -0.05974033797832037 -0.1284354933962324 
-0.03896682189199271 -0.0427513835068063 0.2772069811000854 0.03438976704446621 
-0.1051405825427141 0.06458894636375551 0.05296621881073214 -0.07266001160600068 
0.04552996820440992 -0.1534253747911464 0.1560136903725696 0.08051888692194943 
-0.06915287467843848 0.08839291018582172 -0.1807324765621713 -0.0477161668367755 
-0.009738900276331742 0.02510220865067667 -0.1373435741584941 -0.0835857852117573 
0.003419316016251874 -0.01994371922876591 -0.09806236955335357 0.06363641188556314 
-0.135351035691379 0.1247410233156973 0.467694134341122 0.04373590659564931 
-0.2086208871187969 0.1325032479567246 -0.3263732126268948 -0.2674153608824711 
0.03341335485296576 -0.04616117796340313 -0.2496427992571202 0.0153873067596175 
-0.02269304787179552 0.05603670795495325 -0.02784653285795308 -0.1725927940911557 
-0.1183220094789609 -0.04991222462489059 0.2231727415529248 0.174815478259075 
-0.04210293236114546 0.06094725180469404 -0.1456915055298549 -0.08882219211209766 
-1.545627723595098 -0.3940439189736801 -0.6859188196950826 1.457943523980553 
-0.06121071358783862 0.01340006699628535 -0.03226655206118356 0.07232740405579977 
0.006956289326335605 -0.01906740576718567 0.05147706812416235 0.03712033589093668 
-0.04777389065563956 0.06198686644440885 -0.1472109591550521 -0.07771425410739105 
0.0958479228639407 -0.01727314137842941 -0.07492751770118644 -0.04773055050612365 
-0.07844226477027136 0.07379493864840354 -0.1639839499941069 -0.1581643772681242 
-0.02187037811313623 0.01175959009957383 0.02341282258203066 0.0212659228004542 
-0.02280334677113278 0.001692344585586559 0.0546123617035888 0.06218599007849576 
-0.02665170612138303 0.06830872752332838 -0.1024803356218011 -0.02206861882890141 
-0.05537676769703888 0.003961362744516778 -0.2140319370650753 0.03007466724276954 
-0.09375293262724155 0.07555483103811682 -0.2000515401904285 0.006172265566493834 
0.6858944515153585 -0.5401962396056088 -0.9111967236070732 -0.6851767857722324 
-0.03717717406812297 0.0226705886682261 0.06640991909901296 -0.02837691995801211 
-0.04269911230608864 0.02616513945468184 -0.0001899232968519789 -0.003504499226398092 
0.007855736578390338 -0.01036999158214447 -0.2732030799875371 -0.01872932778075233 
-0.06930775943705851 0.05710241866568751 0.0147724015985862 -0.06834155353247116 
-0.0413039218525176 0.002905610300031583 -0.02405640823103358 0.0330976503509102 
-0.05497033585024109 -0.002228977163502629 0.1453712472995985 0.04360129981873184 
0.07876832142118022 -0.05473446008198327 -0.0439051248724035 -0.03823329492108161 
0.1348665070373085 -0.1260274142617736 -0.08288361252485656 0.01442434287189254 
-0.4090701615550208 0.4471525285554137 -0.9442256741142292 -0.272358217750763 
-0.1041208599468528 0.05453635914049117 -0.01044806534461301 0.1491670568314553 
-0.03361680477810072 0.09605207335346197 -0.1179786515150673 -0.1055090189576042 
-0.1299073104517361 0.1249491350235625 0.03746306802183555 -0.06978835474793274 
0.05441627245981268 -0.03332837112482823 0.0685038699432035 -0.002817798994341992 
-0.06314654526078392 0.01808484140075365 -0.02066894408017399 0.04448871297229918 
-0.1000934099452548 -0.06569745167467528 0.06603315998156989 0.0865955947568087 
-0.07431953972806787 0.03847363324650405 -0.04153008566767752 -0.03140229437927784 
-0.2251647580636131 0.2128970869313532 -0.2880018635775651 -0.2881152372793736 
-0.0329561828017572 -0.03886722840015755 0.06025426480255388 0.08587787375885272 
0.0353913074593005 0.005253366035172277 0.06405664979244376 -0.0364113813642344 
0.009392858458791989 0.0515942607344263 0.05225731604687404 -0.08408546161921583 
0.01417424304708891 -0.002360346554145033 -0.3420702043150743 -0.1354800898378037 
-0.0337993186793784 0.07234931696967276 -0.3191894913217666 -0.1343862741307143 
0.269042531888693 0.02725879094828844 -1.071558628568344 0.09203278715618264 
-0.04256854602291572 0.0849295515305989 -0.2193168920714835 -0.1415222362665843 
0.06032797896097306 -0.08402039656302837 -0.1147866721339868 0.03861194321699345 
0.02403764767054118 -0.09355290943180256 0.05489312147656161 -0.01100168073831469 
-0.0652579901746134 0.08382494560930401 -0.07196283089954753 0.0169539042575566 
-0.04240086001312467 0.0004046671699347386 -0.293319673434194 -0.04227942131265101 
-0.08596182025851631 0.211005085147421 -0.09949108016269449 -0.03418147473854223 
-0.02697642607930665 -0.03337272042805825 0.08544319055158225 0.07919893167994443 
0.9868201075800235 -0.4696502385194575 -0.2357456564824663 -1.395900418407827 
0.02030163961902408 0.04785725495637264 -0.1317404301541172 -0.05821552457069146 
-0.4718175008605616 0.3963125295926688 -0.1938656111892392 -0.0669576395064891 
-0.07461369178572305 0.1064657944592722 -0.009596335362872953 -0.1145896835239055 
0.04620906566159094 -0.1640668980529313 0.1604806436431183 -0.07643912291482377 
-0.07482143921904075 -0.02577084567439962 0.04252225785842202 0.07437364678446866 
-0.1835743668621702 0.1471300727162831 -0.06438060288637684 -0.03271542341515164 
-0.1135287865310827 0.08575189320837619 -0.2140849648428019 0.004476867239272788 
-0.008334401927970149 -0.03737545992245086 -0.1233283193996844 -0.04325692088310113 
-0.04822237564762417 0.05903767094189814 0.07767602530904039 -0.02173630708910407 
-0.1130926035729274 0.05796419537475874 -0.02095699343687879 -0.00236875109654582 
-0.07101554104645749 -0.1131672204509069 -0.4400044476177405 0.1099463695531181 
-0.05352086970874204 0.0533355363459955 -0.03501987182288635 -0.01074245418552168 
-0.04125380692984757 -0.04126693585139397 0.03224574073006823 -0.04462494830209841 
-0.03589810688525689 0.05763959932713923 0.06998899283061259 -0.06219688180624062 
0.1090999119830643 0.04263913086410306 -0.04141905941733423 -0.2049984959362535 
-0.05611315889817353 0.04326042963254621 -0.2376365414905968 -0.03929883860541635 
-0.09598590558580186 0.05381641520064879 -0.05470856350394318 -0.02615720383784331 
-0.1241754427591558 0.1087826039870688 0.1327480803107577 0.007642996166901702 
-0.02748055515153121 0.05749880196654113 -0.344867670248476 -0.1305673868108976 
0.02560325342162206 0.04213216113249221 -0.4026248453641023 -0.2284033117986344 
-0.07638404134537083 0.04498166261718584 0.04791845575706098 -0.03585264897669062 
0.05078764943561363 0.03382215682959469 -0.1036548486810406 -0.08743018194160927 
-0.00612671418807857 0.02559686429893228 -0.14254489438625 -0.01265821940582607 
-0.0320583197359606 0.0004373106795346735 0.1974879380833018 0.08418124258606902 
-0.4568953744241884 0.3398109901678119 0.0282828723551156 0.008739836364459038 
-0.03452746723323165 -0.04454112534181986 -0.09502285778782422 0.03074148472937599 
0.003412215802847827 -0.005166309108633037 -0.1991008491312186 0.01995867821262834 
0.1190964906554091 0.003342770248688038 0.02270726246853412 -0.1019397011379344 
-0.205806079420594 0.1947300195803314 0.0033493743564722 -0.04612306409970846 
-0.1250973546633041 0.1486782440834996 -0.4771541756236278 -0.1407221172416057 
0.02289476176148987 -0.02683648705335665 0.09043925556821482 0.008856924153870474 
-0.1052631014902215 0.04553126635270951 0.07106763216900858 0.0280079856021567 
0.06653965173902368 0.0007405860822549759 -0.09690806698008736 -0.0746832097727666 
-0.1495855999838555 0.2261528563859255 -0.2542198980875808 -0.1453462742409918 
-0.03497535898942346 0.1031877640020355 -0.1223960970807031 0.01793387749864278 
0.01830613252063786 -0.01632266040062417 0.07458825563894997 0.09240725289957528 
-0.04981238514350828 0.00648999404202388 0.06165683701576724 -0.0436122248123655 
-0.06467251603822438 0.03223688794837366 -0.06797934446609738 0.03954453164699477 
-0.1186457144756763 0.09727227620203535 -0.09856936081270626 -0.09086398970802034 
-0.1218473983120896 0.02054279347230587 -0.07413074444610407 0.01232101178030268 
-0.06422574287464104 0.1652287423901369 -0.5009332902270134 -0.3071352308433118 
-0.1092268766068846 0.04712096887345324 -0.01141678624441851 0.01499261009582912 
0.05265352973670466 0.007002326958503887 0.05838067655128541 -0.02965313113836147 
-0.1100510654388449 0.08713372507001388 0.09988560433632745 -0.05573419182833261 
0.01784802463790634 0.007927974770191214 -0.284818562029217 -0.03860741873453502 
-0.03876519771350293 0.03985690685495782 -0.1180090401176019 -0.01535819175885554 
-0.09326134310655057 0.06438658844023817 -0.03074059348612747 -0.07378129482553397 
-0.1429767727882274 0.1414524992489848 -0.01669738792583942 -0.1081257493109255 
-0.02445087124813274 0.1024263765424229 -0.0266618653204148 -0.08682678726282929 
-0.01806269352273226 0.04035957378451997 -0.4011912229661674 -0.03503289257484999 
0.07774270673328382 -0.4089087547047759 -0.207981833587567 -0.06758793150427032 
0.03112858355878918 -0.03436694661459304 0.01404865994591701 0.06600141268290172 
-0.09346233365759427 0.04485457971632775 0.08251093529261534 -0.04895194616568843 
-0.03436271318605819 0.07328958700604796 -0.06261851116748351 -0.1543770702636822 
-0.03966916612081441 -0.08205605542273561 0.08727786272553463 0.117842256105085 
-0.06989157559086838 0.07658094320341877 0.113283240477172 -0.09860796115966165 
0.00625661441544007 0.03123655718220587 -0.00444761433779657 0.04409026454502655 
0.03500249355041398 -0.05711846145094045 -0.1058626064740198 -0.005048282569770045 
-0.0550590202888047 0.03004661182373138 0.05703152607977083 0.03297772227039682 
-0.02000409871879807 0.04398840999756357 -0.1794081936158073 -0.08091754399819825 
-0.09749369557241783 -0.01069653021088191 0.1596585881529177 0.04167476195785969 
0.02152613183534137 0.110409564711628 -0.3410070637020938 -0.1102273686673984 
0.04778068934926617 -0.05593589499955436 0.07347600073924562 -0.03063268611170194 
-0.2036154918758271 0.2208088956863899 0.1556294697914512 -0.07377597351810766 
-0.1098853113256911 0.08824151962918897 -0.08236214707351432 -0.02523698592607413 
-1.072199915434368 -0.04441499193179339 -0.4378444816575406 0.9978807899820181 
-0.07333865965868826 0.003341331985348277 0.2525937857064174 -0.05317236556161498 
0.2498452157624605 -0.1033049658853962 -0.06311712836734902 -0.2047316547967643 
-0.01242268324890253 0.03647153436971277 -0.1252573648534016 -0.03224213087100117 
-0.1410105905370971 0.03508827162693598 -0.2089143341166479 -0.01793734211173576 
0.008333106711754997 0.02731367432000936 -0.1888455871307472 -0.003580544025467441 
-0.1469511043807913 -0.2923687611007458 0.0701939696827109 0.4062716688703714 
-0.04438379663351678 -0.02945404813222264 -0.1952219968010665 -0.0103867985192108 
0.4098807463633781 -0.3803585873323357 -0.1559487187899537 0.03519735659898793 
-0.090294575399783 0.04446355744249421 0.005496417978494688 0.01934242283337367 
0.04018518329453877 -0.2736667783150374 -0.1006104153465924 0.2303619717228471 
0.003233320915435745 0.0200770995976845 0.02294496974254435 -0.03959925424646236 
0.0147887103921073 -0.00472488159545564 0.08000464067716537 -0.07930421062642803 
-0.003517269469112946 0.007937343746462851 -0.3643942428429665 0.06111546580074835 
-0.1101451426609116 0.09497264691272608 -0.3959138289677834 -0.1292553564513661 
-0.1099227099696873 0.1247320326424907 -0.0650031245268264 -0.05899618309698618 
-0.08097609350289581 0.01359519471148221 -0.1604150027383203 -0.00456745014502174 
-0.08664712416565533 0.06153548360827908 -0.06833904332198826 0.02541620713674464 
-0.1026590977096948 0.1045458176954093 -0.08159127585834859 -0.07755803561527899 
-0.1323025498093027 0.1073363730249359 0.05342065388868984 -0.03260373915832961 
-0.09032311598175627 0.02333134096029134 0.005474138018957348 -0.002340309895195083 
-0.134683427940312 0.1274888983667336 -0.3431870365687402 -0.2698217314521193 
-0.2327746097655226 0.1548214598648353 -0.1684524774396973 -0.1241830039429239 
-0.0340000135671742 0.03497975901670819 -0.200204371105888 -0.02759057564583623 
-0.668241106655032 0.4192517818157249 0.02491105535005205 0.0673371299459093 
0.00628968596991208 -0.01119208750699632 -0.164758997597216 -0.04432657812802704 
-0.09167511171661288 0.112405117538389 -0.001981591880729605 -0.1539033502334539 
-0.5372521150868093 0.5145343262591838 -0.2459005771945733 -0.3748429705650774 
-0.1827676551903322 0.02231913592468323 0.3584346958194256 0.0814253374301341 
-0.1114730802804077 0.05975763012761932 -0.1111629189822701 -0.03729292210949203 
-0.1746619724944693 0.1102717172904102 -0.3562536877672668 -0.07688006497232136 
-0.5144319768982829 0.4063431276728476 -0.2862362495721055 -0.02050902376330887 
-0.09664957326850193 0.06093399148942699 -0.177072594863857 -0.03200949985834982 
-0.00314111051447022 -0.004030775771681292 0.02309697455686485 0.0152075343365589 
-0.1282023722146459 -0.02290438399847702 0.1231102929137148 0.03071080548834376 
0.06526008342019797 -0.0007828129430673895 -0.03914021952806015 -0.03412901760326547 
0.04018492526546725 -0.01891170102020573 -0.09345122101634114 -0.04905442087591384 
0.1542930371368913 -0.1997100468130328 -0.3995999091899146 -0.01058029853735546 
-0.1315121261747591 0.1156364150394453 0.01505881632249606 -0.0529849495492427 
-0.04876197528540696 0.0378294044134228 -0.1457233696118154 -0.06644705694788722 
-0.05507007707844345 0.09436970152579416 -0.2025394170304247 -0.1906150474043002 
0.1903881077163065 -0.04056178118144874 -0.03766129567243717 -0.06993661302006351 
-0.09393550794421139 0.04417250153270801 0.07797507284333671 -0.07482319969988135 
-0.01725152534634098 0.06676957759081056 -0.105135793878521 -0.08039854017406943 
-0.005288987980672614 0.0007592844453490491 -0.1001462030204024 -0.1002295068676786 
0.01889996823337187 0.06521030083759259 -0.002251338970480399 -0.08466738973116776 
0.142245137120194 -0.1180875719183026 0.06166778005468908 0.04174936914744751 
-0.3438216104259685 0.4293908356303139 -0.4466562821497688 -0.2948090552513434 
-0.06119326026828036 0.05747395408515788 0.04309031686330237 -0.05058073281214542 
-0.009198914389781196 0.02238814589550972 0.0410950115796404 0.004324750904235727 
-1.581485320095016 -0.519742373151687 -0.6422600076180495 1.541105793880247 
-0.02013902441674657 -0.005161775638851863 -0.1527763168543037 -0.05953422178987366 
-0.1137671496700415 0.09213139426824075 -0.0351166526163627 -0.05765574380663091 
-0.08398978559971723 0.08352832469386227 -0.01617954055058119 0.06359416280740696 
-0.1914587241554061 0.2874721427676697 -0.3997778838305225 -0.1832152107673382 
-0.2020574089681578 0.2136913665739676 -0.3126982295449736 -0.1681274201174272 
-0.084661092133413 0.008928430561181427 0.1678207597775421 -0.2815499510789302 
-0.05300094607223337 0.05474403007989739 0.01978765446519795 0.02003533679301728 
-0.01109937023251867 -0.0383884453446539 0.02175617651021217 0.004134059404172667 
-0.125639226565758 0.1231593739017356 -0.08384255040179148 -0.09738819306132414 
-0.08305000894894407 0.04192019591870044 -0.05468873346760605 0.04076120733316001 
0.1097210995669482 -0.06692441299533908 -0.2698488807956825 -0.09108605896888289 
0.1114961941932132 0.08027518988760854 -0.2224895450925944 -0.150436893944332 
0.04497571122499187 -0.004715408818471579 -0.2429257906748128 0.03308099071466057 
0.007769278214096183 -0.003852974523388851 -0.3910873074739337 -0.006546028095801229 
-0.3155461188611384 0.3341740405584711 -0.4026848624010496 -0.2384516766148464 
-0.1120138405773591 0.07089039050122291 -0.05822718279767626 -0.0625191905980757 
-0.03116315375897211 0.04667813499081697 -0.3302358142474836 -0.1651886506425609 
0.1107081767267779 -0.09115216798274366 0.07475811248899356 0.09140267717910261 
0.04357014538560149 0.004283234759545197 -0.1179328158854161 -0.05250397275178593 
-0.07025147825662792 0.1134812179383945 -0.03131397543839755 -0.06535981451581194 
-0.03409873014930508 0.01573589691980345 -0.1432497511958162 0.0609706284793442 
0.07948945621131379 -0.01583586112997176 -0.1014639248165295 -0.06355805312887504 
-0.1011472499325964 0.02129263857841126 0.02056516214806538 -0.06631244869287656 
-0.01188904065286754 -0.0110728278889373 -0.05573054675301991 0.007243251285195885 
-0.2842941338803257 0.2536054035755524 -0.3047278282305108 0.04530198475904025 
0.007248006808121437 -0.04039903989084657 0.01964735370217327 -0.05261594275702459 
0.015525564442667 0.1670003299089473 -0.05137998166563321 -0.169060467357132 
0.08033127519445851 -0.04476887704995932 -0.1495103282962019 -0.06139557810765107 
0.1107417545678609 0.01671588670508287 -0.0134212640263587 -0.1309697395041032 
0.04575862344304301 -0.08389117478076191 0.01699875170565381 0.06410605495183699 
0.2733577920309031 -0.2389571800145613 -0.3069431307134507 -0.2072730261474735 
-0.1084015128107469 0.09249291868394229 -0.08477147750799892 -0.07974048730988691 
0.01125824535741857 -0.02094304934666497 0.05649486971145472 -0.03113896637525852 
0.01411961455584468 -0.02649409065264637 0.1063945951180902 0.07410968066065247 
0.04147400887255109 -0.06799038544064433 -0.09121303843357015 0.07324791154339817 
0.00408058440459637 0.009481612621041717 -0.2200417308879579 0.05072279065538593 
0.1940174226500064 -0.2917889090355699 -0.01797586921871361 0.06301559639515725 
-0.09801770214416705 -0.05381279679446554 0.2901166045893578 0.16663016255112 
-0.0008102517376785364 0.02386715013875112 0.05752832341890426 -0.03842545765625541 
0.08167889461872406 -0.05610986306938021 0.1270239270572759 0.02209403318811856 
-0.1586716332662592 0.01086189994726377 0.03326137032577282 0.1804679806442794 
-0.04040970450572396 -0.05156527152768212 0.04491651381695239 0.060407007493658 
0.03756850369815824 -0.0778072464125578 0.1098233095826675 -0.004658406935819944 
-0.004914790528594707 0.03132202397899767 -0.1517640796920524 -0.0547996560465823 
-0.00718911657761072 0.04320609848667607 -0.1553074428520422 -0.07286761629244251 
-0.08331990221052191 0.07411397040516801 -0.2411494657371258 -0.06001224684118084 
0.05616067120896893 -0.02397148187636918 -0.1829231860874917 -0.0475671034117674 
-0.01010905428325154 0.02732843935511606 -0.5458896860067922 -0.0149822996098986 
-0.2905651873714505 0.2854186571773363 -0.5826464508844373 -0.145368630450338 
-0.2195947975228259 0.2778144858263441 -0.5707678027294351 -0.5356700923453469 
-0.1866083952058161 0.2678458921055596 -0.6431151466404118 -0.2792436598745574 
-0.05603220712596636 0.04900932475438645 0.03518588520323378 -0.04301653090729042 
-0.04928845242621057 0.1071081754539245 -0.07536601408280885 -0.2248950194434259 
-0.2132206431691478 0.2634272064758865 -0.1006992750089279 -0.2675012764626811 
-0.02343726865296996 0.04790090409438556 -0.1610426957060996 -0.1035113327898506 
-0.0775325688396747 -0.006501662350033544 0.2751565132237151 -0.1822358791710572 
-0.2512765536422699 0.130532791863614 0.03579190009802228 0.148856196973571 
-0.1256181823917455 0.1310104414514821 -0.2446632265652012 0.09915414553916166 
-0.06627078725191995 0.0542592772854412 -0.07902282380502459 -0.05062153793641096 
-0.05139344116590479 0.0351703578823983 -0.08643606799438076 0.01168559011926952 
0.1167533840074876 -0.01451087971762729 -0.08968133180090872 -0.1002133776476064 
-0.01129913740267126 0.01561459870794622 -0.05258358917910353 -0.0005668647803763558 
-0.1770986565512211 0.2363905222554144 -0.08205101011601336 -0.1342979319298691 
-0.006172801888362426 0.05453675214470114 -0.0193594336088466 0.1362531975486223 
0.05468428020403555 -0.04696769643576311 0.01405056467169633 -0.1193118445222778 
-0.03819712852219808 0.07197517014923056 -0.1352335034393222 -0.08185400599579679 
-0.03167682218391342 -0.02562380061789098 -0.2709731816743025 0.004631037866472151 
-0.02284117504938259 0.06982668470388796 0.09232738515842986 -0.08434146525376623 
-0.03959327748603285 -0.03649559203225449 -0.1885934747493986 0.0002157796130112039 
-0.006326383089056397 0.01163849804122353 -0.06477045335606074 -0.01955204611456999 
-0.1321047612696106 0.165357819329373 -0.1284482300528907 -0.1476287391415059 
-0.01874056202222738 0.03565640965059175 0.08566662258229416 0.02878441689756549 
-0.14323219788039 0.07455703849566124 -0.02977304629681213 -0.005207729692458583 
-0.02203799820264008 0.02781490820943443 -0.1715377181094458 0.02471265873360217 
-0.1495131095255643 -0.00600461447919439 0.02834518509560481 0.08216369071655666 
0.0002460082404854901 -0.03149679563393581 0.09932714418238225 0.1270465170761226 
-0.07173302038432847 0.03485508374391413 -0.1486463065227751 0.07080383990538568 
0.07661324161638747 -0.08563329774842293 -0.1135090579264244 0.03530964252392352 
0.3569314983060756 -0.4820327226883353 -0.04936166503429026 0.1374803596760901 
-0.06205535079451917 0.0301153043760324 -0.2239623411954126 -0.06394186601315413 
-0.02580159514806521 0.04977568995947469 0.01652387532121393 0.05053644507755557 
-0.105557812154973 0.08534779310723724 -0.2285295793423771 -0.06644190382654103 
-0.1437963844664567 0.117439526865295 -0.08283001399899111 -0.1153505093013629 
0.1243042558456727 -0.1143572363736007 0.2130143925562686 -0.06382332927930692 
-0.1207606269652332 0.03943029003272008 -0.08274604374881481 -0.03546427460614798 
-0.02506036399426067 -0.02586895760379378 0.0494284784779709 -0.02988000352531053 
-0.2069711524213911 0.05101473006783842 0.06722269222069652 -0.02025903826706589 
-0.1874403340379767 0.1948710539465336 -0.1340154872210431 -0.1257695749938518 
0.02835438528814944 0.004099296121922199 -0.1865337281071844 0.002915807713381959 
0.04844770523464184 0.003359386526387844 -0.1057850668465568 0.005059479219355663 
-0.07790014995961626 0.04236384200091584 0.09544484338347919 -0.02049988978142685 
-0.05438236045915059 0.04218522353271041 0.04946993629304768 -0.03850110945554967 
0.05481421815854123 0.04955139074157941 0.03554505389829753 -0.05466682671635772 
-1.834781275032765 -1.033580825355138 -0.7685699906483971 1.956828339169792 
0.05218664806858513 -0.02045740501834619 -0.4057652256594868 -0.04585316486811345 
-0.174860632703098 0.2263369825886008 0.248186715957407 -0.08868852416905655 
-0.01521981726193417 0.06030618527728377 0.01830175212452875 -0.09312283874461573 
3.323060014838106e-06 0.0348998963495718 -0.2996880264888524 -0.03708052303375937 
-6.98993122766401e-05 0.00713307247001869 -0.04181027395003244 -0.06724272251736124 
0.1258728806098182 -0.003164890609988954 -0.05815027758402934 -0.03795110289301901 
-0.1415345360812108 0.1676410347855269 -0.1786667763301694 -0.1161988074547906 
0.1593587155905504 -0.01405311465232708 -0.2580201974100361 -0.07957651792695949 
-0.007698942958627169 -0.02848357667098216 0.07463521764830741 -0.001806765124808406 
-0.001176857439383672 -0.02156381944576538 0.002749352600283137 0.04014818930628106 
-0.01062775963795196 -0.01037733713531606 -0.3056927260222653 -0.1272399254128218 
-0.05470999848963986 0.09813178338188606 -0.405288565668638 -0.3170429046885255 
0.03360649138671779 0.01010519436788471 -0.07526538849567412 0.04844216623024178 
-0.08851647754384334 0.06227846777177402 0.00963391579852323 -0.03375689189852261 
-0.2782854722281196 0.2400708692682856 -0.5148902063644566 -0.4593971301022867 
-0.09238969762217164 -0.03079594494838715 -0.1009626655577812 0.1078666167050614 
-0.126548969657456 0.02706166996130671 -0.1008901668958395 0.01594933828951356 
-0.3346664478745586 0.1853210353586274 -0.1131603577405511 0.1847800085260907 
-0.1720501865547389 0.04480093592302026 0.05007287194756704 -0.03545895146994041 
-0.04080442155793042 -0.4947716680967965 -0.07122303272928707 -0.3344585241904439 
-0.0982944960230539 0.08804657013029911 0.02527655310103196 -0.05979030200591547 
0.006757970457297036 -0.02078376308957288 0.18331884074188 -0.1044109619024976 
-0.08371134880042146 0.0181724045902639 0.01503687845164029 -0.02295824198278059 
-0.06952773990731807 0.02744968183896253 -0.03590642528008706 0.0238003535056098 
-0.1118704754013228 0.09149785560165304 -0.07601387916509797 0.007281508552785153 
-0.006687722835291498 -0.01462860047605244 0.08943926274327003 0.00515935194224849 
-0.1836418589565628 0.1122792369967167 0.0826366976034348 -0.1154584866971837 
-0.05815662860560334 0.07256329688622652 -0.05223782587546344 -0.07459390597981072 
0.02026358085920982 -0.03039158437416171 0.01606923349191133 -0.02663252308058535 
0.1651609232128579 -0.1171310892833881 0.02435854417047766 -0.03306119984257213 
-0.01944549088063203 0.07600693077404586 0.1180533454807974 -0.1301028796873553 
-0.01321437785513861 0.01492339047907191 0.1146033398416655 -0.1014606436746325 
-0.06660548930153856 0.05988649257083684 -0.02823093925308737 -0.09450741470353831 
0.0396899353651483 -0.06735301787641776 -0.1228925270901401 -0.1014877305037639 
0.07180282035434034 0.02160299590538023 -0.2607013575397988 -0.1108220371439666 
-0.01439175995053512 -0.02778041853075789 0.22262346936501 0.03746756197989454 
0.008263372815924673 0.1191303625014885 -0.2785050562491481 -0.1842807326246715 
0.07591623881763419 -0.01973372768267458 -0.2318438948415047 0.01151556984387343 
-0.04331410915638632 0.04041938046212159 -0.2252525403489928 -0.05784514118354979 
-0.03267354399159894 0.1449291935190394 -0.09272618076823969 -0.1612274475160469 
-0.02520011554160925 0.05125462905125385 0.1562551634020774 -0.08719432485824324 
-0.0688100360636269 0.06949993045773797 -0.03245488695400974 -0.05105218005684813 
0.04629212871932141 -0.03156016407695158 -0.3559614017182797 0.04272347462877091 
-0.05746853125504645 0.0104799672818534 0.01056682602574777 0.01799851939965932 
-0.1882783725840322 0.08221045538352797 -0.1090369846086165 -0.08628504663511104 
-0.001842595201457 0.03725728258746177 -0.0334669387041153 -0.1060138659137144 
-0.04523916209581454 0.02477187643820642 0.1042322999773421 0.01362380691700586 
-0.05992401720080961 0.01521655415063243 0.05800030489479084 -0.03410438466011173 
-0.09698387795660296 0.1078325677668356 -0.1381945392919606 -0.1039076336736693 
0.102620796125158 0.03207877557348484 -0.09084613248832953 -0.2294989841841182 
-0.07649624649888949 0.0870226186286797 -0.1797591059178372 -0.08772214948317897 
-0.202200143167325 0.203156454749278 -0.5911515192353707 -0.4069855120177251 
0.08703606426808527 -0.01605296585988594 -0.2624288306544353 -0.1144280967505924 
0.1233425001296224 -0.0396529780822867 0.1531811069463727 -0.09644036552694857 
0.003601429140919103 -0.02535926568710282 0.1063512085405171 -0.03382244610875504 
-0.421599975554675 0.4230888175752034 -0.3239911585714164 -0.3789810151724893 
0.03594913548707921 0.0447837619848995 -0.007724261122606203 0.02533393572419551 
-0.08003288274554266 0.1006270041361816 0.2754964197161812 -0.00200816033363682 
0.07649132881820161 -0.0730036398918794 0.01527824272172407 -0.009084528396580803 
-0.0008965708330973725 -0.03392675411774399 0.1842761101302293 0.08623749596052027 
0.2479112046738176 -0.2265762733525014 -0.2833492248513498 0.09618930549671587 
-0.008222941288265595 0.01358742690119251 -0.06350855823420533 -0.07767303710271914 
-0.01257350987085144 0.02045108741216368 -0.3835859190067573 0.03466257577338738 
-0.1194286990935311 0.08283340374008866 -0.004539365663514711 -0.1162941492809 
0.1178382603199325 -0.1264393647852641 -0.05777552807043844 0.02209230920474748 
-0.04116192840798516 0.01761376496551138 0.0545503162262204 0.06897060153549961 
-0.06616781706368621 -0.02357774711143572 0.1427628050214213 -0.02229114892212845 
0.09209333128770039 -0.04342749693770227 0.02935535266277071 0.02937678241420866 
0.0414787297624242 0.01469287190464803 -0.01831226991007283 -0.04822627095881488 
0.1155299638085154 -0.02503122614227559 -0.3223263989878065 -0.04685537996825762 
-0.1571816281451008 0.1163349471194001 -0.1105288964354672 -0.08451904140198592 
-0.1523757164948273 0.09096728094867886 0.06959690308368434 0.0451085973665552 
-0.1229831759535109 0.09111055172184634 0.05938358428448905 -0.05673997092574423 
0.02482330134496677 -0.06778170516278924 -0.05382490709241772 0.1055064734958636 
-0.04154153540135515 0.06983185115389856 -0.2315673483218771 -0.01177580534018438 
0.05681954657018008 -0.06357287184315137 -0.1758035448268797 -0.004574304022972989 
-0.05894119239081941 0.1346210953591223 -0.2235039066482172 -0.1668276725454817 
-0.0286037116885733 0.1046026989875088 0.09234094256916685 -0.08006129973269174 
-0.08938051211729628 0.03049077168597584 0.1107545600241148 0.05413310634463479 
-0.0003639064436637782 -0.007082275828057909 0.07474093419812017 0.03265065337979579 
-0.04322981141164894 0.03749132315294591 -0.3811874816755433 0.0006952598310782754 
-0.1144871744530487 0.05419205085849326 0.01807473440178907 -0.04734198463635711 
-0.1634910337068598 0.05585030592388993 -0.1304750735542159 0.04646360936317676 
-0.10156319757837 0.1073090129648137 -0.02633878832156326 -0.009628725656935245 
-0.1490743105178417 0.1212049415856589 -0.2960512536333691 -0.08956246811399979 
-0.0881930677206937 0.08253563141908454 -0.3616998028323203 -0.0235092079388949 
0.03535015693354357 -0.02841914307544736 0.01258901705961547 -0.01379320030312866 
-0.01046677302264222 -1.016433375319493 0.638407709615036 0.1788109451408528 
0.1823785167205959 -0.07719218112604566 0.04283777706228193 -0.1205443083103296 
0.0005667812114354639 -0.08692431927223031 -0.005642549779801486 0.06441771813736835 
-0.2963433900677458 0.2280607534455679 -0.07615857751860816 -0.07804647953393247 
-0.2310025750841918 -0.04208488395757282 0.1605638861816786 0.078843523642239 
-0.1039189173942119 0.05420002049491619 0.2691594966669794 0.03057755861876299 
-0.02133257342397074 0.02845202068183164 -0.3174301150060176 -0.03479616567740769 
-0.05297601643406461 0.1245052973234078 -0.4427318087393782 -0.1870697990925232 
-0.02978440318625076 0.001789078842069472 -0.06807129433062931 -0.09307638251574604 
0.241485241482656 -0.169153032290396 0.1919290834090731 -0.2671415426434604 
0.00206923940914785 0.05046845318440007 -0.1273950116549553 -0.09725467613809101 
-0.158878914834762 0.1670968356271183 -0.09889771313712054 -0.05559191966285974 
0.002761658452042146 -0.0386069036307352 0.07161262941719893 -0.01093961551751869 
-0.01926373734541877 0.007074405841283244 0.01238622642380018 0.03399775482447999 
-0.2081768327927076 0.2491632648729182 -0.3814053561016059 -0.1909629222172617 
-0.1968197238763182 -0.5764691194673459 0.287914122095072 0.08457914924878768 
-0.02639647750947162 0.03079249766121738 -0.1057174821037418 -0.02300392334594296 
-0.01733638001687108 -0.03904753067698234 0.07879496021216541 0.0328916216157019 
0.04141782992562309 -0.0563508081205563 -0.03320033159949454 0.01168360943695204 
-0.1039508004860191 0.05995616644920178 0.01247215972504186 0.04308891720484781 
0.1270544217878869 -0.09583060949169758 -0.09377210822795139 0.01433665017495525 
0.02231014931971088 0.05386339426048558 -0.09480904891700537 -0.09872681345290579 
-0.103267581186317 0.05686204517582687 0.1841969208121179 -0.03963012231301308 
-0.09686114808254709 0.09982541874723388 0.06806199444948724 -0.08030849761073407 
-0.05655395881040129 0.04994959014746494 0.1174959933229872 -0.03014251711394572 
0.06016680636307058 -0.06157832208035267 0.2727716442472293 -0.08424547268672522 
-0.09447905754898792 0.0312397396061213 0.09847685853676888 0.09172951872367283 
0.01141052596845736 -0.3167314268013088 -0.2987496918294211 -0.01219927569094366 
-0.05658304178388478 0.06211912592967998 0.07068542744899366 -0.0630497035797816 
-0.02378515105471189 0.03728384255198563 0.1496083683003037 -0.1191995168407978 
0.3390478386713714 -0.3167328769085853 -0.244027658410211 0.1788841499879717 
-0.2403607118266418 0.3280926756566533 -0.4869244919128553 -0.3309955432829121 
-0.145622961003669 0.06483791776030644 -0.2077294359158811 -0.01283155174494689 
-0.02797170430040942 0.06566534074650057 0.02242972900362414 -0.02929325719150776 
2.120166920027339e-05 0.007399588068952454 -0.2327596414923678 -0.04712958900161324 
0.004479414570699641 0.0146278205058287 -0.04546825914870429 -0.04334827412201045 
0.05283397975148869 -0.02237074965480254 -0.3109699971280541 -0.04425500523683573 
0.0494577439515959 -0.1690912988837101 0.1361150012756104 0.1274461972339996 
0.0734006242765444 0.0802913779668529 -0.1514925695564976 -0.3334144343721726 
-0.1549971728231714 0.1109096586017004 0.004757644014552316 -0.04348319331364257 
0.01181675961674332 0.02824074141768807 -0.2151326982774794 0.01933457034136006 
-0.496658888009603 0.4399489413680249 0.00952822299894894 -0.3212131672697229 
0.02446022639309705 -0.05536969515572149 0.1054082311925469 0.06860086421242459 
-0.005553863977731451 0.01077350033330379 -0.06830874652193641 0.07876034563037272 
-0.04232161056444797 0.05545681688959125 0.08494436963941339 -0.04941863612914656 
-0.1126617933824066 0.1031519665279411 -0.1537185834986474 -0.05274951797515479 
0.04810773207180563 -0.01960908437364792 -0.1281702606213675 -0.03508888276372157 
-0.2282380204065823 0.3320034329154958 -0.1990164258143293 -0.4651748087763705 
0.1105995038196451 -0.08310139144652798 0.107557182923974 0.05725518756402252 
0.05514746511994616 0.03075925628021126 0.06599488960069767 -0.05388561009998658 
-0.06093482977025936 0.004254949455045689 -0.1722213117571936 0.02066318198020737 
0.1050225187811278 -0.05316464568166179 -0.2673940969557791 -0.05586814671023104 
-0.1430401251956177 -0.03589495920087979 0.2969167076644467 0.09381155751801291 
-0.08905508326452193 0.04754554458897285 -0.2388403840590911 0.03424850547716913 
0.1653538069119617 -0.01729343685753395 0.03617356686911585 -0.1840863518147162 
0.009140244729718121 0.01431730500359966 -0.2199488995236415 0.02168341364325577 
0.01345837257535328 -0.0147905432076717 -0.5931075042769715 -0.120832088028067 
-0.001884555484139383 0.02132996035380549 -0.2191569678872041 0.01842633085842122 
-0.3835835530850571 0.2093581310713525 -0.3817370010499484 -0.03788531229081776 
-0.06200769558876024 -0.03959908368381033 0.18624217233566 0.05007323885791188 
-0.04444417257126659 0.1012661340803848 0.01741136395509577 -0.1271878036718373 
-0.1006627949067217 0.07325798897125077 -0.1108872828867065 -0.1338841747369683 
-0.05237348299780343 0.09503875950248035 0.01179410782628441 -0.07300606427090815 
-0.07111421925000745 -0.003769225495959107 -0.1541600827230942 0.03033148572198267 
0.04626130480918677 -0.01293621563969254 -0.08210918988173055 -0.01388615607238335 
-0.1285086343901096 0.1040177933632584 -0.1090270118528457 -0.05627756259491531 
-0.05377497559052671 0.1040570772196469 -1.716342148436872 -0.1499365069598355 
-0.009902069887422088 0.03602555173986424 -0.2182011813827455 0.03768388158761199 
-0.01416529068746537 0.08229574179267113 -0.5522970909768984 -0.05094150447081856 
-0.3279654866535731 0.125715460273697 -0.246051178410461 0.006703264060158673 
-0.0838507158816055 0.1360295628926119 -0.4494787158112772 -0.1979783573903787 
0.02040824855124623 0.1383307200578256 -0.4540174055245903 -0.2163184259152159 
-0.0846217725670441 0.1119517552572972 -0.08195725586547592 -0.2424873459590709 
-0.04062645559600579 0.06494205461863868 -0.2383377919820338 -0.09179334160349911 
-0.0550233283879447 -0.1092866672531975 0.1100757941890561 0.1380563146297983 
-0.03474010219648917 0.1232205483225236 -0.3439444354735234 -0.229558566540975 
-0.07524195129428146 0.06673257833270002 -0.04262574571538903 -0.04648468088075763 
-0.04030954237957056 0.06245922599313321 -0.05344461844005095 -0.04790824757800673 
0.0400680917105089 0.01092926958044575 -0.1920130420446745 -0.1012985559306809 
0.09704919301078128 -0.1278423916163777 -0.2524940670665312 0.054812826930247 
0.01314252264161939 -0.00652144646563216 0.03109379364448611 -0.0370160804811536 
-0.103919193756962 0.129210713925889 -0.4223607255091827 -0.147385919777592 
-0.08972201604848026 0.09493370709482429 0.01575064876136149 -0.07736299380102311 
0.01767183138403999 -0.03037588955773585 -0.02315628881285623 -0.1627166409359155 
-0.1784972797027249 -0.140586011417337 0.2421952351265728 0.225695877565624 
0.004883920908038762 -0.04883493153322777 -0.08732097218688639 0.1038986387792005 
-0.1348357180000826 0.06555222531415691 -0.1984884565603006 -0.07715654377831284 
0.02297948981366257 -0.03707894123465156 0.1926768658803268 0.06615879342242525 
1.417911342492743 -1.044884053798078 -1.340324786952961 -0.6679268829555802 
-0.2677230430181293 0.2248811789360505 -0.08779344403089286 -0.1239175893092773 
-0.01069315714345042 -0.0007662954772658997 0.01175300431031529 -0.09710539880771409 
-0.8671309756411125 -0.387478504550388 0.9685625863676128 -0.6295794177626649 
-0.2399504498711773 0.18261186106769 -0.1781934764230463 -0.04785747794536619 
-0.09659817760673602 0.03951895901194426 0.1129965167715525 -0.003674057120031712 
0.02606261333236641 -0.07805524333738582 -0.08186717431860319 0.03544407594818318 
-0.1046481179548087 0.1141774739797833 -0.1281012986506302 -0.09862860389766927 
0.01283347094858493 -0.09099589641344981 0.2781409558039996 0.04911944379740586 
0.06805824888527687 -0.05673474838379564 0.04967008489527105 0.0995900147727912 
-0.04550173549352318 0.06369697914065318 -0.1220298674363696 -0.02395258728250693 
-0.1268621245421218 0.08835986086196633 -0.2108739435842761 -0.02438970812093209 
-0.1508974917024758 0.07237320980194227 0.1116952877524389 -0.07837924162320282 
-0.06518591802006321 0.07497385444093241 -0.1149904776033706 -0.08694398947713114 
0.006255168298786457 -0.1719769509919644 -0.01756298214314234 -0.003818838697711439 
-0.006039686488684698 0.005279460963846084 -0.0884747975418924 0.01987508728316635 
0.07495023493266098 -0.03636685822663543 0.06780241246925896 -0.03950548908172575 
-0.1452049554945785 0.0768119821307181 -0.2961316346479589 -0.02430248512357944 
0.1161522568526808 -0.05000383536207662 -0.1069181513247545 -0.06043445434362272 
-0.0145146880240802 0.0772369397211304 -0.1909630003141838 -0.08305781838896563 
-0.03747384442528381 0.06353859795955141 -0.288055990294887 -0.03764898812719343 
-0.03050757680163847 -0.08223399326791951 0.2228021841207931 0.06043551106619299 
-1.162556523556247 0.2461609909589684 2.583010169618556 -2.726497889055011 
0.1139021122991409 0.08574220393397032 0.01272755110387788 -0.141776234261366 
0.06814387227214803 -0.05206619764853521 0.04657518163286477 0.08747421829499728 
-0.0781635057342164 -0.004755269924741861 -0.03362190872755286 0.04438068096738259 
-0.3689145458265284 0.1697084973202104 -0.531808051219567 -0.05368476045893818 
-0.1999720625640962 0.1325374740569728 -0.2664398111669324 -0.05106394445329485 
-0.1418434337885227 -0.3233561426035447 0.3799233150500675 0.06405574663794233 
-1.220768299917008 -0.2451823545210436 -0.799008610536993 0.8885343303262436 
-0.0834371697581911 0.0746265667595389 -0.4620882787528406 -0.1249176374920001 
-0.006484663453316053 -0.007679547784758088 -0.3593725696567568 -0.03230516776506645 
0.02537658013338654 -0.0003283382878709093 -0.1882658446035363 0.003787603413351551 
0.0006835993926028825 -0.01373940363961809 -0.04959576367359454 -0.01150379336220315 
0.0635229859020154 0.005988330804731658 -0.06809641337115815 -0.02695049502167169 
-0.05019740994461518 0.08680153168200441 0.09877131203276902 -0.09379943174381403 
0.1006642340770475 -0.121794188955069 -0.0242622375108964 0.09471751794850289 
0.3249641929299687 0.1174317010297261 -0.9868464434349458 -0.159162422920222 
-0.1013516859167592 0.1398647980255954 -0.9767388532835464 -0.09414962069462743 
0.01292339823500211 0.02255637593553947 -0.4951883720677303 -0.07953827963827459 
0.07821149155543299 0.0810291678759415 -0.2075860388142343 -0.2798339077140606 
0.009543292649890631 -0.01640711508667201 -0.2295200733453393 -0.03720725993823701 
0.07303806960261584 -0.05861625678311314 0.2390023581793287 0.05560376723852557 
0.04806543362766166 -0.004066593757233197 -0.1488922597914087 0.02357411302157115 
0.05898333218066291 0.0349298836819355 0.1571101826530349 -0.1293105851823201 
-0.06311289502939348 0.0404212299946993 -0.1360108535698318 -0.02277798259766909 
-0.1199079336728546 0.1186669210704734 -0.1064158361684423 -0.04615346622242682 
0.09919779902474157 0.1097775103443567 -0.4793024104087354 -0.1775625644802898 
-2.947582664004181 -1.093185532256032 -0.9498943450023908 3.158598376497308 
-0.06123860910408341 0.07069915525876611 -0.01219744367756186 -0.1007985423071204 
0.006085776852116387 -0.02338682120991975 0.0745483777965258 0.038451987100133 
-0.103320114048163 0.01992139088626817 0.05150120749717262 0.04823568078180181 
0.06284851574265035 -0.01842878366974741 -0.05702836795149765 -0.0912641052641438 
-0.08189905153931333 0.1158824547253058 -0.1121015710029539 -0.1862387945924347 
-0.1195746571672397 0.1609954071679845 -0.2591181164755271 -0.1390494780813475 
-0.02567457879643581 -0.2702045224827265 -0.3505083208694559 -0.08515864554904223 
0.05392632004267042 -0.07821963515167633 -0.2687736592528396 0.09694815185411387 
0.0031013553588161 0.02355622519985144 -0.1216497283827526 -0.06142885561115925 
-0.001350618591345118 -0.01935564144490959 -0.1552311057600808 -0.0125353756059414 
-0.03333127469540247 0.06668477107228539 0.003718699875843908 -0.1530374827951555 
0.001994775706234513 -0.05503707843272414 -0.1717528981465636 0.1358077043121236 
0.04306095660225306 -0.03830509383156473 -0.1471178645680915 0.08962609006403741 
-0.07442274213827477 0.04219924797952687 0.1699674106041913 -0.02016277787163623 
-0.160537628916956 0.08503430776547383 -0.141208532229854 -0.1621235287552803 
0.1266635757745818 0.00269662549334486 -0.02345600927823916 -0.08186317483297537 
-0.2034090886451823 0.1591087611372945 -0.2310995219032094 -0.2368411065452178 
0.04386968648457211 -0.03536120793936009 -0.07326601536454348 -0.05457280228657408 
-0.01560306744800867 0.03832021028792525 -0.0128159059040832 -0.09054520614847739 
-0.2340524998665098 0.08163194100784887 0.01499766587765326 0.05557286682716443 
-0.3180463338581606 0.4260250428143781 -0.5178864621679199 -0.4485662110769036 
-0.1156742897942188 0.17164919381333 -0.3803066015232918 -0.161802340577336 
-0.0407941774260394 0.03719629201635682 -0.3014725117694769 -0.04929294795210353 
-0.05246682607653178 0.09249536379924797 -0.1758350382739182 -0.1422789008843118 
0.05717025450406651 -0.07779766815508379 -0.1264779214097244 0.01947064225975447 
-0.1473400553944431 0.1049199231179171 0.08320614445792861 -0.1370878708976457 
0.2181442801148924 -0.2349945582866898 0.02685100628180226 -0.104689721473437 
-0.0171457292505794 0.03420642700230835 0.2170422432219666 0.09493461394414987 
0.08124323199534061 -0.1290227602551307 -0.2828469663390525 -0.03269899648349901 
0.008695461877459681 -0.009665819750087042 -0.1745085918709696 -0.03606138886209708 
-0.1616451892234226 0.08072278996702133 0.09459723436186157 0.04536021964471915 
-0.03615430906703212 0.03665541449718721 -0.07786306975093032 -0.08089935687723034 
-0.1114653211855569 0.1629040925030903 -0.1485081882268706 -0.2601276833479692 
0.2218555477974791 -0.5080436587475295 -0.4861610549393917 -0.03780607510943112 
-0.06931205377665459 0.06974431416975858 -0.1640433617299745 -0.006661038132916689 
-0.01909685433195606 0.03443845031515461 -0.01602186172633129 -0.08228838598815985 
0.02918675041534378 0.05225910869191926 -0.3770272718630532 -0.0167443328119819 
-0.001574571551234486 0.02241743360604145 -0.1900742063757017 -0.04569478401335455 
-0.009506413578631393 0.05442179404107396 0.03537171885418829 -0.4011667303221227 
0.04779875966314126 -0.07896387015471272 -0.01917295288564224 0.1467083979957061 
-0.03568887556217398 0.0466425326156392 -0.1492002634098764 -0.01838483439712134 
-0.09029810946829497 0.08989707890975435 -0.1450365690435464 -0.09379481454855922 
-0.01408381380960693 0.05137874292592806 -0.04240494199173078 -0.09939002963410215 
-0.04208918222622416 0.007641917509475672 0.03987726323169866 -0.02756580243224117 
-0.05393277062346612 0.008876886723102018 -0.1542957322602986 -0.001315092450797507 
-0.1125754802246797 0.1235234607963144 -0.2870673304780695 -0.05459680505835318 
-0.03725782256528098 -0.04792238530994725 0.02349485990674195 0.05322226751102679 
-0.08601406307931816 0.2031410330980446 0.01458132094292288 -0.06432192681084981 
-0.1557829092440238 0.08304939640405508 -0.01870192613392552 0.068019343974974 
0.011998440238803 -0.03101980123284118 0.195947606943546 -0.04194234991096454 
-0.1342574351258986 0.1597061706075753 -0.3215598123043492 -0.170342085950575 
-0.03826513617018051 0.02366494196396859 0.07296885227188887 -0.02208039756810407 
-0.2211089406712188 0.2190696999323238 -0.2651115597987417 -0.2358943342812535 
0.1232896770143865 -0.07569795357350811 -0.006971733787384309 -0.06704581054533616 
-0.1097383345425702 0.09662226539444643 -0.0469963888432765 -0.01777598021604242 
-0.07053239992657258 0.07754766669701585 -0.01867577026980956 -0.1148125446453927 
-0.2386561494570947 0.1892349052932858 0.0458007696793041 -0.1219297189164914 
-0.03802958427469449 0.02217197335435366 -0.779774419466744 -0.1404211881094863 
-0.2939505529871315 0.2618948335677547 -0.0604514146756708 -0.01906111689616478 
0.02546777794043847 0.03082367395015569 0.1134948070156614 -0.03057581308287878 
-0.008221586715156401 0.105332599889183 0.2034810930755944 -0.06517738367714394 
0.1318256756031961 -0.2105821846417631 0.03665140933599127 0.06861640686287233 
-0.05410161242464956 0.1354943050415677 -0.4549671517120117 -0.2903965366337458 
-0.167210660773565 0.08168255771277869 0.09219786435818293 -0.08356606538545859 
0.1706378432074203 -0.07883286108795869 -0.06756718338444828 -0.1028426905658565 
-0.1038883168351262 0.04047840980490768 -0.1687225353206351 -0.1784068361673937 
-0.1525565039283436 0.1701457634831206 -0.03296623188631426 -0.08900399858282371 
-0.05126404255458995 0.01374629729300478 -0.1054091574053639 0.1025192473062402 
0.1003715215560213 -0.04969443210826606 0.112953911280803 -0.02992794320566835 
0.09085940228583905 0.0951640397301598 -0.1699817067137391 -0.1712204782044419 
-0.08540201161656792 0.1579004752548512 -0.2749781494162616 -0.1745524142347155 
-0.06837598321709766 0.003211492172887777 -0.1585470546340236 -0.0429074048959229 
-0.09551962070736282 -0.03803636277901069 0.160752013033182 0.0971433528112199 
0.08063060412058828 -0.03288244330003133 -0.1443041702907729 -0.1033038051100242 
-0.02229618295972007 0.07790177282914139 -0.116352308953698 0.01064237024256287 
-0.06385062905796564 0.07964923146795504 -0.2582706925594707 0.0380047227557939 
0.01862343626455526 0.0453406951206308 0.03987912678953993 -0.1310136711109045 
-0.02801724521914607 0.1001242216839768 -0.02105596047538753 -0.1139824257157069 
0.1994663340426353 -0.05153010933332827 0.1055205675230775 -0.2162251104240303 
-0.1158730107069886 -0.003167403810633968 -0.0302195151377603 0.06791496649166846 
-0.08153264193257868 0.007717293533262586 0.1084438598797292 0.05850643801176544 
-0.1466347039346269 0.07415537543398371 0.2639967267113436 -0.07562189227708477 
-0.188677241000943 0.2205256210650632 -0.1002022254067003 -0.1437162484742137 
-0.01988649563691981 0.04110109517188149 0.00885256134096441 -0.06895133110614848 
-0.04109041667988568 0.05304773483368505 -0.2852717870424948 -0.03459746786664419 
0.06028367042515883 -0.07167440600019914 0.05893233507712633 0.02700516562175791 
0.05872706128207403 -0.05929005639147149 0.02265934891813859 0.000147972496823601 
0.008665911627098332 -0.01628626807864411 0.07553988192704932 0.04502951989531975 
0.01176687507568991 -0.02859296347081867 -0.1382558800065602 -0.003887913223734032 
0.006110485696255255 0.04212107158931264 0.01414168952214514 -0.08874691534336056 
-0.04285668550651416 0.0929013055052855 -0.4137495380451505 -0.1523172847807849 
0.06342398302943593 0.07562559668067664 -0.3013916188332169 -0.184010282459551 
-0.05717514547335232 0.07163494743004394 0.123178619658471 -0.07265744779020089 
-0.06233287676614847 0.1148290172234665 -0.3128953566362976 -0.1031602292531501 
-0.1033294567917187 -0.1198784341056718 0.25729092869084 0.1704407904439714 
-0.00604321730629308 0.01750694473906419 0.07737482620145268 -0.1747853720856892 
-0.05276153596777602 0.06131978622060089 -0.09170403051379665 -0.09022308046500964 
0.0218945726357189 0.008396005890737541 -0.4560549891020197 0.003374870112234665 
0.01330668377659466 0.01672076059564075 -0.08495344019975125 0.0536965346443582 
-0.00653543059707748 -0.01340780681910007 0.09133957114891678 0.02193358577270848 
-0.1488317064522134 0.09505110438425109 -0.1619416348803802 0.003327098382723743 
-0.09438583190374195 0.1218223720991816 -0.1950438590345409 -0.09277091158211563 
-0.1163268488523037 0.03422938783752397 0.04091696536860853 0.04163637593690989 
-0.0633340732109578 0.008105450288558998 -0.1995136795132668 0.0447144151706677 
